{
  "model_info": {
    "name": "flstudio_cpu_optimized3",
    "version": "1.0.0",
    "architecture": "WaveNet",
    "causal": true,
    "sample_rate": 44100,
    "receptive_field": 127,
    "latency_ms": 2.88
  },
  "architecture": {
    "channels": 20,
    "num_layers": 6,
    "kernel_size": 3,
    "dilation_base": 2,
    "dilations": [
      1,
      2,
      4,
      8,
      16,
      32
    ]
  },
  "weights": {
    "input_conv": {
      "weight": [
        0.0465664267539978,
        -1.6172682046890259,
        1.1350702047348022,
        0.5489932298660278,
        1.5877114534378052,
        -1.2811249494552612,
        0.1240006610751152,
        -1.381108045578003,
        -0.20528051257133484,
        -1.4706556797027588,
        -0.842656135559082,
        0.25233200192451477,
        1.4611693620681763,
        1.968917727470398,
        1.9984911680221558,
        0.9515441656112671,
        -0.1398490071296692,
        1.12482750415802,
        -0.9221943616867065,
        0.29155611991882324
      ],
      "bias": [
        -0.0019017907325178385,
        -0.1927221715450287,
        0.8575390577316284,
        0.661165714263916,
        -0.426617830991745,
        -0.10597901791334152,
        0.66633540391922,
        0.8796113133430481,
        -0.7467334270477295,
        -0.7976508736610413,
        0.3269234597682953,
        -0.5943686962127686,
        -0.8091359734535217,
        -0.04985319450497627,
        -0.04966714233160019,
        -0.8651423454284668,
        0.07725966721773148,
        0.9148273468017578,
        -0.1072264164686203,
        -0.7182652950286865
      ]
    },
    "residual_blocks": [
      {
        "layer": 0,
        "dilation": 1,
        "conv_weight": [
          [
            [
              -0.0060467906296253204,
              -0.009325181134045124,
              -0.01190387923270464
            ],
            [
              -0.024673419073224068,
              0.08456964045763016,
              0.005489039700478315
            ],
            [
              -0.0228388961404562,
              0.01587330363690853,
              -0.03177927806973457
            ],
            [
              -0.10238056629896164,
              -0.0929168239235878,
              -0.11464878916740417
            ],
            [
              -0.025031691417098045,
              0.06027354300022125,
              -0.08321763575077057
            ],
            [
              0.04124512895941734,
              0.06441961228847504,
              0.06948017328977585
            ],
            [
              0.021795326843857765,
              -0.041199278086423874,
              0.04922895133495331
            ],
            [
              0.06585785746574402,
              0.004020771477371454,
              0.08041878044605255
            ],
            [
              0.044462405145168304,
              0.10859036445617676,
              -0.08501040935516357
            ],
            [
              0.05367504432797432,
              0.07782651484012604,
              0.1112787276506424
            ],
            [
              -0.061352647840976715,
              0.0009086919599212706,
              0.025195645168423653
            ],
            [
              0.06558006256818771,
              0.017343226820230484,
              0.04101376235485077
            ],
            [
              -0.011048868298530579,
              -0.043402839452028275,
              -0.08332818001508713
            ],
            [
              -0.045526932924985886,
              -0.024126876145601273,
              -0.0881398618221283
            ],
            [
              -0.05600498244166374,
              -0.05653029680252075,
              -0.0624539740383625
            ],
            [
              0.091547891497612,
              -0.10151775181293488,
              -0.0943523570895195
            ],
            [
              0.04093632474541664,
              -0.011430593207478523,
              0.01759188435971737
            ],
            [
              -0.0469040647149086,
              0.08328960090875626,
              0.06261283904314041
            ],
            [
              0.03403759375214577,
              0.0035362697672098875,
              0.04953163117170334
            ],
            [
              -0.038601502776145935,
              0.07975956797599792,
              -0.04025021567940712
            ]
          ],
          [
            [
              0.0013295374810695648,
              -0.02855222299695015,
              0.0447910837829113
            ],
            [
              0.19769325852394104,
              0.02732943557202816,
              0.14605332911014557
            ],
            [
              -0.08275841921567917,
              -0.0654066875576973,
              -0.02730780653655529
            ],
            [
              0.052925143390893936,
              0.014328435063362122,
              0.050910867750644684
            ],
            [
              -0.17874300479888916,
              -0.14442786574363708,
              0.0005088012549094856
            ],
            [
              0.14146971702575684,
              0.05338451266288757,
              0.07893000543117523
            ],
            [
              -0.11820072680711746,
              0.03874056786298752,
              -0.04693835601210594
            ],
            [
              0.09906543046236038,
              0.09902196377515793,
              -0.08027535676956177
            ],
            [
              0.09885986149311066,
              -0.005589327774941921,
              0.1142868921160698
            ],
            [
              0.0879681333899498,
              -0.010442864149808884,
              0.06341759860515594
            ],
            [
              -0.017783772200345993,
              -0.05988041311502457,
              0.16814157366752625
            ],
            [
              -0.09728675335645676,
              -0.03429391607642174,
              -0.08231465518474579
            ],
            [
              0.005120662972331047,
              -0.004210557788610458,
              0.01350995060056448
            ],
            [
              -0.4683176279067993,
              -0.4147628843784332,
              -0.37090903520584106
            ],
            [
              -0.49480554461479187,
              -0.37690913677215576,
              -0.29439035058021545
            ],
            [
              0.08498628437519073,
              -0.1256234049797058,
              -0.14708654582500458
            ],
            [
              0.014706454239785671,
              0.1398691087961197,
              0.08012007921934128
            ],
            [
              -0.1078890934586525,
              0.006545981392264366,
              -0.02541811391711235
            ],
            [
              0.15052837133407593,
              0.12814798951148987,
              0.06997424364089966
            ],
            [
              -0.10912851989269257,
              -0.04535049945116043,
              -0.0187640730291605
            ]
          ],
          [
            [
              0.033017709851264954,
              0.01566273719072342,
              0.011298303492367268
            ],
            [
              -0.030418699607253075,
              -0.14732830226421356,
              -0.01515937875956297
            ],
            [
              -0.09827499091625214,
              -0.16164329648017883,
              -0.04848390817642212
            ],
            [
              0.026635175570845604,
              -0.02630775049328804,
              -0.046788934618234634
            ],
            [
              0.23044650256633759,
              0.08082316070795059,
              0.0766298770904541
            ],
            [
              -0.11121578514575958,
              -0.033823855221271515,
              -0.08329860866069794
            ],
            [
              -0.06460153311491013,
              0.037839677184820175,
              0.06610952317714691
            ],
            [
              -0.01605767384171486,
              -0.21874313056468964,
              -0.051098573952913284
            ],
            [
              0.09750288724899292,
              -0.002043514745309949,
              0.001987784868106246
            ],
            [
              0.05282669886946678,
              0.15058453381061554,
              -0.019978303462266922
            ],
            [
              -0.1440589874982834,
              -0.11772160232067108,
              -0.0659051164984703
            ],
            [
              -0.0001807224180083722,
              0.07486861199140549,
              0.1363980621099472
            ],
            [
              0.11422161757946014,
              0.05660885199904442,
              0.14913207292556763
            ],
            [
              0.2987271249294281,
              0.2924184501171112,
              0.28190091252326965
            ],
            [
              0.2869710326194763,
              0.31786787509918213,
              0.3048189878463745
            ],
            [
              0.01452592108398676,
              0.001950337435118854,
              0.12216144800186157
            ],
            [
              -0.06720244884490967,
              -0.07652106881141663,
              0.012922109104692936
            ],
            [
              -0.0016732290387153625,
              -0.1070253774523735,
              0.048709362745285034
            ],
            [
              -0.07540139555931091,
              -0.06735265254974365,
              -0.009794885292649269
            ],
            [
              0.09750667214393616,
              0.05682418867945671,
              -0.021486498415470123
            ]
          ],
          [
            [
              -0.004712569527328014,
              0.0001362973271170631,
              0.01918892189860344
            ],
            [
              0.0939297005534172,
              0.08871233463287354,
              0.08246506005525589
            ],
            [
              -0.11927041411399841,
              -0.03406692296266556,
              0.04431850090622902
            ],
            [
              0.03228313848376274,
              -0.09745419025421143,
              -0.003408394753932953
            ],
            [
              -0.06767017394304276,
              -0.006489960942417383,
              0.004283508285880089
            ],
            [
              0.04545092582702637,
              0.07784602791070938,
              0.016556452959775925
            ],
            [
              -0.06078419089317322,
              -0.12568208575248718,
              0.029557043686509132
            ],
            [
              0.0065490747801959515,
              -0.03132190927863121,
              0.00587555393576622
            ],
            [
              0.14115208387374878,
              -0.05945545434951782,
              0.14925572276115417
            ],
            [
              -0.016058845445513725,
              0.0993041917681694,
              -0.03459208086133003
            ],
            [
              -0.03966818377375603,
              0.049374669790267944,
              -0.05519990250468254
            ],
            [
              0.1145532950758934,
              -0.06150875613093376,
              0.042068805545568466
            ],
            [
              0.0551404245197773,
              -0.07746422290802002,
              -0.041395217180252075
            ],
            [
              -0.08489339053630829,
              -0.033010631799697876,
              -0.003079109126701951
            ],
            [
              -0.06292402744293213,
              -0.03360897675156593,
              -0.007830079644918442
            ],
            [
              -0.07523714005947113,
              -0.07164520025253296,
              -0.04284686967730522
            ],
            [
              -0.06791964918375015,
              -0.06599126756191254,
              -0.042221810668706894
            ],
            [
              -0.15787236392498016,
              -0.06198343634605408,
              -0.06657341867685318
            ],
            [
              0.04323120787739754,
              0.0482066310942173,
              0.01364908367395401
            ],
            [
              -0.0450672022998333,
              -0.04937947541475296,
              0.11309236288070679
            ]
          ],
          [
            [
              -0.08961012214422226,
              0.03643898293375969,
              -0.0628679096698761
            ],
            [
              -0.16142776608467102,
              -0.08190979063510895,
              -0.07542908936738968
            ],
            [
              -0.07598499208688736,
              0.09098464250564575,
              -0.009560786187648773
            ],
            [
              0.16049724817276,
              -0.08163587003946304,
              -0.015223515219986439
            ],
            [
              0.07286683470010757,
              0.16253243386745453,
              0.09616506844758987
            ],
            [
              -0.16784626245498657,
              -0.11822418868541718,
              -0.20129480957984924
            ],
            [
              -0.09412438422441483,
              -0.08774209022521973,
              -0.003102576592937112
            ],
            [
              -0.06674490869045258,
              0.08046020567417145,
              -0.005091067403554916
            ],
            [
              -0.1062638983130455,
              0.08969090133905411,
              -0.011799345724284649
            ],
            [
              -0.10371415317058563,
              -0.0757313147187233,
              -0.17446860671043396
            ],
            [
              -0.12185048311948776,
              -0.14014209806919098,
              0.03797308728098869
            ],
            [
              -0.11884575337171555,
              -0.05973351374268532,
              -0.14950916171073914
            ],
            [
              -0.08473221957683563,
              0.003336741589009762,
              0.11531129479408264
            ],
            [
              0.24925297498703003,
              0.3705313503742218,
              0.38303759694099426
            ],
            [
              0.42999476194381714,
              0.39113810658454895,
              0.41235122084617615
            ],
            [
              0.031135493889451027,
              0.052252694964408875,
              0.12263201177120209
            ],
            [
              0.117767333984375,
              -0.05703338235616684,
              0.08736956864595413
            ],
            [
              0.10348469018936157,
              0.16323202848434448,
              0.12196052074432373
            ],
            [
              0.028410667553544044,
              -0.14001530408859253,
              -0.039357785135507584
            ],
            [
              0.02072720415890217,
              0.041046176105737686,
              -0.11344492435455322
            ]
          ],
          [
            [
              0.02481430396437645,
              0.014781982637941837,
              0.02884155884385109
            ],
            [
              0.2465047687292099,
              0.10828034579753876,
              0.033098410815000534
            ],
            [
              -0.08408965170383453,
              -0.13475286960601807,
              0.06946296244859695
            ],
            [
              -0.04728352651000023,
              -0.03808985650539398,
              0.044634509831666946
            ],
            [
              -0.17538607120513916,
              0.020709648728370667,
              0.04499182105064392
            ],
            [
              0.2408241629600525,
              0.22756822407245636,
              0.22364580631256104
            ],
            [
              -0.08838145434856415,
              0.015440106391906738,
              -0.12104139477014542
            ],
            [
              0.03828497231006622,
              0.023390498012304306,
              0.10677419602870941
            ],
            [
              -0.05377614498138428,
              0.06027509644627571,
              0.13229425251483917
            ],
            [
              0.1591801643371582,
              -0.01831790804862976,
              0.060427580028772354
            ],
            [
              -0.02495891973376274,
              0.15848690271377563,
              0.08494076132774353
            ],
            [
              -0.022820932790637016,
              -0.06696838140487671,
              0.0978914350271225
            ],
            [
              -0.005466229747980833,
              -0.0853702649474144,
              -0.08278321474790573
            ],
            [
              -0.24862149357795715,
              -0.23895664513111115,
              -0.1603451669216156
            ],
            [
              -0.4216650724411011,
              -0.37406858801841736,
              -0.3535088300704956
            ],
            [
              -0.0690099447965622,
              0.0709165707230568,
              -0.10062649846076965
            ],
            [
              0.10995777696371078,
              0.07810218632221222,
              0.09663216024637222
            ],
            [
              0.06414202600717545,
              0.06352782249450684,
              -0.09581170231103897
            ],
            [
              0.11705945432186127,
              0.046487223356962204,
              0.03472592681646347
            ],
            [
              -0.0034342657309025526,
              -0.11940398067235947,
              -0.07705795019865036
            ]
          ],
          [
            [
              0.002679587807506323,
              0.0011759346816688776,
              -5.341455471352674e-05
            ],
            [
              -0.010767682455480099,
              -0.012737342156469822,
              0.028167203068733215
            ],
            [
              -0.05067608505487442,
              -0.058839697390794754,
              -0.08359819650650024
            ],
            [
              -0.04759201779961586,
              0.012849191203713417,
              -0.05962808057665825
            ],
            [
              0.026967456564307213,
              0.0007982517126947641,
              -0.014754987321794033
            ],
            [
              -0.030439861118793488,
              -0.014974597841501236,
              0.01780889183282852
            ],
            [
              -0.06663394719362259,
              -0.05637889727950096,
              -0.010512431152164936
            ],
            [
              -0.11867372691631317,
              0.023557310923933983,
              -0.02770654670894146
            ],
            [
              0.10361415147781372,
              -0.06315506994724274,
              0.01156608760356903
            ],
            [
              0.024333642795681953,
              0.04493342712521553,
              0.002986459294334054
            ],
            [
              -0.08876124769449234,
              0.022815536707639694,
              -0.04244067519903183
            ],
            [
              -0.019839413464069366,
              0.048706963658332825,
              0.00777069479227066
            ],
            [
              0.02217976003885269,
              0.075675830245018,
              -0.028885139152407646
            ],
            [
              0.056130751967430115,
              0.021682588383555412,
              -0.025970110669732094
            ],
            [
              0.05095493048429489,
              0.025748737156391144,
              -0.02031085081398487
            ],
            [
              0.03579409047961235,
              -0.00670982152223587,
              -0.03720502555370331
            ],
            [
              -0.0313911959528923,
              -0.00023103284183889627,
              0.014700681902468204
            ],
            [
              -0.09235799312591553,
              0.07385467737913132,
              -0.040090110152959824
            ],
            [
              -0.01859576813876629,
              -0.010934107936918736,
              0.016394680365920067
            ],
            [
              0.001187568181194365,
              0.09621819853782654,
              0.03205162286758423
            ]
          ],
          [
            [
              0.01781051605939865,
              0.030857114121317863,
              0.05299708992242813
            ],
            [
              0.16667097806930542,
              0.14336596429347992,
              0.23845647275447845
            ],
            [
              -0.14486142992973328,
              -0.05849170312285423,
              -0.006348004564642906
            ],
            [
              -0.16776253283023834,
              -0.08388909697532654,
              -0.12923401594161987
            ],
            [
              -0.1194283738732338,
              0.0636921301484108,
              -0.13639213144779205
            ],
            [
              0.23705817759037018,
              0.22966204583644867,
              0.1687391847372055
            ],
            [
              0.04027123376727104,
              -0.08407914638519287,
              -0.13245458900928497
            ],
            [
              -0.05374842509627342,
              0.1179606094956398,
              -0.018821779638528824
            ],
            [
              0.06170698255300522,
              -0.06139037013053894,
              -0.0698593258857727
            ],
            [
              0.04613359272480011,
              0.14492902159690857,
              0.16679510474205017
            ],
            [
              0.07253669947385788,
              -0.10240983963012695,
              -0.08608798682689667
            ],
            [
              -0.07000183314085007,
              0.11755337566137314,
              -0.020789245143532753
            ],
            [
              -0.04324476793408394,
              0.04072944074869156,
              0.1036311537027359
            ],
            [
              -0.26190462708473206,
              -0.2950354516506195,
              -0.2041151225566864
            ],
            [
              -0.22439271211624146,
              -0.3521518111228943,
              -0.3372652530670166
            ],
            [
              0.07499831169843674,
              0.05732880160212517,
              -0.07138919830322266
            ],
            [
              -0.13266409933567047,
              0.09462424367666245,
              -0.08585724979639053
            ],
            [
              -0.05005061626434326,
              -0.13437870144844055,
              -0.06713628023862839
            ],
            [
              0.14090386033058167,
              0.20521292090415955,
              0.18013429641723633
            ],
            [
              0.044053979218006134,
              0.13865883648395538,
              0.056597962975502014
            ]
          ],
          [
            [
              -0.00807554554194212,
              -0.0053450921550393105,
              -0.014875250868499279
            ],
            [
              -0.008619901724159718,
              -0.023588553071022034,
              -0.03151831775903702
            ],
            [
              0.06778110563755035,
              -0.03342188522219658,
              0.026371203362941742
            ],
            [
              0.1550728678703308,
              0.006191325839608908,
              -0.04558135196566582
            ],
            [
              0.0024715380277484655,
              -0.06201667711138725,
              0.0140235535800457
            ],
            [
              -0.017164500430226326,
              -0.005169312469661236,
              -0.025849254801869392
            ],
            [
              -0.021596737205982208,
              0.034795116633176804,
              0.04813974350690842
            ],
            [
              -0.02217543125152588,
              0.09872933477163315,
              -0.014986185356974602
            ],
            [
              0.0028287512250244617,
              -0.037241335958242416,
              -0.07754328846931458
            ],
            [
              0.041938383132219315,
              0.02403464913368225,
              -0.017795801162719727
            ],
            [
              -0.0017199681606143713,
              -0.03670739009976387,
              -0.026863567531108856
            ],
            [
              -0.1459396481513977,
              -0.14546874165534973,
              -0.08699057996273041
            ],
            [
              0.0475066713988781,
              -0.03647982329130173,
              -0.13724179565906525
            ],
            [
              -0.015848996117711067,
              -0.000754461856558919,
              0.01564319245517254
            ],
            [
              -0.0007164711714722216,
              -0.0030180641915649176,
              -0.0077590043656528
            ],
            [
              0.029581833630800247,
              -0.124212846159935,
              0.029084376990795135
            ],
            [
              -0.017911886796355247,
              0.01253543607890606,
              -0.01696804165840149
            ],
            [
              -0.012559153139591217,
              0.014770506881177425,
              0.009417359717190266
            ],
            [
              -0.04419081285595894,
              0.02006794884800911,
              -0.04806265980005264
            ],
            [
              -0.00020389135170262307,
              -0.06307751685380936,
              -0.1307692676782608
            ]
          ],
          [
            [
              -0.027523284777998924,
              0.008760595694184303,
              -0.05709215998649597
            ],
            [
              0.22314830124378204,
              0.0011874729534611106,
              0.12515662610530853
            ],
            [
              -0.09854639321565628,
              -0.08262137323617935,
              -0.0581551119685173
            ],
            [
              -0.11841750144958496,
              -0.01976057142019272,
              0.07193143665790558
            ],
            [
              -0.18883593380451202,
              -0.05246184393763542,
              -0.040234923362731934
            ],
            [
              0.11821141839027405,
              0.02106710523366928,
              0.19258669018745422
            ],
            [
              0.0719589963555336,
              0.03286154568195343,
              0.15396316349506378
            ],
            [
              0.06675241887569427,
              0.0025302856229245663,
              0.09769441187381744
            ],
            [
              -0.1226777732372284,
              0.029231667518615723,
              -0.11272381246089935
            ],
            [
              -0.007935249246656895,
              0.11227677762508392,
              0.0765908807516098
            ],
            [
              0.04923926666378975,
              0.19957412779331207,
              0.1979476511478424
            ],
            [
              -0.11340992897748947,
              -0.08381086587905884,
              0.009377222508192062
            ],
            [
              -0.17276252806186676,
              -0.1788623332977295,
              0.007106930948793888
            ],
            [
              -0.5170006155967712,
              -0.36793145537376404,
              -0.3215291500091553
            ],
            [
              -0.48501381278038025,
              -0.4766627848148346,
              -0.4681300222873688
            ],
            [
              0.018979279324412346,
              -0.1575632393360138,
              -0.032767392694950104
            ],
            [
              0.16467702388763428,
              -0.02748020365834236,
              0.006346812006086111
            ],
            [
              -0.005035329144448042,
              -0.09055229276418686,
              -0.04335346072912216
            ],
            [
              0.14269375801086426,
              0.12441352754831314,
              0.01015612855553627
            ],
            [
              0.017019908875226974,
              -0.08505688607692719,
              -0.14235363900661469
            ]
          ],
          [
            [
              0.0001462453365093097,
              0.00020319058967288584,
              -0.0013779187574982643
            ],
            [
              0.008600370027124882,
              -0.00565143208950758,
              0.06016005203127861
            ],
            [
              0.037827398627996445,
              0.09178227186203003,
              0.0318516381084919
            ],
            [
              -0.08090423792600632,
              -0.046263497322797775,
              -0.038479022681713104
            ],
            [
              -0.0631575956940651,
              0.04548453167080879,
              0.05722469836473465
            ],
            [
              7.293117232620716e-05,
              0.017040040343999863,
              0.015165218152105808
            ],
            [
              0.06274308264255524,
              0.026203084737062454,
              -0.09651597589254379
            ],
            [
              -0.07203029096126556,
              0.010592005215585232,
              0.04842311888933182
            ],
            [
              0.053029827773571014,
              0.03884868323802948,
              -0.008255473338067532
            ],
            [
              -0.021017897874116898,
              0.05858633294701576,
              0.0018228902481496334
            ],
            [
              -0.018663955852389336,
              -0.03839464858174324,
              -0.034468501806259155
            ],
            [
              -0.039968378841876984,
              -0.03639507666230202,
              -0.0008165407343767583
            ],
            [
              -0.04872565343976021,
              0.012218593619763851,
              -0.06770450621843338
            ],
            [
              -0.01349321473389864,
              -0.01537672895938158,
              -0.018962211906909943
            ],
            [
              -0.02462133578956127,
              -0.010917169973254204,
              -0.029006265103816986
            ],
            [
              0.08506369590759277,
              0.03717806190252304,
              -0.08858663588762283
            ],
            [
              0.008779995143413544,
              0.010927698574960232,
              -0.029231801629066467
            ],
            [
              -0.08601853996515274,
              -0.027538975700736046,
              -0.005855175666511059
            ],
            [
              0.017914745956659317,
              -0.013078507967293262,
              0.022498564794659615
            ],
            [
              0.0818072110414505,
              0.018318092450499535,
              0.03580399602651596
            ]
          ],
          [
            [
              -0.0025604302063584328,
              -0.0017721831100061536,
              -0.0004921111394651234
            ],
            [
              0.0536896251142025,
              0.015616039745509624,
              0.006551939528435469
            ],
            [
              0.002773671643808484,
              0.026824533939361572,
              0.06911852955818176
            ],
            [
              0.015158776193857193,
              0.06009642034769058,
              -0.06306584179401398
            ],
            [
              -0.03279300406575203,
              -0.055978741496801376,
              0.007413656450808048
            ],
            [
              0.04513140022754669,
              0.02027246542274952,
              0.006608391180634499
            ],
            [
              0.03056919388473034,
              0.011184358969330788,
              -0.008579990826547146
            ],
            [
              -0.06994442641735077,
              0.07437144964933395,
              0.061583828181028366
            ],
            [
              -0.04168902337551117,
              -0.006219975650310516,
              0.007349355611950159
            ],
            [
              0.055063460022211075,
              -0.00013222050620242953,
              0.003923536278307438
            ],
            [
              0.03622526302933693,
              0.05145609751343727,
              -0.013931440189480782
            ],
            [
              0.06720831245183945,
              -0.07138156145811081,
              -0.022129658609628677
            ],
            [
              -0.04452049359679222,
              -0.010066710412502289,
              0.01904025487601757
            ],
            [
              -0.07066439837217331,
              -0.048851706087589264,
              -0.012342485599219799
            ],
            [
              -0.07378688454627991,
              -0.046569135040044785,
              -0.017718277871608734
            ],
            [
              -0.06642501056194305,
              -0.06004253029823303,
              -0.07150790095329285
            ],
            [
              -0.0006213769083842635,
              0.001343774376437068,
              0.005902573000639677
            ],
            [
              0.0457821823656559,
              0.08563198149204254,
              0.05773116275668144
            ],
            [
              0.04206940159201622,
              0.014121459797024727,
              -7.6276199251879e-05
            ],
            [
              -0.06859508156776428,
              -0.019635973498225212,
              -0.07114078849554062
            ]
          ],
          [
            [
              0.070519357919693,
              -0.0549202561378479,
              0.01802409254014492
            ],
            [
              -0.24009723961353302,
              -0.10315283387899399,
              -0.1831609010696411
            ],
            [
              0.10945941507816315,
              0.08220870047807693,
              -0.03783136606216431
            ],
            [
              0.07568666338920593,
              0.15480796992778778,
              0.07745654135942459
            ],
            [
              0.16937138140201569,
              0.09152327477931976,
              0.01148217637091875
            ],
            [
              -0.162448450922966,
              -0.2688849866390228,
              -0.11845196038484573
            ],
            [
              0.015103747136890888,
              0.09688752144575119,
              0.11200468242168427
            ],
            [
              0.0030934722162783146,
              0.0712091401219368,
              0.07203645259141922
            ],
            [
              -0.1508840024471283,
              -0.09411893784999847,
              -0.055213652551174164
            ],
            [
              -0.14794892072677612,
              -0.16750985383987427,
              -0.09459172934293747
            ],
            [
              0.014232498593628407,
              -0.06312860548496246,
              -0.0219325739890337
            ],
            [
              0.07738173007965088,
              -0.10402016341686249,
              0.06063171476125717
            ],
            [
              -0.0510617271065712,
              0.020296936854720116,
              0.03122539632022381
            ],
            [
              0.2800663113594055,
              0.373109370470047,
              0.42532628774642944
            ],
            [
              0.35317954421043396,
              0.37084364891052246,
              0.42903774976730347
            ],
            [
              -0.05389353260397911,
              0.0021964823827147484,
              0.03964884206652641
            ],
            [
              0.10516908019781113,
              0.06050853058695793,
              0.09094256162643433
            ],
            [
              0.09294919669628143,
              -0.07458306849002838,
              0.07721318304538727
            ],
            [
              -0.13985824584960938,
              -0.06988122314214706,
              -0.08442026376724243
            ],
            [
              -0.08813050389289856,
              -0.001564066973514855,
              -0.07116129249334335
            ]
          ],
          [
            [
              0.07421036064624786,
              0.09672413021326065,
              -0.03893926739692688
            ],
            [
              -0.06204146146774292,
              -0.04963323101401329,
              -0.08310549706220627
            ],
            [
              -0.03000531904399395,
              -0.05848000943660736,
              0.13635163009166718
            ],
            [
              0.0358867384493351,
              -0.0034454914275556803,
              0.09279841184616089
            ],
            [
              0.017596041783690453,
              -0.004613079596310854,
              -0.021210402250289917
            ],
            [
              -0.16786812245845795,
              -0.23202410340309143,
              -0.10158929228782654
            ],
            [
              0.06159355491399765,
              0.14355985820293427,
              -0.016988679766654968
            ],
            [
              -0.11633583158254623,
              0.0619196854531765,
              0.032682742923498154
            ],
            [
              0.026793118566274643,
              0.06258489191532135,
              -0.13056987524032593
            ],
            [
              0.04060009866952896,
              -0.16581213474273682,
              0.019694611430168152
            ],
            [
              -0.1550508290529251,
              -0.053644996136426926,
              0.0019110924331471324
            ],
            [
              0.053223636001348495,
              0.039003368467092514,
              0.02473330870270729
            ],
            [
              0.02783365175127983,
              0.007232008036226034,
              0.03832007572054863
            ],
            [
              0.40974298119544983,
              0.364762544631958,
              0.2516325116157532
            ],
            [
              0.4379333257675171,
              0.34229910373687744,
              0.21994423866271973
            ],
            [
              0.10897941142320633,
              0.05814540386199951,
              0.03602353483438492
            ],
            [
              0.1110248938202858,
              0.08784593641757965,
              0.024442147463560104
            ],
            [
              -0.026323819532990456,
              0.1129656657576561,
              0.1152515560388565
            ],
            [
              -0.07099366933107376,
              -0.06424523144960403,
              -0.026744725182652473
            ],
            [
              0.10605374723672867,
              -0.037545908242464066,
              0.024594072252511978
            ]
          ],
          [
            [
              -0.005244385451078415,
              -0.0028417170979082584,
              0.0017459668451920152
            ],
            [
              0.10924266278743744,
              0.02731776423752308,
              -0.07972458004951477
            ],
            [
              0.005753746256232262,
              -0.0729084238409996,
              0.11573754996061325
            ],
            [
              -0.01784323900938034,
              0.05591832101345062,
              -0.022000545635819435
            ],
            [
              -0.07674755156040192,
              0.04434577003121376,
              0.06620728969573975
            ],
            [
              0.08137594163417816,
              -0.011417606845498085,
              -0.1004200279712677
            ],
            [
              0.044390738010406494,
              0.05074228718876839,
              0.11665219813585281
            ],
            [
              0.046586643904447556,
              -0.007881009951233864,
              -0.09044165909290314
            ],
            [
              0.05561065673828125,
              -0.06731138378381729,
              0.00828147679567337
            ],
            [
              0.04144049435853958,
              0.08620113879442215,
              -0.0957389771938324
            ],
            [
              0.010191386565566063,
              -0.03341630473732948,
              0.01682317815721035
            ],
            [
              0.04745287075638771,
              -0.010143084451556206,
              0.053134359419345856
            ],
            [
              -0.037619657814502716,
              -0.046768948435783386,
              -0.021949557587504387
            ],
            [
              -0.09297529608011246,
              -0.03117922507226467,
              0.10960439592599869
            ],
            [
              -0.10175705701112747,
              -0.021152596920728683,
              0.1075083389878273
            ],
            [
              0.0821799784898758,
              -0.07237505167722702,
              0.0922311320900917
            ],
            [
              -0.01736113801598549,
              0.022323723882436752,
              0.020656516775488853
            ],
            [
              -0.08136585354804993,
              -0.020884407684206963,
              0.04180578887462616
            ],
            [
              0.024484895169734955,
              -0.01649446040391922,
              -0.06287983804941177
            ],
            [
              -0.06475099176168442,
              0.08397596329450607,
              0.0011715615401044488
            ]
          ],
          [
            [
              0.0015894263051450253,
              -0.022974977269768715,
              -0.009388187900185585
            ],
            [
              -0.13489873707294464,
              -0.1256829798221588,
              -0.04790615662932396
            ],
            [
              0.15828604996204376,
              -0.03383428975939751,
              0.17163847386837006
            ],
            [
              -0.030336972326040268,
              0.0009263040265068412,
              0.13193848729133606
            ],
            [
              -0.06196260452270508,
              0.06664333492517471,
              -2.690591281861998e-05
            ],
            [
              -0.07223488390445709,
              -0.10039285570383072,
              -0.11644960194826126
            ],
            [
              -0.0472898930311203,
              0.024222789332270622,
              0.12105290591716766
            ],
            [
              0.07649143785238266,
              0.009387508034706116,
              0.0004723096208181232
            ],
            [
              0.04898657277226448,
              -0.03763848915696144,
              -0.06579174101352692
            ],
            [
              -0.07966320961713791,
              -0.06538590043783188,
              -0.034420259296894073
            ],
            [
              -0.030018696561455727,
              0.032699909061193466,
              0.015259962528944016
            ],
            [
              -0.0018939166329801083,
              -0.12639792263507843,
              -0.13951557874679565
            ],
            [
              -0.07370233535766602,
              -0.08428555727005005,
              0.004607242066413164
            ],
            [
              0.04499553516507149,
              0.06958707422018051,
              0.035636596381664276
            ],
            [
              0.07698580622673035,
              0.08015340566635132,
              0.048258014023303986
            ],
            [
              0.029445096850395203,
              -0.07856663316488266,
              -0.025924891233444214
            ],
            [
              0.0033481346908956766,
              0.057574473321437836,
              -0.031983066350221634
            ],
            [
              0.005399025976657867,
              0.15856654942035675,
              -0.003505544736981392
            ],
            [
              -0.09039568156003952,
              -0.09991809725761414,
              -0.09177279472351074
            ],
            [
              0.022699572145938873,
              -0.12164478749036789,
              0.041300322860479355
            ]
          ],
          [
            [
              -0.031856734305620193,
              0.01877606101334095,
              -0.01658974587917328
            ],
            [
              0.04304049164056778,
              0.0893244594335556,
              0.06768469512462616
            ],
            [
              -0.027592089027166367,
              -0.008461542427539825,
              0.041373204439878464
            ],
            [
              -0.07468680292367935,
              0.014715274795889854,
              -0.12719276547431946
            ],
            [
              -0.04695641249418259,
              -0.12547796964645386,
              -0.13963757455348969
            ],
            [
              0.10909917205572128,
              0.12444016337394714,
              0.10255464911460876
            ],
            [
              0.044769175350666046,
              0.017981939017772675,
              -0.027249880135059357
            ],
            [
              0.06020218878984451,
              -0.01455947570502758,
              -0.008286301977932453
            ],
            [
              0.024117499589920044,
              0.051132507622241974,
              -0.08884779363870621
            ],
            [
              -0.06488771736621857,
              0.1053522378206253,
              0.04466884583234787
            ],
            [
              -0.05495639145374298,
              0.05784647911787033,
              0.025053463876247406
            ],
            [
              0.08355368673801422,
              -0.10965512692928314,
              0.04381421208381653
            ],
            [
              -0.06255950778722763,
              -0.031257517635822296,
              0.08788887411355972
            ],
            [
              -0.21420590579509735,
              -0.1663813292980194,
              -0.13354083895683289
            ],
            [
              -0.19650186598300934,
              -0.17277750372886658,
              -0.10997340083122253
            ],
            [
              -0.09768076986074448,
              -0.05131503567099571,
              -0.0069946059957146645
            ],
            [
              -0.04135703667998314,
              0.06308338791131973,
              0.022715894505381584
            ],
            [
              -0.051452476531267166,
              -0.035331785678863525,
              0.012779091484844685
            ],
            [
              0.0581456795334816,
              0.08215140551328659,
              0.06672439724206924
            ],
            [
              -0.06735119968652725,
              0.0443754568696022,
              0.05634656175971031
            ]
          ],
          [
            [
              0.03032826818525791,
              0.007046487648040056,
              0.058632742613554
            ],
            [
              -0.007089805789291859,
              0.024931708350777626,
              -0.13563309609889984
            ],
            [
              -0.09307023882865906,
              -0.056027159094810486,
              -0.09896557033061981
            ],
            [
              -0.067375048995018,
              -0.08790693432092667,
              -0.01827346347272396
            ],
            [
              0.12539447844028473,
              0.07352768629789352,
              0.07186954468488693
            ],
            [
              -0.08985675126314163,
              -0.13784416019916534,
              -0.10177397727966309
            ],
            [
              -0.02835340052843094,
              -0.0293691735714674,
              -0.15041789412498474
            ],
            [
              -0.12492218613624573,
              -0.021503930911421776,
              -0.01054409146308899
            ],
            [
              -0.041255734860897064,
              0.035860370844602585,
              -0.05938265472650528
            ],
            [
              0.06415514647960663,
              0.013914051465690136,
              0.13075068593025208
            ],
            [
              -0.1413196176290512,
              -0.16731764376163483,
              -0.11862214654684067
            ],
            [
              0.124599389731884,
              0.054436564445495605,
              0.15935541689395905
            ],
            [
              0.03449452295899391,
              0.13050192594528198,
              0.006065447814762592
            ],
            [
              0.19342170655727386,
              0.2453043907880783,
              0.20603223145008087
            ],
            [
              0.2049819976091385,
              0.2549118995666504,
              0.3012624979019165
            ],
            [
              -0.000923431187402457,
              0.12729018926620483,
              0.09938599169254303
            ],
            [
              0.01567188836634159,
              -0.052118971943855286,
              0.02816752716898918
            ],
            [
              -0.027584733441472054,
              -0.1330558806657791,
              0.06019444391131401
            ],
            [
              -0.08184461295604706,
              -0.08557950705289841,
              0.036157459020614624
            ],
            [
              0.09102649241685867,
              -0.01744944602251053,
              0.04902943596243858
            ]
          ],
          [
            [
              0.003244706429541111,
              -0.00031975837191566825,
              0.0009316233335994184
            ],
            [
              0.011875497177243233,
              0.03962845355272293,
              0.060894619673490524
            ],
            [
              -0.03129792958498001,
              -0.02991628088057041,
              -0.059573739767074585
            ],
            [
              0.03159564360976219,
              -0.06625860184431076,
              0.03398999199271202
            ],
            [
              -0.007795237470418215,
              -0.07769119739532471,
              0.0541561134159565
            ],
            [
              0.03688907250761986,
              -0.002593796467408538,
              -0.014440150931477547
            ],
            [
              0.09447580575942993,
              -0.009314495138823986,
              0.043651849031448364
            ],
            [
              -0.056647881865501404,
              0.04654429852962494,
              0.08462665230035782
            ],
            [
              0.004232705105096102,
              0.02052510716021061,
              0.0927048996090889
            ],
            [
              0.047433141618967056,
              0.043181683868169785,
              0.004409706685692072
            ],
            [
              0.04168365150690079,
              -0.02639763057231903,
              -0.028403829783201218
            ],
            [
              0.011270316317677498,
              -0.07602156698703766,
              0.08254782855510712
            ],
            [
              -0.024626536294817924,
              0.01622146926820278,
              -0.10370148718357086
            ],
            [
              -0.03399474546313286,
              -0.04248826578259468,
              -0.017249617725610733
            ],
            [
              -0.030336199328303337,
              -0.02826479636132717,
              -0.014610165730118752
            ],
            [
              -0.05202580615878105,
              0.06939142197370529,
              -0.03667227551341057
            ],
            [
              -0.04142918437719345,
              0.00849547516554594,
              0.028475157916545868
            ],
            [
              0.061837416142225266,
              -0.07436152547597885,
              0.0023014347534626722
            ],
            [
              -0.005580144003033638,
              -0.010197928175330162,
              0.04171067103743553
            ],
            [
              -0.08649275451898575,
              -0.06551221013069153,
              -0.07115354388952255
            ]
          ],
          [
            [
              -0.004561775363981724,
              -0.0037702617701143026,
              -0.002480104099959135
            ],
            [
              0.05013148859143257,
              0.06277509033679962,
              0.0396990142762661
            ],
            [
              0.09912228584289551,
              -0.08251258730888367,
              0.020654253661632538
            ],
            [
              0.06799729913473129,
              -0.021300991997122765,
              0.052899256348609924
            ],
            [
              -0.07056286185979843,
              -0.11652640998363495,
              -0.029585812240839005
            ],
            [
              0.044889263808727264,
              0.04092581197619438,
              0.020543845370411873
            ],
            [
              -0.007314170245081186,
              0.09765974432229996,
              -0.01379456091672182
            ],
            [
              0.1396058201789856,
              -0.03817397728562355,
              0.022460076957941055
            ],
            [
              0.036074720323085785,
              -0.07946546375751495,
              0.09927073866128922
            ],
            [
              -0.08723331987857819,
              -0.011149810627102852,
              -0.006660807877779007
            ],
            [
              0.012474484741687775,
              0.039431579411029816,
              0.06118658557534218
            ],
            [
              -0.08358531445264816,
              0.026472225785255432,
              0.003164044814184308
            ],
            [
              -0.14352114498615265,
              0.03004915453493595,
              -0.08707961440086365
            ],
            [
              -0.08137748390436172,
              -0.07151024043560028,
              -0.04704999551177025
            ],
            [
              -0.08779611438512802,
              -0.06332787871360779,
              -0.042697396129369736
            ],
            [
              -0.09432882815599442,
              -0.10506517440080643,
              0.06263447552919388
            ],
            [
              -0.002375341486185789,
              0.03896307200193405,
              -0.003769239876419306
            ],
            [
              0.06652627140283585,
              0.05442267283797264,
              -0.08133330196142197
            ],
            [
              0.031053638085722923,
              0.04214471951127052,
              0.03004755638539791
            ],
            [
              -0.09201493859291077,
              0.04373341426253319,
              -0.0647033154964447
            ]
          ]
        ],
        "conv_bias": [
          0.07740074396133423,
          0.06443672627210617,
          -0.07014449685811996,
          -0.14079736173152924,
          0.011089661158621311,
          0.0759548768401146,
          0.009051663801074028,
          -0.12204036861658096,
          0.13595660030841827,
          0.04002159833908081,
          -0.08074556291103363,
          -0.024232730269432068,
          -0.09131043404340744,
          -0.08076676726341248,
          0.09523854404687881,
          0.07431255280971527,
          -0.10098977386951447,
          -0.017629407346248627,
          -0.03180979564785957,
          0.042496658861637115
        ]
      },
      {
        "layer": 1,
        "dilation": 2,
        "conv_weight": [
          [
            [
              -0.13469235599040985,
              -0.078471340239048,
              -0.10131213068962097
            ],
            [
              -0.16042067110538483,
              0.0004678357800003141,
              0.20728792250156403
            ],
            [
              0.16535784304141998,
              0.08048198372125626,
              -0.021006349474191666
            ],
            [
              -0.08833058178424835,
              0.10791224241256714,
              -0.0567486435174942
            ],
            [
              0.26612958312034607,
              0.17872066795825958,
              -0.03119310922920704
            ],
            [
              -0.23314166069030762,
              -0.1004711240530014,
              0.08807753771543503
            ],
            [
              0.05430622398853302,
              0.025945840403437614,
              -0.039088018238544464
            ],
            [
              -0.17724177241325378,
              -0.07337643951177597,
              -0.1575785130262375
            ],
            [
              0.01943664625287056,
              0.018261367455124855,
              0.018402915447950363
            ],
            [
              -0.07820385694503784,
              -0.06560951471328735,
              -0.03297393023967743
            ],
            [
              -0.09150001406669617,
              -0.0035335097927600145,
              0.031632114201784134
            ],
            [
              -0.01813669688999653,
              -0.00716389948502183,
              -0.023529188707470894
            ],
            [
              0.20732593536376953,
              0.219673290848732,
              0.06194286793470383
            ],
            [
              0.18799510598182678,
              -0.024271367117762566,
              -0.15813305974006653
            ],
            [
              0.008757923729717731,
              -0.015056414529681206,
              -0.07893719524145126
            ],
            [
              0.0922786220908165,
              0.07069837301969528,
              -0.05769682675600052
            ],
            [
              -0.05032816901803017,
              -0.05423333868384361,
              -0.02411196008324623
            ],
            [
              -0.014257608912885189,
              0.0953570008277893,
              0.08633740246295929
            ],
            [
              -0.04924619570374489,
              -0.024005280807614326,
              0.040503278374671936
            ],
            [
              -0.06163845956325531,
              -0.058721065521240234,
              0.030226189643144608
            ]
          ],
          [
            [
              0.0021316134370863438,
              0.09029386937618256,
              0.0801723301410675
            ],
            [
              -0.03228353336453438,
              -0.05722382664680481,
              -0.041704803705215454
            ],
            [
              0.0037472881376743317,
              -0.09664289653301239,
              -0.022394714877009392
            ],
            [
              0.04690796881914139,
              -0.012271108105778694,
              0.08101864904165268
            ],
            [
              -0.08029399812221527,
              -0.10854790359735489,
              -0.08931785821914673
            ],
            [
              -0.03367392718791962,
              0.07222495228052139,
              0.053957827389240265
            ],
            [
              0.022095322608947754,
              0.03653582185506821,
              0.004477417562156916
            ],
            [
              0.14049220085144043,
              0.1257449984550476,
              0.04439418017864227
            ],
            [
              -0.011698427610099316,
              -0.019122513011097908,
              0.04277116060256958
            ],
            [
              0.045236822217702866,
              0.1369529813528061,
              0.1295713633298874
            ],
            [
              0.05217936262488365,
              -0.04208932816982269,
              -0.040009256452322006
            ],
            [
              -0.05541577190160751,
              0.050845976918935776,
              -0.03594500944018364
            ],
            [
              -0.0009336318471468985,
              -0.14860132336616516,
              -0.03239122033119202
            ],
            [
              0.08864077925682068,
              -0.07862307131290436,
              0.048592228442430496
            ],
            [
              0.013425123877823353,
              -0.020536772906780243,
              0.041747551411390305
            ],
            [
              -0.01991136185824871,
              0.07855764776468277,
              0.07438167184591293
            ],
            [
              -0.013984432443976402,
              0.050204142928123474,
              -0.006532835308462381
            ],
            [
              -0.14380104839801788,
              -0.13893871009349823,
              -0.08924248814582825
            ],
            [
              0.024963688105344772,
              0.08557099103927612,
              -0.043132469058036804
            ],
            [
              -0.06586244702339172,
              -0.02369101531803608,
              0.028246290981769562
            ]
          ],
          [
            [
              -0.0962274894118309,
              -0.07695192098617554,
              0.009097008034586906
            ],
            [
              -0.14031825959682465,
              0.07124774903059006,
              0.12480662018060684
            ],
            [
              0.09727907180786133,
              0.01122669130563736,
              -0.09121516346931458
            ],
            [
              -0.04887089133262634,
              0.0620168000459671,
              -0.00983787514269352
            ],
            [
              0.08169476687908173,
              -0.12044072151184082,
              -0.042340777814388275
            ],
            [
              -0.2290976494550705,
              0.015965299680829048,
              0.0796511098742485
            ],
            [
              0.029095863923430443,
              -0.009693614207208157,
              -0.06102098524570465
            ],
            [
              -0.15292763710021973,
              -0.05727319419384003,
              -0.11927054822444916
            ],
            [
              -0.08126611262559891,
              0.04102886840701103,
              0.011027880944311619
            ],
            [
              -0.10262510180473328,
              -0.06621904671192169,
              0.009936763904988766
            ],
            [
              -0.030358079820871353,
              -0.04476616531610489,
              -0.07486776262521744
            ],
            [
              0.003959957044571638,
              -0.007549711968749762,
              0.009684520773589611
            ],
            [
              0.10215798020362854,
              0.01505290623754263,
              0.08380306512117386
            ],
            [
              0.17455416917800903,
              -0.1114153265953064,
              -0.19644583761692047
            ],
            [
              0.009889437817037106,
              0.025657406076788902,
              -0.0460594967007637
            ],
            [
              0.031375106424093246,
              0.09427563846111298,
              0.0539914108812809
            ],
            [
              -0.10083155333995819,
              0.03224087506532669,
              0.08772029727697372
            ],
            [
              -0.0175695288926363,
              0.08020009100437164,
              -0.004893930163234472
            ],
            [
              -0.05488136410713196,
              0.015179192647337914,
              0.06042753905057907
            ],
            [
              -0.005205152556300163,
              0.0025571908336132765,
              0.07646776735782623
            ]
          ],
          [
            [
              0.03773115575313568,
              -0.02370413765311241,
              -0.018536634743213654
            ],
            [
              -0.015814965590834618,
              -0.028501693159341812,
              -0.08317074179649353
            ],
            [
              0.010073759593069553,
              -0.03962039202451706,
              -0.053923096507787704
            ],
            [
              0.02595037780702114,
              -0.05325572192668915,
              -0.10373194515705109
            ],
            [
              0.015281411819159985,
              -0.07274702191352844,
              0.08536973595619202
            ],
            [
              -0.012987077236175537,
              -0.015383752062916756,
              -0.07686073333024979
            ],
            [
              -0.0016360761364921927,
              -0.018166836351156235,
              -0.0257401205599308
            ],
            [
              0.047420136630535126,
              0.08661521226167679,
              0.029034757986664772
            ],
            [
              0.10325849056243896,
              0.04393574222922325,
              0.017196428030729294
            ],
            [
              0.09668692946434021,
              -0.05322117358446121,
              0.0692090317606926
            ],
            [
              0.07397925108671188,
              0.0547633022069931,
              -0.012737883254885674
            ],
            [
              0.0013354721013456583,
              0.010262878611683846,
              0.0535915307700634
            ],
            [
              -0.05229433998465538,
              -0.12811356782913208,
              -0.016244711354374886
            ],
            [
              -0.002604555804282427,
              -0.023922991007566452,
              0.00738384248688817
            ],
            [
              -0.052044276148080826,
              -0.09646940976381302,
              0.05537818372249603
            ],
            [
              0.03615552559494972,
              -0.028722070157527924,
              0.07184318453073502
            ],
            [
              0.05088261514902115,
              0.06099994108080864,
              0.022791249677538872
            ],
            [
              -0.09995785355567932,
              -0.03578291833400726,
              0.06090281531214714
            ],
            [
              0.010879716835916042,
              0.014616873115301132,
              0.005497008096426725
            ],
            [
              -0.04813039302825928,
              -0.004702779930084944,
              0.031987983733415604
            ]
          ],
          [
            [
              0.14110925793647766,
              -0.013769196346402168,
              -0.04131423681974411
            ],
            [
              0.3173450529575348,
              0.009925412014126778,
              -0.3790132701396942
            ],
            [
              -0.14299552142620087,
              0.05989278107881546,
              0.08670029044151306
            ],
            [
              0.11739681661128998,
              -0.04897220805287361,
              0.05101986974477768
            ],
            [
              -0.3667488694190979,
              0.06819628924131393,
              0.3273811936378479
            ],
            [
              0.39396390318870544,
              0.006867355667054653,
              -0.36722463369369507
            ],
            [
              -0.06979300081729889,
              -0.07295125722885132,
              0.09595419466495514
            ],
            [
              0.18718558549880981,
              0.046252671629190445,
              -0.15792882442474365
            ],
            [
              -0.051693227142095566,
              0.08843376487493515,
              -0.10203726589679718
            ],
            [
              0.2613462507724762,
              0.03766404837369919,
              -0.12706413865089417
            ],
            [
              0.13110584020614624,
              -0.03367104008793831,
              -0.05554043501615524
            ],
            [
              0.10206451267004013,
              0.01550699770450592,
              -0.014586943201720715
            ],
            [
              -0.34548047184944153,
              -0.07301297038793564,
              0.08472403883934021
            ],
            [
              -0.3572448790073395,
              0.10684794932603836,
              0.3926887810230255
            ],
            [
              -0.06418658792972565,
              0.10731329768896103,
              0.19801431894302368
            ],
            [
              -0.11671658605337143,
              0.07446914166212082,
              0.043161630630493164
            ],
            [
              0.3004623353481293,
              -0.10545055568218231,
              -0.19679880142211914
            ],
            [
              -0.0784720629453659,
              0.022591067478060722,
              0.07807740569114685
            ],
            [
              0.21864332258701324,
              -0.05020640045404434,
              -0.19376057386398315
            ],
            [
              0.0773356482386589,
              0.07727057486772537,
              -0.13839572668075562
            ]
          ],
          [
            [
              -0.024207640439271927,
              -0.0344776026904583,
              -0.03485221788287163
            ],
            [
              -0.08693671226501465,
              -0.13385170698165894,
              -0.15271708369255066
            ],
            [
              -0.047719765454530716,
              -0.01029227115213871,
              -0.013297670520842075
            ],
            [
              0.042496487498283386,
              0.016100600361824036,
              -0.0685686320066452
            ],
            [
              0.07868476957082748,
              0.027730101719498634,
              0.13623614609241486
            ],
            [
              -0.08836710453033447,
              -0.1519259363412857,
              -0.1921459287405014
            ],
            [
              -0.016616128385066986,
              -0.002505643991753459,
              -0.0047157867811620235
            ],
            [
              -0.026076441630721092,
              0.01780066080391407,
              -0.02508486807346344
            ],
            [
              0.004719417076557875,
              -0.06812381744384766,
              -0.058186858892440796
            ],
            [
              0.034886062145233154,
              0.08117075264453888,
              0.0317661389708519
            ],
            [
              -0.013932924717664719,
              0.0151928486302495,
              -0.004468877334147692
            ],
            [
              -0.03310617804527283,
              -0.027653761208057404,
              -0.025235382840037346
            ],
            [
              0.04615228995680809,
              0.025663703680038452,
              -0.008223656564950943
            ],
            [
              0.007014136761426926,
              0.05713754892349243,
              0.1386118233203888
            ],
            [
              0.006690449547022581,
              -0.017183665186166763,
              0.025856345891952515
            ],
            [
              -0.0049736397340893745,
              -0.0023016566410660744,
              -0.02435697615146637
            ],
            [
              -0.0856473296880722,
              -0.05544285103678703,
              -0.09033329039812088
            ],
            [
              0.06468739360570908,
              -0.020606806501746178,
              0.0010261319112032652
            ],
            [
              -0.01709817722439766,
              -0.04056573659181595,
              -0.06482402235269547
            ],
            [
              -0.014913438819348812,
              -0.04447575658559799,
              -0.025497104972600937
            ]
          ],
          [
            [
              0.062181588262319565,
              -0.02525600790977478,
              0.013690420426428318
            ],
            [
              0.1694587916135788,
              -0.10529215633869171,
              0.04889540746808052
            ],
            [
              0.03347405418753624,
              0.0421418622136116,
              -0.005434545688331127
            ],
            [
              0.04031405970454216,
              0.013702113181352615,
              -0.08499862998723984
            ],
            [
              -0.11553498357534409,
              0.06499740481376648,
              0.12227316200733185
            ],
            [
              0.14008930325508118,
              -0.09816630184650421,
              -0.0728173702955246
            ],
            [
              -0.07111255824565887,
              -0.08442961424589157,
              -0.10457247495651245
            ],
            [
              0.05218910798430443,
              -0.06988401710987091,
              -0.05039926990866661
            ],
            [
              0.08274197578430176,
              0.022225698456168175,
              0.004019479732960463
            ],
            [
              0.057009246200323105,
              -0.009523901157081127,
              0.001538346754387021
            ],
            [
              0.052760541439056396,
              -0.03953938186168671,
              0.02394798956811428
            ],
            [
              0.03551965951919556,
              -0.011759609915316105,
              0.0044770860113203526
            ],
            [
              -0.034484174102544785,
              0.08828262239694595,
              0.1179208755493164
            ],
            [
              -0.04819430038332939,
              0.1503857672214508,
              0.08784723281860352
            ],
            [
              0.005918759386986494,
              0.07855529338121414,
              -0.13150553405284882
            ],
            [
              -0.016115661710500717,
              0.05899269878864288,
              -0.027273574844002724
            ],
            [
              0.048225026577711105,
              -0.024601727724075317,
              -0.001646517775952816
            ],
            [
              0.006446127779781818,
              0.05614886432886124,
              -0.030633285641670227
            ],
            [
              0.05902648717164993,
              -0.03237784653902054,
              0.02119549550116062
            ],
            [
              -0.026734545826911926,
              -0.011104944162070751,
              -0.04254700988531113
            ]
          ],
          [
            [
              -0.0585133396089077,
              -0.0851304903626442,
              -0.06019018217921257
            ],
            [
              0.04842447116971016,
              0.07487177103757858,
              -0.14022497832775116
            ],
            [
              -0.07220418751239777,
              -0.11602674424648285,
              -0.06624092906713486
            ],
            [
              0.07281425595283508,
              0.07265806943178177,
              -0.0028317500837147236
            ],
            [
              0.03741772845387459,
              0.06005087122321129,
              -0.03416736423969269
            ],
            [
              0.032367005944252014,
              0.06888411194086075,
              -0.0361519493162632
            ],
            [
              0.01756647415459156,
              -0.06032225862145424,
              0.028377318754792213
            ],
            [
              0.10193932801485062,
              0.11565364897251129,
              0.0158744715154171
            ],
            [
              0.046694740653038025,
              0.030743122100830078,
              0.09387193620204926
            ],
            [
              0.06719418615102768,
              0.06719934195280075,
              0.1294662058353424
            ],
            [
              -0.04168117046356201,
              -0.07314769178628922,
              -0.0008330235141329467
            ],
            [
              -0.02168239653110504,
              -0.012106822803616524,
              0.04826688766479492
            ],
            [
              -0.02026144228875637,
              -0.018513429909944534,
              -0.05071091279387474
            ],
            [
              -0.02477295696735382,
              -0.025951595976948738,
              0.030411818996071815
            ],
            [
              0.045707330107688904,
              0.017498008906841278,
              0.02849484421312809
            ],
            [
              0.06928198784589767,
              0.03514188155531883,
              -0.03697750344872475
            ],
            [
              -0.05515940487384796,
              -0.037487223744392395,
              -0.06760260462760925
            ],
            [
              -0.04279930517077446,
              0.0456351600587368,
              -0.09380091726779938
            ],
            [
              0.07272736728191376,
              0.04633050039410591,
              -0.060567181557416916
            ],
            [
              -0.021582497283816338,
              0.10284760594367981,
              0.09986156970262527
            ]
          ],
          [
            [
              0.03252110257744789,
              0.029090000316500664,
              0.07315830886363983
            ],
            [
              -0.15882372856140137,
              0.06717821210622787,
              0.05738702043890953
            ],
            [
              0.017967062070965767,
              0.005799559876322746,
              0.006594084203243256
            ],
            [
              0.08096816390752792,
              -0.061067674309015274,
              -0.05764765664935112
            ],
            [
              0.056480132043361664,
              0.05030312016606331,
              -0.08150846511125565
            ],
            [
              -0.03357292711734772,
              -0.05647456273436546,
              -0.005518732126802206
            ],
            [
              0.017983008176088333,
              0.02390305884182453,
              0.04116322100162506
            ],
            [
              -0.03642499819397926,
              -0.030208319425582886,
              0.07455643266439438
            ],
            [
              0.03612173721194267,
              0.026591535657644272,
              -0.06539357453584671
            ],
            [
              -0.0713726207613945,
              -0.044081125408411026,
              -0.044995468109846115
            ],
            [
              0.015451768413186073,
              -0.05478827655315399,
              -0.052295755594968796
            ],
            [
              -0.0394902229309082,
              -0.0038161883130669594,
              -0.0026055003982037306
            ],
            [
              0.03971180319786072,
              -0.031512804329395294,
              -0.03159669414162636
            ],
            [
              0.008242481388151646,
              0.03006681427359581,
              0.04520421847701073
            ],
            [
              -0.04618777334690094,
              0.023872168734669685,
              0.05329286307096481
            ],
            [
              -0.017760246992111206,
              -0.057899732142686844,
              -0.09406939893960953
            ],
            [
              -0.031005248427391052,
              0.08038344234228134,
              0.01432274840772152
            ],
            [
              0.017603054642677307,
              0.005357831250876188,
              -0.05828671157360077
            ],
            [
              -0.009343024343252182,
              -0.0510944239795208,
              -0.03337739035487175
            ],
            [
              -0.0570780448615551,
              -0.03132691606879234,
              -0.07684879004955292
            ]
          ],
          [
            [
              0.0023480206727981567,
              0.015157215297222137,
              0.08427473902702332
            ],
            [
              0.03262776881456375,
              -0.06392143666744232,
              -0.011575654149055481
            ],
            [
              -0.09599364548921585,
              -0.13146206736564636,
              0.03249121829867363
            ],
            [
              -0.004998544231057167,
              0.047102682292461395,
              -0.013007596135139465
            ],
            [
              -0.08544501662254333,
              -0.09466470777988434,
              0.024956393986940384
            ],
            [
              0.053644876927137375,
              -0.06031724810600281,
              0.13294081389904022
            ],
            [
              0.06307147443294525,
              -0.10986576974391937,
              -0.032443515956401825
            ],
            [
              0.20441441237926483,
              0.1781696379184723,
              0.08775795251131058
            ],
            [
              -0.0714201033115387,
              -0.05745294690132141,
              -0.05228613689541817
            ],
            [
              -0.007069592829793692,
              0.07679781317710876,
              0.1351427584886551
            ],
            [
              -0.034691762179136276,
              -0.13339312374591827,
              0.052389875054359436
            ],
            [
              0.024908913299441338,
              0.021637044847011566,
              -0.014081165194511414
            ],
            [
              0.012002539820969105,
              -0.1042841225862503,
              -0.23321235179901123
            ],
            [
              0.022583002224564552,
              0.07356474548578262,
              0.02766413614153862
            ],
            [
              0.0856710895895958,
              -0.09428002685308456,
              -0.003755101701244712
            ],
            [
              -0.05333871766924858,
              -0.011383803561329842,
              -0.030168693512678146
            ],
            [
              -0.030434343963861465,
              0.0703173503279686,
              -0.032522354274988174
            ],
            [
              -0.06738469004631042,
              0.03964005410671234,
              0.02596188150346279
            ],
            [
              0.03691865876317024,
              -0.05316329747438431,
              0.0655025839805603
            ],
            [
              0.0012088502990081906,
              -0.03311147540807724,
              -0.025209486484527588
            ]
          ],
          [
            [
              -0.020923301577568054,
              -0.08813450485467911,
              0.027073021978139877
            ],
            [
              -0.053778279572725296,
              0.023097477853298187,
              0.1046142429113388
            ],
            [
              0.08045921474695206,
              0.07011297345161438,
              -0.0724993422627449
            ],
            [
              0.04363645613193512,
              -0.024142758920788765,
              -0.028178773820400238
            ],
            [
              -0.005030398722738028,
              0.028436291962862015,
              0.010127105750143528
            ],
            [
              -0.07082746922969818,
              0.01231734361499548,
              0.14784951508045197
            ],
            [
              0.05244838818907738,
              0.013148583471775055,
              -0.023521069437265396
            ],
            [
              -0.027747804298996925,
              -0.06686469167470932,
              -0.05867626145482063
            ],
            [
              -0.060589805245399475,
              -0.036968380212783813,
              -0.07731997966766357
            ],
            [
              -0.04478473216295242,
              -0.09846721589565277,
              0.07906721532344818
            ],
            [
              -0.1424250453710556,
              -0.10198386013507843,
              -0.043413035571575165
            ],
            [
              -0.020415691658854485,
              0.006553473882377148,
              0.020313089713454247
            ],
            [
              0.08204802870750427,
              0.14849711954593658,
              0.07035752385854721
            ],
            [
              0.1227618157863617,
              0.046786487102508545,
              -0.12227734923362732
            ],
            [
              0.06740805506706238,
              0.08224030584096909,
              -0.07359173893928528
            ],
            [
              0.017970649525523186,
              -0.028663093224167824,
              0.018622253090143204
            ],
            [
              -0.09304454177618027,
              -0.05057824030518532,
              0.10443312674760818
            ],
            [
              -0.025511737912893295,
              0.05114883929491043,
              0.039935700595378876
            ],
            [
              -0.035008687525987625,
              -0.053066764026880264,
              0.07413865625858307
            ],
            [
              -0.018762294203042984,
              0.006610050797462463,
              0.07114844024181366
            ]
          ],
          [
            [
              -0.12441616505384445,
              0.00582664180546999,
              0.09689915925264359
            ],
            [
              -0.202342689037323,
              0.10167524218559265,
              0.22899049520492554
            ],
            [
              0.07571014761924744,
              0.010715462267398834,
              0.06906543672084808
            ],
            [
              -0.050111666321754456,
              -0.047570377588272095,
              -0.025471428409218788
            ],
            [
              0.2413015365600586,
              0.026570139452815056,
              -0.10925029963254929
            ],
            [
              -0.1688593626022339,
              0.0886399894952774,
              0.2256866991519928
            ],
            [
              0.043067049235105515,
              -0.005722144618630409,
              -0.016241559758782387
            ],
            [
              -0.09095089882612228,
              -0.0073301661759614944,
              0.006588391028344631
            ],
            [
              0.09068036079406738,
              0.08051672577857971,
              0.0034897741861641407
            ],
            [
              -0.1677442193031311,
              0.08088373392820358,
              0.0018075110856443644
            ],
            [
              -0.07809902727603912,
              0.03842608630657196,
              0.05598263815045357
            ],
            [
              -0.16677945852279663,
              -0.11011743545532227,
              -0.13149535655975342
            ],
            [
              0.1741507351398468,
              0.01894264854490757,
              -0.0425022728741169
            ],
            [
              0.12280266731977463,
              -0.11729659140110016,
              -0.11340242624282837
            ],
            [
              0.03062412701547146,
              -0.07013838738203049,
              -0.036688994616270065
            ],
            [
              -0.02804490178823471,
              0.012189901433885098,
              0.04319273307919502
            ],
            [
              -0.17002400755882263,
              0.007901273667812347,
              0.1523514837026596
            ],
            [
              0.04019573703408241,
              0.010488854721188545,
              -0.04205729812383652
            ],
            [
              -0.05314754322171211,
              -0.028796598315238953,
              0.05507037043571472
            ],
            [
              -0.049817945808172226,
              -0.024344846606254578,
              -0.02674657665193081
            ]
          ],
          [
            [
              0.018828948959708214,
              0.030915921553969383,
              -0.11444690078496933
            ],
            [
              0.007932032458484173,
              -0.039344675838947296,
              -0.11665591597557068
            ],
            [
              0.07373160123825073,
              0.07502343505620956,
              0.18785065412521362
            ],
            [
              -0.00026966549921780825,
              0.06497020274400711,
              0.06097874417901039
            ],
            [
              -0.04457802698016167,
              0.10540969669818878,
              0.03772491216659546
            ],
            [
              -0.04382341727614403,
              -0.0697256475687027,
              -0.1005740612745285
            ],
            [
              -0.04523903504014015,
              -0.040549032390117645,
              -0.04843892529606819
            ],
            [
              -0.04150884225964546,
              -0.15913090109825134,
              -0.18400265276432037
            ],
            [
              0.10609865188598633,
              -0.004998090676963329,
              0.03196147456765175
            ],
            [
              0.03467145189642906,
              0.051000989973545074,
              -0.126776784658432
            ],
            [
              0.051895201206207275,
              -0.04424038156867027,
              0.009577956981956959
            ],
            [
              0.0022489840630441904,
              -0.034060899168252945,
              -0.015582205727696419
            ],
            [
              0.047419048845767975,
              0.14516088366508484,
              0.0191658828407526
            ],
            [
              -0.15331164002418518,
              -0.010102343745529652,
              0.05576698109507561
            ],
            [
              -0.02837292104959488,
              0.03600265458226204,
              -0.0281373281031847
            ],
            [
              -0.05003884434700012,
              0.03442734479904175,
              0.05508068948984146
            ],
            [
              0.08164234459400177,
              -0.04716918244957924,
              0.08310586959123611
            ],
            [
              0.08071032166481018,
              0.07874717563390732,
              0.14691047370433807
            ],
            [
              0.0921417847275734,
              0.05040745064616203,
              0.024463772773742676
            ],
            [
              0.01547473855316639,
              0.011144731193780899,
              -0.06165759637951851
            ]
          ],
          [
            [
              0.03522650897502899,
              0.07288942486047745,
              -0.0817413255572319
            ],
            [
              0.0035247469786554575,
              -0.009119930677115917,
              -0.022873569279909134
            ],
            [
              0.12479992210865021,
              0.18946632742881775,
              0.0644710436463356
            ],
            [
              0.1129763051867485,
              0.005306675098836422,
              0.05668124184012413
            ],
            [
              -0.0635385811328888,
              0.11255176365375519,
              0.05371227115392685
            ],
            [
              0.09524647891521454,
              0.05264951288700104,
              -0.0072739762254059315
            ],
            [
              0.03618171811103821,
              0.037623681128025055,
              -0.0022320421412587166
            ],
            [
              -0.12959979474544525,
              -0.162905752658844,
              -0.021641774103045464
            ],
            [
              -0.11580836772918701,
              -0.00263506849296391,
              -0.006493330001831055
            ],
            [
              -0.09059592336416245,
              -0.11884475499391556,
              0.07766140252351761
            ],
            [
              -0.10436636209487915,
              -0.0933905765414238,
              -0.045930322259664536
            ],
            [
              0.07272657752037048,
              -0.024290189146995544,
              -0.002605259185656905
            ],
            [
              -0.012574915774166584,
              0.10188931226730347,
              0.08956662565469742
            ],
            [
              0.041681185364723206,
              -0.05905101075768471,
              -0.10883268713951111
            ],
            [
              -0.052857011556625366,
              0.08320260792970657,
              0.03166709095239639
            ],
            [
              -0.016138507053256035,
              0.07996155321598053,
              -0.07836862653493881
            ],
            [
              0.10936213284730911,
              0.015721550211310387,
              0.051823992282152176
            ],
            [
              -0.03607969731092453,
              0.06840422749519348,
              0.009591210633516312
            ],
            [
              0.041185397654771805,
              0.020291421562433243,
              -0.047325633466243744
            ],
            [
              -0.04387993738055229,
              -0.06545370072126389,
              0.05101965367794037
            ]
          ],
          [
            [
              -0.010270747356116772,
              0.021611148491501808,
              -0.03129482641816139
            ],
            [
              -0.015913166105747223,
              0.0650738775730133,
              -0.1509546935558319
            ],
            [
              -0.06631219387054443,
              -0.11494342982769012,
              -0.041500385850667953
            ],
            [
              -0.10851150006055832,
              -0.03048142045736313,
              -0.02013217657804489
            ],
            [
              0.05400441959500313,
              -0.15760469436645508,
              0.04248249530792236
            ],
            [
              -0.037662602961063385,
              0.06895937770605087,
              -0.12230931967496872
            ],
            [
              0.010212239809334278,
              0.027628004550933838,
              0.019263993948698044
            ],
            [
              0.07908126711845398,
              0.13867881894111633,
              0.06923093646764755
            ],
            [
              -0.050232041627168655,
              0.09935080260038376,
              0.06387189775705338
            ],
            [
              0.022060556337237358,
              0.04387832060456276,
              0.006652670446783304
            ],
            [
              0.01011678110808134,
              0.0022338880226016045,
              0.04970322921872139
            ],
            [
              0.014593078754842281,
              0.0018782782135531306,
              0.025735434144735336
            ],
            [
              -0.031003935262560844,
              -0.10644757002592087,
              -0.03483021631836891
            ],
            [
              -0.04007195308804512,
              -0.11695992201566696,
              0.10984169691801071
            ],
            [
              -0.11014305800199509,
              -0.14889182150363922,
              0.06330227851867676
            ],
            [
              -0.05604550614953041,
              -0.11327662318944931,
              -0.021375536918640137
            ],
            [
              -0.004374915733933449,
              -0.01390172727406025,
              -0.017649821937084198
            ],
            [
              -0.06686153262853622,
              -0.0805976539850235,
              -0.01988290622830391
            ],
            [
              -0.0020669258665293455,
              0.06994739919900894,
              -0.06890098750591278
            ],
            [
              0.013722852803766727,
              -0.0041530923917889595,
              0.0020557455718517303
            ]
          ],
          [
            [
              0.05999121442437172,
              0.03258076310157776,
              0.03498823568224907
            ],
            [
              0.15465575456619263,
              -0.059594977647066116,
              -0.06565796583890915
            ],
            [
              -0.006812748033553362,
              0.09625621140003204,
              0.05299840122461319
            ],
            [
              -0.05906302109360695,
              -0.055116042494773865,
              -0.017064033076167107
            ],
            [
              -0.08393651247024536,
              0.03699268400669098,
              -0.03732477128505707
            ],
            [
              0.08366347849369049,
              -0.09853240847587585,
              -0.11338028311729431
            ],
            [
              -0.019151628017425537,
              -0.000502529030200094,
              0.026965772733092308
            ],
            [
              0.06582355499267578,
              -0.05083028972148895,
              -0.021786345168948174
            ],
            [
              -0.014599463902413845,
              -0.07433447986841202,
              0.01240908820182085
            ],
            [
              0.08611039817333221,
              -0.04888702556490898,
              -0.10760603845119476
            ],
            [
              0.036258768290281296,
              -0.03323229402303696,
              -0.06813876330852509
            ],
            [
              0.06188786402344704,
              0.013304694555699825,
              0.010604429990053177
            ],
            [
              -0.07496875524520874,
              0.023588888347148895,
              0.021794037893414497
            ],
            [
              -0.15540458261966705,
              -0.03721834346652031,
              0.016743287444114685
            ],
            [
