{
  "model_info": {
    "name": "flstudio_cpu_optimized4",
    "version": "1.0.0",
    "architecture": "WaveNet",
    "causal": true,
    "sample_rate": 44100,
    "receptive_field": 127,
    "latency_ms": 2.88
  },
  "architecture": {
    "channels": 24,
    "num_layers": 6,
    "kernel_size": 3,
    "dilation_base": 2,
    "dilations": [
      1,
      2,
      4,
      8,
      16,
      32
    ]
  },
  "weights": {
    "input_conv": {
      "weight": [
        -1.0109477043151855,
        -1.1657310724258423,
        -0.4657963216304779,
        1.013624906539917,
        1.5244590044021606,
        -0.17997749149799347,
        -1.1406701803207397,
        1.302518367767334,
        1.4101756811141968,
        -0.35796070098876953,
        0.518980085849762,
        0.5083402395248413,
        -0.2909449636936188,
        -1.158794641494751,
        -0.753943681716919,
        -0.48610973358154297,
        0.5745428800582886,
        0.04499724879860878,
        -2.1219429969787598,
        0.7807539701461792,
        -0.6405864357948303,
        0.3729505240917206,
        -0.20658329129219055,
        0.5020086765289307
      ],
      "bias": [
        -0.21000419557094574,
        -0.29385480284690857,
        0.7413759231567383,
        -0.908679723739624,
        0.758978545665741,
        -0.5185161232948303,
        -0.8368223905563354,
        -0.9295519590377808,
        -0.7812820672988892,
        -0.5907519459724426,
        -0.4476543664932251,
        0.4190717339515686,
        0.5468534231185913,
        0.5870106220245361,
        -0.9436848759651184,
        -0.6340761184692383,
        0.6634512543678284,
        -0.8681349754333496,
        -0.9170892834663391,
        0.5613906383514404,
        -0.30731406807899475,
        0.7255059480667114,
        -0.5394580960273743,
        -0.1092328280210495
      ]
    },
    "residual_blocks": [
      {
        "layer": 0,
        "dilation": 1,
        "conv_weight": [
          [
            [
              0.0881730318069458,
              0.10526488721370697,
              0.03754432126879692
            ],
            [
              0.1198514997959137,
              0.13662289083003998,
              0.11749853938817978
            ],
            [
              0.03139640763401985,
              0.13910731673240662,
              0.10747990757226944
            ],
            [
              0.030091814696788788,
              -0.09728983044624329,
              0.022581374272704124
            ],
            [
              -0.07506590336561203,
              -0.1221090629696846,
              -0.10029489547014236
            ],
            [
              -0.03226768225431442,
              0.04098404943943024,
              -0.060878850519657135
            ],
            [
              0.03134508803486824,
              0.03921724855899811,
              0.027695659548044205
            ],
            [
              -0.11159966886043549,
              -0.04795832186937332,
              -0.032822173088788986
            ],
            [
              -0.08523506671190262,
              -0.043506987392902374,
              -0.06369543820619583
            ],
            [
              -0.04543384164571762,
              -0.03235333412885666,
              -0.027379512786865234
            ],
            [
              -0.018703626468777657,
              -0.1285877525806427,
              -0.06289245933294296
            ],
            [
              -0.040608007460832596,
              -0.04586276412010193,
              -0.06705211848020554
            ],
            [
              0.11845723539590836,
              -0.0019790190272033215,
              -0.032606154680252075
            ],
            [
              0.05145597830414772,
              0.0980486050248146,
              0.0322900116443634
            ],
            [
              -0.00638029957190156,
              0.06704793125391006,
              0.05101361498236656
            ],
            [
              -0.034620579332113266,
              0.09440339356660843,
              0.032640110701322556
            ],
            [
              0.047402381896972656,
              -0.06396938115358353,
              0.0572802759706974
            ],
            [
              -0.01506268884986639,
              -0.07461622357368469,
              -0.04935894533991814
            ],
            [
              -0.007995905354619026,
              0.0646900162100792,
              -0.023487119004130363
            ],
            [
              -0.029296182096004486,
              -0.0503816157579422,
              0.0375974141061306
            ],
            [
              0.05654340609908104,
              0.050672441720962524,
              0.022336671128869057
            ],
            [
              -0.06995128095149994,
              0.04901816323399544,
              -0.04773172363638878
            ],
            [
              0.07191061973571777,
              0.09206777811050415,
              -0.04760047420859337
            ],
            [
              -0.09490653872489929,
              -0.07969745248556137,
              -0.07597488909959793
            ]
          ],
          [
            [
              0.1292864829301834,
              0.14787009358406067,
              0.14576879143714905
            ],
            [
              0.13402579724788666,
              0.10706942528486252,
              0.05272246524691582
            ],
            [
              0.07299070060253143,
              0.03450582176446915,
              0.10803981870412827
            ],
            [
              -0.10101152211427689,
              0.05150916427373886,
              -0.05058338865637779
            ],
            [
              -0.012403135187923908,
              -0.07118473947048187,
              0.0197928324341774
            ],
            [
              0.007633318193256855,
              0.02791261114180088,
              -0.07669500261545181
            ],
            [
              -0.009905882179737091,
              0.01482279971241951,
              0.09692312777042389
            ],
            [
              0.01022263988852501,
              -0.003031783504411578,
              0.04881589859724045
            ],
            [
              -0.040528010576963425,
              -0.09693973511457443,
              -0.014277319423854351
            ],
            [
              0.04240954667329788,
              -0.05026952177286148,
              0.02505936659872532
            ],
            [
              -0.06125591695308685,
              -0.0754173994064331,
              -0.15663479268550873
            ],
            [
              0.04018130525946617,
              -0.11337223649024963,
              -0.044852521270513535
            ],
            [
              0.06389181315898895,
              0.016940148547291756,
              0.021475492045283318
            ],
            [
              0.17561225593090057,
              0.07196380943059921,
              0.11213236302137375
            ],
            [
              0.03794372081756592,
              0.017171941697597504,
              0.035071905702352524
            ],
            [
              0.06386055797338486,
              -0.011197640560567379,
              -0.04788161441683769
            ],
            [
              0.0372181236743927,
              -0.05335293337702751,
              0.0007632173364982009
            ],
            [
              0.012315023690462112,
              -0.09386452287435532,
              -0.01583222858607769
            ],
            [
              0.0053093996830284595,
              0.06647563725709915,
              -0.04934126138687134
            ],
            [
              -0.05304044485092163,
              0.04011605307459831,
              0.06219092383980751
            ],
            [
              0.11551761627197266,
              -0.06517473608255386,
              -0.0188898965716362
            ],
            [
              0.10085318237543106,
              -0.08118323981761932,
              -0.05902130901813507
            ],
            [
              -0.08393718302249908,
              0.07679343968629837,
              -0.05247544124722481
            ],
            [
              -0.1557864397764206,
              -0.00929244700819254,
              -0.028261393308639526
            ]
          ],
          [
            [
              0.009788707830011845,
              -0.01795637235045433,
              -0.03546846657991409
            ],
            [
              0.023857450112700462,
              -0.04354960471391678,
              -0.019027652218937874
            ],
            [
              -0.02424468845129013,
              -0.0662665143609047,
              0.001188616850413382
            ],
            [
              0.028283072635531425,
              0.07070007175207138,
              0.0018159253522753716
            ],
            [
              -0.03979707136750221,
              0.010309497825801373,
              -0.01735571026802063
            ],
            [
              0.06579318642616272,
              -0.024687286466360092,
              -0.018759123980998993
            ],
            [
              -0.010497841984033585,
              0.048260848969221115,
              -0.026054922491312027
            ],
            [
              0.15525928139686584,
              0.07189454138278961,
              0.036960847675800323
            ],
            [
              0.08919180929660797,
              0.05982527509331703,
              -0.023759258911013603
            ],
            [
              0.09155289828777313,
              0.015713829547166824,
              -0.005778767168521881
            ],
            [
              0.020785488188266754,
              -0.039433013647794724,
              0.03906334564089775
            ],
            [
              -0.004199532326310873,
              0.03031262196600437,
              0.0055800871923565865
            ],
            [
              -0.09395340830087662,
              -0.056441131979227066,
              0.04398960620164871
            ],
            [
              -0.09548245370388031,
              0.021085895597934723,
              -0.04643335938453674
            ],
            [
              0.07230839133262634,
              0.040346208959817886,
              0.060206398367881775
            ],
            [
              0.04370265454053879,
              -0.05295732617378235,
              -0.014497132040560246
            ],
            [
              -0.08026199787855148,
              -0.03180824965238571,
              0.026435721665620804
            ],
            [
              0.1252455711364746,
              0.03428849205374718,
              -0.04907441511750221
            ],
            [
              0.02088506519794464,
              0.00014824664685875177,
              -0.08155515044927597
            ],
            [
              -0.04062564671039581,
              -0.03541504591703415,
              0.028467513620853424
            ],
            [
              0.021770376712083817,
              -0.009816409088671207,
              -0.02503928728401661
            ],
            [
              -0.12419366091489792,
              0.047545045614242554,
              0.004404277540743351
            ],
            [
              0.02720780484378338,
              -0.05513554438948631,
              -0.031176429241895676
            ],
            [
              0.04139550402760506,
              0.005846105515956879,
              -0.010131909511983395
            ]
          ],
          [
            [
              -0.08051445335149765,
              -0.13937042653560638,
              -0.0926147997379303
            ],
            [
              -0.10379386693239212,
              -0.08493427187204361,
              -0.17463970184326172
            ],
            [
              0.094432033598423,
              0.05225110426545143,
              0.08498432487249374
            ],
            [
              -0.030720649287104607,
              -0.009437316097319126,
              0.010364556685090065
            ],
            [
              0.07506567984819412,
              0.019020965322852135,
              -0.01936185546219349
            ],
            [
              -0.007494922261685133,
              -0.023787302896380424,
              -0.07613993436098099
            ],
            [
              -0.010167812928557396,
              -0.012848954647779465,
              0.01341988705098629
            ],
            [
              -0.07624523341655731,
              -0.051750827580690384,
              0.03550971299409866
            ],
            [
              -0.0978885367512703,
              -0.08848928660154343,
              -0.11762147396802902
            ],
            [
              -0.08125996589660645,
              -0.08247958868741989,
              -0.1558091789484024
            ],
            [
              0.0009964490309357643,
              -0.05487717315554619,
              -0.08332427591085434
            ],
            [
              0.011998830363154411,
              0.010519912466406822,
              0.0516151562333107
            ],
            [
              0.13517631590366364,
              0.04520634561777115,
              0.10456735640764236
            ],
            [
              -0.012002171017229557,
              0.06506700813770294,
              -0.05021675303578377
            ],
            [
              0.01137513667345047,
              -0.024150095880031586,
              -0.07065480202436447
            ],
            [
              -0.06385042518377304,
              0.026387188583612442,
              -0.07021739333868027
            ],
            [
              0.04460689052939415,
              0.09518390893936157,
              0.05009147524833679
            ],
            [
              -0.08812852203845978,
              -0.09710126370191574,
              -0.07282670587301254
            ],
            [
              -0.14448955655097961,
              -0.008384902961552143,
              -0.15138180553913116
            ],
            [
              0.13784366846084595,
              0.10596267133951187,
              0.050886429846286774
            ],
            [
              -0.05409004166722298,
              -0.15399223566055298,
              -0.10814390331506729
            ],
            [
              -0.018459293991327286,
              0.10275276750326157,
              0.16953986883163452
            ],
            [
              -0.020929591730237007,
              -0.10498692840337753,
              -0.03973378241062164
            ],
            [
              0.03250094875693321,
              0.026121165603399277,
              0.05364608392119408
            ]
          ],
          [
            [
              0.020296402275562286,
              0.03887954726815224,
              -0.03300770744681358
            ],
            [
              0.009343062527477741,
              0.03009762056171894,
              -0.03349677473306656
            ],
            [
              -0.12596388161182404,
              -0.056580349802970886,
              -0.1555408090353012
            ],
            [
              0.09667017310857773,
              0.16354216635227203,
              0.030548779293894768
            ],
            [
              -0.025669878348708153,
              -0.11714015901088715,
              0.010819765739142895
            ],
            [
              -0.013746529817581177,
              0.0351966954767704,
              0.03944440186023712
            ],
            [
              0.10906982421875,
              -0.01607518084347248,
              0.10121777653694153
            ],
            [
              -0.007738533895462751,
              0.07173531502485275,
              0.07910296320915222
            ],
            [
              0.1338309496641159,
              0.07777289301156998,
              0.057628706097602844
            ],
            [
              0.04669296741485596,
              0.024917593225836754,
              0.01698102056980133
            ],
            [
              0.11462265253067017,
              0.060829807072877884,
              0.05872083827853203
            ],
            [
              -0.09317880868911743,
              -0.030071111395955086,
              -0.07850552350282669
            ],
            [
              -0.10271338373422623,
              -0.13826210796833038,
              -0.11720656603574753
            ],
            [
              -0.08286791294813156,
              -0.07844968885183334,
              -0.14724554121494293
            ],
            [
              0.016800694167613983,
              0.15148131549358368,
              0.08373303711414337
            ],
            [
              0.10818298906087875,
              0.08392658084630966,
              0.05550870671868324
            ],
            [
              -0.024460680782794952,
              -0.071482352912426,
              -0.02235698513686657
            ],
            [
              0.0495682917535305,
              0.1292085200548172,
              0.055573951452970505
            ],
            [
              0.08789330720901489,
              0.13293962180614471,
              0.08409762382507324
            ],
            [
              -0.10296905785799026,
              -0.1063988134264946,
              -0.08225126564502716
            ],
            [
              0.04821905493736267,
              0.05796162784099579,
              0.00545880664139986
            ],
            [
              -0.08994652330875397,
              -0.021181931719183922,
              -0.10858716070652008
            ],
            [
              0.11478277295827866,
              0.09029968082904816,
              0.10463347285985947
            ],
            [
              0.026336634531617165,
              0.014258149079978466,
              0.059242695569992065
            ]
          ],
          [
            [
              0.11631879955530167,
              0.02504337579011917,
              -0.02128523774445057
            ],
            [
              0.04351644217967987,
              0.06879720091819763,
              0.0768260732293129
            ],
            [
              0.13683608174324036,
              -0.032571133226156235,
              -0.0020724765490740538
            ],
            [
              -0.05909314006567001,
              -0.09865230321884155,
              -0.018631108105182648
            ],
            [
              -0.08885246515274048,
              -0.03315794840455055,
              0.0582670196890831
            ],
            [
              -0.07047905027866364,
              0.005457200575619936,
              -0.06338747590780258
            ],
            [
              -0.02091435343027115,
              -0.074359230697155,
              0.03144274279475212
            ],
            [
              -0.09849176555871964,
              0.038410402834415436,
              -0.04275980964303017
            ],
            [
              -0.12468808144330978,
              -0.04895351454615593,
              0.03413569927215576
            ],
            [
              -0.0041710673831403255,
              0.10181298851966858,
              -0.013122271746397018
            ],
            [
              -0.1139364093542099,
              -0.032695919275283813,
              -0.005431887693703175
            ],
            [
              0.07206215709447861,
              0.044432543218135834,
              -0.07918591797351837
            ],
            [
              0.019875044003129005,
              0.01454735267907381,
              -0.04195212945342064
            ],
            [
              0.1465381681919098,
              -0.005165995564311743,
              -0.0011146405013278127
            ],
            [
              -0.09002629667520523,
              -0.0422218032181263,
              -0.04647046700119972
            ],
            [
              -0.08420731127262115,
              0.09359946846961975,
              0.03849020227789879
            ],
            [
              0.06558351963758469,
              -0.03555674850940704,
              -0.05388708412647247
            ],
            [
              -0.018263034522533417,
              0.05230649188160896,
              -0.04970208927989006
            ],
            [
              -0.002995256334543228,
              0.00690494617447257,
              0.09049983322620392
            ],
            [
              -0.06840059161186218,
              -0.057303544133901596,
              0.02461267076432705
            ],
            [
              -0.02787485159933567,
              0.019078101962804794,
              0.04057801142334938
            ],
            [
              0.013995426706969738,
              0.06546656787395477,
              0.05267426744103432
            ],
            [
              -0.07023362815380096,
              -0.05978694558143616,
              0.09830056130886078
            ],
            [
              -0.0693080723285675,
              0.0073188357055187225,
              -0.01625390537083149
            ]
          ],
          [
            [
              0.10760578513145447,
              -0.034081023186445236,
              -0.04511641710996628
            ],
            [
              0.030620133504271507,
              0.001985709648579359,
              0.014029749669134617
            ],
            [
              0.027672184631228447,
              0.05617017298936844,
              0.17386697232723236
            ],
            [
              -0.014796514064073563,
              -0.06633777171373367,
              0.02636745385825634
            ],
            [
              0.1012684628367424,
              0.021837249398231506,
              -0.032693102955818176
            ],
            [
              -0.02050008811056614,
              -0.0420706607401371,
              -0.011725683696568012
            ],
            [
              -0.14286082983016968,
              0.02893788553774357,
              -0.13395211100578308
            ],
            [
              -0.15687400102615356,
              0.007028368301689625,
              -0.0639411136507988
            ],
            [
              -0.13445442914962769,
              -0.08913258463144302,
              -0.11541186273097992
            ],
            [
              -0.008033371530473232,
              -0.01332126371562481,
              -0.11018194258213043
            ],
            [
              -0.026013795286417007,
              -0.09956090897321701,
              0.0029750673566013575
            ],
            [
              -0.0028899156022816896,
              0.11444287747144699,
              0.08679956197738647
            ],
            [
              0.07276470214128494,
              0.14331817626953125,
              -0.0321497917175293
            ],
            [
              0.08103486150503159,
              0.06437505036592484,
              0.18733201920986176
            ],
            [
              -0.11470196396112442,
              0.04858659580349922,
              -0.009392294101417065
            ],
            [
              -0.08791825920343399,
              -0.010207156650722027,
              -0.04462908208370209
            ],
            [
              0.1158222183585167,
              0.06402602791786194,
              0.007929266430437565
            ],
            [
              -0.108830526471138,
              -0.1517491489648819,
              -0.07440973073244095
            ],
            [
              -0.061216481029987335,
              0.06979494541883469,
              -0.05776865780353546
            ],
            [
              0.02207898162305355,
              -0.023825831711292267,
              0.11698734015226364
            ],
            [
              -0.0538669228553772,
              0.008432990871369839,
              -0.09841413795948029
            ],
            [
              0.13747462630271912,
              0.05059581622481346,
              0.016169169917702675
            ],
            [
              -0.01792285405099392,
              0.0184174794703722,
              -0.03134209290146828
            ],
            [
              -0.12090080976486206,
              -0.08846107125282288,
              -0.09636190533638
            ]
          ],
          [
            [
              -0.1320149004459381,
              -0.01624961569905281,
              -0.06625454127788544
            ],
            [
              -0.1988016963005066,
              -0.18952986598014832,
              -0.06118832528591156
            ],
            [
              0.11938690394163132,
              0.13398882746696472,
              -0.04380035772919655
            ],
            [
              -0.05814172700047493,
              0.05450158193707466,
              0.016680339351296425
            ],
            [
              0.1754266917705536,
              0.03243235871195793,
              0.18240168690681458
            ],
            [
              0.022218193858861923,
              -0.04189470037817955,
              -0.1457892209291458
            ],
            [
              0.025131629779934883,
              -0.06921108812093735,
              -0.005270007532089949
            ],
            [
              -0.07206910848617554,
              0.021909672766923904,
              -0.11510307341814041
            ],
            [
              -0.09269996732473373,
              -0.052266694605350494,
              -0.1333138644695282
            ],
            [
              -0.02933025173842907,
              -0.07449791580438614,
              -0.07906081527471542
            ],
            [
              -0.11089276522397995,
              -0.03954581916332245,
              -0.10824503749608994
            ],
            [
              0.16673490405082703,
              0.07476603984832764,
              0.04709932953119278
            ],
            [
              0.012014509178698063,
              -0.012662963941693306,
              0.08314169198274612
            ],
            [
              -0.014661411754786968,
              0.01564957946538925,
              -0.0578741654753685
            ],
            [
              -0.02244504913687706,
              -0.07972212135791779,
              -0.0688580572605133
            ],
            [
              -0.04468875005841255,
              -0.05716266110539436,
              -0.0035658213309943676
            ],
            [
              0.17399734258651733,
              -0.026081454008817673,
              0.021960142999887466
            ],
            [
              -0.12748900055885315,
              -0.14307568967342377,
              -0.04989415779709816
            ],
            [
              -0.07488173991441727,
              -0.01110079325735569,
              -0.030986428260803223
            ],
            [
              -0.009216894395649433,
              0.17318414151668549,
              0.034701455384492874
            ],
            [
              -0.04387539252638817,
              0.010773898102343082,
              -0.08202304691076279
            ],
            [
              0.1524483859539032,
              0.13866780698299408,
              0.08050242066383362
            ],
            [
              -0.10560194402933121,
              0.0013370055239647627,
              -0.1507951021194458
            ],
            [
              -0.047695934772491455,
              -0.020458444952964783,
              -0.04233948886394501
            ]
          ],
          [
            [
              -0.05832277610898018,
              -0.1579286903142929,
              -0.021900447085499763
            ],
            [
              -0.2159138023853302,
              -0.1430462896823883,
              -0.1734664887189865
            ],
            [
              -0.07063278555870056,
              0.0259934663772583,
              -0.01018435601145029
            ],
            [
              -0.07094836980104446,
              -0.023581137880682945,
              0.016641629859805107
            ],
            [
              0.1778174787759781,
              0.01785014197230339,
              0.04264102503657341
            ],
            [
              -0.15996359288692474,
              -0.07539403438568115,
              -0.060666270554065704
            ],
            [
              -0.1374972015619278,
              -0.15525150299072266,
              -0.153766930103302
            ],
            [
              -0.05923809856176376,
              -0.004273134749382734,
              0.0791935920715332
            ],
            [
              -0.10240568965673447,
              -0.011590049602091312,
              -0.09735014289617538
            ],
            [
              -0.01659601740539074,
              -0.006069983821362257,
              0.03325650095939636
            ],
            [
              -0.07224447280168533,
              0.09400302171707153,
              -0.05925099551677704
            ],
            [
              0.06855792552232742,
              -0.051402296870946884,
              0.021039815619587898
            ],
            [
              -0.027738554403185844,
              0.04274466633796692,
              0.11943592131137848
            ],
            [
              0.03386764973402023,
              0.050317440181970596,
              0.06819804012775421
            ],
            [
              0.022117383778095245,
              -0.08189395815134048,
              0.05033018812537193
            ],
            [
              0.011375215835869312,
              -0.1581219732761383,
              -0.10957620292901993
            ],
            [
              0.07473733276128769,
              0.00146714027505368,
              0.054350581020116806
            ],
            [
              -0.011038117110729218,
              -0.06567935645580292,
              -0.08263374865055084
            ],
            [
              -0.1737200766801834,
              -0.1555374711751938,
              0.022976955398917198
            ],
            [
              0.04550895467400551,
              0.087884321808815,
              0.14532986283302307
            ],
            [
              -0.15513309836387634,
              -0.06663521379232407,
              -0.07712286710739136
            ],
            [
              0.10270638763904572,
              0.1615036129951477,
              0.05996854603290558
            ],
            [
              0.0022782455198466778,
              0.002500596223399043,
              -0.128706693649292
            ],
            [
              0.0583329014480114,
              0.028518013656139374,
              0.09606368839740753
            ]
          ],
          [
            [
              0.0407676100730896,
              0.10007395595312119,
              0.09241778403520584
            ],
            [
              0.021159620955586433,
              0.08413059264421463,
              0.08597999066114426
            ],
            [
              0.149321049451828,
              0.013701463118195534,
              0.031041741371154785
            ],
            [
              -0.12491100281476974,
              -0.05441516637802124,
              -0.07602935284376144
            ],
            [
              -0.060745105147361755,
              -0.05241350457072258,
              0.07475113123655319
            ],
            [
              -0.06434127688407898,
              0.047620296478271484,
              0.0930306538939476
            ],
            [
              -0.09631280601024628,
              0.009852045215666294,
              0.09612980484962463
            ],
            [
              -0.0953165590763092,
              -0.0718335434794426,
              -0.0016481170896440744
            ],
            [
              0.002967118052765727,
              -0.02489214576780796,
              -0.08656298369169235
            ],
            [
              -0.040020786225795746,
              -0.0347771942615509,
              0.08357739448547363
            ],
            [
              -0.09581771492958069,
              -0.08502284437417984,
              -0.001997526502236724
            ],
            [
              -0.07457488030195236,
              0.007395766209810972,
              -0.09317664802074432
            ],
            [
              -0.02244989015161991,
              0.1108393743634224,
              -0.033414166420698166
            ],
            [
              0.08816322684288025,
              0.1341685950756073,
              0.019389353692531586
            ],
            [
              -0.12299896031618118,
              -0.005436984356492758,
              0.02788197435438633
            ],
            [
              0.03437740355730057,
              -0.05024697259068489,
              0.02327595464885235
            ],
            [
              -0.09011846035718918,
              0.03855731710791588,
              -0.09746706485748291
            ],
            [
              -0.04805126413702965,
              -0.12246432900428772,
              0.008572318591177464
            ],
            [
              -0.0754997730255127,
              -0.04916015639901161,
              0.11103619635105133
            ],
            [
              -0.012557229027152061,
              -0.05112766474485397,
              0.009891136549413204
            ],
            [
              0.08173291385173798,
              0.11024409532546997,
              0.04475341737270355
            ],
            [
              0.02172333188354969,
              0.09043190628290176,
              0.021742163226008415
            ],
            [
              -0.002382235135883093,
              0.07290121167898178,
              -0.0029432999435812235
            ],
            [
              -0.03819803148508072,
              -0.05034233257174492,
              -0.054865095764398575
            ]
          ],
          [
            [
              -0.19698837399482727,
              -0.1914847195148468,
              -0.15028850734233856
            ],
            [
              -0.07937581092119217,
              -0.07070247083902359,
              -0.10186022520065308
            ],
            [
              -0.08071600645780563,
              -0.03400776535272598,
              -0.03183876723051071
            ],
            [
              0.05381786823272705,
              0.04876919463276863,
              0.017425527796149254
            ],
            [
              0.14635974168777466,
              0.14099694788455963,
              0.11138230562210083
            ],
            [
              0.04229378700256348,
              0.07419086247682571,
              -0.08425653725862503
            ],
            [
              -0.052554186433553696,
              -0.015896057710051537,
              0.08670617640018463
            ],
            [
              0.016113966703414917,
              0.094370536506176,
              0.09161723405122757
            ],
            [
              -0.05048413947224617,
              0.10338281840085983,
              0.10886530578136444
            ],
            [
              0.004456985741853714,
              0.059399042278528214,
              -0.07300028949975967
            ],
            [
              0.03387974575161934,
              -0.027194103226065636,
              0.10603725910186768
            ],
            [
              0.11587532609701157,
              0.11391990631818771,
              -0.012342612259089947
            ],
            [
              -0.0008304865332320333,
              -0.05385337769985199,
              -0.04456857219338417
            ],
            [
              -0.09891227632761002,
              -0.08682707697153091,
              -0.043233729898929596
            ],
            [
              0.028036247938871384,
              -0.11934035271406174,
              0.006868456955999136
            ],
            [
              -0.14649640023708344,
              -0.03566667065024376,
              0.08974353224039078
            ],
            [
              0.04224051162600517,
              0.10812660306692123,
              0.11178680509328842
            ],
            [
              0.03450175002217293,
              -0.0022508283145725727,
              -0.009615850634872913
            ],
            [
              -0.17148926854133606,
              -0.07896864414215088,
              -0.08392617106437683
            ],
            [
              0.02252175845205784,
              0.007634960114955902,
              -0.04800014942884445
            ],
            [
              -0.046389080584049225,
              -0.038823384791612625,
              -0.10957948118448257
            ],
            [
              0.08034607768058777,
              0.05318683013319969,
              0.10779363662004471
            ],
            [
              0.04452173784375191,
              0.05934497341513634,
              0.06342671066522598
            ],
            [
              0.12715329229831696,
              0.10266156494617462,
              0.05327272787690163
            ]
          ],
          [
            [
              -0.1877353936433792,
              -0.07579958438873291,
              -0.13736802339553833
            ],
            [
              -0.04436888545751572,
              0.00513939093798399,
              -0.05750202760100365
            ],
            [
              -0.08338643610477448,
              -0.1023963913321495,
              0.004837715998291969
            ],
            [
              -0.004330898635089397,
              0.08929821103811264,
              0.1241423636674881
            ],
            [
              0.03633153438568115,
              -0.04359091445803642,
              -0.033900123089551926
            ],
            [
              -0.02029559388756752,
              -0.017297398298978806,
              -0.1118621826171875
            ],
            [
              -0.009120902977883816,
              -0.029260121285915375,
              0.05068003758788109
            ],
            [
              0.062076739966869354,
              0.08304274082183838,
              0.12712924182415009
            ],
            [
              0.07462972402572632,
              0.11758995801210403,
              0.06642502546310425
            ],
            [
              0.08223037421703339,
              -0.13173794746398926,
              -0.07033108174800873
            ],
            [
              0.1339726597070694,
              0.03222208842635155,
              0.028015118092298508
            ],
            [
              -0.04496351629495621,
              -0.057738300412893295,
              0.01822122000157833
            ],
            [
              0.08080221712589264,
              -0.07462040334939957,
              -0.11486324667930603
            ],
            [
              -0.11572037637233734,
              0.05848248302936554,
              -0.07907921075820923
            ],
            [
              -0.05573302507400513,
              0.03802790120244026,
              -0.05932444706559181
            ],
            [
              0.05743085592985153,
              -0.03280256316065788,
              -0.10188010334968567
            ],
            [
              -0.01338193565607071,
              0.0004441925266291946,
              0.10065825283527374
            ],
            [
              0.03203563764691353,
              -0.03790891170501709,
              0.011659245006740093
            ],
            [
              -0.037527892738580704,
              -0.051892489194869995,
              0.0774993896484375
            ],
            [
              0.10392732173204422,
              0.019509075209498405,
              0.09568426758050919
            ],
            [
              -0.10433516651391983,
              -0.06165604665875435,
              -0.10058614611625671
            ],
            [
              -0.01189920399338007,
              -0.0814376100897789,
              0.008226582780480385
            ],
            [
              0.023125872015953064,
              -0.11142061650753021,
              -0.07912429422140121
            ],
            [
              0.04323861002922058,
              0.10172178596258163,
              0.04627765715122223
            ]
          ],
          [
            [
              0.14480216801166534,
              0.10474279522895813,
              0.05519033968448639
            ],
            [
              0.20023879408836365,
              0.11484905332326889,
              0.041416265070438385
            ],
            [
              -0.030602023005485535,
              0.08105292171239853,
              0.08863808959722519
            ],
            [
              -0.06412701308727264,
              0.041736021637916565,
              -0.10665255784988403
            ],
            [
              -0.10536611080169678,
              -0.07430993765592575,
              0.02723347768187523
            ],
            [
              0.09113611280918121,
              0.06247221678495407,
              -0.06478825956583023
            ],
            [
              0.11771320551633835,
              0.03642934933304787,
              -0.018494918942451477
            ],
            [
              0.019798073917627335,
              -0.05715567618608475,
              -0.14397764205932617
            ],
            [
              -0.05517997592687607,
              -0.0014740683836862445,
              -0.08102680742740631
            ],
            [
              0.03384663909673691,
              0.013810032047331333,
              -0.05598069727420807
            ],
            [
              0.043361127376556396,
              -0.007395484950393438,
              -0.05596769601106644
            ],
            [
              -0.11905708909034729,
              -0.022644653916358948,
              0.03479288890957832
            ],
            [
              -0.044026657938957214,
              0.06596434116363525,
              0.010567909106612206
            ],
            [
              0.07849301397800446,
              0.10795024782419205,
              0.12303376942873001
            ],
            [
              0.12283196300268173,
              0.06010571867227554,
              -0.01935487799346447
            ],
            [
              0.052571434527635574,
              0.04490038380026817,
              -0.0025502964854240417
            ],
            [
              -0.1576334834098816,
              -0.06906836479902267,
              -0.0008414340554736555
            ],
            [
              0.04554031416773796,
              -0.016225984320044518,
              -0.009372993372380733
            ],
            [
              0.1694803684949875,
              0.13249318301677704,
              -0.008824723772704601
            ],
            [
              -0.0883876234292984,
              -0.12241999804973602,
              0.01364472322165966
            ],
            [
              0.11432336270809174,
              0.030632616952061653,
              0.006803879048675299
            ],
            [
              -0.006095232907682657,
              -0.07189623266458511,
              0.0514538399875164
            ],
            [
              0.12457738071680069,
              0.08976723998785019,
              -0.054796114563941956
            ],
            [
              -0.03983646258711815,
              -0.03512590378522873,
              -0.06402792036533356
            ]
          ],
          [
            [
              0.1562928706407547,
              0.030609792098402977,
              0.13258296251296997
            ],
            [
              0.2161542922258377,
              0.0032360567711293697,
              0.09601769596338272
            ],
            [
              0.05821242928504944,
              -0.07588227838277817,
              0.03964287042617798
            ],
            [
              -0.06001774221658707,
              -0.03475145250558853,
              -0.054596975445747375
            ],
            [
              -0.08436526358127594,
              -0.11150697618722916,
              -0.004785783588886261
            ],
            [
              -0.003796531818807125,
              0.049267906695604324,
              0.0585397370159626
            ],
            [
              0.0483698770403862,
              -0.06065412610769272,
              0.0685339942574501
            ],
            [
              -0.03311958536505699,
              -0.08683398365974426,
              0.05731929838657379
            ],
            [
              0.007345991674810648,
              -0.000989094260148704,
              0.0025057424791157246
            ],
            [
              -0.013543245382606983,
              0.012886470183730125,
              -0.04660550132393837
            ],
            [
              0.09618397057056427,
              0.04110347479581833,
              0.014940697699785233
            ],
            [
              -0.042279139161109924,
              -0.026019463315606117,
              -0.057972244918346405
            ],
            [
              0.0722360834479332,
              -0.07212857902050018,
              -0.11433016508817673
            ],
            [
              -0.07174883782863617,
              -0.062402475625276566,
              -0.020710427314043045
            ],
            [
              -0.05889135226607323,
              0.02698359452188015,
              0.1501375436782837
            ],
            [
              -0.04505278542637825,
              -0.04255697876214981,
              -0.010794495232403278
            ],
            [
              -0.002424509497359395,
              0.037185538560152054,
              -0.1514846384525299
            ],
            [
              -0.06326175481081009,
              0.07117550820112228,
              0.1215623989701271
            ],
            [
              0.17760640382766724,
              0.008322586305439472,
              -0.039963193237781525
            ],
            [
              -0.12900835275650024,
              -0.17873428761959076,
              0.022000111639499664
            ],
            [
              0.029422499239444733,
              0.03540783002972603,
              0.1571539342403412
            ],
            [
              -0.10758320987224579,
              -0.08464016765356064,
              -0.10199760645627975
            ],
            [
              0.13762164115905762,
              0.008635739795863628,
              0.11426594853401184
            ],
            [
              -0.028032714501023293,
              -0.033275894820690155,
              0.08777592331171036
            ]
          ],
          [
            [
              -0.02074947953224182,
              -0.018192971125245094,
              -0.00030747128766961396
            ],
            [
              -0.03890548273921013,
              -0.025130880996584892,
              -0.002110100816935301
            ],
            [
              0.11340425908565521,
              0.10046892613172531,
              0.03984200954437256
            ],
            [
              -0.04339797422289848,
              -0.02569861151278019,
              -0.05870015174150467
            ],
            [
              0.020334189757704735,
              0.03131786733865738,
              0.07837191224098206
            ],
            [
              -0.078799769282341,
              -0.09127772599458694,
              -0.0862349346280098
            ],
            [
              0.017382530495524406,
              -0.06981910765171051,
              -0.016069479286670685
            ],
            [
              -0.13722270727157593,
              -0.17110879719257355,
              -0.0619492270052433
            ],
            [
              -0.12827232480049133,
              -0.09659925848245621,
              -0.09564206004142761
            ],
            [
              -0.06442021578550339,
              -0.023458026349544525,
              -0.05657624080777168
            ],
            [
              -0.036754149943590164,
              -0.05433370918035507,
              -0.09489195048809052
            ],
            [
              0.018846485763788223,
              -0.0002239261957583949,
              0.06656987220048904
            ],
            [
              0.10886445641517639,
              0.02744361013174057,
              0.1219862848520279
            ],
            [
              0.10128002613782883,
              0.09659121185541153,
              0.08824902027845383
            ],
            [
              -0.12008383125066757,
              0.006811200175434351,
              -0.09774366021156311
            ],
            [
              -0.11549811065196991,
              0.0029644498135894537,
              0.0025256311055272818
            ],
            [
              0.06805557757616043,
              0.06542716920375824,
              0.017970910295844078
            ],
            [
              0.014841214753687382,
              -0.06368298828601837,
              -0.1461629718542099
            ],
            [
              -0.024782702326774597,
              0.008933312259614468,
              -0.09602244198322296
            ],
            [
              0.031197333708405495,
              0.01758762262761593,
              0.07235032320022583
            ],
            [
              -0.02024734951555729,
              -0.05318157374858856,
              -7.150707097025588e-05
            ],
            [
              0.11612046509981155,
              0.028308285400271416,
              0.01716618798673153
            ],
            [
              -0.07140836119651794,
              -0.01663406379520893,
              -0.0697353184223175
            ],
            [
              -0.022911304607987404,
              -0.0175622645765543,
              -0.020629292353987694
            ]
          ],
          [
            [
              0.0878620371222496,
              0.0983268991112709,
              0.05351177230477333
            ],
            [
              0.1442737728357315,
              0.13846096396446228,
              0.033879395574331284
            ],
            [
              0.04442191496491432,
              0.029395222663879395,
              0.05893682315945625
            ],
            [
              -0.08370289951562881,
              -0.0508333183825016,
              -0.026039982214570045
            ],
            [
              -0.07145548611879349,
              -0.11822634190320969,
              -0.0324401780962944
            ],
            [
              -0.025474512949585915,
              -0.03801780566573143,
              0.06425177305936813
            ],
            [
              0.04114246740937233,
              0.06939966976642609,
              -0.09557788819074631
            ],
            [
              -0.1278495341539383,
              -0.15819679200649261,
              -0.0983797237277031
            ],
            [
              -0.010023395530879498,
              -0.1039840579032898,
              -0.09371858090162277
            ],
            [
              -0.06422398239374161,
              -0.06133546307682991,
              0.02736596390604973
            ],
            [
              -0.0217589121311903,
              -0.12077135592699051,
              -0.08027773350477219
            ],
            [
              -0.010303913615643978,
              0.01945805922150612,
              0.012085476890206337
            ],
            [
              0.06323639303445816,
              -0.07007332891225815,
              0.026319732889533043
            ],
            [
              0.14573650062084198,
              -0.00026868615532293916,
              0.13392916321754456
            ],
            [
              0.0723838210105896,
              -0.06997203081846237,
              0.04014630615711212
            ],
            [
              0.05740092322230339,
              0.04977991804480553,
              -0.038307491689920425
            ],
            [
              -0.061043985188007355,
              0.0607270672917366,
              -0.0065451133996248245
            ],
            [
              -0.11778609454631805,
              0.008436952717602253,
              -0.06752141565084457
            ],
            [
              0.12297827750444412,
              -0.005298391450196505,
              0.006268342956900597
            ],
            [
              -0.10220468789339066,
              -0.06892726570367813,
              0.025793667882680893
            ],
            [
              0.07106851786375046,
              0.11888076364994049,
              0.06346558779478073
            ],
            [
              -0.11045553535223007,
              0.011083616875112057,
              0.09377626329660416
            ],
            [
              0.06247742474079132,
              -0.043528929352760315,
              -0.07074259221553802
            ],
            [
              -0.0761493369936943,
              -0.041852012276649475,
              -0.09522294998168945
            ]
          ],
          [
            [
              -0.03191809356212616,
              0.04598703235387802,
              -0.02318272367119789
            ],
            [
              -0.08062447607517242,
              0.04975326359272003,
              -0.04657411575317383
            ],
            [
              -0.04792138189077377,
              0.005340663716197014,
              -0.10845749080181122
            ],
            [
              0.10404105484485626,
              -0.007983972318470478,
              0.07254209369421005
            ],
            [
              -0.10811181366443634,
              -0.057048141956329346,
              0.08165973424911499
            ],
            [
              0.05226946994662285,
              -0.014043533243238926,
              -0.026181232184171677
            ],
            [
              -0.06601283699274063,
              -0.06633865088224411,
              0.09659581631422043
            ],
            [
              0.15889263153076172,
              0.10460727661848068,
              0.06531554460525513
            ],
            [
              0.12390371412038803,
              0.1394299566745758,
              0.049588676542043686
            ],
            [
              -0.0748344138264656,
              -0.06981038302183151,
              0.10187435895204544
            ],
            [
              0.002035236917436123,
              -0.0014082968700677156,
              0.021409502252936363
            ],
            [
              0.0822589322924614,
              -0.07600651681423187,
              -0.013099519535899162
            ],
            [
              0.012800587341189384,
              0.024317171424627304,
              0.015916557982563972
            ],
            [
              -0.04651040956377983,
              -0.06542225182056427,
              -0.05606662854552269
            ],
            [
              -0.009692874737083912,
              -0.061168234795331955,
              0.09849650412797928
            ],
            [
              0.12112284451723099,
              -0.05800238251686096,
              -0.06338243186473846
            ],
            [
              -0.10171443969011307,
              0.042839013040065765,
              0.07691177725791931
            ],
            [
              0.11279498785734177,
              -0.07388360053300858,
              0.04446408525109291
            ],
            [
              -0.04713147506117821,
              -0.013754886575043201,
              0.05677254870533943
            ],
            [
              -0.026307757943868637,
              0.09318402409553528,
              0.09502346068620682
            ],
            [
              -0.04936905950307846,
              -0.09145552664995193,
              -0.00246940809302032
            ],
            [
              0.003502802923321724,
              -0.09097117185592651,
              0.05594785138964653
            ],
            [
              -0.09196800738573074,
              -0.004329604096710682,
              0.04984608292579651
            ],
            [
              0.08499886840581894,
              0.044807467609643936,
              0.07121769338846207
            ]
          ],
          [
            [
              -0.057180359959602356,
              0.010891607031226158,
              0.0397205725312233
            ],
            [
              -0.07218112051486969,
              0.009806940332055092,
              0.04381934925913811
            ],
            [
              0.13270099461078644,
              -0.006644994020462036,
              -0.06593868881464005
            ],
            [
              -0.17207127809524536,
              0.0047491127625107765,
              0.07206875085830688
            ],
            [
              0.1558883786201477,
              -0.014649935066699982,
              -0.06422924995422363
            ],
            [
              -0.11267860233783722,
              -0.006808605045080185,
              0.044142529368400574
            ],
            [
              -0.1325998455286026,
              -0.027715086936950684,
              0.04758162423968315
            ],
            [
              -0.17184315621852875,
              -0.014605540782213211,
              0.06611799448728561
            ],
            [
              -0.1508188396692276,
              -0.007667981553822756,
              0.054183363914489746
            ],
            [
              -0.1444687396287918,
              -0.012712228111922741,
              0.057378098368644714
            ],
            [
              -0.1181955337524414,
              0.001229547313414514,
              0.046777959913015366
            ],
            [
              0.11287999153137207,
              -0.012241316959261894,
              -0.05496833473443985
            ],
            [
              0.12088055908679962,
              0.0022003967314958572,
              -0.05438798666000366
            ],
            [
              0.15056301653385162,
              0.004996210802346468,
              -0.0519474558532238
            ],
            [
              -0.12525862455368042,
              -0.022652311250567436,
              0.05012515187263489
            ],
            [
              -0.12034333497285843,
              -0.013399175368249416,
              0.038639407604932785
            ],
            [
              0.1244075670838356,
              0.014713688753545284,
              -0.036524247378110886
            ],
            [
              -0.1749928891658783,
              -0.0338977612555027,
              0.051968514919281006
            ],
            [
              -0.16266290843486786,
              0.01294134184718132,
              0.05707363039255142
            ],
            [
              0.11494573950767517,
              -0.01412195060402155,
              -0.03758927807211876
            ],
            [
              -0.0831388384103775,
              0.010893352329730988,
              0.04766419902443886
            ],
            [
              0.15387588739395142,
              0.02207876928150654,
              -0.046874240040779114
            ],
            [
              -0.1264648139476776,
              0.008869760669767857,
              0.05095440521836281
            ],
            [
              -0.05134240537881851,
              0.005234934855252504,
              0.01660090871155262
            ]
          ],
          [
            [
              -0.05074598267674446,
              -0.08658850938081741,
              -0.003478438826277852
            ],
            [
              -0.04773751273751259,
              -0.08517255634069443,
              -0.06372182071208954
            ],
            [
              0.02656594105064869,
              0.04205481335520744,
              0.06904560327529907
            ],
            [
              -0.15287289023399353,
              0.0006489001680165529,
              -0.03501077741384506
            ],
            [
              0.11522084474563599,
              0.03989937901496887,
              0.13023623824119568
            ],
            [
              -0.1249532550573349,
              -0.07392360270023346,
              0.012187644839286804
            ],
            [
              -0.058522991836071014,
              -0.0010083504021167755,
              -0.07781343162059784
            ],
            [
              -0.07026965171098709,
              -0.11688019335269928,
              -0.1106492280960083
            ],
            [
              -0.06585095077753067,
              -0.0804857611656189,
              -0.1639476865530014
            ],
            [
              -0.11137986183166504,
              -0.05553765594959259,
              -0.03518955782055855
            ],
            [
              -0.052364643663167953,
              -0.115691177546978,
              -0.07791447639465332
            ],
            [
              0.005389494821429253,
              0.10273868590593338,
              0.07601298391819
            ],
            [
              0.007670797407627106,
              0.07849126309156418,
              0.01298467069864273
            ],
            [
              0.15916182100772858,
              0.15208221971988678,
              0.06356033682823181
            ],
            [
              -0.13102509081363678,
              -0.10443993657827377,
              0.011599530465900898
            ],
            [
              -0.16193710267543793,
              -0.1378394514322281,
              -0.04630425199866295
            ],
            [
              0.015732165426015854,
              0.012224682606756687,
              -0.02126338891685009
            ],
            [
              -0.06426487118005753,
              -0.10079709440469742,
              -0.13457746803760529
            ],
            [
              -0.08409024029970169,
              -0.17679016292095184,
              -0.005414505023509264
            ],
            [
              0.10421602427959442,
              0.13845211267471313,
              -0.024458566680550575
            ],
            [
              -0.07086661458015442,
              -0.09552045166492462,
              -0.09574005752801895
            ],
            [
              0.06154756620526314,
              0.032785940915346146,
              -0.004879873711615801
            ],
            [
              -0.08934866636991501,
              -0.07913468033075333,
              -0.07477042078971863
            ],
            [
              -0.034922707825899124,
              -0.05322301760315895,
              -0.05521952360868454
            ]
          ],
          [
            [
              -0.15422773361206055,
              -0.051155585795640945,
              -0.0958113819360733
            ],
            [
              -0.05895262584090233,
              0.011181525886058807,
              0.024133430793881416
            ],
            [
              -0.15011389553546906,
              -0.0227452851831913,
              0.0075509618036448956
            ],
            [
              0.0551883727312088,
              -0.04674364626407623,
              -0.03952164202928543
            ],
            [
              0.04950649291276932,
              -0.013623642735183239,
              -0.013422204181551933
            ],
            [
              -0.04407132789492607,
              -0.05196684971451759,
              0.06670349091291428
            ],
            [
              -0.0025811486411839724,
              -0.03234308212995529,
              0.013038611970841885
            ],
            [
              0.13979895412921906,
              0.11126235872507095,
              0.056116435676813126
            ],
            [
              0.06269155442714691,
              0.17184150218963623,
              0.13857664167881012
            ],
            [
              -0.03212791308760643,
              -0.09726063162088394,
              0.09734969586133957
            ],
            [
              -0.004374433308839798,
              -0.042076244950294495,
              0.03030947595834732
            ],
            [
              0.04435821995139122,
              -0.01860649511218071,
              -0.0928112268447876
            ],
            [
              -0.05845501273870468,
              -0.02332002855837345,
              -0.06665287911891937
            ],
            [
              -0.09680553525686264,
              -0.12818026542663574,
              -0.015695076435804367
            ],
            [
              -0.015050719492137432,
              -0.02231084182858467,
              -0.0401349738240242
            ],
            [
              0.05828210711479187,
              -0.07369241118431091,
              -0.03621445223689079
            ],
            [
              -0.10601701587438583,
              0.04055403918027878,
              -0.00553167937323451
            ],
            [
              -0.02024334855377674,
              0.004430847242474556,
              0.0594697929918766
            ],
            [
              -0.1028277650475502,
              0.014843465760350227,
              -0.06726524978876114
            ],
            [
              0.08958440274000168,
              -0.08428364247083664,
              0.06769236922264099
            ],
            [
              -0.024151142686605453,
              0.024171223863959312,
              0.07954894751310349
            ],
            [
              0.08079461008310318,
              -0.06614773720502853,
              -0.013598122633993626
            ],
            [
              -0.05909014120697975,
              -0.04947315528988838,
              0.05591720715165138
            ],
            [
              0.07711572200059891,
              0.11992674320936203,
              0.019316233694553375
            ]
          ],
          [
            [
              0.245372474193573,
              0.12100283801555634,
              0.04630179703235626
            ],
            [
              0.15250402688980103,
              0.1263454556465149,
              0.09400931745767593
            ],
            [
              0.0932813510298729,
              0.0984966978430748,
              0.08067791163921356
            ],
            [
              -0.16432738304138184,
              -0.10668206214904785,
              -0.0009176087332889438
            ],
            [
              -0.15026043355464935,
              -0.017217714339494705,
              -0.07701904326677322
            ],
            [
              0.0678376629948616,
              0.09507795423269272,
              -0.09314020723104477
            ],
            [
              0.11349880695343018,
              -0.054943956434726715,
              0.022100605070590973
            ],
            [
              -0.16620281338691711,
              -0.028518635779619217,
              -0.03938481956720352
            ],
            [
              -0.08366477489471436,
              -0.06356514245271683,
              -0.15083779394626617
            ],
            [
              0.019458001479506493,
              0.010360565967857838,
              -0.017730336636304855
            ],
            [
              -0.03830337896943092,
              -0.12368623167276382,
              -0.07714495062828064
            ],
            [
              -0.12171939015388489,
              -0.09423553198575974,
              0.04053068161010742
            ],
            [
              -0.03715863078832626,
              0.07572684437036514,
              0.11523763090372086
            ],
            [
              0.10418617725372314,
              0.08553346991539001,
              0.16099433600902557
            ],
            [
              -0.004428178537636995,
              0.10670996457338333,
              0.015009293332695961
            ],
            [
              -0.05091186612844467,
              0.09938594698905945,
              0.05590560659766197
            ],
            [
              -0.04365159943699837,
              -0.0502702035009861,
              -0.010988502763211727
            ],
            [
              -0.043369244784116745,
              -0.017163215205073357,
              -0.019924290478229523
            ],
            [
              0.19074930250644684,
              0.13417406380176544,
              -0.029186027124524117
            ],
            [
              -0.16212040185928345,
              -0.049737658351659775,
              -0.0017883105902001262
            ],
            [
              0.12756164371967316,
              0.048604175448417664,
              -0.015123392455279827
            ],
            [
              -0.07432333379983902,
              0.07437479496002197,
              0.09407315403223038
            ],
            [
              0.042051155120134354,
              -0.011245839297771454,
              0.06579529494047165
            ],
            [
              -0.12543819844722748,
              -0.11142953485250473,
              -0.054521046578884125
            ]
          ],
          [
            [
              0.05720829591155052,
              -0.004997519310563803,
              -0.036242932081222534
            ],
            [
              0.0477742962539196,
              -0.010542002506554127,
              -0.07910743355751038
            ],
            [
              -0.1152184009552002,
              -0.011611846275627613,
              -0.023029297590255737
            ],
            [
              0.0026255138218402863,
              0.06193546950817108,
              -0.06081584841012955
            ],
            [
              -0.05264822021126747,
              -0.06654070317745209,
              0.05548591539263725
            ],
            [
              0.042618922889232635,
              0.05379820615053177,
              0.005594997201114893
            ],
            [
              0.02331201359629631,
              0.09141753613948822,
              -0.038544248789548874
            ],
            [
              0.022822264581918716,
              0.08739999681711197,
              -0.00524566788226366
            ],
            [
              0.009320728480815887,
              -0.04778669402003288,
              -0.02268812246620655
            ],
            [
              0.0006998319877311587,
              -0.03093576803803444,
              -0.07609972357749939
            ],
            [
              0.0745653584599495,
              -0.03792888671159744,
              0.011430875398218632
            ],
            [
              -0.013121113181114197,
              0.0011973237851634622,
              0.02793615311384201
            ],
            [
              -0.11338675767183304,
              0.036487285047769547,
              0.0005803139065392315
            ],
            [
              -0.072235107421875,
              -0.07387284189462662,
              -0.07550351321697235
            ],
            [
              0.15989606082439423,
              -0.03072242997586727,
              -0.05333295464515686
            ],
            [
              0.03256353735923767,
              0.06082964688539505,
              -0.016283169388771057
            ],
            [
              0.009013152681291103,
              0.005219395738095045,
              0.020393451675772667
            ],
            [
              0.10902183502912521,
              0.10478591173887253,
              -0.04642460122704506
            ],
            [
              0.006654871627688408,
              -0.006503160111606121,
              0.011330831795930862
            ],
            [
              -0.11296572536230087,
              -0.0289340540766716,
              -0.04600128158926964
            ],
            [
              0.004673244431614876,
              -0.03485269099473953,
              -0.04194409027695656
            ],
            [
              0.0084465891122818,
              -0.05820544436573982,
              -0.03842595964670181
            ],
            [
              0.06813152879476547,
              -0.031481266021728516,
              0.005187245551496744
            ],
            [
              0.012357024475932121,
              0.014814301393926144,
              -0.001872341730631888
            ]
          ],
          [
            [
              -0.02936463989317417,
              -0.01786314696073532,
              -0.020789651200175285
            ],
            [
              -0.03583167865872383,
              0.015327325090765953,
              -0.01238858699798584
            ],
            [
              0.02429826185107231,
              -0.04890637844800949,
              -0.04865656793117523
            ],
            [
              0.035853806883096695,
              -0.005366649013012648,
              0.08111350983381271
            ],
            [
              0.13769575953483582,
              -0.04869818314909935,
              -0.009515063837170601
            ],
            [
              -0.04450429603457451,
              -0.03751758113503456,
              -0.04561048373579979
            ],
            [
              -0.08724629878997803,
              -0.1005864143371582,
              0.051386941224336624
            ],
            [
              0.003548958571627736,
              0.04119725897908211,
              0.07505638897418976
            ],
            [
              0.030497431755065918,
              0.07768231630325317,
              0.012962459586560726
            ],
            [
              0.011238457635045052,
              -0.012913801707327366,
              -0.03248593583703041
            ],
            [
              -0.07476361840963364,
              0.03319552168250084,
              -0.007113311439752579
            ],
            [
              0.10128801316022873,
              0.06540074944496155,
              -0.020969437435269356
            ],
            [
              0.0911126658320427,
              -0.06472238898277283,
              -0.0730741024017334
            ],
            [
              -0.036280557513237,
              0.006324033718556166,
              -0.0746573880314827
            ],
            [
              -0.08965961635112762,
              0.008917942643165588,
              -0.03898179903626442
            ],
            [
              -0.060611870139837265,
              0.009372214786708355,
              -0.06641174852848053
            ],
            [
              0.06600183248519897,
              0.09107136726379395,
              -0.0038322575856000185
            ],
            [
              0.015309164300560951,
              -0.09390859305858612,
              0.035740047693252563
            ],
            [
              -0.054976459592580795,
              -0.06970787048339844,
              -0.023812804371118546
            ],
            [
              0.057132262736558914,
              -0.023287789896130562,
              -0.0033983190078288317
            ],
            [
              -0.03380590304732323,
              0.016521776095032692,
              -0.04191417992115021
            ],
            [
              0.1073690801858902,
              0.07960876077413559,
              0.021227946504950523
            ],
            [
              -0.06711136549711227,
              0.02768748439848423,
              0.04587787017226219
            ],
            [
              0.006440068129450083,
              0.007067417725920677,
              -0.007465051952749491
            ]
          ],
          [
            [
              0.04071442037820816,
              -0.02047324925661087,
              -0.03867363557219505
            ],
            [
              0.057909633964300156,
              -0.027665989473462105,
              -0.08123326301574707
            ],
            [
              0.010540790855884552,
              -0.07805021107196808,
              0.03300701826810837
            ],
            [
              -0.059837471693754196,
              -0.08288925886154175,
              -0.018955983221530914
            ],
            [
              -0.13472998142242432,
              -0.06269534677267075,
              0.05345548316836357
            ],
            [
              -0.024902725592255592,
              -0.044452838599681854,
              -0.053237926214933395
            ],
            [
              -0.011639971286058426,
              -0.06809079647064209,
              0.024013038724660873
            ],
            [
              -0.09831555187702179,
              0.08873521536588669,
              -0.0746956467628479
            ],
            [
              0.011736911721527576,
              -0.0037530947010964155,
              -0.018178943544626236
            ],
            [
              0.037849925458431244,
              -0.03733966127038002,
              0.013064874336123466
            ],
            [
              -0.03804788365960121,
              0.002049976959824562,
              -0.0005738608888350427
            ],
            [
              0.015073493123054504,
              0.058666396886110306,
              0.02780158817768097
            ],
            [
              0.025331802666187286,
              -0.06353229284286499,
              0.006853332277387381
            ],
            [
              0.05333524942398071,
              0.0670398697257042,
              0.01742139831185341
            ],
            [
              -0.03004232980310917,
              0.08784520626068115,
              0.0645001009106636
            ],
            [
              0.024915270507335663,
              0.07100187987089157,
              -0.05415584519505501
            ],
            [
              -0.06663703173398972,
              0.04204678162932396,
              0.047411344945430756
            ],
            [
              0.03169962763786316,
              -0.06312344968318939,
              0.0011933451751247048
            ],
            [
              0.11279250681400299,
              0.09270203858613968,
              -0.09609925001859665
            ],
            [
              -0.06365704536437988,
              -0.018675649538636208,
              0.07123125344514847
            ],
            [
              0.07560513913631439,
              -0.014572826214134693,
              -0.05964464321732521
            ],
            [
              -0.012549600563943386,
              0.042900603264570236,
              0.08769118785858154
            ],
            [
              0.09095210582017899,
              0.030502574518322945,
              -0.02509588748216629
            ],
            [
              -0.039960768073797226,
              -0.024179067462682724,
              0.03262261673808098
            ]
          ]
        ],
        "conv_bias": [
          0.025417231023311615,
          -0.07270478457212448,
          0.06138625368475914,
          0.054290298372507095,
          -0.08078955113887787,
          -0.06003551557660103,
          0.08638890087604523,
          0.05220610275864601,
          -0.008319470100104809,
          -0.05876830220222473,
          -0.011835136450827122,
          -0.03458728641271591,
          0.07906512171030045,
          -0.11266277730464935,
          0.06686356663703918,
          0.127274289727211,
          0.035093553364276886,
          -0.05207907781004906,
          0.16601675748825073,
          -0.04920945316553116,
          0.11239119619131088,
          -0.020443862304091454,
          0.037447210401296616,
          -0.04421696439385414
        ]
      },
      {
        "layer": 1,
        "dilation": 2,
        "conv_weight": [
          [
            [
              -0.1429629921913147,
              -0.020472411066293716,
              -0.1573149859905243
            ],
            [
              0.0006604454247280955,
              0.17743022739887238,
              0.0992177203297615
            ],
            [
              0.014768204651772976,
              0.03177135810256004,
              0.014612864702939987
            ],
            [
              0.06779200583696365,
              -0.07521479576826096,
              0.07705910503864288
            ],
            [
              -0.06677315384149551,
              0.06915829330682755,
              -0.05818834900856018
            ],
            [
              0.02996760979294777,
              0.038902509957551956,
              0.05918390303850174
            ],
            [
              -9.727162978379056e-05,
              0.0554862804710865,
              -0.008722901344299316
            ],
            [
              -0.029865844175219536,
              0.004502930212765932,
              0.07466620206832886
            ],
            [
              0.013221648521721363,
              0.023280370980501175,
              -0.03607849404215813
            ],
            [
              -0.013172725215554237,
              0.04096432030200958,
              -0.08264435827732086
            ],
            [
              0.04445171728730202,
              -0.20458711683750153,
              -0.09804818779230118
            ],
            [
              0.014574426226317883,
              -0.13241007924079895,
              -0.057900771498680115
            ],
            [
              -0.0644613653421402,
              0.13862396776676178,
              0.04349789023399353
            ],
            [
              -0.0968392863869667,
              0.06335517019033432,
              0.013488088734447956
            ],
            [
              0.01400893833488226,
              0.07872821390628815,
              0.004410263616591692
            ],
            [
              0.018647802993655205,
              0.12225890159606934,
              0.021377597004175186
            ],
            [
              -0.013801263645291328,
              -0.0500008650124073,
              -0.018937336280941963
            ],
            [
              0.02608705870807171,
              -0.02212686277925968,
              0.007893419824540615
            ],
            [
              -0.06584852933883667,
              0.09371668845415115,
              -0.08831515908241272
            ],
            [
              0.04797689989209175,
              -0.10154484212398529,
              -0.04400290548801422
            ],
            [
              -0.10116565972566605,
              0.09902794659137726,
              0.04941735789179802
            ],
            [
              -0.005022190976887941,
              -0.026415633037686348,
              0.03424340486526489
            ],
            [
              -0.023043064400553703,
              -0.01963178627192974,
              -0.01722153089940548
            ],
            [
              -0.06742103397846222,
              -0.03247857466340065,
              0.07404012233018875
            ]
          ],
          [
            [
              -0.10944560170173645,
              0.05930935963988304,
              0.029504874721169472
            ],
            [
              -0.12616416811943054,
              0.04190113767981529,
              -0.012286478653550148
            ],
            [
              0.0569303072988987,
              -0.02120543271303177,
              0.010152590461075306
            ],
            [
              0.00796831026673317,
              0.0022100138012319803,
              0.0009634250891394913
            ],
            [
              0.024106431752443314,
              -0.0712251141667366,
              -0.05580616369843483
            ],
            [
              -0.05305005609989166,
              -0.01959625817835331,
              -0.05066683143377304
            ],
            [
              -0.046952102333307266,
              0.003687886521220207,
              0.0060912990011274815
            ],
            [
              0.03892429172992706,
              -0.06556723266839981,
              -0.02318757213652134
            ],
            [
              -0.02582167461514473,
              -0.0796734169125557,
              -0.011301848106086254
            ],
            [
              -0.09559055417776108,
              0.04626844450831413,
              -0.03470480442047119
            ],
            [
              0.11277908831834793,
              0.02872600592672825,
              -0.05617212504148483
            ],
            [
              0.032469749450683594,
              -0.049660246819257736,
              0.0007327555795200169
            ],
            [
              -0.1348530501127243,
              0.03441169485449791,
              0.0057968879118561745
            ],
            [
              -0.0038934117183089256,
              -0.02052145078778267,
              0.06149490922689438
            ],
            [
              -0.0452713668346405,
              0.050452157855033875,
              0.011497550643980503
            ],
            [
              -0.05289428308606148,
              0.05237530916929245,
              0.026281850412487984
            ],
            [
              0.02308935485780239,
              0.004472064319998026,
              0.031476013362407684
            ],
            [
              -0.08785159140825272,
              -0.020663991570472717,
              -0.10321056842803955
            ],
            [
              -0.04031636193394661,
              0.05715660750865936,
              -0.02770715020596981
            ],
            [
              0.05701461806893349,
              0.022946687415242195,
              -0.0019098799675703049
            ],
            [
              -0.12405411899089813,
              -0.027144433930516243,
              -0.0065159546211361885
            ],
            [
              0.07453501969575882,
              -0.0019094280432909727,
              0.05934634059667587
            ],
            [
              -0.04181049019098282,
              -0.05110196769237518,
              -0.04749692603945732
            ],
            [
              -0.008265925571322441,
              -0.05092320218682289,
              0.08629918098449707
            ]
          ],
          [
            [
              0.010399078018963337,
              0.00638263626024127,
              0.005610557738691568
            ],
            [
              -0.04743238165974617,
              -0.05226665362715721,
              -0.056474536657333374
            ],
            [
              -0.044777706265449524,
              -0.0154062919318676,
              -0.025047026574611664
            ],
            [
              -0.029323162510991096,
              -0.03822679445147514,
              -0.028815848752856255
            ],
            [
              0.0002625832275953144,
              0.022546207532286644,
              -0.05123262479901314
            ],
            [
              -0.0737379714846611,
              -0.05924759805202484,
              -0.0722685307264328
            ],
            [
              0.017872946336865425,
              -0.028001323342323303,
              0.02828880585730076
            ],
            [
              -0.057366423308849335,
              0.01979530230164528,
              0.04823707416653633
            ],
            [
              0.009170410223305225,
              0.05628344789147377,
              0.07559080421924591
            ],
            [
              -0.053091540932655334,
              -0.03946933150291443,
              -0.04578915238380432
            ],
            [
              -0.035039570182561874,
              -0.05265213921666145,
              -0.03972769156098366
            ],
            [
              0.04830128327012062,
              0.03677154332399368,
              0.0005228061927482486
            ],
            [
              0.11798195540904999,
              0.022237589582800865,
              0.02927068993449211
            ],
            [
              0.030893370509147644,
              -0.03338335454463959,
              -0.0016930270940065384
            ],
            [
              -0.005618338938802481,
              0.02354205772280693,
              0.012490861117839813
            ],
            [
              0.0009913149988278747,
              -0.029582127928733826,
              -0.0339583158493042
            ],
            [
              0.011237526312470436,
              0.01572234369814396,
              0.04844985157251358
            ],
            [
              -0.06303828954696655,
              -0.05377253517508507,
              -0.06371399015188217
            ],
            [
              -0.014339156448841095,
              0.015125134959816933,
              0.07158712297677994
            ],
            [
              -0.026668082922697067,
              0.0482470877468586,
              0.05524902045726776
            ],
            [
              0.04134802147746086,
              0.053327467292547226,
              -0.018313363194465637
            ],
            [
              -0.009740443900227547,
              -0.020158661529421806,
              -0.019771374762058258
            ],
            [
              -0.03188925236463547,
              -0.03380286321043968,
              0.012320870533585548
            ],
            [
              -0.04631134867668152,
              -0.009775032289326191,
              0.01934603601694107
            ]
          ],
          [
            [
              -0.020320681855082512,
              0.02811216190457344,
              0.06950730085372925
            ],
            [
              -0.11571302264928818,
              -0.016070328652858734,
              0.10491728037595749
            ],
            [
              0.05118317902088165,
              0.06641818583011627,
              -0.0493997298181057
            ],
            [
              0.008886695839464664,
              0.012417858466506004,
              -0.025577526539564133
            ],
            [
              0.01576399989426136,
              -0.024096451699733734,
              -0.052973128855228424
            ],
            [
              -0.16746950149536133,
              -0.060851044952869415,
              0.051520440727472305
            ],
            [
              -0.05870269611477852,
              -0.040066853165626526,
              0.06760425865650177
            ],
            [
              -0.01976863108575344,
              0.02142278477549553,
              -0.05364641919732094
            ],
            [
              0.0068696001544594765,
              0.04597554728388786,
              0.012324772775173187
            ],
            [
              -0.06077035889029503,
              0.003119289642199874,
              0.13687945902347565
            ],
            [
              0.001246531610377133,
              -0.00024062683223746717,
              -0.02278280071914196
            ],
            [
              0.08816048502922058,
              0.027569059282541275,
              -0.12034331262111664
            ],
            [
              -0.028882404789328575,
              0.06434410065412521,
              -0.06805256009101868
            ],
            [
              -0.020505787804722786,
              0.04574938118457794,
              0.060946542769670486
            ],
            [
              -0.019913574680685997,
              0.0016266850288957357,
              0.044676464051008224
            ],
            [
              -0.03601223602890968,
              0.03391134738922119,
              0.03845064342021942
            ],
            [
              0.0717107355594635,
              -0.0020349775440990925,
              -0.10930363088846207
            ],
            [
              -0.17790547013282776,
              -0.09775335341691971,
              0.14396652579307556
            ],
            [
              -0.025304246693849564,
              0.002537353429943323,
              0.0942162275314331
            ],
            [
              0.04552418738603592,
              -0.01172754354774952,
              -0.08573254942893982
            ],
            [
              -0.08817779272794724,
              -0.0013389462837949395,
              0.08361880481243134
            ],
            [
              0.07864410430192947,
              0.047329310327768326,
              -0.08854515850543976
            ],
            [
              -0.04360891506075859,
              -0.029951175674796104,
              -0.00781303457915783
            ],
            [
              0.021340176463127136,
              0.029826756566762924,
              -0.047281213104724884
            ]
          ],
          [
            [
              0.10901109129190445,
              0.004424665588885546,
              -0.05306145176291466
            ],
            [
              0.08825460821390152,
              -0.09401366859674454,
              -0.0810341089963913
            ],
            [
              -0.05682593956589699,
              0.07700081169605255,
              -0.021304577589035034
            ],
            [
              0.16221725940704346,
              0.06419792026281357,
              0.106174036860466
            ],
            [
              -0.024590684100985527,
              -0.05691737309098244,
              -0.04317460209131241
            ],
            [
              0.06863532215356827,
              0.02837425470352173,
              0.04833125323057175
            ],
            [
              -0.03930998966097832,
              -0.0013838253216817975,
              -0.07952579110860825
            ],
            [
              0.09320925921201706,
              0.0940745398402214,
              0.10729347169399261
            ],
            [
              0.05099648982286453,
              0.1575464904308319,
              0.10984915494918823
            ],
            [
              0.12496159970760345,
              -0.08257445693016052,
              -0.04654020816087723
            ],
            [
              -0.024497052654623985,
              0.04929047077894211,
              0.1472252905368805
            ],
            [
              -0.10626860707998276,
              -0.010445489548146725,
              -0.06307178735733032
            ],
            [
              0.04258410632610321,
              0.08143164217472076,
              -0.01981275901198387
            ],
            [
              -0.04649614170193672,
              -0.0595085509121418,
              -0.17342393100261688
            ],
            [
              -0.0721425861120224,
              -0.04346265271306038,
              -0.11031369119882584
            ],
            [
              0.1117844358086586,
              -0.028428394347429276,
              -0.0710432156920433
            ],
            [
              -0.1154303103685379,
              0.07124964147806168,
              0.012339741922914982
            ],
            [
              0.08131148666143417,
              0.035105351358652115,
              0.057376984506845474
            ],
            [
              -0.25134122371673584,
              -0.15945236384868622,
              -0.2351926565170288
            ],
            [
              0.00935410801321268,
              0.028375376015901566,
              0.040170684456825256
            ],
            [
              0.13694947957992554,
              0.021353738382458687,
              -0.018283948302268982
            ],
            [
              -0.017090681940317154,
              0.05233512073755264,
              0.020273035392165184
            ],
            [
              0.031505417078733444,
              0.05634739249944687,
              -0.018017586320638657
            ],
            [
              -0.02920328453183174,
              0.044447436928749084,
              -0.055008821189403534
            ]
          ],
          [
            [
              0.04623854532837868,
              0.03486502170562744,
              0.00877378974109888
            ],
            [
              -0.049160655587911606,
              0.0454443022608757,
              -0.0540492869913578
            ],
            [
              -0.03370046615600586,
              0.00022395684209186584,
              -0.04908665269613266
            ],
            [
              -0.09619186818599701,
              -0.12072669714689255,
              0.06448451429605484
            ],
            [
              -0.115885891020298,
              -0.19813860952854156,
              -0.023654816672205925
            ],
            [
              -0.047322724014520645,
              -0.07580141723155975,
              -0.04056951403617859
            ],
            [
              0.035370808094739914,
              0.16364671289920807,
              -0.011407075449824333
            ],
            [
              -0.004316925536841154,
              -0.06063152849674225,
              -0.043607376515865326
            ],
            [
              0.0036607428919523954,
              -0.17927676439285278,
              -0.07988690584897995
            ],
            [
              0.043280407786369324,
              0.030598701909184456,
              -0.022213423624634743
            ],
            [
              0.0378185398876667,
              -0.027107402682304382,
              -0.015434554778039455
            ],
            [
              0.02704313024878502,
              -0.053693026304244995,
              0.030465377494692802
            ],
            [
              -0.054166097193956375,
              0.09147360920906067,
              -0.05827276036143303
            ],
            [
              0.035336934030056,
              0.0718577653169632,
              -0.012470840476453304
            ],
            [
              0.115146704018116,
              0.04307573288679123,
              -0.03842167183756828
            ],
            [
              -0.03504262864589691,
              -0.02646191418170929,
              -0.022951308637857437
            ],
            [
              0.008585620671510696,
