{
  "model_info": {
    "name": "flstudio_cpu_optimized",
    "version": "1.0.0",
    "architecture": "WaveNet",
    "causal": true,
    "sample_rate": 44100,
    "receptive_field": 127,
    "latency_ms": 2.88
  },
  "architecture": {
    "channels": 20,
    "num_layers": 6,
    "kernel_size": 3,
    "dilation_base": 2,
    "dilations": [
      1,
      2,
      4,
      8,
      16,
      32
    ]
  },
  "weights": {
    "input_conv": {
      "weight": [
        0.35488444566726685,
        -0.9359570145606995,
        -0.9627109169960022,
        0.19763603806495667,
        -1.1423262357711792,
        -0.3845888674259186,
        0.20280084013938904,
        0.256734699010849,
        0.08913005888462067,
        0.5798898339271545,
        -0.9599758982658386,
        1.0026894807815552,
        0.869824230670929,
        0.4956417679786682,
        0.4565572440624237,
        0.4290963113307953,
        -0.9409579634666443,
        -0.8888248801231384,
        -0.1740044802427292,
        0.5642289519309998
      ],
      "bias": [
        -0.5186042785644531,
        0.11400633305311203,
        -0.33960652351379395,
        0.12853054702281952,
        -0.5984302163124084,
        -0.5106282830238342,
        -0.26013681292533875,
        0.22641146183013916,
        0.8486483097076416,
        0.5537269711494446,
        0.4645467698574066,
        0.16079305112361908,
        0.7634251713752747,
        0.20113377273082733,
        -0.6744723916053772,
        -0.8046734929084778,
        -0.1418236643075943,
        0.151506707072258,
        0.7137777805328369,
        -0.0835203230381012
      ]
    },
    "residual_blocks": [
      {
        "layer": 0,
        "dilation": 1,
        "conv_weight": [
          [
            [
              -0.10196259617805481,
              0.020971963182091713,
              0.04376861825585365
            ],
            [
              0.03986307978630066,
              -0.0456816740334034,
              0.017851905897259712
            ],
            [
              -0.015647877007722855,
              -0.01746474578976631,
              0.026200616732239723
            ],
            [
              0.037760574370622635,
              0.04742049425840378,
              0.02688388153910637
            ],
            [
              0.03378431499004364,
              0.007506036199629307,
              -0.09834577888250351
            ],
            [
              0.03397316858172417,
              0.02256729081273079,
              0.06703637540340424
            ],
            [
              -0.0029680945444852114,
              -0.026883156970143318,
              -0.0650399774312973
            ],
            [
              -0.013502532616257668,
              0.01685504987835884,
              -0.0018171148840337992
            ],
            [
              0.06474506855010986,
              -0.01447586715221405,
              -0.007355204317718744
            ],
            [
              -0.016056261956691742,
              0.09510702639818192,
              0.04400284215807915
            ],
            [
              0.0906648188829422,
              -0.0532606765627861,
              0.0737999901175499
            ],
            [
              0.05327558517456055,
              0.06425544619560242,
              0.03864755854010582
            ],
            [
              -0.04157527536153793,
              0.014756095595657825,
              -0.01361539401113987
            ],
            [
              0.01740669086575508,
              -0.007732237223535776,
              0.06058443337678909
            ],
            [
              -0.11832131445407867,
              0.012729257345199585,
              -0.03366167098283768
            ],
            [
              -0.04703192412853241,
              -0.016008727252483368,
              -0.10987378656864166
            ],
            [
              -0.00639018090441823,
              -0.05332157388329506,
              -0.04380907118320465
            ],
            [
              0.10905042290687561,
              -0.002720798831433058,
              0.0049899788573384285
            ],
            [
              0.03361785039305687,
              0.048095703125,
              0.06255798786878586
            ],
            [
              -0.07131534069776535,
              -0.04115058109164238,
              0.023273881524801254
            ]
          ],
          [
            [
              0.0348924919962883,
              -0.07322345674037933,
              -0.11906188726425171
            ],
            [
              0.21362055838108063,
              0.029398005455732346,
              0.06952109187841415
            ],
            [
              -0.033876728266477585,
              0.14572539925575256,
              -0.009016136638820171
            ],
            [
              0.07398448139429092,
              -0.04716527462005615,
              0.042501844465732574
            ],
            [
              0.07069066166877747,
              0.09351354837417603,
              -0.006420263089239597
            ],
            [
              0.049643706530332565,
              0.027237525209784508,
              0.11573155969381332
            ],
            [
              0.005443865898996592,
              -0.07559524476528168,
              -0.030963601544499397
            ],
            [
              0.06346452981233597,
              0.0052783857099711895,
              0.009783792309463024
            ],
            [
              0.013443433679640293,
              0.08891637623310089,
              -0.034353047609329224
            ],
            [
              -0.13345009088516235,
              -0.04561113938689232,
              -0.1170230582356453
            ],
            [
              0.1536397635936737,
              0.034226223826408386,
              0.13390378654003143
            ],
            [
              -0.18478092551231384,
              -0.13676339387893677,
              -0.02909732237458229
            ],
            [
              -0.08513926714658737,
              0.041673820465803146,
              0.06775227189064026
            ],
            [
              -0.11056390404701233,
              -0.12391915917396545,
              -0.09282004833221436
            ],
            [
              0.062116824090480804,
              0.10760673880577087,
              -0.027500631287693977
            ],
            [
              -0.07385191321372986,
              -0.046460043638944626,
              0.0765361338853836
            ],
            [
              0.1190812885761261,
              0.12727110087871552,
              0.0548940934240818
            ],
            [
              0.18971087038516998,
              0.005626584868878126,
              0.11497597396373749
            ],
            [
              0.05146585777401924,
              0.056148745119571686,
              -0.05969119071960449
            ],
            [
              -0.1473396271467209,
              -0.02717931568622589,
              -0.03697628900408745
            ]
          ],
          [
            [
              -0.10902709513902664,
              -0.03419029340147972,
              -0.011079144664108753
            ],
            [
              0.06866361200809479,
              -0.00563380541279912,
              0.06714887917041779
            ],
            [
              -0.0005833037430420518,
              -0.020297931507229805,
              0.057030193507671356
            ],
            [
              0.06256717443466187,
              0.07593778520822525,
              -0.0007556023774668574
            ],
            [
              0.03962760046124458,
              -0.005665537901222706,
              0.009375556372106075
            ],
            [
              -0.04826052486896515,
              0.10392696410417557,
              0.07892421633005142
            ],
            [
              -0.020074816420674324,
              -0.0437193289399147,
              -0.020861005410552025
            ],
            [
              -0.017356734722852707,
              -0.048878710716962814,
              0.05824172496795654
            ],
            [
              0.0032634190283715725,
              0.10366930067539215,
              0.05159849300980568
            ],
            [
              0.1132226213812828,
              0.044910889118909836,
              -0.09715651720762253
            ],
            [
              0.03512076660990715,
              0.0973365306854248,
              -0.008431743830442429
            ],
            [
              -0.016430463641881943,
              -0.0540328286588192,
              -0.02178383246064186
            ],
            [
              -0.0776832327246666,
              0.0895203948020935,
              0.031314119696617126
            ],
            [
              0.03579768165946007,
              0.019945314154028893,
              -0.10329008102416992
            ],
            [
              -0.05104699358344078,
              -0.0033916400279849768,
              -0.11223198473453522
            ],
            [
              0.06246475875377655,
              -0.07137495279312134,
              0.006058176513761282
            ],
            [
              0.12232159823179245,
              0.013742288574576378,
              0.1455792784690857
            ],
            [
              0.1030120775103569,
              0.005766131449490786,
              0.021122470498085022
            ],
            [
              -0.029610909521579742,
              -0.014337641187012196,
              0.0025902227498590946
            ],
            [
              -0.05107492953538895,
              -0.13381783664226532,
              0.0026141926646232605
            ]
          ],
          [
            [
              -0.21144217252731323,
              -0.12750747799873352,
              -0.1330135017633438
            ],
            [
              0.5175492167472839,
              0.4494704604148865,
              0.40609750151634216
            ],
            [
              0.30237457156181335,
              0.30654090642929077,
              0.2626372277736664
            ],
            [
              -0.005741460248827934,
              -0.09011568129062653,
              -0.08986499905586243
            ],
            [
              0.23545445501804352,
              0.1774735152721405,
              0.14623039960861206
            ],
            [
              -0.03951288387179375,
              0.11377055943012238,
              0.12527520954608917
            ],
            [
              -0.14711566269397736,
              -0.1778331995010376,
              -0.12112820893526077
            ],
            [
              -0.031218742951750755,
              -0.13425910472869873,
              -0.08397426456212997
            ],
            [
              -0.037092044949531555,
              0.08272965252399445,
              -0.0033076510298997164
            ],
            [
              -0.04127053916454315,
              -0.13792377710342407,
              -0.17178121209144592
            ],
            [
              0.1869135946035385,
              0.31398892402648926,
              0.194342702627182
            ],
            [
              -0.40160346031188965,
              -0.4337393641471863,
              -0.4567820131778717
            ],
            [
              -0.03481118008494377,
              -0.1611451953649521,
              -0.16533443331718445
            ],
            [
              -0.1590459793806076,
              -0.17614620923995972,
              -0.18456286191940308
            ],
            [
              -0.24759413301944733,
              -0.0793832391500473,
              -0.1315167099237442
            ],
            [
              -0.17955012619495392,
              -0.047651905566453934,
              -0.04298695921897888
            ],
            [
              0.4691151976585388,
              0.4533687233924866,
              0.42115670442581177
            ],
            [
              0.42753931879997253,
              0.36807501316070557,
              0.3887878656387329
            ],
            [
              0.00499411765486002,
              0.01639372855424881,
              0.0485784076154232
            ],
            [
              -0.37916073203086853,
              -0.36171379685401917,
              -0.2910503149032593
            ]
          ],
          [
            [
              -0.12491259723901749,
              0.04237199202179909,
              0.043062712997198105
            ],
            [
              0.090006984770298,
              0.05430760979652405,
              0.09506640583276749
            ],
            [
              0.025230368599295616,
              0.044695671647787094,
              -0.040342312306165695
            ],
            [
              0.05625349283218384,
              -0.0854765847325325,
              0.10525864362716675
            ],
            [
              0.03267722949385643,
              0.07408508658409119,
              0.014493925496935844
            ],
            [
              0.027531370520591736,
              0.0906548723578453,
              -0.056255556643009186
            ],
            [
              0.026758646592497826,
              0.026422973722219467,
              -0.04475146904587746
            ],
            [
              -0.0022514171432703733,
              -0.015150838531553745,
              -0.07723227888345718
            ],
            [
              -0.08051195740699768,
              -0.03357904031872749,
              0.11234559863805771
            ],
            [
              0.00039462317363359034,
              -0.0791151225566864,
              0.13145022094249725
            ],
            [
              -0.04419756680727005,
              0.08413723111152649,
              0.15269142389297485
            ],
            [
              -0.12810461223125458,
              -0.09549020230770111,
              0.03765040636062622
            ],
            [
              0.10527222603559494,
              0.12371113151311874,
              -0.09444566816091537
            ],
            [
              0.10193928331136703,
              -0.0769512802362442,
              0.07982807606458664
            ],
            [
              -0.04550367593765259,
              -0.06486792117357254,
              -0.018410135060548782
            ],
            [
              -0.0177605077624321,
              -0.09155165404081345,
              -0.0728101134300232
            ],
            [
              0.06633862107992172,
              0.14411716163158417,
              0.009344828315079212
            ],
            [
              0.08997920900583267,
              0.06565902382135391,
              0.1580684632062912
            ],
            [
              0.0068205432035028934,
              -0.09682834893465042,
              0.007884379476308823
            ],
            [
              -0.03167051076889038,
              -0.09998361766338348,
              -0.07505876570940018
            ]
          ],
          [
            [
              0.021907534450292587,
              -0.013840808533132076,
              -0.00828826054930687
            ],
            [
              -0.09864166378974915,
              -0.02695709466934204,
              -0.12393279373645782
            ],
            [
              -0.07368189096450806,
              -0.038131654262542725,
              -0.07758849114179611
            ],
            [
              0.026722121983766556,
              -0.02517864480614662,
              0.014301917515695095
            ],
            [
              -0.09539515525102615,
              -0.08093544840812683,
              -0.05000169575214386
            ],
            [
              0.047161854803562164,
              -0.03141261637210846,
              -0.05186089128255844
            ],
            [
              -0.008614277467131615,
              0.037888165563344955,
              0.05418291315436363
            ],
            [
              0.07029815763235092,
              -0.0025939818006008863,
              -0.027923276647925377
            ],
            [
              0.013368966989219189,
              0.059430286288261414,
              -0.07089325785636902
            ],
            [
              0.12943260371685028,
              0.053713683038949966,
              0.04626130312681198
            ],
            [
              -0.09788189828395844,
              -0.056462790817022324,
              -0.07685889303684235
            ],
            [
              0.13834144175052643,
              0.11667326837778091,
              0.03199754282832146
            ],
            [
              0.10976367443799973,
              0.08079777657985687,
              -0.04562723636627197
            ],
            [
              0.08304803818464279,
              0.0284342672675848,
              0.020693082362413406
            ],
            [
              -0.039040934294462204,
              0.0034926568623632193,
              -0.04953354597091675
            ],
            [
              0.0839705765247345,
              0.09472382068634033,
              -0.0880374014377594
            ],
            [
              -0.06644005328416824,
              -0.07759688049554825,
              -0.07427670806646347
            ],
            [
              -0.07731614261865616,
              -0.10020942986011505,
              0.004063278436660767
            ],
            [
              0.04754122719168663,
              -0.11744920909404755,
              -0.006471698172390461
            ],
            [
              0.07666994631290436,
              0.014359875582158566,
              0.057467665523290634
            ]
          ],
          [
            [
              -0.005673508625477552,
              -0.02996760793030262,
              0.015934236347675323
            ],
            [
              -0.018467403948307037,
              -0.03371646627783775,
              -0.02076725848019123
            ],
            [
              -0.03225122392177582,
              0.04767898470163345,
              0.006780872121453285
            ],
            [
              0.02328736148774624,
              0.029048338532447815,
              -0.004729609936475754
            ],
            [
              -0.14114058017730713,
              -0.019014472141861916,
              -0.0006781313568353653
            ],
            [
              -0.10677579790353775,
              0.07035421580076218,
              0.07905048131942749
            ],
            [
              0.06786608695983887,
              -0.08280254900455475,
              0.03758753091096878
            ],
            [
              0.0911044329404831,
              0.01516067422926426,
              0.015514339320361614
            ],
            [
              0.08087395876646042,
              0.08895475417375565,
              0.06296733766794205
            ],
            [
              0.036357980221509933,
              -0.03412998467683792,
              0.11198151111602783
            ],
            [
              -0.11886022984981537,
              -0.01512995921075344,
              0.08859159797430038
            ],
            [
              0.1227654442191124,
              -0.02635202370584011,
              -0.009205367416143417
            ],
            [
              0.029578622430562973,
              -0.03124413453042507,
              0.08709445595741272
            ],
            [
              -0.013202360831201077,
              0.09221354126930237,
              0.016265444457530975
            ],
            [
              -0.08931827545166016,
              0.050182029604911804,
              0.040406376123428345
            ],
            [
              0.08847394585609436,
              0.05028153210878372,
              -0.024404199793934822
            ],
            [
              -0.0772671326994896,
              -0.04350585490465164,
              -0.008263859897851944
            ],
            [
              -0.0872097760438919,
              -0.03897774964570999,
              0.08599007874727249
            ],
            [
              0.11341536045074463,
              -0.043304458260536194,
              0.07416906952857971
            ],
            [
              0.05141433700919151,
              0.055824581533670425,
              -0.06610110402107239
            ]
          ],
          [
            [
              0.03890127316117287,
              0.021932825446128845,
              0.057907700538635254
            ],
            [
              0.11692465096712112,
              -0.014629662968218327,
              -0.05496286228299141
            ],
            [
              0.12365482747554779,
              0.04105241969227791,
              -0.034151677042245865
            ],
            [
              -0.0015184060903266072,
              -0.018219176679849625,
              0.034290920943021774
            ],
            [
              0.021151037886738777,
              0.10371463745832443,
              0.08590888977050781
            ],
            [
              0.05400436744093895,
              0.061136722564697266,
              -0.025615304708480835
            ],
            [
              -0.03397597745060921,
              -0.0489845797419548,
              0.07353448122739792
            ],
            [
              0.005627238657325506,
              0.0027093086391687393,
              0.023007629439234734
            ],
            [
              0.07605601102113724,
              0.055653166025877,
              0.016552500426769257
            ],
            [
              0.02790467068552971,
              0.004872674122452736,
              -0.015458604320883751
            ],
            [
              -0.046017587184906006,
              -0.029524413868784904,
              0.02697916515171528
            ],
            [
              -0.11683747172355652,
              0.042623404413461685,
              -0.054330941289663315
            ],
            [
              0.07175304740667343,
              -0.0994296744465828,
              -0.09830954670906067
            ],
            [
              -0.049936018884181976,
              -0.08969061076641083,
              0.019371364265680313
            ],
            [
              -0.08465296030044556,
              0.008008342236280441,
              -0.039752308279275894
            ],
            [
              -0.09243650734424591,
              -0.016043884679675102,
              -0.0576288104057312
            ],
            [
              0.062260597944259644,
              0.08670476078987122,
              -0.06370129436254501
            ],
            [
              0.07076497375965118,
              0.06091747432947159,
              -0.019362442195415497
            ],
            [
              0.08004679530858994,
              -0.052736684679985046,
              -0.044172149151563644
            ],
            [
              -0.059802502393722534,
              -0.06231285631656647,
              -0.018876241520047188
            ]
          ],
          [
            [
              -0.007382706273347139,
              0.0673927441239357,
              -0.023137295618653297
            ],
            [
              0.0621633343398571,
              0.07099109888076782,
              0.09233696758747101
            ],
            [
              0.04773471876978874,
              0.14229907095432281,
              -0.03484838455915451
            ],
            [
              0.005142897367477417,
              -0.0284819845110178,
              -0.05658352002501488
            ],
            [
              -0.07693164050579071,
              0.09912708401679993,
              0.159628763794899
            ],
            [
              -0.0849180668592453,
              0.02793269418179989,
              -0.04334237426519394
            ],
            [
              0.00674964627251029,
              0.02190232463181019,
              0.07541462033987045
            ],
            [
              -0.038403332233428955,
              -0.0873337984085083,
              -0.13660651445388794
            ],
            [
              0.02731950394809246,
              -0.041518498212099075,
              -0.13471074402332306
            ],
            [
              -0.023508017882704735,
              0.07852781563997269,
              -0.15508762001991272
            ],
            [
              -0.05471811443567276,
              -0.08994343876838684,
              0.019236158579587936
            ],
            [
              -0.12429004907608032,
              0.020427653566002846,
              -0.16823004186153412
            ],
            [
              0.010773742571473122,
              0.0415412001311779,
              0.05743323266506195
            ],
            [
              -0.07146115601062775,
              -0.04062347486615181,
              -0.06074897572398186
            ],
            [
              0.007602463010698557,
              0.060466136783361435,
              -0.035398710519075394
            ],
            [
              -0.0700182318687439,
              -0.09829740971326828,
              -0.04691193625330925
            ],
            [
              0.10861355066299438,
              0.030459893867373466,
              0.04131118953227997
            ],
            [
              0.009005862288177013,
              0.07652667909860611,
              0.1394137740135193
            ],
            [
              0.07209008932113647,
              0.06426405161619186,
              0.04810616374015808
            ],
            [
              -0.02213967777788639,
              -0.019273284822702408,
              -0.036817196756601334
            ]
          ],
          [
            [
              0.11765599250793457,
              -0.012962589971721172,
              -0.012921936810016632
            ],
            [
              -0.16159085929393768,
              -0.0363067090511322,
              0.023658355697989464
            ],
            [
              -0.15721483528614044,
              -0.05225745588541031,
              -0.0546681247651577
            ],
            [
              -0.032424814999103546,
              0.06925998628139496,
              -0.025900932028889656
            ],
            [
              -0.008607408963143826,
              0.046464983373880386,
              0.05573649704456329
            ],
            [
              0.05709325522184372,
              -0.07003404200077057,
              -0.08331291377544403
            ],
            [
              0.047609999775886536,
              -0.05824904516339302,
              0.09560289233922958
            ],
            [
              0.019115332514047623,
              0.045880794525146484,
              0.005203679203987122
            ],
            [
              -0.10662496834993362,
              -0.06127097085118294,
              -0.07983940839767456
            ],
            [
              -0.06428994238376617,
              -0.01540116872638464,
              0.012881426140666008
            ],
            [
              -0.1654575914144516,
              -0.01612662710249424,
              -0.006952336058020592
            ],
            [
              0.19827216863632202,
              0.05010019987821579,
              0.0028516892343759537
            ],
            [
              0.03360038995742798,
              0.0867922231554985,
              -0.10887860506772995
            ],
            [
              -0.0033196231815963984,
              0.03579975292086601,
              -0.003538921708241105
            ],
            [
              -0.01522906869649887,
              0.08267916738986969,
              0.1277361661195755
            ],
            [
              0.11139378696680069,
              0.07165604829788208,
              -0.047590672969818115
            ],
            [
              -0.18674960732460022,
              -0.026433805003762245,
              0.03716927021741867
            ],
            [
              -0.19507376849651337,
              -0.11881904304027557,
              -0.11692018061876297
            ],
            [
              0.05878009647130966,
              -0.1140659749507904,
              -0.009617537260055542
            ],
            [
              0.13733436167240143,
              0.06339409202337265,
              0.009947224520146847
            ]
          ],
          [
            [
              0.09013780951499939,
              0.06806866079568863,
              -0.021654533222317696
            ],
            [
              -0.028712160885334015,
              0.03603362664580345,
              0.15924496948719025
            ],
            [
              -0.07225412130355835,
              0.011087912134826183,
              0.012309031561017036
            ],
            [
              0.036511246114969254,
              -0.09263602644205093,
              -0.04510798677802086
            ],
            [
              -0.10389881581068039,
              0.02735223062336445,
              -0.029911160469055176
            ],
            [
              0.0858403891324997,
              -0.04840822145342827,
              -0.06612293422222137
            ],
            [
              0.02640935592353344,
              0.044816263020038605,
              -0.06843283772468567
            ],
            [
              -0.04203108698129654,
              -0.0023667048662900925,
              -0.10066704452037811
            ],
            [
              0.06904059648513794,
              -0.09776211529970169,
              0.029034772887825966
            ],
            [
              -0.009971704334020615,
              -0.008686820976436138,
              0.07140369713306427
            ],
            [
              -0.028894523158669472,
              -0.0696888342499733,
              -0.0854627937078476
            ],
            [
              0.06312397122383118,
              -0.09765991568565369,
              -0.12274911999702454
            ],
            [
              0.10130495578050613,
              -0.02880917489528656,
              -0.12878525257110596
            ],
            [
              -0.045746807008981705,
              0.016012759879231453,
              -0.10076849907636642
            ],
            [
              0.005527657922357321,
              0.03884676471352577,
              -0.04282499849796295
            ],
            [
              0.08919557929039001,
              -0.05654013901948929,
              0.10700692981481552
            ],
            [
              -0.0003689490258693695,
              0.07455361634492874,
              0.11512235552072525
            ],
            [
              -0.07743871957063675,
              0.0653093233704567,
              0.07587836682796478
            ],
            [
              -0.08644755184650421,
              0.03904065489768982,
              0.02289198525249958
            ],
            [
              0.11949466168880463,
              -0.04233941435813904,
              -0.12089823186397552
            ]
          ],
          [
            [
              -0.06246551498770714,
              0.046462494879961014,
              0.07687865197658539
            ],
            [
              -0.20341306924819946,
              -0.05138840153813362,
              -0.16985996067523956
            ],
            [
              -0.09121441096067429,
              -0.01780242659151554,
              -0.09923531115055084
            ],
            [
              0.05606464296579361,
              0.03367633745074272,
              -0.07823728770017624
            ],
            [
              -0.06999341398477554,
              -0.02298702299594879,
              0.08272355049848557
            ],
            [
              0.0424308106303215,
              0.055137693881988525,
              0.012278075329959393
            ],
            [
              0.1264646202325821,
              0.03361362963914871,
              0.1423744410276413
            ],
            [
              0.09638097137212753,
              -0.0786178931593895,
              0.0013430010294541717
            ],
            [
              0.08853869140148163,
              -0.015031944029033184,
              -0.0069899181835353374
            ],
            [
              0.09759234637022018,
              0.10157294571399689,
              0.033189401030540466
            ],
            [
              -0.1422872245311737,
              -0.09693771600723267,
              0.008060828782618046
            ],
            [
              0.13843415677547455,
              0.17960037291049957,
              -0.005317486356943846
            ],
            [
              -0.07785157859325409,
              -0.07384184747934341,
              -0.032828692346811295
            ],
            [
              0.04050074890255928,
              -0.013017521239817142,
              0.042782820761203766
            ],
            [
              -0.020024672150611877,
              -0.07809796929359436,
              0.0927567332983017
            ],
            [
              0.08671486377716064,
              0.0038220223505049944,
              -0.03823976218700409
            ],
            [
              -0.1510278284549713,
              -0.1846386343240738,
              -0.18047015368938446
            ],
            [
              -0.08218102157115936,
              -0.21826666593551636,
              -0.09530411660671234
            ],
            [
              0.083294577896595,
              -0.013436421751976013,
              -0.1420781910419464
            ],
            [
              0.01657191291451454,
              -0.00129524280782789,
              0.09573867172002792
            ]
          ],
          [
            [
              0.08575184643268585,
              0.08401192724704742,
              0.10210230201482773
            ],
            [
              -0.11079493910074234,
              -0.1497284471988678,
              -0.0874299556016922
            ],
            [
              0.0863020122051239,
              0.05245459824800491,
              0.104730986058712
            ],
            [
              0.033881839364767075,
              0.0752933919429779,
              0.06966809928417206
            ],
            [
              0.012156862765550613,
              -0.031183144077658653,
              -0.10232763737440109
            ],
            [
              0.027279388159513474,
              0.012856140732765198,
              -0.07737525552511215
            ],
            [
              0.13479524850845337,
              0.08016243577003479,
              -0.024837227538228035
            ],
            [
              -0.02861122600734234,
              0.07121708244085312,
              0.045097704976797104
            ],
            [
              -0.11399479955434799,
              -0.012604410760104656,
              0.05538249388337135
            ],
            [
              -0.011617102660238743,
              -0.03747003152966499,
              -0.01910797320306301
            ],
            [
              -0.12894006073474884,
              -0.08461380749940872,
              0.04650353640317917
            ],
            [
              0.05520588532090187,
              -0.023511378094553947,
              0.11086467653512955
            ],
            [
              -0.008464397862553596,
              0.04056350514292717,
              -0.08425816893577576
            ],
            [
              0.07784035801887512,
              -0.02324744500219822,
              0.02841869182884693
            ],
            [
              0.13908784091472626,
              -0.014614961110055447,
              -0.020690474659204483
            ],
            [
              -0.014832662418484688,
              0.029717281460762024,
              -0.008252711966633797
            ],
            [
              -0.03237370029091835,
              -0.11365890502929688,
              0.04271699860692024
            ],
            [
              -0.07814303785562515,
              -0.0015812201891094446,
              -0.11078072339296341
            ],
            [
              -0.002242939081043005,
              -0.024732789024710655,
              -0.0665227621793747
            ],
            [
              0.01829984411597252,
              0.15535445511341095,
              0.047638166695833206
            ]
          ],
          [
            [
              0.04410739988088608,
              0.03645823150873184,
              0.025976188480854034
            ],
            [
              -0.21421195566654205,
              -0.041253138333559036,
              0.031428538262844086
            ],
            [
              -0.1450285017490387,
              -0.08608810603618622,
              0.12476857751607895
            ],
            [
              0.07447832077741623,
              -0.025340784341096878,
              -0.08916432410478592
            ],
            [
              -0.13300752639770508,
              -0.040747903287410736,
              -0.02076069451868534
            ],
            [
              0.021598512306809425,
              0.09770788997411728,
              0.12094850838184357
            ],
            [
              0.040108099579811096,
              0.0714498981833458,
              0.037279970943927765
            ],
            [
              0.06117160990834236,
              0.018326440826058388,
              0.015727434307336807
            ],
            [
              0.0659167617559433,
              0.056666262447834015,
              0.07518158853054047
            ],
            [
              -0.049424003809690475,
              -0.002728182589635253,
              -0.1223849430680275
            ],
            [
              -0.17741678655147552,
              0.01752992905676365,
              0.09734244644641876
            ],
            [
              0.1820540875196457,
              -0.02523990347981453,
              -0.10832323133945465
            ],
            [
              0.017154786735773087,
              0.030503449961543083,
              -0.14420579373836517
            ],
            [
              0.03871268779039383,
              0.03261074423789978,
              0.0283159501850605
            ],
            [
              0.03942970186471939,
              0.05939953774213791,
              0.03606906533241272
            ],
            [
              -0.017606785520911217,
              -0.061336442828178406,
              -0.05118116736412048
            ],
            [
              -0.14856773614883423,
              0.014565359801054,
              0.129572793841362
            ],
            [
              -0.18812386691570282,
              -0.07237809896469116,
              0.046057987958192825
            ],
            [
              -0.007041736505925655,
              -0.0732884481549263,
              0.024508172646164894
            ],
            [
              0.15418747067451477,
              0.036003321409225464,
              -0.0729578360915184
            ]
          ],
          [
            [
              0.008981700986623764,
              -0.0947023332118988,
              -0.06427915394306183
            ],
            [
              -0.030763445422053337,
              0.04186757281422615,
              -0.017925389111042023
            ],
            [
              -0.06880155950784683,
              -0.018817471340298653,
              0.05181447044014931
            ],
            [
              0.04773227870464325,
              0.05760250240564346,
              0.017793595790863037
            ],
            [
              -0.009046399034559727,
              0.023720577359199524,
              -0.12503719329833984
            ],
            [
              0.04962962120771408,
              -0.00819450244307518,
              0.016097884625196457
            ],
            [
              -0.07866139709949493,
              -0.10702589899301529,
              0.029790012165904045
            ],
            [
              -0.0369633249938488,
              0.0699765607714653,
              -0.01828189566731453
            ],
            [
              0.12650345265865326,
              0.03428718075156212,
              0.006334093399345875
            ],
            [
              0.010333981364965439,
              0.055485889315605164,
              -0.0817253515124321
            ],
            [
              -0.013635250739753246,
              -0.0026221470907330513,
              0.010631498880684376
            ],
            [
              0.1448660045862198,
              0.07303021103143692,
              -0.02771846391260624
            ],
            [
              -0.0661090537905693,
              0.0259183831512928,
              0.03294087573885918
            ],
            [
              0.09368878602981567,
              0.12930794060230255,
              0.08884438872337341
            ],
            [
              -0.08324611932039261,
              -0.05105958506464958,
              0.05589595437049866
            ],
            [
              0.07863800972700119,
              0.027926912531256676,
              -0.00258498452603817
            ],
            [
              -0.12357661128044128,
              -0.11747612804174423,
              -0.01605193130671978
            ],
            [
              -0.06674476712942123,
              -0.02014104276895523,
              -0.022100133821368217
            ],
            [
              0.00339313130825758,
              0.026027554646134377,
              -0.032450854778289795
            ],
            [
              -0.007590186316519976,
              -0.008060593158006668,
              -0.0072481222450733185
            ]
          ],
          [
            [
              -0.12044418603181839,
              -0.11375992000102997,
              0.07887052744626999
            ],
            [
              -0.023645738139748573,
              -0.00907665491104126,
              -0.13862623274326324
            ],
            [
              -0.14915558695793152,
              -0.13993054628372192,
              -0.0050184051506221294
            ],
            [
              0.10234508663415909,
              0.06428538262844086,
              0.07571210712194443
            ],
            [
              0.036278389394283295,
              0.010013097897171974,
              -0.03321826085448265
            ],
            [
              -0.06647314131259918,
              -0.012974386103451252,
              -0.1287616640329361
            ],
            [
              -0.12591323256492615,
              -0.10389630496501923,
              0.08073463290929794
            ],
            [
              -0.011885764077305794,
              0.02918463572859764,
              0.08985481411218643
            ],
            [
              0.01887962594628334,
              0.09979351609945297,
              0.06538934260606766
            ],
            [
              0.1591959148645401,
              -0.027348412200808525,
              0.14859768748283386
            ],
            [
              0.04758946970105171,
              -0.050580404698848724,
              -0.07280329614877701
            ],
            [
              0.12528622150421143,
              0.11884915083646774,
              0.12910817563533783
            ],
            [
              0.08086562901735306,
              0.08830636739730835,
              0.050260722637176514
            ],
            [
              0.12733809649944305,
              0.05443987622857094,
              0.14800123870372772
            ],
            [
              -0.1314593106508255,
              0.06665647029876709,
              -0.023602550849318504
            ],
            [
              0.018451977521181107,
              0.03728411719202995,
              0.02156994305551052
            ],
            [
              -0.04386970400810242,
              -0.057901594787836075,
              -0.09114297479391098
            ],
            [
              -0.09010332822799683,
              -0.12334419041872025,
              -0.0702945664525032
            ],
            [
              0.057971712201833725,
              -0.03485897555947304,
              0.019441427662968636
            ],
            [
              0.034168511629104614,
              0.04099145159125328,
              0.07964620739221573
            ]
          ],
          [
            [
              -0.11654336005449295,
              -0.10167078673839569,
              -0.08835193514823914
            ],
            [
              -0.013532385230064392,
              0.1382683962583542,
              0.035998597741127014
            ],
            [
              0.08182079344987869,
              -0.022353285923600197,
              -0.03441153094172478
            ],
            [
              -0.12437780946493149,
              0.04050733521580696,
              -0.07916552573442459
            ],
            [
              0.08231815695762634,
              0.15504240989685059,
              0.03153516724705696
            ],
            [
              -0.08328539878129959,
              0.11656680703163147,
              -0.027927039191126823
            ],
            [
              0.0529513917863369,
              0.025639625266194344,
              0.09724266827106476
            ],
            [
              0.07813171297311783,
              0.08701687306165695,
              0.07602526992559433
            ],
            [
              0.06605780124664307,
              0.014455844648182392,
              -0.07818511128425598
            ],
            [
              -0.024100394919514656,
              0.0829862654209137,
              -0.0073005761951208115
            ],
            [
              0.100140281021595,
              0.06661718338727951,
              0.0016390985110774636
            ],
            [
              -0.12189290672540665,
              -0.12617835402488708,
              -0.16654296219348907
            ],
            [
              -0.07016469538211823,
              -0.05578985437750816,
              -0.09789051860570908
            ],
            [
              -0.05399072915315628,
              0.03813638165593147,
              -0.08739833533763885
            ],
            [
              0.02793688327074051,
              -0.1414979100227356,
              0.1045784205198288
            ],
            [
              -0.019384941086173058,
              0.01986873894929886,
              -0.05954629182815552
            ],
            [
              0.17635931074619293,
              0.036210060119628906,
              0.15110382437705994
            ],
            [
              -0.013144280761480331,
              0.07422132045030594,
              0.15573732554912567
            ],
            [
              0.11653535813093185,
              0.06520429253578186,
              0.05355239659547806
            ],
            [
              -0.12123770266771317,
              -0.05619826912879944,
              0.015290272422134876
            ]
          ],
          [
            [
              0.11463227868080139,
              -0.02030348964035511,
              0.08211037516593933
            ],
            [
              -0.07059001177549362,
              -0.05212397873401642,
              -0.009719382971525192
            ],
            [
              -0.036503877490758896,
              -0.04154593124985695,
              -0.051767848432064056
            ],
            [
              0.011372081004083157,
              0.039915651082992554,
              -0.052839651703834534
            ],
            [
              -0.15109661221504211,
              -0.10735217481851578,
              -0.003002363257110119
            ],
            [
              0.005840925965458155,
              0.04820002242922783,
              -0.012107728980481625
            ],
            [
              0.03453340753912926,
              0.027560191228985786,
              0.05940420925617218
            ],
            [
              -0.016794376075267792,
              -0.026993921026587486,
              0.008304576389491558
            ],
            [
              0.015954092144966125,
              0.0540115125477314,
              -0.019652627408504486
            ],
            [
              0.04509144648909569,
              0.06297679245471954,
              0.02566000260412693
            ],
            [
              -0.16477717459201813,
              0.019332952797412872,
              -0.020869771018624306
            ],
            [
              0.17113815248012543,
              0.10270963609218597,
              -0.020993810147047043
            ],
            [
              0.11211603134870529,
              0.125318244099617,
              -0.05571726709604263
            ],
            [
              0.07931272685527802,
              0.03412320837378502,
              -0.0567772276699543
            ],
            [
              0.054427847266197205,
              0.0652364119887352,
              0.09605932980775833
            ],
            [
              0.1116785854101181,
              0.033447328954935074,
              0.09736994653940201
            ],
            [
              -0.09800694137811661,
              -0.03592430427670479,
              0.07185576111078262
            ],
            [
              -0.1473604291677475,
              -0.09362716227769852,
              -0.03412102162837982
            ],
            [
              0.06110849976539612,
              -0.07509823888540268,
              -0.044406287372112274
            ],
            [
              0.13632813096046448,
              0.007644602097570896,
              -0.08614813536405563
            ]
          ],
          [
            [
              0.05627652630209923,
              0.12356765568256378,
              0.09359590709209442
            ],
            [
              -0.05838046222925186,
              0.04735582694411278,
              0.05080670490860939
            ],
            [
              -0.012556614354252815,
              0.0114523246884346,
              0.017164725810289383
            ],
            [
              0.03144935891032219,
              0.022177282720804214,
              -0.027231663465499878
            ],
            [
              0.09185737371444702,
              -0.05173082277178764,
              -0.037292372435331345
            ],
            [
              0.012770368717610836,
              0.027977097779512405,
              0.07281456887722015
            ],
            [
              -0.03123486414551735,
              0.05276649445295334,
              0.11507163941860199
            ],
            [
              0.02641431614756584,
              0.03397819399833679,
              -0.09756330400705338
            ],
            [
              -0.0385974645614624,
              -0.00037836225237697363,
              0.02655038796365261
            ],
            [
              0.0432426780462265,
              0.014850983396172523,
              -0.009222416207194328
            ],
            [
              -0.09111267328262329,
              0.046466123312711716,
              0.05122171714901924
            ],
            [
              -0.11163419485092163,
              0.03674366697669029,
              0.04467770829796791
            ],
            [
              -0.08948758244514465,
              -0.044708672910928726,
              -0.08507418632507324
            ],
            [
              -0.0956466794013977,
              -0.10641788691282272,
              0.05133018270134926
            ],
            [
              -0.06252387911081314,
              0.012899864464998245,
              0.09831243008375168
            ],
            [
              0.11354096233844757,
              0.07275894284248352,
              0.029716739431023598
            ],
            [
              0.01750076748430729,
              0.09927545487880707,
              0.06581658869981766
            ],
            [
              0.012947591952979565,
              0.03753942996263504,
              0.026886189356446266
            ],
            [
              0.059369489550590515,
              0.051587771624326706,
              0.0770225077867508
            ],
            [
              0.023279668763279915,
              0.03970374912023544,
              -0.03322959691286087
            ]
          ],
          [
            [
              0.12482182681560516,
              -0.06819001585245132,
              0.13549207150936127
            ],
            [
              -0.17412197589874268,
              -0.07565836608409882,
              -0.07060252875089645
            ],
            [
              -0.11366692930459976,
              -0.09453044086694717,
              0.013707623817026615
            ],
            [
              -0.008549516089260578,
              0.09085900336503983,
              0.06241793558001518
            ],
            [
              -0.14681659638881683,
              -0.05368737503886223,
              -0.08623433113098145
            ],
            [
              -0.06695672869682312,
              -0.018011312931776047,
              -0.008295928128063679
            ],
            [
              0.0795423686504364,
              0.03196544572710991,
              -0.04974588751792908
            ],
            [
              0.13053135573863983,
              0.058476608246564865,
              -0.007742346730083227
            ],
            [
              0.1052822470664978,
              -0.06913536041975021,
              -0.04224654287099838
            ],
            [
              0.07475729286670685,
              0.1090903952717781,
              0.07572738081216812
            ],
            [
              -0.15052488446235657,
              0.005355547647923231,
              0.0873245894908905
            ],
            [
              0.01503755897283554,
              -0.05993186682462692,
              0.053279850631952286
            ],
            [
              -0.0022946400567889214,
              0.08394552767276764,
              -0.016770459711551666
            ],
            [
              -0.03200472146272659,
              -0.04571162164211273,
              0.02660849131643772
            ],
            [
              0.10585878789424896,
              0.07902591675519943,
              0.05945445969700813
            ],
            [
              -0.016592372208833694,
              -0.04187091812491417,
              0.10556433349847794
            ],
            [
              -0.1444912850856781,
              -0.05596214532852173,
              -0.10423023253679276
            ],
            [
              -0.18395067751407623,
              -0.06926694512367249,
              0.06717754155397415
            ],
            [
              -0.04201212525367737,
              -0.12541331350803375,
              0.005033478606492281
            ],
            [
              0.15144206583499908,
              0.11233830451965332,
              0.08352217823266983
            ]
          ]
        ],
        "conv_bias": [
          -0.010915296152234077,
          -0.06729389727115631,
          0.02921835519373417,
          -0.061064910143613815,
          0.07504647970199585,
          0.05898473784327507,
          -0.049818139523267746,
          0.012923956848680973,
          0.024832384660840034,
          0.02171669900417328,
          -0.04227319732308388,
          0.06405460834503174,
          0.04133002460002899,
          -0.0683707445859909,
          0.07308683544397354,
          0.07953925430774689,
          0.11985401064157486,
          0.022771989926695824,
          0.007209382951259613,
          0.09696188569068909
        ]
      },
      {
        "layer": 1,
        "dilation": 2,
        "conv_weight": [
          [
            [
              -0.01396169327199459,
              -0.04599946737289429,
              -0.008578792214393616
            ],
            [
              0.12730611860752106,
              0.13433492183685303,
              -0.10508114844560623
            ],
            [
              0.06937801092863083,
              -0.0608767494559288,
              -0.10399400442838669
            ],
            [
              -0.08790919929742813,
              0.02022705227136612,
              -0.0673779770731926
            ],
            [
              -0.01562266331166029,
              -0.04050079733133316,
              -0.0383896604180336
            ],
            [
              0.031065579503774643,
              -0.0018974689301103354,
              -0.009544028900563717
            ],
            [
              -0.012355107814073563,
              -0.034110065549612045,
              -0.008600868284702301
            ],
            [
              -0.05707647651433945,
              0.06289282441139221,
              -0.08229654282331467
            ],
            [
              0.13339786231517792,
              -0.0717240646481514,
              -0.06835365295410156
            ],
            [
              -0.09692171216011047,
              -0.0864139273762703,
              -0.12359175086021423
            ],
            [
              0.036454543471336365,
              -0.021392209455370903,
              -0.055101774632930756
            ],
            [
              -0.10547741502523422,
              0.041660912334918976,
              -0.011343392543494701
            ],
            [
              0.023617999628186226,
              -0.03032175451517105,
              -0.03339238837361336
            ],
            [
              -0.07914423197507858,
              0.025775589048862457,
              -0.07735294103622437
            ],
            [
              -0.054793063551187515,
              -0.041981108486652374,
              0.021759403869509697
            ],
            [
              -0.026909206062555313,
              0.05696329474449158,
              0.1664140522480011
            ],
            [
              0.032167013734579086,
              -0.0012647423427551985,
              -0.00914331991225481
            ],
            [
              -0.09953852742910385,
              -0.12620596587657928,
              -0.09255977720022202
            ],
            [
              0.029165519401431084,
              0.025260193273425102,
              0.04493110626935959
            ],
            [
              0.059400562196969986,
              0.011932618916034698,
              -0.028385881334543228
            ]
          ],
          [
            [
              0.04233480244874954,
              -0.007916390895843506,
              0.12705044448375702
            ],
            [
              0.19081932306289673,
              0.08983679860830307,
              -0.13611897826194763
            ],
            [
              0.022728243842720985,
              0.09168849885463715,
              -0.0745123028755188
            ],
            [
              -0.01976247876882553,
              -0.11883706599473953,
              -0.16358499228954315
            ],
            [
              0.043838612735271454,
              0.1146157905459404,
              -0.03198175132274628
            ],
            [
              0.02109774574637413,
              0.02714872919023037,
              -0.04635223001241684
            ],
            [
              -0.04648727551102638,
              0.047598421573638916,
              0.04175689071416855
            ],
            [
              -0.003634293098002672,
              0.09822267293930054,
              0.02857169508934021
            ],
            [
              0.11089345812797546,
              0.10749541223049164,
              -0.05760950967669487
            ],
            [
              -0.06922876089811325,
              -0.011861360631883144,
              0.11068232357501984
            ],
            [
              0.07187972217798233,
              0.08392107486724854,
              -0.15140822529792786
            ],
            [
              -0.21920692920684814,
              -0.13898567855358124,
              0.14078330993652344
            ],
            [
              -0.03992772102355957,
              -0.044888585805892944,
              -0.050499480217695236
            ],
            [
              -0.14445532858371735,
              0.03830227628350258,
              0.10981503874063492
            ],
            [
              0.045992929488420486,
              -0.04634658247232437,
              -0.04074941575527191
            ],
            [
              -0.08398786932229996,
              0.028749845921993256,
              0.021898597478866577
            ],
            [
              0.25928401947021484,
              0.26981452107429504,
              0.10042081773281097
            ],
            [
              -0.1259065568447113,
              -0.051008809357881546,
              0.05933855101466179
            ],
            [
              0.08451936393976212,
              0.011762301437556744,
              -0.1187935471534729
            ],
            [
              -0.1845664381980896,
              0.003090947400778532,
              -0.04985812306404114
            ]
          ],
          [
            [
              0.044412050396203995,
              -0.013497266918420792,
              -0.08306002616882324
            ],
            [
              0.0049593206495046616,
              -0.04178166389465332,
              0.05638488754630089
            ],
            [
              0.009906700812280178,
              -0.03241528198122978,
              0.04358739033341408
            ],
            [
              -0.14302271604537964,
              -0.24006427824497223,
              -0.21823750436306
            ],
            [
              0.02173294685781002,
              0.06454412639141083,
              0.0182624664157629
            ],
            [
              0.0592668391764164,
              0.05880898982286453,
              -0.11832424998283386
            ],
            [
              0.06486283242702484,
              0.07423403114080429,
              -0.05695931985974312
            ],
            [
              0.10955234616994858,
              0.03903019428253174,
              0.054401542991399765
            ],
            [
              0.12506446242332458,
              -0.023992514237761497,
              0.012736359611153603
            ],
            [
              0.027489453554153442,
              0.055787790566682816,
              -0.13810153305530548
            ],
            [
              0.03297707438468933,
              0.0897657498717308,
              0.10202129185199738
            ],
            [
              0.012020706199109554,
              0.00664402125403285,
              -0.15106025338172913
            ],
            [
              0.08537962287664413,
              0.01462319865822792,
              -0.011066997423768044
            ],
            [
              0.04503308981657028,
              0.004160661716014147,
              -0.02445296384394169
            ],
            [
              0.012580057606101036,
              -0.039870213717222214,
              -0.14920178055763245
            ],
            [
              0.1272445172071457,
              0.03151106834411621,
              -0.06113547459244728
            ],
            [
              0.04499127343297005,
              0.05861132964491844,
              0.10860305279493332
            ],
            [
              0.07987026125192642,
              0.023417476564645767,
              -0.02642817609012127
            ],
            [
              -0.0829542800784111,
              -0.021451707929372787,
              0.08583950251340866
            ],
            [
              0.059763867408037186,
              0.002915626624599099,
              -0.06484406441450119
            ]
          ],
          [
            [
              -0.05011143535375595,
              0.004080155864357948,
              -0.010454419068992138
            ],
            [
              -0.1856648176908493,
              0.008557229302823544,
              0.200599804520607
            ],
            [
              -0.02885466068983078,
              0.0519438236951828,
              0.07251229137182236
            ],
            [
              -0.1535046547651291,
              0.1123247891664505,
              0.2217908650636673
            ],
            [
              -0.05746826156973839,
              0.07720381021499634,
              0.08962088078260422
            ],
            [
              0.14307844638824463,
              0.10796113312244415,
              -0.0765199065208435
            ],
            [
              0.05089504271745682,
              0.0674782395362854,
              -0.005863148253411055
            ],
            [
              -0.02200334519147873,
              0.07394486665725708,
              -0.03774181753396988
            ],
            [
              -0.1325264871120453,
              0.01905537024140358,
              -0.10878098011016846
            ],
            [
              0.3213544487953186,
              -0.07267484068870544,
              -0.20734405517578125
            ],
            [
              0.034157317131757736,
              0.12765197455883026,
              0.03905387967824936
            ],
            [
              0.22563740611076355,
              0.033982351422309875,
              -0.23873943090438843
            ],
            [
              0.09334032982587814,
              -0.0626637190580368,
              -0.16582047939300537
            ],
            [
              0.32568711042404175,
              0.005288819316774607,
              -0.07377415150403976
            ],
            [
              0.13074669241905212,
              0.10407132655382156,
              -0.14774782955646515
            ],
            [
              0.036028966307640076,
              0.037377867847681046,
              -0.13433170318603516
            ],
            [
              -0.3125055134296417,
              -0.027042845264077187,
              0.2955097258090973
            ],
            [
              0.23167471587657928,
              0.025180939584970474,
              -0.12939269840717316
            ],
            [
              0.10390506684780121,
              0.05925484746694565,
              0.08733468502759933
            ],
            [
              0.39255228638648987,
              -0.020664487034082413,
              -0.20119357109069824
            ]
          ],
          [
            [
              0.0339498445391655,
              0.034400492906570435,
              -0.062450800091028214
            ],
            [
              -0.20158517360687256,
              -0.03370099887251854,
              0.1718059629201889
            ],
            [
              -0.06039420887827873,
              0.0760132372379303,
              0.1065187156200409
            ],
            [
              -0.1917099505662918,
              -0.0520906075835228,
              0.1246451884508133
            ],
            [
              -0.1089685708284378,
              0.10651641339063644,
              0.152649387717247
            ],
            [
              0.14424297213554382,
              0.01442930568009615,
              -0.10679657757282257
            ],
            [
              0.1150633916258812,
              0.02159767411649227,
              -0.013337688520550728
            ],
            [
              -0.0374750979244709,
              0.07336554676294327,
              -0.09536479413509369
            ],
            [
              0.09922091662883759,
              0.09246919304132462,
              0.06441081315279007
            ],
            [
              0.11261672526597977,
              0.01710437424480915,
              -0.16825702786445618
            ],
            [
              -0.026445964351296425,
              0.13762937486171722,
              0.06812528520822525
            ],
            [
              0.20509345829486847,
              -0.07923109084367752,
              -0.169377401471138
            ],
            [
              0.08938313275575638,
              -0.12009278684854507,
              0.0678296610713005
            ],
            [
              0.1791170984506607,
              0.026454437524080276,
              -0.012509397231042385
            ],
            [
              -0.07637690752744675,
              0.06430480629205704,
              -0.004226886201649904
            ],
            [
              0.003111940808594227,
              0.019913306459784508,
              -0.004212621599435806
            ],
            [
              -0.19221630692481995,
              0.18115881085395813,
              0.22976042330265045
            ],
            [
              0.24405528604984283,
              0.12578992545604706,
              -0.08715266734361649
            ],
            [
              0.06029490754008293,
              -0.0990806370973587,
              0.08737789839506149
            ],
            [
              0.15055648982524872,
              0.04687492176890373,
              -0.24965892732143402
            ]
          ],
          [
            [
              0.059921953827142715,
              0.03248878940939903,
              0.0292301457375288
            ],
            [
              0.03398019075393677,
              0.09571366012096405,
              -0.06206613406538963
            ],
            [
              0.05790577456355095,
              -0.04039447754621506,
              -0.06546191871166229
            ],
            [
              0.17714475095272064,
              0.16983714699745178,
              0.1519867330789566
            ],
            [
              0.047491978853940964,
              0.0005656236317008734,
              -0.0591590441763401
            ],
            [
              -0.009111359715461731,
              0.022194012999534607,
              0.02057923562824726
            ],
            [
              0.020829148590564728,
              0.08202378451824188,
              0.04099143669009209
            ],
            [
              -0.019623426720499992,
              -0.05202378332614899,
              -0.11003263294696808
            ],
            [
              0.06867194175720215,
              0.000656190502922982,
              -0.06473277509212494
            ],
            [
              0.0009029060020111501,
              -0.018883822485804558,
              0.15304499864578247
            ],
            [
              0.050717320293188095,
              -0.0009532146505080163,
              -0.13478289544582367
            ],
            [
              -0.10357926785945892,
              -0.06027321144938469,
              0.11331094801425934
            ],
            [
              -0.057067155838012695,
              -0.14895223081111908,
              -0.011962870135903358
            ],
            [
              -0.005868661217391491,
              -0.07736113667488098,
              -0.004624892491847277
            ],
            [
              -0.07056774199008942,
              0.06872671097517014,
              0.057628333568573
            ],
            [
              -0.08897720277309418,
              -0.02325429767370224,
              -0.0016075106104835868
            ],
            [
              0.08199520409107208,
              0.0016998365754261613,
              -0.15019561350345612
            ],
            [
              -0.05892931669950485,
              0.03653919696807861,
              -0.06487660109996796
            ],
            [
              0.05693385750055313,
              -0.11878947913646698,
              -0.030909541994333267
            ],
            [
              -0.05461333319544792,
              0.040069837123155594,
              0.023300660774111748
            ]
          ],
          [
            [
              -0.08129458874464035,
              0.0611272007226944,
              -0.06006651744246483
            ],
            [
              -0.18549157679080963,
              -0.10896105319261551,
              0.08674605935811996
            ],
            [
              -0.032209303230047226,
              -0.008814534172415733,
              -0.006916065234690905
            ],
            [
              -0.1480705887079239,
              0.039543528109788895,
              0.07481962442398071
            ],
            [
              -0.15654566884040833,
              0.07473495602607727,
              0.0185097549110651
            ],
            [
              0.17142629623413086,
              0.10377958416938782,
              0.08047369122505188
            ],
            [
              0.027486372739076614,
              -0.03636579215526581,
              -0.008672576397657394
            ],
            [
              0.053776636719703674,
              -0.04167550802230835,
              -0.06708810478448868
            ],
            [
              0.04734811931848526,
              -0.007803933694958687,
              0.027862749993801117
            ],
            [
              0.12744198739528656,
              0.1730278730392456,
              0.009459483437240124
            ],
            [
              0.050600986927747726,
              -0.1078844889998436,
              -0.03489178046584129
            ],
            [
              0.155722513794899,
              0.09327233582735062,
              0.06373321264982224
            ],
            [
              0.12458667159080505,
              -0.07732667773962021,
              -0.0687074363231659
            ],
            [
              0.13533063232898712,
              0.03892944008111954,
              -0.030795669183135033
            ],
            [
              0.1578686386346817,
              -0.06591610610485077,
              -0.04994216561317444
            ],
            [
              0.04992727190256119,
              -0.07334301620721817,
              0.06317242234945297
            ],
            [
              -0.24532268941402435,
              -0.16680899262428284,
              -0.05156775191426277
            ],
            [
              0.22201718389987946,
              0.021563781425356865,
              -0.017075099050998688
            ],
            [
              0.0343247726559639,
              -0.008985939435660839,
              0.02718687243759632
            ],
            [
              0.09609875082969666,
              0.1291041225194931,
              -0.056070245802402496
            ]
          ],
          [
            [
              -0.011733298189938068,
              -0.022083444520831108,
              0.006805421318858862
            ],
            [
              0.0015431424835696816,
              0.05596534535288811,
              0.09457544982433319
            ],
            [
              0.03695482388138771,
              0.13193854689598083,
              0.06896871328353882
            ],
            [
              -0.03659515827894211,
              0.04760286957025528,
              -0.13071103394031525
            ],
            [
              0.07047262787818909,
              -0.00136042560916394,
              -0.08746775984764099
            ],
            [
              0.08727352321147919,
              -0.0697307288646698,
              0.044652752578258514
            ],
            [
              -0.015561306849122047,
              0.014547506347298622,
              -0.06832119822502136
            ],
            [
              -0.02992432191967964,
              -0.05719241127371788,
              -0.11039693653583527
            ],
            [
              0.08637689054012299,
              0.027742309495806694,
              -0.025912242010235786
            ],
            [
              0.05527907609939575,
              -0.1233743280172348,
              -0.029672449454665184
            ],
            [
              0.07313600927591324,
              -0.04125739261507988,
              -0.05522257834672928
            ],
            [
              -0.09811877459287643,
              -0.030573558062314987,
              -0.0752052366733551
            ],
            [
              -0.013244425877928734,
              -0.01867365837097168,
              0.12538793683052063
            ],
            [
              0.10210507363080978,
              -0.05941884592175484,
              -0.09886819869279861
            ],
            [
              0.017605455592274666,
              0.02172897942364216,
              0.07364889234304428
            ],
            [
              0.014664528891444206,
              -0.0333050899207592,
              -0.13809360563755035
            ],
            [
              0.04225252941250801,
              0.009803696535527706,
              -0.02877102978527546
            ],
            [
              0.03665950894355774,
              -0.0944785475730896,
              0.004994172137230635
            ],
            [
              -0.08417918533086777,
              -0.08225134015083313,
              0.04377022385597229
            ],
            [
              0.08762934803962708,
              -0.04802779108285904,
              -0.06933419406414032
            ]
          ],
          [
            [
              0.05105363950133324,
              0.000460993149317801,
              0.06311558932065964
            ],
            [
              0.05151056870818138,
              -0.04436163231730461,
              -0.05499418079853058
            ],
            [
              0.08883002400398254,
              -0.05003160238265991,
              0.035554032772779465
            ],
            [
              -0.0032325636129826307,
              0.03600030019879341,
              0.11701413989067078
            ],
            [
              0.00928274542093277,
              0.05045980215072632,
              0.04393827170133591
            ],
            [
              -0.09684804826974869,
              0.12785479426383972,
              0.05365164577960968
            ],
            [
              -0.038897089660167694,
              0.018210848793387413,
              -0.06197058781981468
            ],
            [
              -0.05730833113193512,
              0.01409828383475542,
              0.0858519971370697
            ],
            [
              -0.07621751725673676,
              -0.1070278212428093,
              0.0902906209230423
            ],
            [
              -0.02024277299642563,
              0.019577285274863243,
              -0.0880875214934349
            ],
            [
              -0.06840347498655319,
              0.009860540740191936,
              0.038418665528297424
            ],
            [
              0.03734888508915901,
              0.0983138456940651,
              -0.022129632532596588
            ],
            [
              -0.09546254575252533,
              0.02063496597111225,
              -0.13504640758037567
            ],
            [
              0.0771048292517662,
              -0.07294302433729172,
              0.01766034960746765
            ],
            [
              -0.02930612862110138,
              0.07864575833082199,
              0.029364537447690964
            ],
            [
              0.005156196653842926,
              0.025294218212366104,
              -0.08522839844226837
            ],
            [
              -0.059851545840501785,
              0.05009784922003746,
              -0.019414497539401054
            ],
            [
              -0.012776191346347332,
              -0.002675669500604272,
              0.05411335453391075
            ],
            [
              -0.0165789145976305,
              0.08537638187408447,
              0.042635053396224976
            ],
            [
              -0.020124470815062523,
              0.033420659601688385,
              -0.13309898972511292
            ]
          ],
          [
            [
              -0.06369467824697495,
              0.054212603718042374,
              0.022166453301906586
            ],
            [
              -0.21365773677825928,
              -0.01762085221707821,
              0.20878587663173676
            ],
            [
              -0.044987671077251434,
              0.09114116430282593,
              0.15479525923728943
            ],
            [
              -0.042298324406147,
              -0.02553143911063671,
              0.1975582391023636
            ],
            [
              -0.12680301070213318,
              -0.025301527231931686,
              0.17862707376480103
            ],
            [
              0.021774275228381157,
              0.04302902892231941,
              0.11534386873245239
            ],
            [
              0.011428358033299446,
              0.02580626867711544,
              0.00982581079006195
            ],
            [
              0.00878935493528843,
              -0.10075246542692184,
              0.0857895240187645
            ],
            [
              -0.06729409098625183,
              -0.031162802129983902,
              -0.054914120584726334
            ],
            [
              0.07731602340936661,
              -0.03931546211242676,
              -0.2503759264945984
            ],
            [
              0.06425689905881882,
              0.040530066937208176,
              0.07973607629537582
            ],
            [
              0.24080507457256317,
              -0.043485887348651886,
              -0.09066423773765564
            ],
            [
              0.11048369109630585,
              0.021772855892777443,
              -0.12823858857154846
            ],
            [
              0.1380806267261505,
              0.08095262944698334,
              -0.07803968340158463
            ],
            [
              -0.0288540031760931,
              0.11022888123989105,
              -0.060053132474422455
            ],
            [
              0.11353137344121933,
              0.010135256685316563,
              0.03647405281662941
            ],
            [
              -0.23373866081237793,
              -0.15874947607517242,
              0.1554884910583496
            ],
            [
              0.1201903447508812,
              0.02855793386697769,
              -0.06685692816972733
            ],
            [
              -0.0637994110584259,
              -0.10028474777936935,
              -0.07038108259439468
            ],
            [
              0.16692782938480377,
              -0.01356411911547184,
              -0.15857011079788208
            ]
          ],
          [
            [
              -0.02438916079699993,
              -0.028673311695456505,
              -0.08519475162029266
            ],
            [
              -0.05655679106712341,
              -0.15943653881549835,
              0.15522482991218567
            ],
            [
              -0.04635470360517502,
              -0.06405144929885864,
              0.1363980919122696
            ],
            [
              0.004977026022970676,
              0.07674714922904968,
              0.0018803122220560908
            ],
            [
              0.02594825066626072,
              -0.06933972984552383,
              0.06079089269042015
            ],
            [
              -0.007340398617088795,
              0.11062818765640259,
              -0.09384346008300781
            ],
            [
              -0.02291950210928917,
              0.0990593209862709,
              0.06436562538146973
            ],
            [
              -0.09055659174919128,
              -0.010036397725343704,
              0.006575849372893572
            ],
            [
              -0.1121925562620163,
              -0.07746214419603348,
              0.11249758303165436
            ],
            [
              0.1514396220445633,
              0.0017339900368824601,
              -0.017359023913741112
            ],
            [
              -0.10267279297113419,
              -0.10990794003009796,
              -0.043584901839494705
            ],
            [
              0.15599381923675537,
              0.14365318417549133,
              -0.14101769030094147
            ],
            [
              -0.038287144154310226,
              0.06093111261725426,
              -0.059290435165166855
            ],
            [
              -0.005778279155492783,
              -0.013135525397956371,
              0.042605333030223846
            ],
            [
              -0.04081811383366585,
              -0.04324238374829292,
              -0.031853415071964264
            ],
            [
              0.011096831411123276,
              -0.007288756314665079,
              -0.019190724939107895
            ],
            [
              -0.09049172699451447,
              -0.012693674303591251,
              0.1590503603219986
            ],
            [
              0.020407281816005707,
              0.07088371366262436,
              0.005424518138170242
            ],
            [
              -0.05627613514661789,
              0.09127115458250046,
              -0.02297872304916382
            ],
            [
              0.05588427931070328,
              0.11873555183410645,
              0.02727346681058407
            ]
          ],
          [
            [
              0.06287797540426254,
              0.037658657878637314,
              0.028291616588830948
            ],
            [
              0.12188888341188431,
              0.03469401225447655,
              -0.19184233248233795
            ],
            [
              0.04464222490787506,
              0.04177837818861008,
              -0.012236882001161575
            ],
            [
              0.03307497873902321,
              0.0925811231136322,
              0.15173447132110596
            ],
            [
              0.02588788978755474,
              0.07763653993606567,
              -0.06918443739414215
            ],
            [
              -0.07727756351232529,
              0.09861887246370316,
              -0.012450171634554863
            ],
            [
              0.02531241439282894,
              0.03674406185746193,
              0.045509640127420425
            ],
            [
              0.16289299726486206,
              0.030819347128272057,
              0.017404645681381226
            ],
            [
              -0.026784289628267288,
              -0.04610138386487961,
              -0.09655379503965378
            ],
            [
              -0.0635605901479721,
              -0.09204045683145523,
              0.08851365745067596
            ],
            [
              -0.05919604375958443,
              0.014919687062501907,
              -0.13481052219867706
            ],
            [
              -0.11144732683897018,
              2.077172939607408e-05,
              0.12701065838336945
            ],
            [
              -0.011373686604201794,
              0.054229941219091415,
              0.04447751119732857
            ],
            [
              -0.1507207304239273,
              0.005487663205713034,
              0.06331583112478256
            ],
            [
              -0.1300477683544159,
              -0.05555763840675354,
              0.03517541661858559
            ],
            [
              -0.03272885084152222,
              0.10951965302228928,
              0.1373901218175888
            ],
            [
              0.009192965924739838,
              0.06124294176697731,
              -0.18309348821640015
            ],
            [
              0.00517880916595459,
              0.06437689810991287,
              -0.03909620642662048
            ],
            [
              -0.011530399322509766,
              0.03580069914460182,
              0.023572390899062157
            ],
            [
              -0.17910288274288177,
              0.007903873920440674,
              0.08919044584035873
            ]
          ],
          [
            [
              0.015054046176373959,
              -0.006882747169584036,
              0.060119204223155975
            ],
            [
              -0.13426163792610168,
              0.02302856370806694,
              -0.0592946782708168
            ],
            [
              0.036600615829229355,
              0.02351195178925991,
              -0.01549308281391859
            ],
            [
              0.12217510491609573,
              0.10412565618753433,
              0.19181443750858307
            ],
            [
              -0.08880060166120529,
              -0.03826236352324486,
              -0.09403209388256073
            ],
            [
              0.0074494024738669395,
              -0.0015155165456235409,
              0.024094535037875175
            ],
            [
              0.01654706709086895,
              -0.0011492220219224691,
              0.015072264708578587
            ],
            [
              0.004145613871514797,
              0.0035044944379478693,
              -0.07544653117656708
            ],
            [
              0.06859985738992691,
              0.03196348249912262,
              0.0062542869709432125
            ],
            [
              0.020242532715201378,
              0.03889133408665657,
              -0.06063791736960411
            ],
            [
              -0.014542393386363983,
              -0.08551794290542603,
              -0.006412471178919077
            ],
            [
              0.016070406883955002,
              0.07219669222831726,
              -0.07996717840433121
            ],
            [
              0.01872277818620205,
              -0.023935269564390182,
              -0.045622117817401886
            ],
            [
              0.10402980446815491,
              -0.050144653767347336,
              0.03949124366044998
            ],
            [
              -0.015372216701507568,
              0.10120026022195816,
              0.13953876495361328
            ],
            [
              0.15430153906345367,
              0.05987188220024109,
              0.15062199532985687
            ],
            [
              0.016759635880589485,
              0.03137204423546791,
              -0.03213348239660263
            ],
            [
              0.0243868175894022,
              0.023215578868985176,
              -0.07601907104253769
            ],
            [
              -0.04923265799880028,
              -0.046727556735277176,
              0.017125288024544716
            ],
            [
              0.03412516787648201,
              -0.05433358997106552,
              0.06712909042835236
            ]
          ],
          [
            [
              -0.035220637917518616,
              0.05142134800553322,
              -0.024110259488224983
            ],
            [
              0.0639839619398117,
              -0.1319185495376587,
              -0.0980960875749588
            ],
            [
              -0.03521314263343811,
              -0.06335626542568207,
              0.0072046201676130295
            ],
            [
              0.1476285457611084,
              0.047780249267816544,
              0.019383538514375687
            ],
            [
              0.06364208459854126,
              0.0066038575023412704,
              -0.1102142408490181
            ],
            [
              -0.06129411235451698,
              0.08440366387367249,
              0.0715673640370369
            ],
            [
              0.0036754216998815536,
              -0.070308618247509,
              -0.05949220806360245
            ],
            [
              -0.06920375674962997,
              0.006269589066505432,
              0.11844098567962646
            ],
            [
              -0.04132192209362984,
              0.06353381276130676,
              -0.034066878259181976
            ],
            [
              -0.0633898451924324,
              0.11711462587118149,
              0.032175466418266296
            ],
            [
              -0.08769572526216507,
              0.058674633502960205,
              -0.039803557097911835
            ],
            [
              -0.10371600091457367,
              0.018776193261146545,
              0.09563560783863068
            ],
            [
              0.06346957385540009,
              -0.0865553691983223,
              -0.013687602244317532
            ],
            [
              -0.1765126883983612,
              -0.05619186535477638,
              0.03961768373847008
            ],
            [
              0.08931735157966614,
              -0.0715411975979805,
              0.0864778459072113
            ],
            [
              0.09968609362840652,
              0.06275419890880585,
              0.0849819928407669
            ],
            [
              -0.0783834233880043,
              -0.11604391038417816,
              0.03465229272842407
            ],
            [
              -0.13008101284503937,
              -0.037803612649440765,
              -0.014718464575707912
            ],
            [
              0.08187596499919891,
              0.05098705366253853,
              -0.05821547284722328
            ],
            [
              -0.02916383370757103,
              0.04908807948231697,
              -0.07072554528713226
            ]
          ],
          [
            [
              0.024034935981035233,
              0.002996145747601986,
              -0.01336432620882988
            ],
            [
              -0.0357101745903492,
              0.033316582441329956,
              0.1428568810224533
            ],
            [
              -0.10441374033689499,
              0.043687544763088226,
              -0.038243599236011505
            ],
            [
              0.04894109442830086,
              0.008438418619334698,
              0.24133428931236267
            ],
            [
              -0.052852366119623184,
              0.09323820471763611,
              -0.008191551081836224
            ],
            [
              0.03197115659713745,
              0.10192565619945526,
              -0.0610562302172184
            ],
            [
              0.0794779434800148,
              -0.04115823656320572,
              -0.010640556924045086
            ],
            [
              -0.11750999838113785,
              0.027457183226943016,
              0.006554325111210346
            ],
            [
              -0.05042269453406334,
              -0.0833451971411705,
              0.004124416969716549
            ],
            [
              0.05259469896554947,
              -0.029314683750271797,
              -0.11922105401754379
            ],
            [
              -0.07290858775377274,
              0.006314586848020554,
              0.08949721604585648
            ],
            [
              0.1522814780473709,
              -0.05347317457199097,
              -0.06588592380285263
            ],
            [
              -0.0163545124232769,
              0.11629164218902588,
              0.04136816784739494
            ],
            [
              0.09844489395618439,
              0.03208409622311592,
              -0.04956989735364914
            ],
            [
              0.10769935697317123,
              0.014623668044805527,
              -0.1487015187740326
            ],
            [
              0.14989160001277924,
              0.057088032364845276,
              -0.017410743981599808
            ],
            [
              -0.16908714175224304,
              -0.058756645768880844,
              0.10024182498455048
            ],
            [
              0.08838620781898499,
              -0.06530259549617767,
              0.05560348182916641
            ],
            [
              -0.03032323159277439,
              -0.05092494934797287,
              0.11878971010446548
            ],
            [
              -0.05144478753209114,
              0.021731872111558914,
              -0.021320337429642677
            ]
          ],
          [
            [
              0.02077138051390648,
              0.022917771711945534,
              0.04001639038324356
            ],
            [
              0.11595457792282104,
              -0.08717786520719528,
              -0.12262634932994843
            ],
            [
              0.07562899589538574,
              -0.03291270509362221,
              -0.12298399955034256
            ],
            [
              0.06762143969535828,
              0.10304640978574753,
              0.11784204095602036
            ],
            [
              0.13734519481658936,
              -0.13968899846076965,
              -0.00481946999207139
            ],
            [
              -0.1732780486345291,
              -0.03037719801068306,
              0.11213493347167969
            ],
            [
              0.0029339229222387075,
              -0.00041892207809723914,
              0.0551435723900795
            ],
            [
              0.1220274493098259,
              0.06371621042490005,
              -0.09011669456958771
            ],
            [
              0.0736851766705513,
              -0.1266733855009079,
              -0.048634424805641174
            ],
            [
              -0.138475239276886,
              0.04348304867744446,
              0.028169769793748856
            ],
            [
              0.007369632832705975,
              0.0016055147862061858,
              0.007718149572610855
            ],
            [
              -0.18123389780521393,
              0.14136871695518494,
              0.13090679049491882
            ],
            [
              0.020889075472950935,
              0.12346969544887543,
              0.1797490268945694
            ],
            [
              -0.01560940407216549,
              0.05120832473039627,
              0.11489368975162506
            ],
            [
              -0.00017090412438847125,
              -0.0006925437483005226,
              -0.08070755004882812
            ],
            [
              -0.14178921282291412,
              0.07163546979427338,
