{
  "model_info": {
    "name": "flstudio_cpu_optimized5",
    "version": "1.0.0",
    "architecture": "WaveNet",
    "causal": true,
    "sample_rate": 44100,
    "receptive_field": 511,
    "latency_ms": 11.59
  },
  "architecture": {
    "channels": 20,
    "num_layers": 8,
    "kernel_size": 3,
    "dilation_base": 2,
    "dilations": [
      1,
      2,
      4,
      8,
      16,
      32,
      64,
      128
    ]
  },
  "weights": {
    "input_conv": {
      "weight": [
        -0.34841182827949524,
        0.10844728350639343,
        -0.41735976934432983,
        1.3949570655822754,
        0.13051077723503113,
        0.10032268613576889,
        0.7401951551437378,
        0.00788029469549656,
        -0.027314575389027596,
        -0.14799359440803528,
        -0.3989386558532715,
        1.053425669670105,
        0.014762451872229576,
        0.07107293605804443,
        1.3902037143707275,
        0.09482351690530777,
        -0.570127010345459,
        -1.0545670986175537,
        1.5993776321411133,
        -0.5663216710090637
      ],
      "bias": [
        -0.10746028274297714,
        -0.6949625611305237,
        0.3842875063419342,
        0.08218219131231308,
        0.23805132508277893,
        -0.2414942979812622,
        0.26160532236099243,
        -0.5650647878646851,
        -0.2084546983242035,
        0.06240854039788246,
        0.39830493927001953,
        -0.024396812543272972,
        0.35852816700935364,
        0.482161283493042,
        -0.1454475373029709,
        0.35346806049346924,
        -0.7166688442230225,
        -0.02198353409767151,
        -0.06306705623865128,
        -0.785027265548706
      ]
    },
    "residual_blocks": [
      {
        "layer": 0,
        "dilation": 1,
        "conv_weight": [
          [
            [
              0.005913066677749157,
              0.02031007595360279,
              0.05105605348944664
            ],
            [
              -0.08099913597106934,
              0.0014571771025657654,
              0.003597622038796544
            ],
            [
              0.02395002730190754,
              0.009114059619605541,
              0.007853282615542412
            ],
            [
              -0.03348003700375557,
              -0.11284884810447693,
              -0.16410952806472778
            ],
            [
              -0.021683236584067345,
              -0.01901734247803688,
              -0.004394026007503271
            ],
            [
              -0.05536918714642525,
              -0.03243689239025116,
              -0.03196175768971443
            ],
            [
              0.022830799221992493,
              -0.025697005912661552,
              -0.09714288264513016
            ],
            [
              -0.04031698778271675,
              -0.06925027817487717,
              -0.07315333187580109
            ],
            [
              0.0007579369703307748,
              -0.02274453453719616,
              0.007969930768013
            ],
            [
              0.009494293481111526,
              0.013205205090343952,
              0.023345550522208214
            ],
            [
              0.06273829191923141,
              0.013101143762469292,
              0.02217513509094715
            ],
            [
              -0.032715924084186554,
              -0.08497027307748795,
              -0.11620254814624786
            ],
            [
              0.030958116054534912,
              -0.040731824934482574,
              -0.052086055278778076
            ],
            [
              0.057035181671381,
              -0.03345424681901932,
              0.0071244253776967525
            ],
            [
              -0.047713518142700195,
              -0.10546732693910599,
              -0.15198306739330292
            ],
            [
              0.016179891303181648,
              0.012696527875959873,
              -0.06285161525011063
            ],
            [
              -0.05168801546096802,
              0.047606904059648514,
              0.06740042567253113
            ],
            [
              0.027260901406407356,
              0.08571874350309372,
              0.11984146386384964
            ],
            [
              -0.06075269356369972,
              -0.1296139806509018,
              -0.17879633605480194
            ],
            [
              0.0455472357571125,
              -0.023920981213450432,
              -0.004944953601807356
            ]
          ],
          [
            [
              -0.06931257247924805,
              -0.009714938700199127,
              0.026964396238327026
            ],
            [
              -0.17776334285736084,
              3.790311166085303e-05,
              0.028051307424902916
            ],
            [
              0.14611609280109406,
              0.003316251328215003,
              -0.059059806168079376
            ],
            [
              0.10695526748895645,
              0.03722349554300308,
              -0.028431406244635582
            ],
            [
              0.12089082598686218,
              0.012202439829707146,
              -0.03884563222527504
            ],
            [
              -0.10978809744119644,
              -0.0021273065358400345,
              0.045415978878736496
            ],
            [
              0.15467825531959534,
              0.020528651773929596,
              -0.050238315016031265
            ],
            [
              -0.21015562117099762,
              -0.04403406009078026,
              0.07247091084718704
            ],
            [
              -0.09082308411598206,
              -0.0026233482640236616,
              0.03962856903672218
            ],
            [
              0.02363847754895687,
              -0.00435501616448164,
              -0.013350466266274452
            ],
            [
              0.15133029222488403,
              -0.007721383590251207,
              -0.05479530245065689
            ],
            [
              0.04041717201471329,
              0.029018213972449303,
              -0.0008156451513059437
            ],
            [
              0.16025914251804352,
              0.02421005815267563,
              -0.04080377519130707
            ],
            [
              0.18002711236476898,
              0.00388894509524107,
              -0.04274212196469307
            ],
            [
              -0.003908731043338776,
              0.034738074988126755,
              0.02036389149725437
            ],
            [
              0.1399816870689392,
              0.003633403917774558,
              -0.05144483596086502
            ],
            [
              -0.25206318497657776,
              -0.0486038513481617,
              0.08340176939964294
            ],
            [
              -0.06304197758436203,
              -0.029156822711229324,
              0.011504200287163258
            ],
            [
              0.04563309997320175,
              0.04186078906059265,
              0.002791221719235182
            ],
            [
              -0.23525801301002502,
              -0.015072012320160866,
              0.09055081009864807
            ]
          ],
          [
            [
              0.12144938856363297,
              0.051000725477933884,
              0.06630991399288177
            ],
            [
              0.09382430464029312,
              0.04118403419852257,
              -0.07112199813127518
            ],
            [
              0.07493461668491364,
              0.025978079065680504,
              0.07234214246273041
            ],
            [
              -0.22525128722190857,
              -0.25447914004325867,
              -0.23440377414226532
            ],
            [
              -0.11059615015983582,
              -0.007025456055998802,
              -0.0401918850839138
            ],
            [
              0.024447109550237656,
              -0.041521038860082626,
              -0.07205740362405777
            ],
            [
              -0.15459567308425903,
              -0.10854668915271759,
              -0.0523080937564373
            ],
            [
              0.046591032296419144,
              0.10378948599100113,
              0.0010609953897073865
            ],
            [
              -0.012414533644914627,
              -0.057096220552921295,
              0.09345202893018723
            ],
            [
              -0.012358151376247406,
              -0.07220011949539185,
              -0.06897768378257751
            ],
            [
              -0.052964530885219574,
              -0.07135788351297379,
              0.113515205681324
            ],
            [
              -0.14864300191402435,
              -0.1975855678319931,
              -0.19822771847248077
            ],
            [
              0.07311343401670456,
              -0.04917854070663452,
              -0.011575634591281414
            ],
            [
              0.07643945515155792,
              -0.10918840020895004,
              -0.04068432375788689
            ],
            [
              -0.09545984119176865,
              -0.22727304697036743,
              -0.22473591566085815
            ],
            [
              -0.0785861536860466,
              0.011411475017666817,
              -0.019843168556690216
            ],
            [
              0.0923416018486023,
              -0.0024170216638594866,
              0.04124927893280983
            ],
            [
              0.14391642808914185,
              0.17044252157211304,
              0.17423148453235626
            ],
            [
              -0.24319137632846832,
              -0.2515566945075989,
              -0.3242243826389313
            ],
            [
              -0.03447626531124115,
              0.03660610318183899,
              0.052107132971286774
            ]
          ],
          [
            [
              -0.06058470904827118,
              0.005688744131475687,
              0.01834683306515217
            ],
            [
              -0.07659317553043365,
              -0.07094786316156387,
              -0.03959167003631592
            ],
            [
              -0.11193259805440903,
              -0.010651202872395515,
              0.0937553197145462
            ],
            [
              0.21574147045612335,
              0.296703040599823,
              0.25141641497612
            ],
            [
              -0.09652438014745712,
              -0.045111726969480515,
              -0.010524420067667961
            ],
            [
              -0.028656912967562675,
              0.10977699607610703,
              -0.10286269336938858
            ],
            [
              0.10011997073888779,
              0.08580216765403748,
              0.16909198462963104
            ],
            [
              -0.058007340878248215,
              0.040337007492780685,
              -0.012271184474229813
            ],
            [
              -0.06555697321891785,
              0.10735907405614853,
              -0.07169021666049957
            ],
            [
              -0.02516832761466503,
              -0.0654744952917099,
              0.006024422589689493
            ],
            [
              -0.1483035832643509,
              -0.05531253665685654,
              -0.09656047075986862
            ],
            [
              0.26487624645233154,
              0.24379533529281616,
              0.2820647954940796
            ],
            [
              0.012485595420002937,
              0.0722828209400177,
              -0.09411228448152542
            ],
            [
              -0.06977469474077225,
              0.017276601865887642,
              0.000930985901504755
            ],
            [
              0.22596202790737152,
              0.20948727428913116,
              0.17518272995948792
            ],
            [
              0.021306300535798073,
              -0.027827879413962364,
              -0.009060450829565525
            ],
            [
              -0.07958685606718063,
              0.05416401848196983,
              0.043903302401304245
            ],
            [
              -0.23879088461399078,
              -0.23280370235443115,
              -0.28038230538368225
            ],
            [
              0.30582380294799805,
              0.2725020945072174,
              0.35396823287010193
            ],
            [
              0.0038872109726071358,
              0.0007702148286625743,
              0.018430599942803383
            ]
          ],
          [
            [
              0.0006629549898207188,
              -0.03502986952662468,
              -0.05046771466732025
            ],
            [
              -0.004893893375992775,
              0.029975922778248787,
              0.020708870142698288
            ],
            [
              -0.07795742154121399,
              -0.0570240318775177,
              -0.0020835367031395435
            ],
            [
              0.05403266102075577,
              0.12097683548927307,
              0.16609340906143188
            ],
            [
              -0.019526878371834755,
              -0.003651564009487629,
              0.036291997879743576
            ],
            [
              0.03290745988488197,
              -0.013698980212211609,
              -0.0035259185824543238
            ],
            [
              0.011048134416341782,
              0.05792709067463875,
              0.07596851885318756
            ],
            [
              0.03903122991323471,
              0.04429914057254791,
              0.018108444288372993
            ],
            [
              0.02115628868341446,
              -0.017711419612169266,
              0.00012173633149359375
            ],
            [
              -0.018584037199616432,
              -0.017132049426436424,
              -0.015474341809749603
            ],
            [
              -0.0997164323925972,
              -0.04577455297112465,
              -0.04344139248132706
            ],
            [
              0.06723718345165253,
              0.09791312366724014,
              0.1248670145869255
            ],
            [
              -0.03589422255754471,
              0.005641809664666653,
              0.014526366256177425
            ],
            [
              -0.0694739893078804,
              -0.036158736795186996,
              0.008193706162273884
            ],
            [
              0.09041114896535873,
              0.11685272306203842,
              0.15416784584522247
            ],
            [
              -0.06370090693235397,
              0.029245618730783463,
              0.03611000254750252
            ],
            [
              0.04781205952167511,
              0.018720580264925957,
              -0.031292907893657684
            ],
            [
              -0.0572359599173069,
              -0.0974825993180275,
              -0.12752635776996613
            ],
            [
              0.09690652042627335,
              0.14125630259513855,
              0.1827803999185562
            ],
            [
              0.07692252099514008,
              0.02806779183447361,
              -0.09802564978599548
            ]
          ],
          [
            [
              -0.052560824900865555,
              -0.033487655222415924,
              -1.697462903393898e-05
            ],
            [
              -0.027471333742141724,
              0.02382662519812584,
              -0.003860526019707322
            ],
            [
              -0.032786108553409576,
              -0.002769886516034603,
              0.0033633564598858356
            ],
            [
              0.18213672935962677,
              0.12169744819402695,
              0.022532645612955093
            ],
            [
              0.0545317642390728,
              0.02729284018278122,
              0.015612010844051838
            ],
            [
              0.014929172582924366,
              0.019041741266846657,
              0.011014949530363083
            ],
            [
              0.10595657676458359,
              0.06743854284286499,
              -0.004071545787155628
            ],
            [
              0.03042948991060257,
              -0.007072539534419775,
              -0.0394907183945179
            ],
            [
              -0.004213571082800627,
              -0.004571907687932253,
              0.0031381926964968443
            ],
            [
              -0.021196886897087097,
              -0.012169367633759975,
              -0.008407015353441238
            ],
            [
              -0.013986493460834026,
              -0.010986009612679482,
              0.006117220502346754
            ],
            [
              0.1391432285308838,
              0.0941045731306076,
              0.018826918676495552
            ],
            [
              0.00479102972894907,
              -0.006557736545801163,
              0.0014417339116334915
            ],
            [
              0.0025041336193680763,
              0.04139553755521774,
              0.04237319901585579
            ],
            [
              0.1584063023328781,
              0.11542969197034836,
              0.025796739384531975
            ],
            [
              0.051939282566308975,
              -0.0007817431469447911,
              -0.01308484748005867
            ],
            [
              -0.03507207706570625,
              -0.016344185918569565,
              -0.01597491279244423
            ],
            [
              -0.1409180462360382,
              -0.09523063898086548,
              -0.01744850166141987
            ],
            [
              0.20330145955085754,
              0.1383102834224701,
              0.018943671137094498
            ],
            [
              -0.017278581857681274,
              -0.053074467927217484,
              -0.007271480280905962
            ]
          ],
          [
            [
              -0.004472066648304462,
              -0.029239237308502197,
              -0.04001353681087494
            ],
            [
              0.007696070708334446,
              -0.0040263584814965725,
              0.0516454316675663
            ],
            [
              -0.11386655271053314,
              -0.04937555268406868,
              -0.059152185916900635
            ],
            [
              0.08059623837471008,
              0.13995951414108276,
              0.17196005582809448
            ],
            [
              -0.0665905550122261,
              -0.005519515834748745,
              -0.020465446636080742
            ],
            [
              0.01286268886178732,
              0.034274645149707794,
              -0.0032135779038071632
            ],
            [
              -0.01449884194880724,
              0.05562155321240425,
              0.08416751027107239
            ],
            [
              -0.026892518624663353,
              -0.030873721465468407,
              0.05894992873072624
            ],
            [
              0.005921031814068556,
              0.038113631308078766,
              0.0003935572749469429
            ],
            [
              -0.027633706107735634,
              -0.020427081733942032,
              -0.005805855616927147
            ],
            [
              -0.08544032275676727,
              -0.08767487108707428,
              -0.054442454129457474
            ],
            [
              0.08491286635398865,
              0.11743925511837006,
              0.1257355511188507
            ],
            [
              -0.09172751754522324,
              0.052850861102342606,
              0.04563827067613602
            ],
            [
              0.027186084538698196,
              -0.05665220320224762,
              0.10636568069458008
            ],
            [
              0.12477654963731766,
              0.12778188288211823,
              0.14285200834274292
            ],
            [
              -0.08810679614543915,
              0.016157612204551697,
              0.06297773867845535
            ],
            [
              -0.05396842584013939,
              0.045108307152986526,
              -0.055162157863378525
            ],
            [
              -0.07451245188713074,
              -0.11594200879335403,
              -0.13027094304561615
            ],
            [
              0.12342283874750137,
              0.1718689501285553,
              0.18452274799346924
            ],
            [
              0.10390615463256836,
              -0.005152916070073843,
              -0.006353705655783415
            ]
          ],
          [
            [
              -0.04458117485046387,
              -0.01110871322453022,
              0.009370173327624798
            ],
            [
              -0.08507698774337769,
              0.021591637283563614,
              -0.017806559801101685
            ],
            [
              0.05911732465028763,
              0.019034825265407562,
              -0.009959124960005283
            ],
            [
              0.07829761505126953,
              0.04278946295380592,
              0.008837517350912094
            ],
            [
              0.049637097865343094,
              0.02630658634006977,
              0.0031391941010951996
            ],
            [
              -0.026875287294387817,
              -0.03226223587989807,
              -0.006319595035165548
            ],
            [
              0.0914018303155899,
              0.04490414634346962,
              -0.0005280983750708401
            ],
            [
              -0.1117120236158371,
              -0.06620687991380692,
              -0.01084133144468069
            ],
            [
              -0.05762193351984024,
              -0.013648302294313908,
              0.030107660219073296
            ],
            [
              0.012677740305662155,
              -0.0004009030817542225,
              -0.012135405093431473
            ],
            [
              0.0711156353354454,
              -0.0012905530165880919,
              -0.03714349493384361
            ],
            [
              0.03713521361351013,
              0.03025144711136818,
              0.016067346557974815
            ],
            [
              0.11122170835733414,
              0.020258920267224312,
              0.01593019813299179
            ],
            [
              0.07089278101921082,
              0.04168601334095001,
              0.04803837090730667
            ],
            [
              0.026581913232803345,
              0.0338657982647419,
              0.042974282056093216
            ],
            [
              0.05077044293284416,
              0.0055521647445857525,
              -0.020812680944800377
            ],
            [
              -0.057463835924863815,
              -0.04156273603439331,
              0.01902691274881363
            ],
            [
              -0.050066206604242325,
              -0.030937666073441505,
              -0.010587768629193306
            ],
            [
              0.04913720116019249,
              0.046336811035871506,
              0.02879730984568596
            ],
            [
              -0.13205735385417938,
              -0.004687047563493252,
              0.0061294096522033215
            ]
          ],
          [
            [
              -0.07300376892089844,
              -0.005806228145956993,
              0.034051623195409775
            ],
            [
              -0.2413436472415924,
              -0.020152779296040535,
              0.08309737592935562
            ],
            [
              0.14728569984436035,
              -0.00358327804133296,
              -0.06083088368177414
            ],
            [
              0.12344283610582352,
              0.017501942813396454,
              -0.07802578806877136
            ],
            [
              0.11394164711236954,
              -0.0015145300421863794,
              -0.05346697196364403
            ],
            [
              -0.11015206575393677,
              0.001957274740561843,
              0.05075519159436226
            ],
            [
              0.1666373759508133,
              0.006044602021574974,
              -0.09188839793205261
            ],
            [
              -0.19668833911418915,
              -0.02325597032904625,
              0.11343025416135788
            ],
            [
              -0.09736749529838562,
              -0.0013345127226784825,
              0.03987802192568779
            ],
            [
              0.021130038425326347,
              -0.0010693505173549056,
              -0.004811155144125223
            ],
            [
              0.13631366193294525,
              -0.01555485837161541,
              -0.06136711314320564
            ],
            [
              0.0518692247569561,
              0.014688475988805294,
              -0.037574660032987595
            ],
            [
              0.15751951932907104,
              -0.004438069183379412,
              -0.08522231876850128
            ],
            [
              0.18104581534862518,
              -0.02076977677643299,
              -0.08010238409042358
            ],
            [
              0.013031018897891045,
              0.01775268465280533,
              -0.03612886741757393
            ],
            [
              0.1635061353445053,
              -0.004263790789991617,
              -0.08285251259803772
            ],
            [
              -0.249019056558609,
              -0.008145703934133053,
              0.13418686389923096
            ],
            [
              -0.0741766020655632,
              -0.015295038931071758,
              0.04593535140156746
            ],
            [
              0.06498927623033524,
              0.019864080473780632,
              -0.05981122702360153
            ],
            [
              -0.2814925014972687,
              0.022753477096557617,
              0.17576201260089874
            ]
          ],
          [
            [
              0.029890354722738266,
              0.08562573045492172,
              0.06481234729290009
            ],
            [
              -0.13233663141727448,
              0.05253772810101509,
              0.06840658187866211
            ],
            [
              0.08330859988927841,
              0.05047820135951042,
              0.07850367575883865
            ],
            [
              -0.22387637197971344,
              -0.19728191196918488,
              -0.10563641786575317
            ],
            [
              0.04265618324279785,
              -0.05379459634423256,
              -0.05999555438756943
            ],
            [
              -0.02571706660091877,
              -0.05008266866207123,
              0.04127777740359306
            ],
            [
              -0.05826200917363167,
              -0.04203793779015541,
              -0.025572361424565315
            ],
            [
              0.03265666216611862,
              -0.030638279393315315,
              0.010922281071543694
            ],
            [
              -0.10367035865783691,
              -0.028431851416826248,
              -0.025638781487941742
            ],
            [
              0.014523063786327839,
              -0.013178282417356968,
              0.003038669005036354
            ],
            [
              0.12750467658042908,
              0.07395327836275101,
              -0.015387129969894886
            ],
            [
              -0.19138555228710175,
              -0.1583283543586731,
              -0.07688380777835846
            ],
            [
              0.0493413545191288,
              0.03953401371836662,
              0.013929740525782108
            ],
            [
              0.043537382036447525,
              0.0467461496591568,
              0.020566949620842934
            ],
            [
              -0.2326239049434662,
              -0.1446925699710846,
              -0.13145391643047333
            ],
            [
              0.019381875172257423,
              -0.010695372708141804,
              -0.07079444825649261
            ],
            [
              0.09657561033964157,
              -0.06983305513858795,
              0.0708656758069992
            ],
            [
              0.18583327531814575,
              0.1568598747253418,
              0.07452482730150223
            ],
            [
              -0.28251174092292786,
              -0.25548461079597473,
              -0.10603158921003342
            ],
            [
              0.09814733266830444,
              -0.013718529604375362,
              0.10492968559265137
            ]
          ],
          [
            [
              0.061122383922338486,
              0.056673016399145126,
              0.052724339067935944
            ],
            [
              -0.021110178902745247,
              -0.054093871265649796,
              -0.05544251203536987
            ],
            [
              -0.012289388105273247,
              -0.06182092800736427,
              0.013060934841632843
            ],
            [
              -0.10710226744413376,
              -0.09943834692239761,
              -0.07500139623880386
            ],
            [
              0.004895941354334354,
              -0.05916417017579079,
              0.026168158277869225
            ],
            [
              0.03349369391798973,
              0.07870415598154068,
              -0.015405938029289246
            ],
            [
              -0.12191370129585266,
              -0.045592568814754486,
              -0.1139017641544342
            ],
            [
              0.04199542850255966,
              -0.026223283261060715,
              0.0057922652922570705
            ],
            [
              0.03087259642779827,
              -0.016242392361164093,
              0.0822194442152977
            ],
            [
              -0.021947938948869705,
              -0.03586133196949959,
              0.00026951770996674895
            ],
            [
              -0.060381896793842316,
              0.03452996164560318,
              0.019358577206730843
            ],
            [
              -0.055144600570201874,
              -0.06465091556310654,
              -0.04828408360481262
            ],
            [
              -0.013559930957853794,
              -0.041906628757715225,
              0.01627432368695736
            ],
            [
              -0.10995624214410782,
              -0.13530756533145905,
              0.04100341349840164
            ],
            [
              -0.013972305692732334,
              -0.05875547230243683,
              -0.021720243617892265
            ],
            [
              -0.06709492206573486,
              0.011444095522165298,
              0.024809155613183975
            ],
            [
              0.08022906631231308,
              0.11674018949270248,
              -0.02925284020602703
            ],
            [
              0.066547691822052,
              0.06513326615095139,
              0.048264048993587494
            ],
            [
              -0.06537774205207825,
              -0.10781451314687729,
              -0.07601696997880936
            ],
            [
              0.05572033300995827,
              -0.007214060518890619,
              0.03452543169260025
            ]
          ],
          [
            [
              -0.024733025580644608,
              -0.019987886771559715,
              -0.058761440217494965
            ],
            [
              -0.030258186161518097,
              0.01630290597677231,
              0.0858624130487442
            ],
            [
              0.059664782136678696,
              -0.003433475736528635,
              -0.11790694296360016
            ],
            [
              0.01600395143032074,
              0.12526972591876984,
              0.2436366230249405
            ],
            [
              0.061090271919965744,
              -0.030887357890605927,
              -0.03212059289216995
            ],
            [
              -0.045314669609069824,
              0.06356173008680344,
              0.016404611989855766
            ],
            [
              0.023188583552837372,
              0.02774198167026043,
              0.12423879653215408
            ],
            [
              -0.07442811876535416,
              -0.0020074269268661737,
              -0.025804908946156502
            ],
            [
              -0.044081978499889374,
              0.015147031284868717,
              -0.007063047494739294
            ],
            [
              0.005789312534034252,
              -0.0189183559268713,
              -0.03957526758313179
            ],
            [
              0.0583125501871109,
              -0.016462987288832664,
              -0.07535476982593536
            ],
            [
              0.006894699763506651,
              0.11149607598781586,
              0.19743424654006958
            ],
            [
              0.0017033590702340007,
              -0.04535752162337303,
              -0.03349380940198898
            ],
            [
              0.033038605004549026,
              -0.07555011659860611,
              -0.01639310084283352
            ],
            [
              -0.02802710048854351,
              0.14877399802207947,
              0.2645317316055298
            ],
            [
              0.0059007336385548115,
              0.031391896307468414,
              0.007878175936639309
            ],
            [
              -0.009447582997381687,
              -0.017685674130916595,
              -0.039035066962242126
            ],
            [
              -0.014740115962922573,
              -0.1082054153084755,
              -0.1948966085910797
            ],
            [
              -0.003561653196811676,
              0.16232973337173462,
              0.2969091236591339
            ],
            [
              -0.04199134558439255,
              -0.07798949629068375,
              -0.007870852015912533
            ]
          ],
          [
            [
              0.008924015797674656,
              -0.00877711083739996,
              -0.013244294561445713
            ],
            [
              0.1395750492811203,
              0.03046722151339054,
              -0.06203243136405945
            ],
            [
              -0.13508187234401703,
              -0.034452591091394424,
              0.04838734492659569
            ],
            [
              0.0686459094285965,
              0.04693523049354553,
              0.0075337872840464115
            ],
            [
              -0.06347744911909103,
              -0.004439705051481724,
              0.033148135989904404
            ],
            [
              0.08267276734113693,
              0.018054936081171036,
              -0.038324326276779175
            ],
            [
              -0.026392862200737,
              0.013344250619411469,
              0.037424396723508835
            ],
            [
              0.11376720666885376,
              0.03183168172836304,
              -0.035078246146440506
            ],
            [
              0.06009963899850845,
              0.01090983022004366,
              -0.028507642447948456
            ],
            [
              -0.030321944504976273,
              -0.007582701276987791,
              0.008965692482888699
            ],
            [
              -0.13649140298366547,
              -0.045618508011102676,
              0.04792005196213722
            ],
            [
              0.08144177496433258,
              0.03908758983016014,
              -0.008747079409658909
            ],
            [
              -0.09201954305171967,
              -0.017277486622333527,
              0.05128846317529678
            ],
            [
              -0.12397424876689911,
              -0.03158554062247276,
              0.04439764842391014
            ],
            [
              0.1401439756155014,
              0.05840085819363594,
              -0.024993354454636574
            ],
            [
              -0.09539855271577835,
              -0.013198696076869965,
              0.05110236629843712
            ],
            [
              0.12306171655654907,
              0.02374333329498768,
              -0.06925474852323532
            ],
            [
              -0.06716323643922806,
              -0.03757090121507645,
              0.002363319741562009
            ],
            [
              0.12807311117649078,
              0.06070917099714279,
              -0.01449801865965128
            ],
            [
              0.13033641874790192,
              -0.0008590384968556464,
              -0.06011677160859108
            ]
          ],
          [
            [
              0.043392281979322433,
              0.0008416317868977785,
              -0.027989985421299934
            ],
            [
              0.1608860045671463,
              0.0686507299542427,
              -0.047335345298051834
            ],
            [
              -0.11776158213615417,
              0.0060312747955322266,
              -0.011413512751460075
            ],
            [
              -0.04262770712375641,
              0.02061362750828266,
              0.05825682356953621
            ],
            [
              -0.0967891737818718,
              -0.008203232660889626,
              0.008108844049274921
            ],
            [
              0.07171035557985306,
              0.02299114316701889,
              -0.022593587636947632
            ],
            [
              -0.09924639016389847,
              -0.004203739110380411,
              0.041917819529771805
            ],
            [
              0.10590315610170364,
              -0.01569240354001522,
              -0.06638817489147186
            ],
            [
              0.05135759338736534,
              -0.005014257971197367,
              -0.028379417955875397
            ],
            [
              -0.02847183309495449,
              -0.004830692429095507,
              0.008350972086191177
            ],
            [
              -0.07985810935497284,
              -0.019249316304922104,
              0.030759811401367188
            ],
            [
              0.0008552293293178082,
              0.014964575879275799,
              0.026995468884706497
            ],
            [
              -0.0763135477900505,
              -0.01185586117208004,
              0.033723000437021255
            ],
            [
              -0.11631172150373459,
              -0.031892601400613785,
              0.021171217784285545
            ],
            [
              0.05699176341295242,
              0.03102893941104412,
              0.036604370921850204
            ],
            [
              -0.08587871491909027,
              -0.011964289471507072,
              0.034459106624126434
            ],
            [
              0.1225322037935257,
              0.05163058266043663,
              -0.006358897779136896
            ],
            [
              0.017545094713568687,
              -0.013431118801236153,
              -0.03475790098309517
            ],
            [
              0.01398004125803709,
              0.027503447607159615,
              0.041506920009851456
            ],
            [
              0.2048276960849762,
              -0.01735483482480049,
              -0.03320048004388809
            ]
          ],
          [
            [
              -0.025497673079371452,
              -0.05271901190280914,
              -0.0865851566195488
            ],
            [
              -0.04863063618540764,
              0.0211547389626503,
              -0.11591411381959915
            ],
            [
              -0.10846979916095734,
              0.04250397905707359,
              -0.05117901414632797
            ],
            [
              0.2352847158908844,
              0.17589688301086426,
              0.16082122921943665
            ],
            [
              0.006322391796857119,
              0.021229632198810577,
              -0.03017234057188034
            ],
            [
              0.022652752697467804,
              0.02269977144896984,
              -0.0542297400534153
            ],
            [
              0.021183259785175323,
              0.03789855167269707,
              0.07548510283231735
            ],
            [
              0.06742247939109802,
              -0.0028341172728687525,
              -0.09936893731355667
            ],
            [
              -0.05029569938778877,
              0.00969267450273037,
              -0.09279336780309677
            ],
            [
              0.013026469387114048,
              -0.02651038207113743,
              -0.0005601901793852448
            ],
            [
              -0.04872036352753639,
              0.04642902687191963,
              0.09168107807636261
            ],
            [
              0.1601850688457489,
              0.1532360315322876,
              0.1212923601269722
            ],
            [
              -0.05902772396802902,
              -0.07547670602798462,
              -0.08016124367713928
            ],
            [
              0.04311460256576538,
              -0.029586048796772957,
              -0.05795619264245033
            ],
            [
              0.1775246560573578,
              0.09349017590284348,
              0.09627047181129456
            ],
            [
              -0.08694609254598618,
              0.03537432849407196,
              0.11305104941129684
            ],
            [
              0.019191598519682884,
              -0.10367327928543091,
              -0.0786774531006813
            ],
            [
              -0.16976560652256012,
              -0.15620781481266022,
              -0.12028404325246811
            ],
            [
              0.2697303891181946,
              0.24494785070419312,
              0.12896329164505005
            ],
            [
              0.05416811630129814,
              -0.03319960832595825,
              0.07143578678369522
            ]
          ],
          [
            [
              0.0053798966109752655,
              -0.044009048491716385,
              -0.03370331600308418
            ],
            [
              0.10375850647687912,
              -0.0011864248663187027,
              -0.0385940782725811
            ],
            [
              -0.04620775207877159,
              0.02832113206386566,
              -0.049599237740039825
            ],
            [
              0.08108271658420563,
              0.12455306947231293,
              0.10528792440891266
            ],
            [
              -0.00892904493957758,
              0.060059089213609695,
              -0.005281270481646061
            ],
            [
              0.07277211546897888,
              0.012449593283236027,
              0.021317319944500923
            ],
            [
              -0.049694210290908813,
              0.04500967264175415,
              0.06455225497484207
            ],
            [
              0.06400560587644577,
              -0.019952816888689995,
              -0.038415320217609406
            ],
            [
              0.05997258424758911,
              0.02496296539902687,
              -0.04333537444472313
            ],
            [
              -0.039212536066770554,
              -0.017923956736922264,
              0.0026328787207603455
            ],
            [
              -0.07691767066717148,
              0.014357495121657848,
              -0.06254682689905167
            ],
            [
              0.09916667640209198,
              0.09222650527954102,
              0.07206165045499802
            ],
            [
              -0.09982147067785263,
              0.005434116348624229,
              0.027054207399487495
            ],
            [
              -0.10472538322210312,
              0.042671963572502136,
              -0.03394229710102081
            ],
            [
              0.14417922496795654,
              0.1291898787021637,
              0.08484701067209244
            ],
            [
              -0.08695638179779053,
              -0.010175904259085655,
              -0.03497215732932091
            ],
            [
              0.10629472881555557,
              -0.042936380952596664,
              -0.04488596320152283
            ],
            [
              -0.08259938657283783,
              -0.09462784230709076,
              -0.07751293480396271
            ],
            [
              0.15320232510566711,
              0.13183309137821198,
              0.11146833747625351
            ],
            [
              0.14963871240615845,
              0.024783950299024582,
              0.017472058534622192
            ]
          ],
          [
            [
              -0.06577055156230927,
              0.06994513422250748,
              0.0863969624042511
            ],
            [
              -0.15825247764587402,
              -0.1309964507818222,
              0.008807944133877754
            ],
            [
              0.07971689105033875,
              0.11080040782690048,
              -0.03381706029176712
            ],
            [
              -0.12351418286561966,
              -0.21718478202819824,
              -0.18951202929019928
            ],
            [
              0.13236103951931,
              0.02817212976515293,
              0.016521701589226723
            ],
            [
              -0.04391111806035042,
              -0.0006599746411666274,
              -0.12612466514110565
            ],
            [
              -0.009396390058100224,
              -0.04524533823132515,
              -0.13238772749900818
            ],
            [
              0.035576317459344864,
              -0.148003488779068,
              -0.14452806115150452
            ],
            [
              -0.1077074185013771,
              0.052313968539237976,
              0.02442752942442894
            ],
            [
              0.027763599529862404,
              -0.03164320066571236,
              0.09456607699394226
            ],
            [
              0.06026041507720947,
              0.02314414642751217,
              -0.005120512563735247
            ],
            [
              -0.15722690522670746,
              -0.1590273380279541,
              -0.16554275155067444
            ],
            [
              0.11515836417675018,
              -0.04458514600992203,
              -0.06798635423183441
            ],
            [
              0.022310027852654457,
              0.03017299622297287,
              -0.018020397052168846
            ],
            [
              -0.23111838102340698,
              -0.23653842508792877,
              -0.17342762649059296
            ],
            [
              0.09415870159864426,
              0.027838509529829025,
              0.08712271600961685
            ],
            [
              -0.07354412972927094,
              0.056253112852573395,
              -0.07393620908260345
            ],
            [
              0.14190536737442017,
              0.16371585428714752,
              0.18147552013397217
            ],
            [
              -0.2524789273738861,
              -0.22924134135246277,
              -0.2336302399635315
            ],
            [
              0.0405561700463295,
              0.0314592607319355,
              -0.026914913207292557
            ]
          ],
          [
            [
              -0.001552970614284277,
              0.0623176172375679,
              -0.025342192500829697
            ],
            [
              0.013450541533529758,
              -0.05151151493191719,
              0.026323797181248665
            ],
            [
              0.0306744072586298,
              -0.038360245525836945,
              0.024868447333574295
            ],
            [
              -0.1496284306049347,
              -0.11740708351135254,
              -0.02657158114016056
            ],
            [
              0.025476207956671715,
              0.0567430704832077,
              0.05824175477027893
            ],
            [
              -0.017248520627617836,
              -0.024264246225357056,
              -0.05267651751637459
            ],
            [
              -0.017412938177585602,
              -0.0533820204436779,
              -0.06284613907337189
            ],
            [
              -0.03844572231173515,
              -0.021763542667031288,
              -0.019186124205589294
            ],
            [
              0.046985235065221786,
              -0.04338506609201431,
              -0.029393214732408524
            ],
            [
              -0.00912712886929512,
              0.020135415717959404,
              -0.0007972134626470506
            ],
            [
              0.03261062502861023,
              0.08244277536869049,
              -0.03349187597632408
            ],
            [
              -0.10691475123167038,
              -0.07506391406059265,
              -0.020753173157572746
            ],
            [
              -0.05205745995044708,
              -0.03212622180581093,
              0.05883941799402237
            ],
            [
              -0.0697389543056488,
              -0.08755945414304733,
              0.07063578069210052
            ],
            [
              -0.17998473346233368,
              -0.12049329280853271,
              -0.0002598826540634036
            ],
            [
              0.06587879359722137,
              0.06652351468801498,
              -0.08755289018154144
            ],
            [
              0.08561991900205612,
              -0.0569315031170845,
              -0.040665965527296066
            ],
            [
              0.10351386666297913,
              0.07444225251674652,
              0.020687680691480637
            ],
            [
              -0.16346806287765503,
              -0.13251915574073792,
              -0.021818358451128006
            ],
            [
              -0.06457743048667908,
              0.06038081645965576,
              0.07862391322851181
            ]
          ],
          [
            [
              -0.010622510686516762,
              -0.021682962775230408,
              0.010803538374602795
            ],
            [
              0.11134417355060577,
              0.04667029157280922,
              0.11856874078512192
            ],
            [
              -0.12011957168579102,
              0.0065938434563577175,
              0.04097216948866844
            ],
            [
              0.2121276557445526,
              0.36083561182022095,
              0.19515667855739594
            ],
            [
              0.08201082795858383,
              0.08235953748226166,
              -0.037107501178979874
            ],
            [
              -0.04402204230427742,
              0.09988109767436981,
              -0.11553631722927094
            ],
            [
              0.08063679188489914,
              0.16447657346725464,
              0.003481038846075535
            ],
            [
              -0.02360709197819233,
              -0.016899965703487396,
              -0.005095914471894503
            ],
            [
              -0.04757768288254738,
              0.040080536156892776,
              0.11288463324308395
            ],
            [
              0.06191656365990639,
              -0.08933150768280029,
              0.07637351751327515
            ],
            [
              -0.08085206151008606,
              -0.014053967781364918,
              -0.12590953707695007
            ],
            [
              0.3961367607116699,
              0.2842613160610199,
              0.24314141273498535
            ],
            [
              0.07005460560321808,
              -0.056385114789009094,
              0.1233014464378357
            ],
            [
              0.0937507301568985,
              -0.055628541857004166,
              0.030644601210951805
            ],
            [
              0.37470659613609314,
              0.3197539746761322,
              0.19088611006736755
            ],
            [
              0.09058050811290741,
              -0.04874753952026367,
              0.05579196661710739
            ],
            [
              -0.06582292169332504,
              -0.1216917484998703,
              0.021064644679427147
            ],
            [
              -0.2760612666606903,
              -0.38812583684921265,
              -0.2558653950691223
            ],
            [
              0.4033544063568115,
              0.34485095739364624,
              0.392851859331131
            ],
            [
              -0.06407642364501953,
              -0.14967530965805054,
              -0.042542558163404465
            ]
          ],
          [
            [
              -0.05194082111120224,
              0.003795233089476824,
              -0.007123748771846294
            ],
            [
              -0.030124539509415627,
              -0.06474899500608444,
              -0.07429112493991852
            ],
            [
              0.05538003519177437,
              0.04045421630144119,
              -0.001027798280119896
            ],
            [
              -0.12356496602296829,
              -0.16344140470027924,
              -0.20189349353313446
            ],
            [
              0.006823697127401829,
              0.08785779029130936,
              0.07313018292188644
            ],
            [
              -0.07306449860334396,
              -0.06438548862934113,
              -0.10380968451499939
            ],
            [
              -0.07419513165950775,
              -0.056744642555713654,
              -0.04274597018957138
            ],
            [
              -0.17034895718097687,
              0.02812175080180168,
              -0.0906933918595314
            ],
            [
              0.02775280363857746,
              0.02316749282181263,
              -0.02087629958987236
            ],
            [
              -0.004882659297436476,
              0.06669574230909348,
              0.052112989127635956
            ],
            [
              0.13951915502548218,
              0.14967769384384155,
              0.09052157402038574
            ],
            [
              -0.1513916552066803,
              -0.14661969244480133,
              -0.1423448920249939
            ],
            [
              0.05518023669719696,
              0.026616467162966728,
              -0.029768267646431923
            ],
            [
              0.07579474151134491,
              0.07601422816514969,
              -0.08379479497671127
            ],
            [
              -0.22516296803951263,
              -0.10806317627429962,
              -0.145819291472435
            ],
            [
              0.1259649246931076,
              0.015934908762574196,
              0.0597483366727829
            ],
            [
              0.02602851390838623,
              0.010828088968992233,
              -0.0522698275744915
            ],
            [
              0.11207088828086853,
              0.13414937257766724,
              0.13821227848529816
            ],
            [
              -0.19460263848304749,
              -0.2515004873275757,
              -0.23081018030643463
            ],
            [
              0.044706519693136215,
              -0.03796912729740143,
              -0.11424030363559723
            ]
          ]
        ],
        "conv_bias": [
          -0.07177743315696716,
          -0.03955515846610069,
          0.017629820853471756,
          -0.023983044549822807,
          0.022936750203371048,
          -0.0341009646654129,
          -0.01427894365042448,
          0.048787906765937805,
          -0.0969749465584755,
          -0.06829322129487991,
          0.012497229501605034,
          -0.08879310637712479,
          0.06487991660833359,
          0.06533918529748917,
          -0.010562676936388016,
          0.061730582267045975,
          0.027911700308322906,
          -0.07328346371650696,
          -0.003952386789023876,
          0.050646133720874786
        ]
      },
      {
        "layer": 1,
        "dilation": 2,
        "conv_weight": [
          [
            [
              -0.07713638991117477,
              -0.11396738141775131,
              0.04022745043039322
            ],
            [
              0.00894513912498951,
              -0.08151288330554962,
              0.007552645169198513
            ],
            [
              -0.06361531466245651,
              -0.08839745819568634,
              0.14487922191619873
            ],
            [
              0.10198831558227539,
              0.13074760138988495,
              -0.08505412191152573
            ],
            [
              0.0375092513859272,
              0.08027162402868271,
              -0.05636026710271835
            ],
            [
              0.0018473166273906827,
              0.035389553755521774,
              -7.520550570916384e-05
            ],
            [
              0.06565310060977936,
              0.10399511456489563,
              -0.06991588324308395
            ],
            [
              0.0017214860999956727,
              -0.03218502178788185,
              -0.0004710020439233631
            ],
            [
              -0.028749478980898857,
              -0.10699968039989471,
              0.056091662496328354
            ],
            [
              -0.021655473858118057,
              -0.0803104043006897,
              0.02581815980374813
            ],
            [
              -0.029490726068615913,
              -0.021090153604745865,
              0.04290853440761566
            ],
            [
              0.09226930886507034,
              0.07436002790927887,
              -0.13380742073059082
            ],
            [
              0.0077522993087768555,
              0.09782563149929047,
              -0.0062029496766626835
            ],
            [
              0.010537202470004559,
              0.07560577243566513,
              -0.032395489513874054
            ],
            [
              0.06865134835243225,
              0.11987151950597763,
              -0.07434545457363129
            ],
            [
              0.02468259632587433,
              0.10265486687421799,
              -0.03574603796005249
            ],
            [
              -0.06720627099275589,
              -0.12366625666618347,
              0.03141789883375168
            ],
            [
              -0.03631352260708809,
              -0.04868287220597267,
              0.04719458147883415
            ],
            [
              0.06772826611995697,
              0.1960195004940033,
              -0.0687592476606369
            ],
            [
              -0.059817902743816376,
              -0.08506860584020615,
              0.04188687354326248
            ]
          ],
          [
            [
              -0.021349627524614334,
              -0.14907583594322205,
              0.08048444241285324
            ],
            [
              -0.06230541691184044,
              -0.1676858365535736,
              7.913229637779295e-05
            ],
            [
              0.014393785037100315,
              -0.15368366241455078,
              0.024431364610791206
            ],
            [
              -0.013835147954523563,
              0.22293388843536377,
              -0.1184057667851448
            ],
            [
              0.005852535367012024,
              0.13436168432235718,
              -0.07483123242855072
            ],
            [
              -0.06429781764745712,
              0.030773786827921867,
              0.02367359586060047
            ],
            [
              0.01710336282849312,
              0.17467030882835388,
              -0.0888688862323761
            ],
            [
              -0.03262890502810478,
              -0.059694401919841766,
              0.006427304353564978
            ],
            [
              -0.047316376119852066,
              -0.1779583990573883,
              0.1455567330121994
            ],
            [
              0.060266993939876556,
              -0.15520226955413818,
              0.015137211419641972
            ],
            [
              0.027189351618289948,
              -0.01691615767776966,
              0.012685618363320827
            ],
            [
              0.03764370456337929,
              0.12326513230800629,
              -0.17527319490909576
            ],
            [
              -0.02365591749548912,
              0.11814585328102112,
              -0.03313250467181206
            ],
            [
              0.02250010520219803,
              0.11891313642263412,
              -0.05149019882082939
            ],
            [
              -0.02100926823914051,
              0.16751576960086823,
              -0.08638022094964981
            ],
            [
              0.008557841181755066,
              0.15433010458946228,
              -0.043896786868572235
            ],
            [
              0.013486649841070175,
              -0.17086634039878845,
              0.0675213634967804
            ],
            [
              0.028960496187210083,
              -0.12402568012475967,
              0.028451472520828247
            ],
            [
              0.00114446843508631,
              0.30733180046081543,
              -0.07926077395677567
            ],
            [
              0.024183625355362892,
              -0.1336083561182022,
              0.06285347044467926
            ]
          ],
          [
            [
              -0.01992533542215824,
              -0.004479540511965752,
              0.10884325206279755
            ],
            [
              0.06982749700546265,
              0.0116962231695652,
              -0.07804994285106659
            ],
            [
              -0.22872866690158844,
              -0.08168918639421463,
              0.06840100884437561
            ],
            [
              0.127877876162529,
              -0.023970602080225945,
              -0.12195312231779099
            ],
            [
              0.07200305908918381,
              0.023862039670348167,
              -0.04455286264419556
            ],
            [
              0.09013739228248596,
              0.02010774239897728,
              -0.04819560796022415
            ],
            [
              0.09801093488931656,
              -0.026770664379000664,
              -0.09939800202846527
            ],
            [
              0.08062916994094849,
              0.07661154866218567,
              -0.014548178762197495
            ],
            [
              0.04213353991508484,
              0.05401447042822838,
              -0.05532686412334442
            ],
            [
              -0.18131954967975616,
              -0.09511741995811462,
              0.0033855487126857042
            ],
            [
              -0.13196302950382233,
              -0.06345140188932419,
              -0.016558771952986717
            ],
            [
              0.14615923166275024,
              -0.023942196741700172,
              -0.0970909371972084
            ],
            [
              0.07056604325771332,
              0.007910473272204399,
              0.025988049805164337
            ],
            [
              0.03357153385877609,
              0.004673097748309374,
              0.04423695057630539
            ],
            [
              0.09700953215360641,
              0.045054271817207336,
              -0.04480824992060661
            ],
            [
              0.02667452208697796,
              -0.03696993738412857,
              -0.011876793578267097
            ],
            [
              -0.0194180216640234,
              0.07856400310993195,
              0.11811892688274384
            ],
            [
              -0.042501818388700485,
              0.0038030792493373156,
              0.015034034848213196
            ],
            [
              0.1564166098833084,
              -0.07964664697647095,
              -0.2852318584918976
            ],
            [
              0.03931046277284622,
              0.12114033102989197,
              0.12122872471809387
            ]
          ],
          [
            [
              0.05831311643123627,
              -0.06507531553506851,
              -0.06100493296980858
            ],
            [
              0.032291628420352936,
              -0.019095566123723984,
              0.13430246710777283
            ],
            [
              0.10279639065265656,
              -0.05451906472444534,
              -0.19234904646873474
            ],
            [
              -0.16936789453029633,
              0.09794515371322632,
              0.19969765841960907
            ],
            [
              -0.07394654303789139,
              0.04589860886335373,
              0.008193910121917725
            ],
            [
              -0.07959432899951935,
              0.021550307050347328,
              0.08496925234794617
            ],
            [
              -0.11651036888360977,
              0.03746968135237694,
              0.041500404477119446
            ],
            [
              -0.022243322804570198,
              -0.03862720727920532,
              0.0863315612077713
            ],
            [
              0.0016693762736395001,
              -0.03334586322307587,
              0.0660184770822525
            ],
            [
              0.16392704844474792,
              -0.07016249746084213,
              -0.09725552052259445
            ],
            [
              0.046047523617744446,
              -0.01597035676240921,
              -0.09662361443042755
            ],
            [
              -0.037726446986198425,
              0.0738590732216835,
              0.10829048603773117
            ],
            [
              -0.082071952521801,
              0.029727622866630554,
              -0.0367928221821785
            ],
            [
              -0.06290195137262344,
              0.04121627286076546,
              -0.05988813191652298
            ],
            [
              -0.13829822838306427,
              0.08952882885932922,
              0.13483989238739014
            ],
            [
              -0.09057476371526718,
              0.04369683563709259,
              0.013168311677873135
            ],
            [
              0.11171461641788483,
              0.011969550512731075,
              -0.05190747231245041
            ],
            [
              0.13019058108329773,
              0.0013805493945255876,
              -0.03267104551196098
            ],
            [
              -0.14990705251693726,
              0.1390746533870697,
              0.2695237696170807
            ],
            [
              0.1304432451725006,
              -0.03576705977320671,
              -0.048043619841337204
            ]
          ],
          [
            [
              0.030388984829187393,
              0.04594429209828377,
              -0.09026381373405457
            ],
            [
              0.011173342354595661,
              0.11616244167089462,
              -0.01178681943565607
            ],
            [
              0.09024657309055328,
              0.062007512897253036,
              -0.07638517767190933
            ],
            [
              -0.09874267876148224,
              -0.048162076622247696,
              0.1570981740951538
            ],
            [
              -0.07803381979465485,
              -0.09168053418397903,
              0.054896868765354156
            ],
            [
              -0.045722831040620804,
              -0.03761623427271843,
              0.02394682914018631
            ],
            [
              -0.07562164962291718,
              -0.06868011504411697,
              0.11785395443439484
            ],
            [
              0.0054011656902730465,
              0.03609246388077736,
              -0.0004573922778945416
            ],
            [
              0.054808083921670914,
              0.15354350209236145,
              -0.06633148342370987
            ],
            [
              0.06321652978658676,
              0.08298531919717789,
              -0.06489451229572296
            ],
            [
              0.00794743001461029,
              0.018486376851797104,
              -0.01891445554792881
            ],
            [
              -0.0763910785317421,
              -0.023965269327163696,
              0.1356070637702942
            ],
            [
              -0.03931710869073868,
              -0.10013074427843094,
              0.028059853240847588
            ],
            [
              -0.0504859983921051,
              -0.09829801321029663,
              0.03845591098070145
            ],
            [
              -0.07663629949092865,
              -0.04721146821975708,
              0.12788330018520355
            ],
            [
              -0.06538226455450058,
              -0.08883337676525116,
              0.06361909955739975
            ],
            [
              0.015833910554647446,
              0.05736173689365387,
              -0.10045721381902695
            ],
            [
              0.03435256704688072,
              0.04967508465051651,
              -0.0678064227104187
            ],
            [
              -0.026563245803117752,
              -0.06994794309139252,
              0.22567115724086761
            ],
            [
              0.04371316730976105,
              0.04601893201470375,
              -0.10177914053201675
            ]
          ],
          [
            [
              -0.0407065749168396,
              -0.06291292607784271,
              0.040801212191581726
            ],
            [
              -0.012890405021607876,
              0.009697692468762398,
              -0.02607044205069542
            ],
            [
              -0.05439078435301781,
              -0.12572383880615234,
              0.08315316587686539
            ],
            [
              -0.019154943525791168,
              0.1182861179113388,
              -0.1273173987865448
            ],
            [
              0.029633834958076477,
              0.06490038335323334,
              -0.03537563234567642
            ],
            [
              -0.022042369470000267,
              0.03334169462323189,
              -0.010108326561748981
            ],
            [
              0.030443133786320686,
              0.09318099915981293,
              -0.04761708527803421
            ],
            [
              -0.0013706441968679428,
              0.02172129973769188,
              -0.0011859333608299494
            ],
            [
              -0.015977587550878525,
              0.008251000195741653,
              0.04647191986441612
            ],
            [
              -0.005570401903241873,
              -0.07595696300268173,
              0.019411152228713036
            ],
            [
              -0.030309230089187622,
              -0.048351071774959564,
              0.006864138413220644
            ],
            [
              0.06641300022602081,
              0.11890330910682678,
              -0.11748142540454865
            ],
            [
              -0.016531743109226227,
              0.013410928659141064,
              0.012576413340866566
            ],
            [
              0.011313403025269508,
              0.01423724927008152,
              0.01197615172713995
            ],
            [
              0.04155085235834122,
              0.1127239316701889,
              -0.0614437535405159
            ],
            [
              0.014815161935985088,
              0.046981409192085266,
              -0.008119752630591393
            ],
            [
              -0.03197179734706879,
              -0.08757857233285904,
              0.006747010163962841
            ],
            [
              -0.025841420516371727,
              -0.09469784051179886,
              0.008930756710469723
            ],
            [
              0.05418683588504791,
              0.16798539459705353,
              -0.02820892632007599
            ],
            [
              -0.04962621256709099,
              -0.09377479553222656,
              0.012796223163604736
            ]
          ],
          [
            [
              -0.11385767161846161,
              0.0819905698299408,
              0.08071636408567429
            ],
            [
              0.15635579824447632,
              0.254586398601532,
              -0.0670866146683693
            ],
            [
              -0.28395718336105347,
              0.03031604364514351,
              0.17271022498607635
            ],
            [
              0.2813960015773773,
              -0.08021055907011032,
              -0.26392513513565063
            ],
            [
              0.10139701515436172,
              -0.08538693934679031,
              -0.06499941647052765
            ],
            [
              0.1651218831539154,
              -0.005609054118394852,
              -0.08914824575185776
            ],
            [
              0.0829964429140091,
              -0.16807375848293304,
              -0.2095300853252411
            ],
            [
              0.13287949562072754,
              0.13740168511867523,
              -0.02066943794488907
            ],
            [
              0.15733540058135986,
              0.273809552192688,
              -0.09811282157897949
            ],
            [
              -0.25757619738578796,
              0.027822408825159073,
              0.18221087753772736
            ],
            [
              -0.14990831911563873,
              -0.05526600033044815,
              0.06380309164524078
            ],
            [
              0.13250942528247833,
              -0.03251754865050316,
              -0.06674039363861084
            ],
            [
              0.08853557705879211,
              -0.08987131714820862,
              0.07056924700737
            ],
            [
              -0.010149896144866943,
              -0.14264343678951263,
              0.07805762439966202
            ],
            [
              0.24510452151298523,
              -0.08347547799348831,
              -0.14003264904022217
            ],
            [
              0.06320653855800629,
              -0.1316329836845398,
              -0.03369101136922836
            ],
            [
              -0.18736951053142548,
              0.03565298765897751,
              0.055823568254709244
            ],
            [
              -0.16904093325138092,
              0.05472009629011154,
              0.12415269762277603
            ],
            [
              0.36246275901794434,
              -0.12321267277002335,
              -0.3146943747997284
            ],
            [
              -0.17487646639347076,
              0.021831870079040527,
              0.05544286221265793
            ]
          ],
          [
            [
              0.0335727334022522,
              -0.06589914858341217,
              0.029951300472021103
            ],
            [
              -0.08608686923980713,
              -0.07527640461921692,
              0.018431220203638077
            ],
            [
              0.07779421657323837,
              -0.04820321872830391,
              0.008696370758116245
            ],
            [
              0.009439513087272644,
              0.05774512514472008,
              0.033918533474206924
            ],
            [
              -0.04543942213058472,
              0.03009800985455513,
              -0.03493927791714668
            ],
            [
              -0.04067746177315712,
              -0.017999127507209778,
              0.020079055801033974
            ],
            [
              -0.012595492415130138,
              0.0594397708773613,
              0.044378798454999924
            ],
            [
              -0.11313628405332565,
              -0.08546387404203415,
              -0.026247326284646988
            ],
            [
              -0.12745456397533417,
              -0.07151753455400467,
              0.08810602128505707
            ],
            [
              0.08400522917509079,
              -0.06175566464662552,
              0.033185865730047226
            ],
            [
              0.08463028818368912,
              0.022638440132141113,
              -0.017709722742438316
            ],
            [
              -0.031196974217891693,
              0.047471482306718826,
              -0.06686486303806305
            ],
            [
              -0.02338121458888054,
              0.009195330552756786,
              -0.03770998865365982
            ],
            [
              0.037421468645334244,
              0.046135470271110535,
              -0.06514813750982285
            ],
            [
              -0.061534736305475235,
              0.052655335515737534,
              0.013140751048922539
            ],
            [
              -0.021302714943885803,
              0.0261825080960989,
              -0.022770792245864868
            ],
            [
              0.08553988486528397,
              -0.051259540021419525,
              -0.007992494851350784
            ],
            [
              0.054968927055597305,
              -0.036311667412519455,
              -0.04589508846402168
            ],
            [
              -0.01795179396867752,
              0.2333366721868515,
              0.17399939894676208
            ],
            [
              0.00954161025583744,
              -0.05826696753501892,
              -0.016832707449793816
            ]
          ],
          [
            [
              -0.028838207945227623,
              -0.11416371911764145,
              0.059210874140262604
            ],
            [
              -0.08211629092693329,
              -0.19632399082183838,
              0.05502251908183098
            ],
            [
              0.03399498760700226,
              -0.0727848932147026,
              0.022349756211042404
            ],
            [
              -0.03229787200689316,
              0.15622034668922424,
              -0.1087338924407959
            ],
            [
              0.0454895943403244,
              0.1405131071805954,
              -0.03512948378920555
            ],
            [
              -0.025274306535720825,
              0.042864371091127396,
              0.046982936561107635
            ],
            [
              0.05968286469578743,
              0.1714164912700653,
              -0.03617589920759201
            ],
            [
              -0.04897604510188103,
              -0.08790363371372223,
              0.014606413431465626
            ],
            [
              -0.18912839889526367,
              -0.3037593364715576,
              0.06835025548934937
            ],
            [
              0.03713211789727211,
              -0.13252444565296173,
              0.00391670037060976
            ],
            [
              0.02704985812306404,
              0.010656489059329033,
              0.0019522340735420585
            ],
            [
              0.03185831755399704,
              0.061608362942934036,
              -0.0990719348192215
            ],
            [
              0.043860819190740585,
              0.17108473181724548,
              -0.027345485985279083
            ],
            [
              0.07064731419086456,
              0.16230717301368713,
              -0.047784604132175446
            ],
            [
              0.0168698001652956,
              0.15344113111495972,
              -0.058774519711732864
            ],
            [
              0.06345949321985245,
              0.18373875319957733,
              -0.031534239649772644
            ],
            [
              -0.01497939694672823,
              -0.16151919960975647,
              0.07577493786811829
            ],
            [
              0.00494513101875782,
              -0.09957896918058395,
              0.013024941086769104
            ],
            [
              -0.08482185751199722,
              0.16126962006092072,
              -0.0835099071264267
            ],
            [
              -0.008207329548895359,
              -0.13015644252300262,
              0.05068882927298546
            ]
          ],
          [
            [
              0.014259281568229198,
              0.07000306993722916,
              0.03152371197938919
            ],
            [
              0.013463989831507206,
              -0.02596241794526577,
              0.08862293511629105
            ],
            [
              0.021102359518408775,
              0.0882183164358139,
              -0.10588771104812622
            ],
            [
              -0.133732408285141,
              -0.07893097400665283,
              0.044964633882045746
            ],
            [
              0.011837163008749485,
              0.00586844002828002,
              0.00535951741039753
            ],
            [
              -0.002194135682657361,
              -0.0005876118666492403,
              -0.00910011027008295
            ],
            [
              7.940561772556975e-05,
              -0.03725764527916908,
              0.024651283398270607
            ],
            [
              0.008827975019812584,
              -0.026615893468260765,
              0.057148437947034836
            ],
            [
              -0.044145673513412476,
              -0.04510057345032692,
              0.05664636567234993
            ],
            [
              0.011652634479105473,
              -0.07119118422269821,
              -0.0763191506266594
            ],
            [
              0.024695085361599922,
              0.06415394693613052,
              -0.032255131751298904
            ],
            [
              -0.0021694882307201624,
              -0.05901101604104042,
              0.0912201851606369
            ],
            [
              0.011174415238201618,
              0.019795162603259087,
              -0.0705082044005394
            ],
            [
              0.03422355279326439,
              0.05512754246592522,
              -0.05444412678480148
            ],
            [
              -0.05969997122883797,
              -0.010264254175126553,
              -0.015410288237035275
            ],
            [
              0.016524014994502068,
              0.010920370928943157,
              -0.03306887671351433
            ],
            [
              0.00737262237817049,
              0.03914349898695946,
              0.02897815965116024
            ],
            [
              0.06170310825109482,
              0.053871605545282364,
              0.010004314593970776
            ],
            [
              -0.29381677508354187,
              -0.1687909960746765,
              -0.05740668997168541
            ],
            [
              0.04420396685600281,
              0.10706865787506104,
              0.12701763212680817
            ]
          ],
          [
            [
              -0.041777197271585464,
              -0.01884697936475277,
              0.021617064252495766
            ],
            [
              0.0942043662071228,
              0.11887893080711365,
              -0.026272112503647804
            ],
            [
              -0.11630255728960037,
              -0.04533109813928604,
              -0.04549211636185646
            ],
            [
              0.09627193212509155,
              0.01909507066011429,
              -0.05213623121380806
            ],
            [
              0.035059813410043716,
              0.02000889740884304,
              0.009923255071043968
            ],
            [
              0.06857604533433914,
              0.08302327990531921,
              -0.02290889248251915
            ],
            [
              0.0325605571269989,
              0.056707192212343216,
              0.020769856870174408
            ],
            [
              0.06309277564287186,
              0.07676331698894501,
              0.003685983829200268
            ],
            [
              0.06969446688890457,
              0.09322687238454819,
              -0.08501686155796051
            ],
            [
              -0.09641856700181961,
              -0.0181968342512846,
              -0.022583726793527603
            ],
            [
              -0.07420744746923447,
              -0.11432141065597534,
              0.010578610002994537
            ],
            [
              0.0867442786693573,
              0.01038951613008976,
              -0.022982953116297722
            ],
            [
              -0.015237338840961456,
              -0.03291384130716324,
              0.028788214549422264
            ],
            [
              -0.05297243595123291,
              -0.06493816524744034,
              0.02502393163740635
            ],
            [
              0.026568423956632614,
              0.003228973364457488,
              -0.03853682056069374
            ],
            [
              0.027436386793851852,
              -0.050174448639154434,
              0.03878558427095413
            ],
            [
              -0.051027584820985794,
              0.0663500502705574,
              0.08639700710773468
            ],
            [
              -0.050508130341768265,
              -0.07182099670171738,
              0.054713040590286255
            ],
            [
              0.09693903475999832,
              -0.04534656181931496,
              -0.09529628604650497
            ],
            [
              0.013418640941381454,
              0.023063765838742256,
              -0.0220316294580698
            ]
          ],
          [
            [
              0.06509764492511749,
              0.021709373220801353,
              -0.08070319145917892
            ],
            [
              -0.08880184590816498,
              -0.1563420444726944,
              0.1251380294561386
            ],
            [
              0.16571931540966034,
              0.14634957909584045,
              -0.126314178109169
            ],
            [
              -0.1794344037771225,
              -0.06243528053164482,
              0.2264091521501541
            ],
            [
              -0.052354149520397186,
              -0.01299930177628994,
              0.05183502659201622
            ],
            [
              -0.06268256902694702,
              -0.0663563683629036,
              0.03216066583991051
            ],
            [
              -0.07691530138254166,
              -0.020388802513480186,
              0.12226679921150208
            ],
            [
              -0.05856987088918686,
              -0.08554056286811829,
              0.060218486934900284
            ],
            [
              -0.07503534108400345,
              -0.16095367074012756,
              0.09774022549390793
            ],
            [
              0.13048113882541656,
              0.07889611274003983,
              -0.05230134725570679
            ],
            [
              0.08286849409341812,
              0.08432682603597641,
              -0.08161845803260803
            ],
            [
              -0.13521015644073486,
              -0.10826573520898819,
              0.1929916888475418
            ],
            [
              0.016713187098503113,
              0.07119534909725189,
              -0.07750970870256424
            ],
            [
              0.03850765526294708,
              0.08770129084587097,
              -0.06648258864879608
            ],
            [
              -0.12905897200107574,
              -0.05613897740840912,
              0.10462850332260132
            ],
            [
              -0.015261378139257431,
              0.04377410188317299,
              -0.012277398258447647
            ],
            [
              0.037872470915317535,
              0.0052012368105351925,
              -0.05308685451745987
            ],
            [
              0.07043714821338654,
              0.03156261146068573,
              -0.08159352093935013
            ],
            [
              -0.18132628500461578,
              -0.11427976191043854,
              0.1872270703315735
            ],
            [
              0.03662249818444252,
              -0.005493354517966509,
              -0.07709554582834244
            ]
          ],
          [
            [
              0.20762532949447632,
              0.021364383399486542,
              -0.18774032592773438
            ],
            [
              0.10393989086151123,
              0.40969863533973694,
              -0.10155443102121353
            ],
            [
              0.24777400493621826,
              -0.08542592823505402,
              -0.32743948698043823
            ],
            [
              -0.2898977994918823,
              0.09125116467475891,
              0.4067102372646332
            ],
            [
              -0.19690069556236267,
              -0.027197053655982018,
              0.2100936621427536
            ],
            [
              -0.14450356364250183,
              0.08375051617622375,
              0.09577152132987976
            ],
            [
              -0.21929028630256653,
              0.05130474641919136,
              0.30741748213768005
            ],
            [
              0.009398051537573338,
              0.1854555308818817,
              -0.05527130886912346
            ],
            [
              0.13435319066047668,
              0.4332520663738251,
              -0.21049432456493378
            ],
            [
              0.3137805461883545,
              -0.054035164415836334,
              -0.29511088132858276
            ],
            [
              0.09593413770198822,
              -0.10466472804546356,
              -0.04048335552215576
            ],
            [
              -0.1404605209827423,
              0.1261616349220276,
              0.18586845695972443
            ],
            [
              -0.3218541741371155,
              -0.32508528232574463,
              0.041838087141513824
            ],
            [
              -0.1805756837129593,
              -0.27750271558761597,
              0.12276925891637802
            ],
            [
              -0.23963063955307007,
              -0.002796335844323039,
              0.24451923370361328
            ],
            [
              -0.18377810716629028,
              -0.10056693106889725,
              0.19328416883945465
            ],
            [
              0.27976834774017334,
              0.0669507160782814,
              -0.23989161849021912
            ],
            [
              0.17218753695487976,
              -0.015517063438892365,
              -0.170115128159523
            ],
            [
              -0.33997443318367004,
              0.06881111115217209,
              0.44927534461021423
            ],
            [
              0.22598010301589966,
              0.09941579401493073,
              -0.18134140968322754
            ]
          ],
          [
            [
              0.09948950260877609,
              0.11068014055490494,
              -0.14189070463180542
            ],
            [
              -0.008244993165135384,
              0.2107919305562973,
              -0.036664124578237534
            ],
            [
              0.20459359884262085,
              0.10553055256605148,
              -0.15353387594223022
            ],
            [
              -0.18956218659877777,
              -0.1426437497138977,
              0.3006460666656494
            ],
            [
              -0.07937812805175781,
              -0.10153160244226456,
              0.1356092244386673
            ],
            [
              -0.03579939156770706,
              -0.008767743594944477,
              0.053812649101018906
            ],
            [
              -0.09431598335504532,
              -0.07237580418586731,
              0.22218583524227142
            ],
            [
              -0.018265416845679283,
              0.07981957495212555,
              -0.01771862804889679
            ],
            [
              -0.0004605598805937916,
              0.21701398491859436,
              -0.14716218411922455
            ],
            [
              0.13397085666656494,
              0.12763604521751404,
              -0.1371031105518341
            ],
            [
              0.04983256384730339,
              -0.03151692450046539,
              -0.06352891027927399
            ],
            [
              -0.16725079715251923,
              -0.03474991396069527,
              0.2037549614906311
            ],
            [
              -0.06038720905780792,
              -0.19666430354118347,
              0.044359154999256134
            ],
            [
              -0.05903318151831627,
              -0.19361867010593414,
              0.04709284380078316
            ],
            [
              -0.16746124625205994,
              -0.13676930963993073,
              0.20921020209789276
            ],
            [
              -0.05953434109687805,
              -0.14346517622470856,
              0.10805036872625351
            ],
            [
              0.02139091119170189,
              0.10771654546260834,
              -0.14707401394844055
            ],
            [
              0.08879730105400085,
              0.06688778847455978,
              -0.12893033027648926
            ],
            [
              -0.28752148151397705,
              -0.10234222561120987,
              0.30864471197128296
            ],
            [
              0.03937087208032608,
              0.09976393729448318,
              -0.13746589422225952
            ]
          ],
          [
            [
              0.01932440884411335,
              -0.06398269534111023,
              0.022193746641278267
            ],
            [
              0.039170220494270325,
              0.08189700543880463,
              -0.042877957224845886
            ],
            [
              -0.044268395751714706,
              -0.10028086602687836,
              -0.01076497696340084
            ],
            [
              0.001457621925510466,
              0.05571269616484642,
              0.010684432461857796
            ],
            [
              -0.036492690443992615,
              0.0007116345223039389,
              0.0018075918778777122
            ],
            [
              -0.02000562660396099,
              -0.021646391600370407,
              0.012873554602265358
            ],
            [
              -0.03310403600335121,
              0.053869400173425674,
              -0.028286276385188103
            ],
            [
              0.013444964773952961,
              0.039973389357328415,
              -0.017501603811979294
            ],
            [
              0.04405292123556137,
              0.06504905968904495,
              -0.035519566386938095
            ],
            [
              0.018041817471385002,
              -0.024563895538449287,
              0.0002441489486955106
            ],
            [
              -0.016005810350179672,
              -0.05379428714513779,
              -0.0015822566347196698
            ],
            [
              0.03249784931540489,
              0.05932021513581276,
              -0.04432215169072151
            ],
            [
              -0.0547260120511055,
              -0.04034324362874031,
              0.035134028643369675
            ],
            [
              -0.05360585078597069,
              -0.05150321125984192,
              0.04143175110220909
            ],
            [
              -0.07067491859197617,
              0.07842296361923218,
              -0.06401629000902176
            ],
            [
              -0.0698198601603508,
              -0.014918568544089794,
              0.04304341599345207
            ],
            [
              -0.05940466374158859,
              -0.06917265802621841,
              -0.10496525466442108
            ],
            [
              0.04695122689008713,
              -0.06542600691318512,
              0.019200850278139114
            ],
            [
              0.09844060987234116,
              0.20624227821826935,
              0.13695646822452545
            ],
            [
              0.05182088166475296,
              -0.043459076434373856,
              -0.03471876680850983
            ]
          ],
          [
            [
              -0.04606211185455322,
              -0.0012242832453921437,
              -0.033222198486328125
            ],
            [
              0.07711867243051529,
              0.14633260667324066,
              -0.02036445215344429
            ],
            [
              -0.08168250322341919,
              -0.06619448959827423,
              -0.02463597245514393
            ],
            [
              0.08348780125379562,
              0.00814176257699728,
              0.028617944568395615
            ],
            [
              0.016716768965125084,
              -0.014121957123279572,
              0.0024544198531657457
            ],
            [
              0.054944079369306564,
              0.03168544918298721,
              -0.00926984753459692
            ],
            [
              0.02916950173676014,
              -0.024376768618822098,
              0.0019282655557617545
            ],
            [
              0.05145329236984253,
              0.07195805758237839,
              0.006636529695242643
            ],
            [
              0.10620903223752975,
              0.2021900713443756,
              -0.0496685765683651
            ],
            [
              -0.0832541286945343,
              0.003197215963155031,
              0.013661176897585392
            ],
            [
              -0.06312624365091324,
              -0.06190900504589081,
              -0.003978927154093981
            ],
            [
              0.0733705386519432,
              0.05850253999233246,
              0.016372403129935265
            ],
            [
              0.006128236651420593,
              -0.052550435066223145,
              0.04871445894241333
            ],
            [
              -0.055693890899419785,
              -0.09518975764513016,
              0.018642891198396683
            ],
            [
