{
  "model_info": {
    "name": "flstudio_cpu_optimized2",
    "version": "1.0.0",
    "architecture": "WaveNet",
    "causal": true,
    "sample_rate": 44100,
    "receptive_field": 127,
    "latency_ms": 2.88
  },
  "architecture": {
    "channels": 20,
    "num_layers": 6,
    "kernel_size": 3,
    "dilation_base": 2,
    "dilations": [
      1,
      2,
      4,
      8,
      16,
      32
    ]
  },
  "weights": {
    "input_conv": {
      "weight": [
        -0.9397224187850952,
        0.6438310146331787,
        -0.5044235587120056,
        -0.047255828976631165,
        0.7093352675437927,
        -0.8032965064048767,
        0.9832093119621277,
        1.250813364982605,
        0.30277323722839355,
        -0.7607586979866028,
        0.480754017829895,
        1.6247504949569702,
        -0.4954148232936859,
        -0.03874344378709793,
        -0.9061468839645386,
        -0.6670882701873779,
        0.1794201135635376,
        -0.3180961012840271,
        1.078181505203247,
        -1.0060105323791504
      ],
      "bias": [
        -0.9046311974525452,
        -0.6351134777069092,
        -0.5601837038993835,
        0.8276775479316711,
        -0.8512779474258423,
        -0.00266169011592865,
        0.6849262714385986,
        -0.12792828679084778,
        0.6924699544906616,
        0.39414182305336,
        -0.739136815071106,
        0.03371080756187439,
        -0.408379465341568,
        -0.8816260099411011,
        -0.4282550513744354,
        -0.7625200748443604,
        -0.6474759578704834,
        -0.7972975969314575,
        0.8070762753486633,
        0.8494751453399658
      ]
    },
    "residual_blocks": [
      {
        "layer": 0,
        "dilation": 1,
        "conv_weight": [
          [
            [
              0.07542160898447037,
              -0.005420794244855642,
              0.017084820196032524
            ],
            [
              0.00040660376544110477,
              -0.08560846745967865,
              -0.06402729451656342
            ],
            [
              0.07363805174827576,
              0.00821115355938673,
              0.08417794108390808
            ],
            [
              0.07727444916963577,
              -0.03293141350150108,
              -0.09002526849508286
            ],
            [
              -0.026221729815006256,
              -0.06412679702043533,
              -0.14887888729572296
            ],
            [
              0.16256026923656464,
              0.1806577742099762,
              0.12135101854801178
            ],
            [
              -0.011913158930838108,
              -0.020075378939509392,
              -0.026910606771707535
            ],
            [
              -0.16419118642807007,
              -0.06270173192024231,
              -0.12408008426427841
            ],
            [
              0.07467418164014816,
              0.06653086096048355,
              0.008800430223345757
            ],
            [
              0.06885021179914474,
              0.13197772204875946,
              -0.02762494422495365
            ],
            [
              -0.1546086072921753,
              -0.03128959983587265,
              -0.0866323783993721
            ],
            [
              -0.22293072938919067,
              -0.22397950291633606,
              -0.08974654227495193
            ],
            [
              -0.07300181686878204,
              -0.07245364040136337,
              -0.05463147535920143
            ],
            [
              0.018283477053046227,
              -0.08844711631536484,
              0.0638904869556427
            ],
            [
              0.022078437730669975,
              -0.09671347588300705,
              -0.07881715148687363
            ],
            [
              0.08436854183673859,
              0.07467072457075119,
              0.0544147714972496
            ],
            [
              -0.06613650918006897,
              0.015477420762181282,
              0.010322188958525658
            ],
            [
              -0.13293638825416565,
              -0.09477749466896057,
              -0.0059375399723649025
            ],
            [
              0.09742643684148788,
              -0.11685698479413986,
              0.11868073046207428
            ],
            [
              0.10071245580911636,
              0.12380265444517136,
              -0.02921704202890396
            ]
          ],
          [
            [
              0.016731714829802513,
              -0.031102528795599937,
              -0.12209580838680267
            ],
            [
              -0.09086832404136658,
              -0.0934823676943779,
              -0.10308253765106201
            ],
            [
              -0.04818880185484886,
              0.016367312520742416,
              0.07517767697572708
            ],
            [
              -0.062195077538490295,
              -0.009496203623712063,
              0.02404739521443844
            ],
            [
              -0.04421842470765114,
              0.029014451429247856,
              0.0499567985534668
            ],
            [
              0.03369808942079544,
              0.02178145945072174,
              0.048513591289520264
            ],
            [
              -0.07781140506267548,
              -0.03427770733833313,
              -0.05236819013953209
            ],
            [
              -0.06280000507831573,
              -0.0005845731357112527,
              -0.05673351138830185
            ],
            [
              0.06633762270212173,
              -0.031248951330780983,
              -0.06249287724494934
            ],
            [
              -0.06893422454595566,
              -0.04706401750445366,
              0.1358024775981903
            ],
            [
              -0.12330418825149536,
              -0.10135073214769363,
              0.05712691321969032
            ],
            [
              -0.011057832278311253,
              0.05077449232339859,
              -0.05837200582027435
            ],
            [
              -0.004132280126214027,
              -0.13706684112548828,
              0.026382267475128174
            ],
            [
              0.07939604669809341,
              -0.013527425937354565,
              -0.027806507423520088
            ],
            [
              -0.04770825058221817,
              0.01486667338758707,
              -0.04189509525895119
            ],
            [
              -0.15441273152828217,
              0.06076104938983917,
              0.07536538690328598
            ],
            [
              -0.14774927496910095,
              0.0470639206469059,
              0.07181262969970703
            ],
            [
              0.04044998437166214,
              -0.1289389580488205,
              -0.04456709697842598
            ],
            [
              0.1558743566274643,
              0.08792276680469513,
              0.09294656664133072
            ],
            [
              -0.020248815417289734,
              -0.0471477285027504,
              -0.06349153816699982
            ]
          ],
          [
            [
              -0.09491904824972153,
              -0.06478665769100189,
              -0.08256734907627106
            ],
            [
              -0.008588021621108055,
              -0.033524028956890106,
              -0.04982192441821098
            ],
            [
              -0.08164815604686737,
              -0.010715528391301632,
              0.03843780234456062
            ],
            [
              0.059318095445632935,
              -0.02367502637207508,
              0.12963272631168365
            ],
            [
              0.06095733493566513,
              0.043720416724681854,
              -0.11081445962190628
            ],
            [
              0.06684039533138275,
              0.13901402056217194,
              0.15818117558956146
            ],
            [
              -0.00725144986063242,
              0.11304004490375519,
              0.015993840992450714
            ],
            [
              0.018686993047595024,
              0.051872462034225464,
              -0.13227589428424835
            ],
            [
              -0.04488636553287506,
              0.015089831314980984,
              0.11928575485944748
            ],
            [
              -0.006847050506621599,
              -0.048850495368242264,
              -0.08393584191799164
            ],
            [
              0.09864930808544159,
              -0.020626623183488846,
              -0.10369861871004105
            ],
            [
              -0.14150668680667877,
              -0.20875848829746246,
              -0.18196192383766174
            ],
            [
              0.011894525028765202,
              0.09260059893131256,
              -0.08805064857006073
            ],
            [
              0.10906260460615158,
              -0.06396593898534775,
              -0.13567811250686646
            ],
            [
              -0.031224418431520462,
              -0.060598623007535934,
              0.017056645825505257
            ],
            [
              -0.12898455560207367,
              0.01788119412958622,
              0.04022436589002609
            ],
            [
              0.056628938764333725,
              -0.09369327127933502,
              -0.0422857441008091
            ],
            [
              -0.03268662467598915,
              0.10270408540964127,
              -0.00011163271119585261
            ],
            [
              -0.12277937680482864,
              -0.10833608359098434,
              -0.05418919026851654
            ],
            [
              -0.03464062884449959,
              -0.035826876759529114,
              0.13450036942958832
            ]
          ],
          [
            [
              0.08240509033203125,
              0.013958258554339409,
              -0.01767757162451744
            ],
            [
              0.14786265790462494,
              0.1420859694480896,
              0.0022944023367017508
            ],
            [
              0.12925942242145538,
              0.004479455295950174,
              -0.07269030064344406
            ],
            [
              0.04488039389252663,
              0.06258896738290787,
              -0.04001326858997345
            ],
            [
              0.04472609981894493,
              0.08979088068008423,
              0.08537250012159348
            ],
            [
              -0.02384290099143982,
              0.015247746370732784,
              0.07548987865447998
            ],
            [
              0.05363025143742561,
              -0.057060934603214264,
              -0.11708483099937439
            ],
            [
              -0.050282858312129974,
              -0.056268688291311264,
              0.0006333286291919649
            ],
            [
              0.026380864903330803,
              -0.12175615131855011,
              0.05072265490889549
            ],
            [
              0.0013404820347204804,
              -0.08625185489654541,
              0.041668716818094254
            ],
            [
              -0.07231427729129791,
              0.11168168485164642,
              -0.06239160895347595
            ],
            [
              0.008634927682578564,
              0.010637545958161354,
              -0.1366163194179535
            ],
            [
              0.023741180077195168,
              -0.08336830884218216,
              -0.030803842470049858
            ],
            [
              0.06922242790460587,
              -0.00649528531357646,
              -0.05772525817155838
            ],
            [
              -0.06269112974405289,
              0.08200830966234207,
              0.07879846543073654
            ],
            [
              -0.08266092836856842,
              0.1491943895816803,
              -0.009341898374259472
            ],
            [
              0.07355687022209167,
              -0.07225258648395538,
              -0.0632314458489418
            ],
            [
              0.036364585161209106,
              0.10309602320194244,
              -0.03764164447784424
            ],
            [
              -0.12721571326255798,
              0.06504028290510178,
              0.06281521916389465
            ],
            [
              -0.0305618979036808,
              0.06442735344171524,
              -0.08144847303628922
            ]
          ],
          [
            [
              -0.1256319284439087,
              -0.06476239114999771,
              -0.06471239775419235
            ],
            [
              -0.057007841765880585,
              -0.09727064520120621,
              0.09629882872104645
            ],
            [
              0.06448619812726974,
              -0.057290591299533844,
              -0.13189472258090973
            ],
            [
              0.07579197734594345,
              0.13220646977424622,
              0.13136635720729828
            ],
            [
              0.047764215618371964,
              7.530402217525989e-05,
              0.06015307456254959
            ],
            [
              -0.07367300242185593,
              -0.08695641160011292,
              -0.08847294002771378
            ],
            [
              0.09542007744312286,
              -0.012129406444728374,
              -0.05791470780968666
            ],
            [
              -0.08456403762102127,
              0.01161023136228323,
              0.06785017997026443
            ],
            [
              -0.07880286127328873,
              0.038206689059734344,
              0.02696751430630684
            ],
            [
              0.0011641653254628181,
              0.09165898710489273,
              -0.07839135080575943
            ],
            [
              -0.01957530900835991,
              -0.02064576745033264,
              0.09849924594163895
            ],
            [
              0.08506506681442261,
              0.15765801072120667,
              0.1453203409910202
            ],
            [
              0.011590163223445415,
              0.03276950493454933,
              0.050178833305835724
            ],
            [
              -0.08196203410625458,
              0.0344252847135067,
              -0.09100842475891113
            ],
            [
              -0.0054244911298155785,
              -0.013759288936853409,
              0.03979610279202461
            ],
            [
              -0.10460873693227768,
              0.031041139736771584,
              0.010460514575242996
            ],
            [
              0.03144793584942818,
              -0.0684492364525795,
              -0.03556487709283829
            ],
            [
              0.06435510516166687,
              -0.0957603007555008,
              -0.06867380440235138
            ],
            [
              0.12305732816457748,
              0.009648272767663002,
              -0.09331808984279633
            ],
            [
              -0.0480150543153286,
              -0.00940779410302639,
              0.03404718637466431
            ]
          ],
          [
            [
              0.054357610642910004,
              -0.12574942409992218,
              0.09219858050346375
            ],
            [
              -0.03706306964159012,
              0.08010569959878922,
              -0.0066119045950472355
            ],
            [
              0.07943020761013031,
              -0.12367004156112671,
              -0.03218960016965866
            ],
            [
              0.08113113790750504,
              -0.07699500024318695,
              0.03591328114271164
            ],
            [
              -0.0023298650048673153,
              0.00025422367616556585,
              -0.051082029938697815
            ],
            [
              -0.5455542802810669,
              -0.5570876598358154,
              -0.38131141662597656
            ],
            [
              -0.01441364735364914,
              0.08625032752752304,
              0.11405903846025467
            ],
            [
              0.3450901210308075,
              0.332646906375885,
              0.17315170168876648
            ],
            [
              0.05204298347234726,
              -0.0014649349031969905,
              -0.017935574054718018
            ],
            [
              -0.13933150470256805,
              -0.12386544048786163,
              -0.17723698914051056
            ],
            [
              0.024334579706192017,
              0.09342256188392639,
              0.0041504292748868465
            ],
            [
              0.5450378656387329,
              0.3579261898994446,
              0.3716205358505249
            ],
            [
              -0.1091446578502655,
              -0.15303191542625427,
              -0.03862450644373894
            ],
            [
              0.0779532939195633,
              -0.10124525427818298,
              0.15367217361927032
            ],
            [
              0.0426102839410305,
              -0.06989533454179764,
              -0.10187225788831711
            ],
            [
              0.009094840846955776,
              0.0697636753320694,
              0.03562946617603302
            ],
            [
              -0.04987485706806183,
              -0.024544483050704002,
              0.008961953222751617
            ],
            [
              0.030304385349154472,
              0.0036573580000549555,
              -0.029731400310993195
            ],
            [
              0.13582420349121094,
              0.1364535242319107,
              0.11853358149528503
            ],
            [
              -0.08785969018936157,
              -0.19197051227092743,
              0.04218415543437004
            ]
          ],
          [
            [
              0.06221766024827957,
              -0.0935022383928299,
              0.05020523443818092
            ],
            [
              0.096595399081707,
              0.0026124080177396536,
              -0.0749945193529129
            ],
            [
              -0.11821120232343674,
              0.060454465448856354,
              -0.06556321680545807
            ],
            [
              -0.09610576927661896,
              -0.043988801538944244,
              0.04442451894283295
            ],
            [
              0.05413545295596123,
              -0.07851673662662506,
              0.0962011069059372
            ],
            [
              -0.22814643383026123,
              -0.19864782691001892,
              -0.22327695786952972
            ],
            [
              0.03478391468524933,
              -0.07951490581035614,
              -0.03931742161512375
            ],
            [
              0.14123471081256866,
              0.07170309126377106,
              0.11045978218317032
            ],
            [
              0.030094116926193237,
              -0.041287653148174286,
              0.10988753288984299
            ],
            [
              0.03156942501664162,
              -0.14521634578704834,
              -0.11227921396493912
            ],
            [
              0.06943865865468979,
              -0.11680784821510315,
              0.06302257627248764
            ],
            [
              0.21756036579608917,
              0.20993569493293762,
              0.07252416759729385
            ],
            [
              -0.06196008622646332,
              0.048602037131786346,
              0.06659787893295288
            ],
            [
              0.09997215867042542,
              -0.035612914711236954,
              -0.012918558903038502
            ],
            [
              -0.04267303645610809,
              -0.04012652114033699,
              0.06108484044671059
            ],
            [
              -0.07487615942955017,
              -0.09107521176338196,
              -0.0782046988606453
            ],
            [
              0.11423635482788086,
              -0.048489321023225784,
              0.130619078874588
            ],
            [
              0.01826106570661068,
              -0.009409349411725998,
              -0.08670593053102493
            ],
            [
              -0.09581585973501205,
              0.09608417004346848,
              -0.10076448321342468
            ],
            [
              -0.1050720289349556,
              0.10314992815256119,
              -0.1458730697631836
            ]
          ],
          [
            [
              -0.07272433489561081,
              0.005857952870428562,
              -0.1142309159040451
            ],
            [
              0.07634953409433365,
              0.09229757636785507,
              0.10083033889532089
            ],
            [
              -0.10179421305656433,
              -0.015465524047613144,
              0.07341102510690689
            ],
            [
              -0.04644303023815155,
              0.11687824130058289,
              0.10494101047515869
            ],
            [
              0.03124719299376011,
              -0.028306391090154648,
              -0.0032365985680371523
            ],
            [
              -0.2666316330432892,
              -0.22592659294605255,
              -0.15486633777618408
            ],
            [
              0.1331958770751953,
              -0.05442814528942108,
              -0.09918664395809174
            ],
            [
              0.0951584130525589,
              0.12801195681095123,
              0.1155349463224411
            ],
            [
              0.07125057280063629,
              -0.08238764107227325,
              0.08151859045028687
            ],
            [
              -0.062479808926582336,
              -0.05499567463994026,
              -0.07549799978733063
            ],
            [
              0.0676143690943718,
              0.032322172075510025,
              0.13227428495883942
            ],
            [
              0.3005126714706421,
              0.290288507938385,
              0.23233596980571747
            ],
            [
              0.09743408113718033,
              0.030079014599323273,
              -0.07166789472103119
            ],
            [
              -0.057614799588918686,
              0.04893318563699722,
              -0.035989295691251755
            ],
            [
              0.014028601348400116,
              0.03785180673003197,
              0.0638589859008789
            ],
            [
              -0.11682295054197311,
              0.041541192680597305,
              0.08390240371227264
            ],
            [
              -0.014985213056206703,
              -0.0529426746070385,
              -0.07045768946409225
            ],
            [
              0.07078259438276291,
              -0.09736419469118118,
              0.05359113961458206
            ],
            [
              -0.09384214133024216,
              0.08924607187509537,
              -0.04184139147400856
            ],
            [
              -0.01837589032948017,
              -0.08087992668151855,
              -0.033494725823402405
            ]
          ],
          [
            [
              -0.10543082654476166,
              0.0428021065890789,
              -0.04741692915558815
            ],
            [
              -0.024971334263682365,
              -0.02580319531261921,
              0.11938858777284622
            ],
            [
              -0.008776835165917873,
              0.08646461367607117,
              0.00228673592209816
            ],
            [
              -0.03164760395884514,
              -0.059886518865823746,
              0.024311751127243042
            ],
            [
              0.12391802668571472,
              0.1332777887582779,
              -0.02032715268433094
            ],
            [
              -0.03832212835550308,
              -0.11296064406633377,
              -0.09491857886314392
            ],
            [
              0.10936540365219116,
              0.05120746046304703,
              0.08945738524198532
            ],
            [
              0.12858064472675323,
              0.048288919031620026,
              -0.009121919050812721
            ],
            [
              -0.07461552321910858,
              -0.068304143846035,
              -0.027072954922914505
            ],
            [
              -0.1118820458650589,
              -0.0701461061835289,
              -0.017183857038617134
            ],
            [
              -0.07699368894100189,
              -0.015387298539280891,
              -0.03807187080383301
            ],
            [
              0.08130522072315216,
              0.18112894892692566,
              0.05491491034626961
            ],
            [
              -0.06268376857042313,
              0.04577622562646866,
              0.1253739893436432
            ],
            [
              0.11125007271766663,
              -0.03424336016178131,
              0.13032026588916779
            ],
            [
              -0.02845364809036255,
              -0.048036448657512665,
              0.020299524068832397
            ],
            [
              -0.05834745988249779,
              -0.07468032091856003,
              -0.05130947008728981
            ],
            [
              0.13597941398620605,
              0.009171094745397568,
              0.03880009800195694
            ],
            [
              -0.1095474511384964,
              0.09104151278734207,
              0.03604049235582352
            ],
            [
              -0.03934064880013466,
              -0.035501878708601,
              0.09730479121208191
            ],
            [
              0.07081335037946701,
              -0.03505001589655876,
              -0.05694793537259102
            ]
          ],
          [
            [
              -0.11098002642393112,
              -0.07055331021547318,
              -0.05616229400038719
            ],
            [
              0.07787057012319565,
              0.035568367689847946,
              -0.0852506086230278
            ],
            [
              -0.10278218984603882,
              0.03116283193230629,
              0.08609595149755478
            ],
            [
              0.0331813283264637,
              -0.003622644580900669,
              0.07488525658845901
            ],
            [
              0.09039227664470673,
              0.10517599433660507,
              0.14565610885620117
            ],
            [
              -0.29870954155921936,
              -0.31470221281051636,
              -0.2210734635591507
            ],
            [
              0.09754231572151184,
              -0.034739360213279724,
              0.0944567546248436
            ],
            [
              0.19516605138778687,
              0.24595282971858978,
              0.11787048727273941
            ],
            [
              -0.05428193882107735,
              -0.08881106972694397,
              -0.049160584807395935
            ],
            [
              0.03292907774448395,
              -0.12155108898878098,
              -0.145757794380188
            ],
            [
              0.14248907566070557,
              0.0702124536037445,
              0.12750685214996338
            ],
            [
              0.42601099610328674,
              0.39686277508735657,
              0.371788889169693
            ],
            [
              0.020335597917437553,
              -0.07610476762056351,
              0.025022977963089943
            ],
            [
              -0.07130995392799377,
              0.010601711459457874,
              0.009119193069636822
            ],
            [
              0.04121682420372963,
              -0.08408179879188538,
              -0.10449656844139099
            ],
            [
              -0.045955073088407516,
              -0.03725413978099823,
              -0.01255757361650467
            ],
            [
              0.007141827140003443,
              0.04740584269165993,
              0.03577493503689766
            ],
            [
              -0.07974937558174133,
              -0.03507663682103157,
              -0.013049954548478127
            ],
            [
              0.11937770247459412,
              0.07560022920370102,
              0.06179144233465195
            ],
            [
              -0.07342877238988876,
              -0.1291026622056961,
              -0.10361994802951813
            ]
          ],
          [
            [
              -0.10998295992612839,
              -0.02729383483529091,
              -0.0044051483273506165
            ],
            [
              0.045662738382816315,
              0.0471307598054409,
              -0.05587853863835335
            ],
            [
              0.040588632225990295,
              -0.14105860888957977,
              0.035911675542593
            ],
            [
              -0.07315824180841446,
              0.0021223672665655613,
              0.05945751816034317
            ],
            [
              -0.0008788722334429622,
              -0.059081826359033585,
              0.0010023163631558418
            ],
            [
              -0.07701633870601654,
              -0.10147557407617569,
              -0.07590435445308685
            ],
            [
              0.04407209903001785,
              0.10604610294103622,
              -0.05757251754403114
            ],
            [
              0.05127207562327385,
              0.03600296750664711,
              -0.07107028365135193
            ],
            [
              -0.056923989206552505,
              0.0912904143333435,
              0.062376249581575394
            ],
            [
              -0.09297569841146469,
              -0.07869341969490051,
              0.10849548876285553
            ],
            [
              0.07527214288711548,
              0.05343906953930855,
              0.07317303121089935
            ],
            [
              0.05313548818230629,
              0.12112449109554291,
              0.02638131193816662
            ],
            [
              0.03382597863674164,
              0.029417792335152626,
              -0.07648584991693497
            ],
            [
              0.09149465709924698,
              -0.041929904371500015,
              0.03567653149366379
            ],
            [
              -0.16296713054180145,
              0.03859439492225647,
              -0.04733903333544731
            ],
            [
              0.056346166878938675,
              0.050242770463228226,
              -0.15696598589420319
            ],
            [
              -0.06217700615525246,
              0.07401391863822937,
              0.08449043333530426
            ],
            [
              0.03695793077349663,
              -0.1656467467546463,
              -0.008571671321988106
            ],
            [
              0.13115818798542023,
              -0.022454561665654182,
              0.12306690961122513
            ],
            [
              -0.02717730589210987,
              0.14543186128139496,
              -0.07942753285169601
            ]
          ],
          [
            [
              0.005716316401958466,
              -0.08466167747974396,
              0.0031614555045962334
            ],
            [
              0.12225363403558731,
              -0.007017923053354025,
              0.10159395635128021
            ],
            [
              0.0209676381200552,
              0.07713881880044937,
              -0.1006011888384819
            ],
            [
              0.10656609386205673,
              0.004325254820287228,
              -0.07597826421260834
            ],
            [
              -0.08525914698839188,
              0.06386751681566238,
              0.12584687769412994
            ],
            [
              -0.39650535583496094,
              -0.49704137444496155,
              -0.3988434374332428
            ],
            [
              0.09216956794261932,
              0.023870179429650307,
              -0.010091560892760754
            ],
            [
              0.06203293427824974,
              0.16855745017528534,
              0.0072074211202561855
            ],
            [
              0.051706284284591675,
              0.10992749780416489,
              -0.05945191532373428
            ],
            [
              -0.13711866736412048,
              0.07234729826450348,
              -0.13949529826641083
            ],
            [
              0.027835363522171974,
              0.09122983366250992,
              0.008390018716454506
            ],
            [
              0.24877849221229553,
              0.1973048597574234,
              0.2916458249092102
            ],
            [
              -0.04699483513832092,
              0.0635145977139473,
              -0.08104129135608673
            ],
            [
              -0.050487764179706573,
              -0.08977431803941727,
              0.008810849860310555
            ],
            [
              -0.11039356887340546,
              -0.11532635241746902,
              -0.11089891195297241
            ],
            [
              0.0783650130033493,
              -0.020858159288764,
              -0.09575995057821274
            ],
            [
              -0.002885823603719473,
              -0.05289621278643608,
              0.019744334742426872
            ],
            [
              0.09222938865423203,
              0.09423226863145828,
              -0.07830238342285156
            ],
            [
              0.13489745557308197,
              0.015652982518076897,
              -0.013681755401194096
            ],
            [
              -0.018459035083651543,
              -0.10884559899568558,
              -0.0010298307752236724
            ]
          ],
          [
            [
              0.103730209171772,
              -0.0200333371758461,
              0.03848441690206528
            ],
            [
              -0.028119681403040886,
              0.10893458873033524,
              -0.09035023301839828
            ],
            [
              -0.04039354249835014,
              0.09051013737916946,
              0.04311767965555191
            ],
            [
              -0.10134121775627136,
              0.10202348977327347,
              0.04109612852334976
            ],
            [
              0.10047493875026703,
              0.035929884761571884,
              0.006651787552982569
            ],
            [
              0.32402339577674866,
              0.3042699992656708,
              0.19887478649616241
            ],
            [
              -0.010800021700561047,
              0.030175620689988136,
              -0.0352194681763649
            ],
            [
              -0.22419089078903198,
              -0.06187872216105461,
              0.04226432368159294
            ],
            [
              0.08755505084991455,
              0.10534482449293137,
              0.0999964028596878
            ],
            [
              0.15851417183876038,
              -0.07929626107215881,
              0.029420481994748116
            ],
            [
              -0.016578521579504013,
              0.02553638257086277,
              -0.0814894288778305
            ],
            [
              -0.20887959003448486,
              -0.358276903629303,
              -0.17194540798664093
            ],
            [
              -0.025814291089773178,
              -0.0267607644200325,
              -0.03283180668950081
            ],
            [
              0.06456752866506577,
              -0.11402945965528488,
              -0.06411591917276382
            ],
            [
              0.08057799935340881,
              0.00535034341737628,
              -0.05607529357075691
            ],
            [
              -0.04221046715974808,
              -0.014310210943222046,
              0.01754169352352619
            ],
            [
              -0.13430878520011902,
              0.025790046900510788,
              -0.13314293324947357
            ],
            [
              0.012356610037386417,
              -0.02527199499309063,
              -0.12154196947813034
            ],
            [
              -0.10049896687269211,
              0.009212013334035873,
              0.08487057685852051
            ],
            [
              0.12242431193590164,
              0.021792905405163765,
              -0.012826860882341862
            ]
          ],
          [
            [
              -0.0030475633684545755,
              0.057710327208042145,
              -0.08184918761253357
            ],
            [
              -0.02389344945549965,
              -0.0060830144211649895,
              -0.11658965796232224
            ],
            [
              -0.019459860399365425,
              -0.10648322105407715,
              0.05083618313074112
            ],
            [
              0.09144166111946106,
              0.061907049268484116,
              -0.0026749735698103905
            ],
            [
              0.0485808327794075,
              -0.020513033494353294,
              -0.13181477785110474
            ],
            [
              -0.06077277287840843,
              0.0025665373541414738,
              -0.018408002331852913
            ],
            [
              -0.07609600573778152,
              -0.022877465933561325,
              -0.05318264290690422
            ],
            [
              0.012675555422902107,
              0.00248700100928545,
              0.06209747865796089
            ],
            [
              0.007099699229001999,
              -0.01710071973502636,
              -0.03744937479496002
            ],
            [
              -0.018442723900079727,
              0.01701503060758114,
              0.06140728294849396
            ],
            [
              -0.03651591017842293,
              0.022058861330151558,
              -0.018433790653944016
            ],
            [
              0.09533324092626572,
              0.012066098861396313,
              -0.06845563650131226
            ],
            [
              -0.1258581578731537,
              0.014299899339675903,
              -0.038667868822813034
            ],
            [
              -0.09259060770273209,
              0.05487293004989624,
              -0.05870901420712471
            ],
            [
              -0.02653970941901207,
              -0.1336517184972763,
              0.015287360176444054
            ],
            [
              -0.03240959718823433,
              -0.015455054119229317,
              -0.034670207649469376
            ],
            [
              -0.060902610421180725,
              -0.06889310479164124,
              -0.004736815579235554
            ],
            [
              -0.06740664690732956,
              -0.02776818908751011,
              0.03846964240074158
            ],
            [
              0.14841105043888092,
              0.03465508297085762,
              -0.0341370590031147
            ],
            [
              -0.11053065210580826,
              0.05919395759701729,
              -0.06044889613986015
            ]
          ],
          [
            [
              0.07034818083047867,
              0.10922606289386749,
              -0.017076410353183746
            ],
            [
              -0.11930231750011444,
              -0.11569341272115707,
              -0.1394577920436859
            ],
            [
              0.013602441176772118,
              0.11364172399044037,
              0.011419584043323994
            ],
            [
              -0.05760706216096878,
              0.09649886935949326,
              -0.012798091396689415
            ],
            [
              0.07071248441934586,
              -0.04788462445139885,
              -0.04579562693834305
            ],
            [
              0.20050659775733948,
              0.202495738863945,
              0.25588226318359375
            ],
            [
              -0.016053495928645134,
              0.028426969423890114,
              0.05014035850763321
            ],
            [
              -0.18294501304626465,
              -0.1871083676815033,
              -0.15835058689117432
            ],
            [
              -0.0798240602016449,
              0.11313604563474655,
              0.007835363037884235
            ],
            [
              0.04423285648226738,
              0.14617422223091125,
              -0.01843447797000408
            ],
            [
              -0.03353840112686157,
              0.02449698932468891,
              0.05079919844865799
            ],
            [
              -0.1042126789689064,
              -0.2669954001903534,
              -0.19315141439437866
            ],
            [
              0.04506142809987068,
              0.08061972260475159,
              0.11661192774772644
            ],
            [
              0.02389410510659218,
              -0.08020900189876556,
              0.046805061399936676
            ],
            [
              0.07304725050926208,
              -0.09532739222049713,
              -0.0462370403110981
            ],
            [
              0.10727853327989578,
              0.08059508353471756,
              -0.08254678547382355
            ],
            [
              -0.028518393635749817,
              -0.11264465004205704,
              -0.03546605259180069
            ],
            [
              0.09126495569944382,
              0.0345567911863327,
              -0.04079505056142807
            ],
            [
              -0.06875517964363098,
              0.05110736936330795,
              0.049330372363328934
            ],
            [
              0.10296314209699631,
              -0.043841034173965454,
              -0.09367982298135757
            ]
          ],
          [
            [
              0.07993388175964355,
              0.07075539976358414,
              0.04774184897542
            ],
            [
              -0.0004196167574264109,
              -0.00736805098131299,
              0.0013321650912985206
            ],
            [
              -0.012836947105824947,
              -0.03777095675468445,
              -0.13445205986499786
            ],
            [
              0.05584389716386795,
              0.08455272018909454,
              0.03886646032333374
            ],
            [
              -0.05433179438114166,
              -0.08295204490423203,
              0.06614311784505844
            ],
            [
              0.10203222930431366,
              0.06526698917150497,
              -0.020483141764998436
            ],
            [
              -0.050369858741760254,
              0.113901786506176,
              0.06397473067045212
            ],
            [
              -0.07461600005626678,
              -0.059079524129629135,
              -0.06884434819221497
            ],
            [
              -0.05785243958234787,
              0.09631311148405075,
              0.13622967898845673
            ],
            [
              0.13992275297641754,
              -0.007288295775651932,
              0.034028373658657074
            ],
            [
              0.055865585803985596,
              0.10957874357700348,
              -0.11794999986886978
            ],
            [
              -0.06122804060578346,
              -0.03233266621828079,
              -0.005378133617341518
            ],
            [
              -0.0222445260733366,
              0.10945948213338852,
              0.016159864142537117
            ],
            [
              0.09760536998510361,
              0.10503580421209335,
              -0.0891701728105545
            ],
            [
              -0.0382612906396389,
              0.07968804985284805,
              0.0004601332184392959
            ],
            [
              -0.01878424547612667,
              0.10552600771188736,
              -0.1189175695180893
            ],
            [
              0.005251648370176554,
              -0.07385122030973434,
              -0.05801241099834442
            ],
            [
              0.09155027568340302,
              -0.11814442276954651,
              -0.11744160950183868
            ],
            [
              0.011355256661772728,
              -0.10428886860609055,
              0.05533776804804802
            ],
            [
              -0.03469223529100418,
              0.09209216386079788,
              0.13041703402996063
            ]
          ],
          [
            [
              -0.0845056101679802,
              0.013651669956743717,
              -0.0033916172105818987
            ],
            [
              0.04048827290534973,
              0.10185235738754272,
              -0.023666441440582275
            ],
            [
              -0.0368032231926918,
              0.0581192784011364,
              -0.14403174817562103
            ],
            [
              0.10975641012191772,
              0.04362187162041664,
              0.010211087763309479
            ],
            [
              -0.02155439183115959,
              -0.11989530175924301,
              0.043872520327568054
            ],
            [
              -0.018994929268956184,
              0.003935517277568579,
              0.015469544567167759
            ],
            [
              0.0004754156107082963,
              0.031434737145900726,
              -0.030433734878897667
            ],
            [
              0.0315714031457901,
              -0.08142095804214478,
              -0.11439105123281479
            ],
            [
              1.3096249858790543e-05,
              0.031166769564151764,
              -0.09133559465408325
            ],
            [
              0.0416552759706974,
              0.03855361416935921,
              0.022094016894698143
            ],
            [
              -0.0004120326484553516,
              -0.09580038487911224,
              0.017749765887856483
            ],
            [
              0.1307491660118103,
              0.0862388163805008,
              0.061281148344278336
            ],
            [
              -0.09507329016923904,
              -0.004927696660161018,
              -0.006944685708731413
            ],
            [
              0.02009756676852703,
              -0.10977117717266083,
              -0.029336752369999886
            ],
            [
              -0.03872106224298477,
              0.005532229319214821,
              0.025301488116383553
            ],
            [
              -0.04310041666030884,
              -0.06539981067180634,
              0.07398338615894318
            ],
            [
              -0.06341923028230667,
              0.003820613259449601,
              -0.050165511667728424
            ],
            [
              0.07186397165060043,
              -0.1439092457294464,
              0.039089906960725784
            ],
            [
              -0.08191219717264175,
              -0.09374123066663742,
              -0.037706922739744186
            ],
            [
              0.13409139215946198,
              0.07982859015464783,
              -0.08727965503931046
            ]
          ],
          [
            [
              0.08131948113441467,
              -0.06327524036169052,
              0.0017348643159493804
            ],
            [
              -0.0632709339261055,
              -0.11623463034629822,
              -0.12887373566627502
            ],
            [
              -0.11504241824150085,
              0.019198942929506302,
              -0.09806355834007263
            ],
            [
              -0.02073289453983307,
              -0.10786670446395874,
              0.02476409822702408
            ],
            [
              -0.09984985738992691,
              0.039656102657318115,
              -0.09658132493495941
            ],
            [
              0.16391240060329437,
              0.1051117479801178,
              0.06175712123513222
            ],
            [
              0.027753692120313644,
              -0.025485586374998093,
              -0.041342493146657944
            ],
            [
              -0.05817766860127449,
              -0.0724639743566513,
              -0.00931017380207777
            ],
            [
              -0.018540652468800545,
              0.05872063711285591,
              -0.044942744076251984
            ],
            [
              0.12539826333522797,
              0.1029888242483139,
              0.09643436223268509
            ],
            [
              -0.031354375183582306,
              0.005281096789985895,
              -0.07197526842355728
            ],
            [
              -0.17320771515369415,
              -0.20480985939502716,
              -0.17461584508419037
            ],
            [
              -0.03282177820801735,
              0.03372669592499733,
              -0.06390722841024399
            ],
            [
              0.015213903971016407,
              0.13092203438282013,
              -0.02071455307304859
            ],
            [
              -0.012470964342355728,
              0.08901675045490265,
              0.10392105579376221
            ],
            [
              0.0794202908873558,
              -0.0994463562965393,
              0.0938752070069313
            ],
            [
              -0.01764936000108719,
              -0.11321021616458893,
              -0.11326393485069275
            ],
            [
              -0.10323657095432281,
              -0.08156052976846695,
              0.08834751695394516
            ],
            [
              -0.03693464398384094,
              0.05831074342131615,
              0.07521871477365494
            ],
            [
              0.07742737978696823,
              -0.07693229615688324,
              0.08400854468345642
            ]
          ],
          [
            [
              -0.026802143082022667,
              0.11443192511796951,
              0.05535566806793213
            ],
            [
              -0.06539103388786316,
              0.12742304801940918,
              0.06375966221094131
            ],
            [
              -0.03227320313453674,
              0.11871722340583801,
              0.06438476592302322
            ],
            [
              -0.031422924250364304,
              -0.03612421452999115,
              0.05662158504128456
            ],
            [
              -0.07147533446550369,
              -0.07878313213586807,
              0.11781362444162369
            ],
            [
              -0.037062741816043854,
              -0.0866367518901825,
              -0.04786435514688492
            ],
            [
              -0.016023874282836914,
              -0.09375257045030594,
              0.08267803490161896
            ],
            [
              -0.024335503578186035,
              0.16218793392181396,
              0.013861220329999924
            ],
            [
              -0.021014880388975143,
              -0.03437628969550133,
              -0.0028432756662368774
            ],
            [
              -0.09156613796949387,
              -0.07359824329614639,
              -0.0697125568985939
            ],
            [
              -0.007307234685868025,
              -0.014300226233899593,
              0.14837421476840973
            ],
            [
              0.05951833724975586,
              0.1842896044254303,
              0.18284666538238525
            ],
            [
              -0.04289451614022255,
              -0.008197493851184845,
              0.0772772878408432
            ],
            [
              0.04238365963101387,
              -0.07789034396409988,
              0.04568913206458092
            ],
            [
              0.09075057506561279,
              0.0015445537865161896,
              0.054599326103925705
            ],
            [
              0.10997956991195679,
              -0.11515408754348755,
              -0.1103195995092392
            ],
            [
              0.042835649102926254,
              0.09354330599308014,
              0.08865828812122345
            ],
            [
              -0.03924042731523514,
              0.09492602944374084,
              0.09420398622751236
            ],
            [
              -0.08680423349142075,
              0.03370005637407303,
              -0.06109315901994705
            ],
            [
              -0.05967264994978905,
              0.0048251086845994,
              -0.08884839713573456
            ]
          ],
          [
            [
              0.12437903136014938,
              -0.09084489941596985,
              -0.02791789174079895
            ],
            [
              -0.11592733860015869,
              -0.11491701751947403,
              0.050401899963617325
            ],
            [
              0.011242514476180077,
              -0.015360385179519653,
              -0.014108763076364994
            ],
            [
              -0.125309020280838,
              0.012158393859863281,
              -0.040044039487838745
            ],
            [
              0.024764860048890114,
              0.007740662898868322,
              -0.07865191996097565
            ],
            [
              0.14079499244689941,
              0.185378760099411,
              0.07961313426494598
            ],
            [
              -0.05558501183986664,
              0.03155689314007759,
              0.04621937498450279
            ],
            [
              -0.07640697807073593,
              -0.011096126399934292,
              0.026420628651976585
            ],
            [
              -0.02584567479789257,
              -0.043374232947826385,
              0.11387354135513306
            ],
            [
              -0.044903650879859924,
              -0.06570380181074142,
              -0.002990603679791093
            ],
            [
              -0.04828139767050743,
              0.12659704685211182,
              0.0783659890294075
            ],
            [
              -0.11004947870969772,
              -0.07057756185531616,
              -0.16111113131046295
            ],
            [
              0.10933817923069,
              0.07269792258739471,
              0.0273838359862566
            ],
            [
              -0.004617407917976379,
              -0.06415245682001114,
              0.05990692228078842
            ],
            [
              -0.0395953431725502,
              0.012874615378677845,
              0.07979769259691238
            ],
            [
              0.1156538799405098,
              0.031533244997262955,
              0.01872723363339901
            ],
            [
              0.11725529283285141,
              0.033161770552396774,
              -0.0027718369383364916
            ],
            [
              -0.08991071581840515,
              -0.03173200413584709,
              -0.0858372375369072
            ],
            [
              -0.10878120362758636,
              -0.07920832186937332,
              -0.14036694169044495
            ],
            [
              0.09308940917253494,
              -0.04948580637574196,
              0.10979326069355011
            ]
          ]
        ],
        "conv_bias": [
          -0.06980964541435242,
          -0.08202823996543884,
          0.0003781838750001043,
          0.013437005691230297,
          0.07915101945400238,
          -0.016420667991042137,
          -0.0651547759771347,
          0.08223821222782135,
          0.011907865293323994,
          -0.08193337917327881,
          -0.0023686287458986044,
          -0.13058549165725708,
          -0.08916065841913223,
          -0.08114739507436752,
          0.10184948891401291,
          -0.09953208267688751,
          0.07552745938301086,
          0.09392640739679337,
          0.00957303773611784,
          -0.12507714331150055
        ]
      },
      {
        "layer": 1,
        "dilation": 2,
        "conv_weight": [
          [
            [
              -0.004533998668193817,
              0.029708456248044968,
              0.08197160810232162
            ],
            [
              -0.005607930943369865,
              -0.11802295595407486,
              0.008947523310780525
            ],
            [
              -0.10602891445159912,
              0.054226502776145935,
              0.12339328974485397
            ],
            [
              -0.02433064952492714,
              0.05419363081455231,
              -0.01543793547898531
            ],
            [
              0.01951463893055916,
              -0.1174062117934227,
              -0.10141962021589279
            ],
            [
              0.15807396173477173,
              -0.05574670806527138,
              -0.2392260581254959
            ],
            [
              0.054414283484220505,
              -0.035672616213560104,
              -0.1064840778708458
            ],
            [
              0.011110248975455761,
              -0.14296427369117737,
              -0.1453479379415512
            ],
            [
              0.015154244378209114,
              -0.051478780806064606,
              0.06535184383392334
            ],
            [
              0.03838960826396942,
              0.03966856002807617,
              -0.13177496194839478
            ],
            [
              0.0766967236995697,
              -0.09339258074760437,
              0.00731835700571537
            ],
            [
              -0.009383980184793472,
              -0.17085522413253784,
              -0.21406246721744537
            ],
            [
              -0.022176995873451233,
              -0.02588627301156521,
              0.11440244317054749
            ],
            [
              0.06029019132256508,
              -0.11114615201950073,
              0.027930691838264465
            ],
            [
              0.0997135117650032,
              0.06404171139001846,
              -0.009072452783584595
            ],
            [
              -0.011569935828447342,
              -0.02749660052359104,
              -0.08736427873373032
            ],
            [
              -0.08930354565382004,
              0.06233607605099678,
              0.02753596380352974
            ],
            [
              -0.09102465212345123,
              -0.06676924228668213,
              0.1577775627374649
            ],
            [
              -0.0028700861148536205,
              0.07277721166610718,
              -0.1505042463541031
            ],
            [
              0.013740944676101208,
              0.0862540602684021,
              0.02966948039829731
            ]
          ],
          [
            [
              0.05705578625202179,
              -0.11012125760316849,
              -0.03931812196969986
            ],
            [
              -0.03235654905438423,
              -0.11163049191236496,
              0.05168261006474495
            ],
            [
              -0.012173429131507874,
              -0.08985183387994766,
              -0.017071660608053207
            ],
            [
              -0.06321224570274353,
              0.06503015011548996,
              0.1290990561246872
            ],
            [
              0.03737607225775719,
              0.06834360212087631,
              -0.05185234174132347
            ],
            [
              0.10472984611988068,
              0.07083459943532944,
              -0.045045334845781326
            ],
            [
              -0.0034513259306550026,
              -0.06725669652223587,
              -0.06500411778688431
            ],
            [
              0.002800922840833664,
              -0.08678442984819412,
              0.03422778099775314
            ],
            [
              0.06919927895069122,
              -0.070790596306324,
              0.09638315439224243
            ],
            [
              -0.10972802340984344,
              0.008520970121026039,
              -0.10683584213256836
            ],
            [
              -0.012636416591703892,
              0.05358688533306122,
              0.015572207979857922
            ],
            [
              0.14873896539211273,
              0.12341909110546112,
              -0.014267793856561184
            ],
            [
              -0.06766527891159058,
              -0.03696610778570175,
              0.03884873911738396
            ],
            [
              -0.15849876403808594,
              -0.04819294437766075,
              0.05358488857746124
            ],
            [
              -0.1270931512117386,
              0.0492670014500618,
              0.009832683950662613
            ],
            [
              -0.11133228987455368,
              -0.1304236352443695,
              -0.07895714044570923
            ],
            [
              0.05304746702313423,
              0.06531242281198502,
              -0.07590170949697495
            ],
            [
              -0.13106416165828705,
              0.020993929356336594,
              0.01781734824180603
            ],
            [
              0.043047137558460236,
              0.015335794538259506,
              0.0033617201261222363
            ],
            [
              0.020988084375858307,
              0.10168198496103287,
              0.01047369185835123
            ]
          ],
          [
            [
              -0.09183433651924133,
              -0.12894508242607117,
              0.0002946139720734209
            ],
            [
              0.006792423315346241,
              0.09932342171669006,
              0.005660439375787973
            ],
            [
              -0.06846946477890015,
              -0.10711205750703812,
              0.034472353756427765
            ],
            [
              -0.015305855311453342,
              0.014434653334319592,
              0.12836617231369019
            ],
            [
              0.05372706428170204,
              -0.0030085269827395678,
              -0.013280099257826805
            ],
            [
              0.07188472151756287,
              0.12975357472896576,
              -0.18994607031345367
            ],
            [
              -0.07177682220935822,
              0.01617278903722763,
              -0.07365130633115768
            ],
            [
              0.05333948880434036,
              -0.1176561489701271,
              0.09584939479827881
            ],
            [
              -0.06375087797641754,
              -0.04462028667330742,
              0.11408963054418564
            ],
            [
              0.13337451219558716,
              0.11972751468420029,
              0.02430054359138012
            ],
            [
              -0.10068559646606445,
              0.0019994315225631,
              0.08591058850288391
            ],
            [
              0.1660282164812088,
              0.003148656105622649,
              -0.2666734755039215
            ],
            [
              -0.08484774827957153,
              -0.10951191931962967,
              0.02973460592329502
            ],
            [
              0.04763144999742508,
              0.10124462842941284,
              -0.13245676457881927
            ],
            [
              0.02153158001601696,
              -0.04158685356378555,
              -0.09722733497619629
            ],
            [
              -0.00922929123044014,
              0.04409250617027283,
              0.08594958484172821
            ],
            [
              -0.03930971771478653,
              -0.025453196838498116,
              0.09668201208114624
            ],
            [
              0.06071329116821289,
              -0.11073711514472961,
              0.11692589521408081
            ],
            [
              -0.05013052001595497,
              -0.1114344447851181,
              0.029971791431307793
            ],
            [
              0.03795132413506508,
              0.06747499108314514,
              -0.10962250828742981
            ]
          ],
          [
            [
              -0.0899491012096405,
              -0.04176652804017067,
              -0.038739513605833054
            ],
            [
              -0.07085686177015305,
              0.038670510053634644,
              -0.008845553733408451
            ],
            [
              0.05191076919436455,
              0.07662682235240936,
              -0.03722532093524933
            ],
            [
              -0.09652142226696014,
              0.015383290126919746,
              0.02789674699306488
            ],
            [
              0.07023747265338898,
              0.06549690663814545,
              -0.023352280259132385
            ],
            [
              0.22455061972141266,
              0.057117071002721786,
              0.009298759512603283
            ],
            [
              -0.09941857308149338,
              0.041182663291692734,
              0.05566788837313652
            ],
            [
              0.12675751745700836,
              -0.020981959998607635,
              0.12330358475446701
            ],
            [
              0.07134195417165756,
              0.10101670026779175,
              0.10075388848781586
            ],
            [
              0.03233079984784126,
              0.11917995661497116,
              0.05434054508805275
            ],
            [
              0.03190015256404877,
              0.04974868521094322,
              0.06766173988580704
            ],
            [
              0.1785021424293518,
              0.12922123074531555,
              -0.014617078937590122
            ],
            [
              -0.12669895589351654,
              -0.10748416185379028,
              -0.05596845597028732
            ],
            [
              -0.04979267343878746,
              -0.05861109495162964,
              0.12601986527442932
            ],
            [
              0.08270996063947678,
              0.1040668934583664,
              0.02665083482861519
            ],
            [
              -0.02929745987057686,
              0.10034956783056259,
              0.06481818109750748
            ],
            [
              -0.04151717573404312,
              0.07235852628946304,
              0.005117031279951334
            ],
            [
              -0.07680364698171616,
              -0.02763030119240284,
              0.011412457562983036
            ],
            [
              -0.08172640949487686,
              0.03153720498085022,
              -0.02171291783452034
            ],
            [
              -0.10778364539146423,
              -0.1148524135351181,
              -0.1308230608701706
            ]
          ],
          [
            [
              0.11921022087335587,
              0.1075383797287941,
              -0.046892955899238586
            ],
            [
              -0.13102848827838898,
              0.07058499753475189,
              0.061110612004995346
            ],
            [
              -0.028110874816775322,
              0.055557504296302795,
              0.0159717109054327
            ],
            [
              0.03286492079496384,
              -0.08551950752735138,
              -0.003580057993531227
            ],
            [
              -0.0119388522580266,
              -0.05142455920577049,
              0.04303957521915436
            ],
            [
              -0.1647893190383911,
              -0.035929545760154724,
              0.08142838627099991
            ],
            [
              -0.06456148624420166,
              -0.11448098719120026,
              0.10754647850990295
            ],
            [
              0.027305958792567253,
              -0.012386118061840534,
              0.011479640379548073
            ],
            [
              -0.07786716520786285,
              -0.0978037640452385,
              -0.044110532850027084
            ],
            [
              -0.04896452650427818,
              -0.0760669931769371,
              -0.005705412942916155
            ],
            [
              -0.023768655955791473,
              -0.13898009061813354,
              0.08841519802808762
            ],
            [
              -0.16590677201747894,
              -0.05712627246975899,
              0.13684815168380737
            ],
            [
              0.14656755328178406,
              0.0682825967669487,
              -0.08219917863607407
            ],
            [
              -0.085825614631176,
              -0.03835243359208107,
              -0.03489808365702629
            ],
            [
              -0.036320555955171585,
              0.07408355176448822,
              -0.03026454523205757
            ],
            [
              -0.10009914636611938,
              -0.014955698512494564,
              -0.07688264548778534
            ],
            [
              -0.0607718862593174,
              -0.041920628398656845,
              -0.0974578708410263
            ],
            [
              -0.04537305235862732,
              -0.06981717795133591,
              0.02246050536632538
            ],
            [
              -0.08949147164821625,
              0.05067901685833931,
              0.05514272302389145
            ],
            [
              -0.009935340844094753,
              0.07980198413133621,
              -0.040126945823431015
            ]
          ],
          [
            [
              -0.11253979057073593,
              -0.00015478683053515851,
              0.03527596592903137
            ],
            [
              -0.1039951890707016,
              0.12459976226091385,
              0.05096063390374184
            ],
            [
              -0.12121850997209549,
              0.09555865824222565,
              -0.020462628453969955
            ],
            [
              0.03275351971387863,
              0.025634542107582092,
              -0.03440537303686142
            ],
            [
              0.06759506464004517,
              -0.021732954308390617,
              0.04385090246796608
            ],
            [
              0.11033394187688828,
              0.20219004154205322,
              0.13737542927265167
            ],
            [
              0.0663764476776123,
              0.01254157442599535,
              0.06545453518629074
            ],
            [
              0.1426175832748413,
              0.0528678223490715,
              -0.013823055662214756
            ],
            [
              0.08181082457304001,
              0.11056269705295563,
              0.09363774210214615
            ],
            [
              -0.12446681410074234,
              0.13379281759262085,
              -0.08981558680534363
            ],
            [
              -0.017768345773220062,
              -0.018344823271036148,
              0.10676242411136627
            ],
            [
              0.30817118287086487,
              0.38276103138923645,
              0.05444613844156265
            ],
            [
              -0.09917369484901428,
              -0.08142155408859253,
              0.016102604568004608
            ],
            [
              -0.03086058981716633,
              -0.017062228173017502,
              0.014194881543517113
            ],
            [
              0.0022653585765510798,
              0.019776800647377968,
              -0.008292111568152905
            ],
            [
              0.10311294347047806,
              0.06755103170871735,
              0.053790222853422165
            ],
            [
              0.038817424327135086,
              -0.007157456129789352,
              0.0572475828230381
            ],
            [
              0.03364911302924156,
              -0.0271620936691761,
              -0.023727616295218468
            ],
            [
              0.15220318734645844,
              0.10486707091331482,
              0.0634288564324379
            ],
            [
              0.043611858040094376,
              -0.1125534251332283,
              -0.024867212399840355
            ]
          ],
          [
            [
              -0.08970889449119568,
              0.08044424653053284,
              -0.0025026616640388966
            ],
            [
              -0.027778955176472664,
              0.15314368903636932,
              -0.016354991123080254
            ],
            [
              0.07639932632446289,
              -0.09812506288290024,
              -0.002612954704090953
            ],
            [
              0.032267358154058456,
              -0.037928566336631775,
              -0.032840024679899216
            ],
            [
              -0.010238856077194214,
              0.01520451344549656,
              0.0782204121351242
            ],
            [
              -0.11257177591323853,
              0.14872528612613678,
              0.005553260445594788
            ],
            [
              0.07027710974216461,
              0.1365605890750885,
              0.030220134183764458
            ],
            [
              -0.07569645345211029,
              -0.06191202625632286,
              -0.07934492081403732
            ],
            [
              -0.029222745448350906,
              0.09227653592824936,
              0.09879335761070251
            ],
            [
              -0.05223490670323372,
              -0.014444212429225445,
              0.10865692049264908
            ],
            [
              0.13491877913475037,
              -0.08505882322788239,
              0.006752985529601574
            ],
            [
              0.1526673138141632,
              0.25756871700286865,
              0.28068193793296814
            ],
            [
              -0.06823179125785828,
              -0.07136479020118713,
              0.02098754793405533
            ],
            [
              0.03591308742761612,
              0.044884808361530304,
              0.0445404052734375
            ],
            [
              -0.09482838958501816,
              0.07521355152130127,
              -0.09002932161092758
            ],
            [
              0.11468615382909775,
              -0.009488929063081741,
              0.0686284527182579
            ],
            [
              0.047429200261831284,
              -0.01689242757856846,
              0.03868814557790756
            ],
            [
              0.04579225555062294,
              0.07567459344863892,
              -0.1221272349357605
            ],
            [
              -0.027455300092697144,
              0.07200189679861069,
              0.07508362084627151
            ],
            [
              0.0867394506931305,
              -0.0820838063955307,
              -0.16503062844276428
            ]
          ],
          [
            [
              -0.07403075695037842,
              0.06174248456954956,
              -0.08494095504283905
            ],
            [
              0.03979546204209328,
              -0.041536033153533936,
              -0.02437136322259903
            ],
            [
              -0.08145594596862793,
              -0.1027938649058342,
              0.03522498160600662
            ],
            [
              0.05544360727071762,
              -0.13258850574493408,
              0.09706845879554749
            ],
            [
              0.03994230553507805,
              -0.04809826239943504,
              0.028173428028821945
            ],
            [
              0.11376789957284927,
              0.3148134648799896,
              -0.011466958560049534
            ],
            [
              -0.020834242925047874,
              0.06228978931903839,
              0.0020034562330693007
            ],
            [
              -0.04115888476371765,
              -0.04430143162608147,
              0.0520581416785717
            ],
            [
              -0.0005718129104934633,
              0.13355335593223572,
              -0.05316649004817009
            ],
            [
              0.11032164841890335,
              0.1519269198179245,
              -0.039489857852458954
            ],
            [
              0.11235496401786804,
              0.11285283416509628,
              0.0019540784414857626
            ],
            [
              0.41772398352622986,
              0.2638084292411804,
              0.03327595815062523
            ],
            [
              -0.21184517443180084,
              -0.14568383991718292,
              -0.02007640153169632
            ],
            [
              0.10231927037239075,
              -0.10221046954393387,
              -0.013742052949965
            ],
            [
              0.05016010254621506,
              -0.15450379252433777,
              0.004720533266663551
            ],
            [
              0.08897192031145096,
              -0.02554125152528286,
              0.1021629348397255
            ],
            [
              -0.05052177608013153,
              0.0833507850766182,
              -0.08436059951782227
            ],
            [
              -0.094773069024086,
              -0.11765890568494797,
              -0.015366927720606327
            ],
            [
              0.056641869246959686,
              -0.01062491163611412,
              -0.056908152997493744
            ],
            [
              0.04189423471689224,
              0.06058560311794281,
              0.03259233012795448
            ]
          ],
          [
            [
              -0.10852181911468506,
              0.10980059951543808,
              0.01582646742463112
            ],
            [
              -0.0262301042675972,
              -0.05126058682799339,
              0.059080567210912704
            ],
            [
              -0.07103977352380753,
              0.052403826266527176,
              0.04810907319188118
            ],
            [
              -0.011609954759478569,
              -0.08750775456428528,
              -0.024675939232110977
            ],
            [
              -0.06014617159962654,
              -0.00040158251067623496,
              0.02571248635649681
            ],
            [
              0.05214856564998627,
              -0.0047194757498800755,
              0.04594843462109566
            ],
            [
              0.05981201305985451,
              -0.07777167856693268,
              0.10869625210762024
            ],
            [
              -0.11834295839071274,
              0.05768273025751114,
              0.04743674769997597
            ],
            [
              -0.036708422005176544,
              0.03753410279750824,
              -0.0056795403361320496
            ],
            [
              -0.08675877004861832,
              -0.08327557891607285,
              0.049799587577581406
            ],
            [
              -0.06081178039312363,
              -0.07090026885271072,
              0.05845356360077858
            ],
            [
              -0.02797217108309269,
              -0.06873910129070282,
              -0.026555387303233147
            ],
            [
              -0.005053661298006773,
              0.10160352289676666,
              0.029949836432933807
            ],
            [
              -0.013576716184616089,
              -0.022771259769797325,
              -0.025371233001351357
            ],
            [
              0.10648126900196075,
              0.07690082490444183,
              0.017307711765170097
            ],
            [
              -0.013160391710698605,
              -0.011088693514466286,
              -0.0610128790140152
            ],
            [
              0.02422180026769638,
              -0.09034168720245361,
              -0.09472259134054184
            ],
            [
              0.10109464824199677,
              0.03795238584280014,
              -0.0709388330578804
            ],
            [
              0.011753590777516365,
              -0.04252583533525467,
              -0.027966417372226715
            ],
            [
              0.06862986832857132,
              -0.1269621104001999,
              0.1103873923420906
            ]
          ],
          [
            [
              0.034869808703660965,
              -0.09580511599779129,
              -0.07624029368162155
            ],
            [
              0.011627444066107273,
              0.06733053177595139,
              -0.04401719942688942
            ],
            [
              0.044811125844717026,
              -0.019160114228725433,
              -0.004830974619835615
            ],
            [
              0.014346522279083729,
              0.038974180817604065,
              0.09427984803915024
            ],
            [
              -0.00164889357984066,
              -0.05960068479180336,
              0.026688268408179283
            ],
            [
              -0.21571341156959534,
              0.12336350977420807,
              0.22089163959026337
            ],
            [
              -0.06559742987155914,
              -0.04195859283208847,
              0.11556798219680786
            ],
            [
              -0.1892770230770111,
              0.031438764184713364,
              0.2087455540895462
            ],
            [
              -0.17169836163520813,
              0.044479236006736755,
              0.05699516832828522
            ],
            [
              -0.2401093691587448,
              -0.01957051269710064,
              0.1247774064540863
            ],
            [
              -0.05713360011577606,
              0.04200579598546028,
              0.13579033315181732
            ],
            [
              -0.2755579650402069,
              0.18612107634544373,
              0.4369228482246399
            ],
            [
              0.2210482358932495,
              -0.0337807722389698,
              -0.3085123598575592
            ],
            [
              0.06321223080158234,
              0.011215286329388618,
              -0.09577659517526627
            ],
            [
              0.1541638821363449,
              -0.09968658536672592,
              -0.19624605774879456
            ],
            [
              0.11609044671058655,
              0.09561674296855927,
              -0.13094183802604675
            ],
            [
              0.08091489225625992,
              0.018780671060085297,
              -0.07198810577392578
            ],
            [
              0.06391561776399612,
              0.03115246631205082,
              -0.17382031679153442
            ],
            [
              -0.09871208667755127,
              0.010342483408749104,
              0.10842782258987427
            ],
            [
              0.032686371356248856,
              -0.0188332200050354,
              -0.08021313697099686
            ]
          ],
          [
            [
              -0.09417114406824112,
              -0.06256937235593796,
              -0.13494406640529633
            ],
            [
              -0.032445840537548065,
              -0.03331196308135986,
              0.04632667452096939
            ],
            [
              -0.04256727918982506,
              0.03220812603831291,
              -0.03597107529640198
            ],
            [
              0.13399827480316162,
              -0.051885344088077545,
              0.035292547196149826
            ],
            [
              -0.1075531467795372,
              -0.12750862538814545,
              0.07951868325471878
            ],
            [
              -0.1033003106713295,
              -0.0501473993062973,
              0.0588153600692749
            ],
            [
              -0.032155584543943405,
              -0.00025737518444657326,
              0.03651156648993492
            ],
            [
              0.06739967316389084,
              -0.12884390354156494,
              -0.02830376662313938
            ],
            [
              -0.07610707730054855,
              0.013657490722835064,
              -0.018746566027402878
            ],
            [
              -0.020268984138965607,
              -0.017790308222174644,
              -0.04325268417596817
            ],
            [
              -0.07629163563251495,
              0.08392627537250519,
              -0.13405278325080872
            ],
            [
              -0.12804757058620453,
              -0.09148193150758743,
              -0.13382665812969208
            ],
            [
              0.048242148011922836,
              0.11242534965276718,
              0.0932108536362648
            ],
            [
              0.08741021156311035,
              0.05093471705913544,
              0.028135333210229874
            ],
            [
              -0.10580511391162872,
              -0.0351102389395237,
              0.015603497624397278
            ],
            [
              0.09932985156774521,
              0.050632670521736145,
              -0.014613843522965908
            ],
            [
              -0.03998756408691406,
              0.050866469740867615,
              -0.1129998117685318
            ],
            [
              -0.07554265856742859,
              0.008011830039322376,
              0.07919197529554367
            ],
            [
              0.05365278944373131,
              -0.07690619677305222,
              0.0050287493504583836
            ],
            [
              0.08301398158073425,
              0.05444225296378136,
              -0.022691290825605392
            ]
          ],
          [
            [
              0.07044915854930878,
              0.10909655690193176,
              0.05875059589743614
            ],
            [
              0.04083709046244621,
              0.10025660693645477,
              -0.1032157689332962
            ],
            [
              0.09510516375303268,
              0.029715942218899727,
              0.011276600882411003
            ],
            [
              0.04627218097448349,
              -0.026453789323568344,
              -0.05560506507754326
            ],
            [
              -0.0908663421869278,
              -0.09815210103988647,
              -0.020642539486289024
            ],
            [
              -0.12277977913618088,
              0.03284057602286339,
              0.18732324242591858
            ],
            [
              -0.025088146328926086,
              0.12956976890563965,
              -0.08717083930969238
            ],
            [
              0.07049671560525894,
              0.11346200108528137,
              0.05385499447584152
            ],
            [
              0.09202929586172104,
              0.09223831444978714,
              0.12249182909727097
            ],
            [
              -0.036736633628606796,
              0.0032772021368145943,
              0.12079653888940811
            ],
            [
              0.11100304871797562,
              0.04849835857748985,
              0.06139117479324341
            ],
            [
              0.033997971564531326,
              0.2082006186246872,
              0.29555878043174744
            ],
            [
              -0.045110780745744705,
              -0.03347344323992729,
              -0.14292000234127045
            ],
            [
              0.006495481822639704,
              -0.09672339260578156,
              0.05638132989406586
            ],
            [
              0.03866420313715935,
              0.034651510417461395,
              -0.04044368863105774
            ],
            [
              0.08337101340293884,
              0.06966033577919006,
              -0.025358006358146667
            ],
            [
              0.004235041327774525,
              0.027135353535413742,
              -0.11004713922739029
            ],
            [
              0.039360757917165756,
              -0.09584707021713257,
              -0.14565466344356537
            ],
            [
              0.027386430650949478,
              -0.011960766278207302,
              -0.07151052355766296
            ],
            [
              -0.02683163434267044,
              -0.02061128243803978,
              0.027960296720266342
            ]
          ],
          [
            [
              0.09243432432413101,
              0.023749954998493195,
              0.0781763345003128
            ],
            [
              0.02874281443655491,
              0.0454949215054512,
              0.013668774627149105
            ],
            [
              -0.043772775679826736,
              0.022647518664598465,
              -0.13295921683311462
            ],
            [
              0.0007147946744225919,
              -0.061942003667354584,
              -0.05471348017454147
            ],
            [
              -0.10186097770929337,
              0.003676566993817687,
              -0.028092581778764725
            ],
            [
              -0.44961944222450256,
              -0.29051586985588074,
              0.047768618911504745
            ],
            [
              -0.16788969933986664,
              -0.05407547205686569,
              0.04111926257610321
            ],
            [
              -0.07307317107915878,
              -0.04603057727217674,
              0.05679897591471672
            ],
            [
              -0.05802648514509201,
              -0.0447719506919384,
              0.0062301442958414555
            ],
            [
              -0.0910383015871048,
              -0.11554945260286331,
              0.03374325856566429
            ],
            [
              0.08128200471401215,
              -0.11999491602182388,
              -0.09808972477912903
            ],
            [
              -0.43509379029273987,
              -0.24791565537452698,
              -0.030057279393076897
            ],
            [
              0.11830223351716995,
              0.09260765463113785,
              -0.08964329957962036
            ],
            [
              -0.09341307729482651,
              0.01589937135577202,
              0.058130696415901184
            ],
            [
              0.10168072581291199,
              0.1082025021314621,
              -0.12464363873004913
            ],
            [
              -0.0714774876832962,
              -0.060517486184835434,
              0.015799542888998985
            ],
            [
              -0.07007923722267151,
              -0.0591738298535347,
              -0.06217039003968239
            ],
            [
              -0.05608281120657921,
              0.05991227179765701,
              0.0068840328603982925
            ],
            [
              -0.061582017689943314,
              -0.009141813963651657,
              -0.03061467409133911
            ],
            [
              0.07851666212081909,
              0.07352207601070404,
              0.1251641809940338
            ]
          ],
          [
            [
              -0.12447922676801682,
              -0.0325532890856266,
              0.11256588250398636
            ],
            [
              0.0351167656481266,
              0.06325871497392654,
              0.057542361319065094
            ],
            [
              -0.12586772441864014,
              -0.009704574942588806,
              -0.02943764068186283
            ],
            [
              -0.06575170904397964,
              0.04486507177352905,
              -0.11481938511133194
            ],
            [
              0.02406141720712185,
              0.020236890763044357,
              -0.11496402323246002
            ],
            [
              0.07056394964456558,
              0.08462800830602646,
              -0.05912415310740471
            ],
            [
              0.05884341150522232,
              0.09759592264890671,
              -0.001457908540032804
            ],
            [
              0.06952875852584839,
              0.02250288985669613,
              -0.09915664792060852
            ],
            [
              -0.047433435916900635,
              0.03093057870864868,
              0.13022147119045258
            ],
            [
              -0.040126215666532516,
              0.12952227890491486,
              -0.04355718940496445
            ],
            [
              0.11680739372968674,
              -0.009616495110094547,
              -0.09907540678977966
            ],
            [
              0.02792682684957981,
              0.20538881421089172,
              -0.08184026926755905
            ],
            [
              0.018545400351285934,
              -0.054169077426195145,
              0.04643532633781433
            ],
            [
              0.09618262201547623,
              0.006255747750401497,
              -0.12796010076999664
            ],
            [
              -0.02314368076622486,
              -0.1539049744606018,
              -0.10538175702095032
            ],
            [
              -0.0275005791336298,
              -0.13860444724559784,
              -0.041671544313430786
            ],
            [
              -0.00026549160247668624,
              0.06146964430809021,
              0.029127292335033417
            ],
            [
              -0.06397154927253723,
              -0.0674191415309906,
              -0.1089998260140419
            ],
            [
              0.0810936987400055,
              -0.02143125981092453,
              -0.03696075826883316
            ],
            [
              0.07518243789672852,
              -0.11529369652271271,
              -0.11412103474140167
            ]
          ],
          [
            [
              -0.02099364437162876,
              0.03648487478494644,
              0.07429385930299759
            ],
            [
              -0.04991593211889267,
              -0.07581686228513718,
              0.09619047492742538
            ],
            [
              -0.05578798055648804,
              0.09132891893386841,
              0.0006617244798690081
            ],
            [
              -0.06423725932836533,
              -0.08217871934175491,
              0.036007847636938095
            ],
            [
              0.02427668683230877,
              -0.03159420192241669,
              0.0966232419013977
            ],
            [
              0.1598503142595291,
              0.111280657351017,
              -0.18810564279556274
            ],
            [
              0.07310453802347183,
              0.07685624808073044,
              0.00010246487363474444
            ],
            [
              -0.06842337548732758,
              -0.0600523017346859,
              -0.011712607927620411
            ],
            [
              -0.05722479149699211,
              0.06611020863056183,
              0.07997852563858032
            ],
            [
              -0.009363086894154549,
              0.10206008702516556,
              -0.12265699356794357
            ],
            [
              0.009940539486706257,
              0.09844660758972168,
              -0.042194515466690063
            ],
            [
              0.07642926275730133,
              -0.15350037813186646,
              -0.28287357091903687
            ],
            [
              -0.14171695709228516,
              -0.07096368074417114,
              0.07170766592025757
            ],
            [
              0.005279079079627991,
              -0.07364144921302795,
              0.0626530572772026
            ],
            [
              -0.0019567590206861496,
              -0.08632221817970276,
              0.064168781042099
            ],
            [
              -0.025071077048778534,
              0.1029137670993805,
              0.024916043505072594
            ],
            [
              -0.027010178193449974,
              0.10710151493549347,
              -0.017484962940216064
            ],
            [
              -0.05162396281957626,
              -0.03508967161178589,
              0.1199718788266182
            ],
            [
              0.044412195682525635,
              0.05591508373618126,
              -0.015786895528435707
            ],
            [
              -0.011811235919594765,
              0.09658355265855789,
              0.010298567824065685
            ]
          ],
          [
            [
              -0.004087756387889385,
              -0.04036160185933113,
              -0.09353814274072647
            ],
            [
              -0.06634267419576645,
              0.08150508999824524,
              0.0038910629227757454
            ],
            [
              0.045614179223775864,
              0.04304775223135948,
              0.07242274284362793
            ],
            [
              -0.0650501400232315,
              -0.05135001614689827,
              0.043561916798353195
            ],
            [
              -0.1274126023054123,
              0.07019274681806564,
              0.0202295184135437
            ],
            [
              -0.38277170062065125,
              -0.2660709321498871,
              -0.09069418162107468
            ],
            [
              -0.08738298714160919,
              -0.027937550097703934,
              -0.010533720254898071
            ],
            [
              -0.052271753549575806,
              0.02306967042386532,
              -0.11580101400613785
            ],
            [
              0.04389439523220062,
              0.09962115436792374,
              0.0774385929107666
            ],
            [
              0.004940814338624477,
              -0.020214153453707695,
              0.09127100557088852
            ],
            [
              -0.038667771965265274,
              0.0682700052857399,
              -0.0013980091316625476
            ],
            [
              -0.3719904124736786,
              -0.2207687795162201,
              -0.11745857447385788
            ],
            [
              0.11571836471557617,
              0.17291082441806793,
              -0.05911758542060852
            ],
            [
              0.004317318554967642,
              -0.05289744213223457,
              -0.057546503841876984
            ],
            [
              0.02739805541932583,
              0.034365832805633545,
              -0.03131436929106712
            ],
            [
              0.05440114066004753,
              -0.045361731201410294,
