{
  "model_info": {
    "name": "flstudio_test4",
    "version": "1.0.0",
    "architecture": "WaveNet",
    "causal": true,
    "sample_rate": 44100,
    "receptive_field": 511,
    "latency_ms": 11.59
  },
  "architecture": {
    "channels": 48,
    "num_layers": 8,
    "kernel_size": 3,
    "dilation_base": 2,
    "dilations": [
      1,
      2,
      4,
      8,
      16,
      32,
      64,
      128
    ]
  },
  "weights": {
    "input_conv": {
      "weight": [
        -0.8617637157440186,
        -0.7051765322685242,
        -0.012414875440299511,
        0.07180030643939972,
        0.409528911113739,
        -0.05166691914200783,
        0.5609595775604248,
        -0.40878838300704956,
        -0.7054454684257507,
        0.7276047468185425,
        0.741455078125,
        0.7196825742721558,
        0.6709076762199402,
        -0.704481840133667,
        -0.8952227234840393,
        0.21421527862548828,
        0.5615331530570984,
        0.1879854053258896,
        0.5800434350967407,
        0.38085299730300903,
        0.12341073900461197,
        0.751186728477478,
        -0.6673033237457275,
        0.5936526656150818,
        -0.018709611147642136,
        -0.16779658198356628,
        0.0254097580909729,
        0.26263850927352905,
        0.7338770031929016,
        0.928294837474823,
        -0.5640636682510376,
        -0.408924400806427,
        0.7836472392082214,
        0.00975012220442295,
        0.2265004962682724,
        -0.42235827445983887,
        -0.12834705412387848,
        -0.1636074036359787,
        0.6795269846916199,
        0.043991923332214355,
        -0.15689021348953247,
        -0.47089916467666626,
        0.3426235318183899,
        -0.05356095731258392,
        -0.587315022945404,
        -0.9472870826721191,
        -0.22185635566711426,
        0.804912269115448
      ],
      "bias": [
        -0.6586923003196716,
        -0.5358061790466309,
        -0.6007720828056335,
        0.8008493781089783,
        -0.7930098176002502,
        0.05771087482571602,
        0.0322868712246418,
        0.7192798852920532,
        0.47177648544311523,
        0.449133038520813,
        -0.3083917796611786,
        0.19635817408561707,
        -0.5017337799072266,
        0.8130782842636108,
        0.05568048730492592,
        -0.12828099727630615,
        -0.41420432925224304,
        -0.7215472459793091,
        0.19078779220581055,
        -0.7262362241744995,
        0.6032509207725525,
        -0.2785364091396332,
        -0.1593766063451767,
        0.7221980094909668,
        -0.6162582039833069,
        -0.5328099727630615,
        -0.08548197895288467,
        -0.7112908363342285,
        -0.5487948060035706,
        -0.10583217442035675,
        -0.6688141822814941,
        0.17008651793003082,
        0.34652310609817505,
        -0.3876393437385559,
        0.410961776971817,
        0.18569572269916534,
        0.76915442943573,
        -0.25227290391921997,
        -0.19622685015201569,
        0.025507545098662376,
        0.8415241241455078,
        0.10105659067630768,
        0.37260541319847107,
        -0.49994155764579773,
        -0.8148871064186096,
        -0.9676679968833923,
        -0.28176555037498474,
        -0.034743767231702805
      ]
    },
    "residual_blocks": [
      {
        "layer": 0,
        "dilation": 1,
        "conv_weight": [
          [
            [
              0.014542688615620136,
              -0.031168820336461067,
              -0.06408219039440155
            ],
            [
              0.017682019621133804,
              -0.06296927481889725,
              0.029828354716300964
            ],
            [
              0.011008156463503838,
              0.05338164418935776,
              -0.07777029275894165
            ],
            [
              0.07330850511789322,
              -0.07303435355424881,
              -0.033074818551540375
            ],
            [
              0.005512383300811052,
              -0.0735948383808136,
              -0.06989113241434097
            ],
            [
              0.011320125311613083,
              -0.0015903763705864549,
              0.009165181778371334
            ],
            [
              -0.0009422020521014929,
              -0.06983333081007004,
              -0.08403398841619492
            ],
            [
              0.020608767867088318,
              -0.004362061154097319,
              0.06867321580648422
            ],
            [
              0.044671252369880676,
              0.009062515571713448,
              0.052295807749032974
            ],
            [
              0.07108502089977264,
              -0.0795096680521965,
              0.0216395054012537
            ],
            [
              -0.03414807468652725,
              -0.03480185195803642,
              -0.03727972134947777
            ],
            [
              -0.04333201423287392,
              -0.06332296133041382,
              0.00969826988875866
            ],
            [
              0.009093177504837513,
              -0.008515778928995132,
              -0.06868746131658554
            ],
            [
              -0.004396292380988598,
              0.031697630882263184,
              0.10063645243644714
            ],
            [
              0.06328096240758896,
              0.028255168348550797,
              0.1003001406788826
            ],
            [
              -0.0021788785234093666,
              -0.0018241676734760404,
              0.009732862003147602
            ],
            [
              -0.04507813602685928,
              -0.08580044656991959,
              -0.015505163930356503
            ],
            [
              -0.013973742723464966,
              0.026642536744475365,
              -0.08502769470214844
            ],
            [
              0.022996295243501663,
              -0.02806740440428257,
              0.03731592744588852
            ],
            [
              -0.005783448927104473,
              0.06122212111949921,
              0.049944788217544556
            ],
            [
              -0.04568829759955406,
              -0.06021355465054512,
              -0.05388672649860382
            ],
            [
              0.008294901810586452,
              -0.024891141802072525,
              -0.05581109598278999
            ],
            [
              0.05500022694468498,
              0.05759424343705177,
              -0.015536947175860405
            ],
            [
              -0.042632900178432465,
              0.0655239149928093,
              -0.04764746129512787
            ],
            [
              0.04967140406370163,
              -0.025993626564741135,
              0.06698371469974518
            ],
            [
              0.009952140040695667,
              -0.019031748175621033,
              -0.07568881660699844
            ],
            [
              0.046684350818395615,
              -0.0022734750527888536,
              -0.01841258816421032
            ],
            [
              0.003201546613126993,
              -0.038241900503635406,
              -0.015581541694700718
            ],
            [
              0.03447045013308525,
              -0.06287967413663864,
              -0.10456584393978119
            ],
            [
              -0.08702964335680008,
              -0.05895399674773216,
              -0.023125939071178436
            ],
            [
              -0.006792611442506313,
              0.011610526591539383,
              0.08222807198762894
            ],
            [
              -0.018390875309705734,
              0.06163272261619568,
              0.07160606980323792
            ],
            [
              -0.009248937480151653,
              0.010302034206688404,
              -0.025272013619542122
            ],
            [
              -0.05868466943502426,
              -0.050345808267593384,
              0.013691074214875698
            ],
            [
              0.07501556724309921,
              0.010350480675697327,
              -0.004213014617562294
            ],
            [
              0.08969113230705261,
              -0.015247213654220104,
              0.0824677050113678
            ],
            [
              -0.049015529453754425,
              0.05232663452625275,
              0.0699695274233818
            ],
            [
              -0.05397837609052658,
              -0.03362094983458519,
              -0.05615774542093277
            ],
            [
              0.021266896277666092,
              -0.05596558004617691,
              -0.07807106524705887
            ],
            [
              0.007204887922853231,
              0.014901261776685715,
              0.026563741266727448
            ],
            [
              0.09202282875776291,
              0.028240632265806198,
              0.029093047603964806
            ],
            [
              -0.02476297877728939,
              0.009545962326228619,
              -0.00036012401687912643
            ],
            [
              0.06319233775138855,
              -0.011448261328041553,
              -0.024912433698773384
            ],
            [
              -0.08233138173818588,
              0.012959057465195656,
              0.003814260009676218
            ],
            [
              0.018590223044157028,
              0.037999555468559265,
              -0.00501119252294302
            ],
            [
              0.06280216574668884,
              0.011680087074637413,
              0.0545639805495739
            ],
            [
              0.05959488824009895,
              -0.030486445873975754,
              -0.012990176677703857
            ],
            [
              -0.05006944760680199,
              -0.05636928975582123,
              -0.024373868480324745
            ]
          ],
          [
            [
              -0.04768702760338783,
              -0.024638226255774498,
              -0.05563676729798317
            ],
            [
              -0.032537832856178284,
              0.01461851131170988,
              -0.002282281406223774
            ],
            [
              -0.023002974689006805,
              -0.019113587215542793,
              0.01033757533878088
            ],
            [
              -0.022440871223807335,
              0.0065618157386779785,
              0.07182027399539948
            ],
            [
              0.035657450556755066,
              0.012527137994766235,
              -0.019769849255681038
            ],
            [
              0.04687866196036339,
              -0.0037969264667481184,
              0.01811280846595764
            ],
            [
              -0.041572678834199905,
              -0.04259304702281952,
              -0.06645810604095459
            ],
            [
              -0.05393696576356888,
              -0.00022375684056896716,
              0.020954033359885216
            ],
            [
              0.027570951730012894,
              0.045331988483667374,
              0.05287095904350281
            ],
            [
              0.006059406790882349,
              -0.07336273789405823,
              -0.06810320168733597
            ],
            [
              -0.09700648486614227,
              0.005140653811395168,
              -0.09081901609897614
            ],
            [
              0.00795641541481018,
              0.034280963242053986,
              -0.033087026327848434
            ],
            [
              0.004528675694018602,
              -0.06507860124111176,
              0.04381053149700165
            ],
            [
              0.07236554473638535,
              -0.032160814851522446,
              -0.02656741812825203
            ],
            [
              0.049078457057476044,
              0.029073147103190422,
              0.018147969618439674
            ],
            [
              -0.021866124123334885,
              -0.009836848825216293,
              -0.02177826501429081
            ],
            [
              0.010240335948765278,
              -0.04223606735467911,
              -0.021601112559437752
            ],
            [
              -0.06818263232707977,
              0.06345908343791962,
              -0.01946605183184147
            ],
            [
              -0.04207494482398033,
              0.025482844561338425,
              0.045110806822776794
            ],
            [
              -0.060664061456918716,
              -0.0851375088095665,
              0.01262348797172308
            ],
            [
              -0.0022826334461569786,
              0.08283393830060959,
              0.055416177958250046
            ],
            [
              -0.05906445160508156,
              -0.05104593187570572,
              -0.06813225895166397
            ],
            [
              0.08374368399381638,
              0.06978000700473785,
              -0.04164310172200203
            ],
            [
              0.006356032565236092,
              0.015199948102235794,
              0.07552600651979446
            ],
            [
              -0.057067617774009705,
              0.05706232041120529,
              0.039321426302194595
            ],
            [
              -0.022149384021759033,
              -0.03726150095462799,
              -0.05122143030166626
            ],
            [
              0.019151752814650536,
              -0.019361160695552826,
              -0.009462414309382439
            ],
            [
              0.013476720079779625,
              -0.04860948771238327,
              -0.06753183156251907
            ],
            [
              -0.018174808472394943,
              -0.05908789858222008,
              0.006063353270292282
            ],
            [
              -0.0921303778886795,
              -0.07597804069519043,
              0.0038111519534140825
            ],
            [
              0.007837220095098019,
              0.02905665896832943,
              0.010068058036267757
            ],
            [
              -0.01683301292359829,
              0.017650313675403595,
              0.04215703532099724
            ],
            [
              0.03549838066101074,
              -0.05758575722575188,
              0.022238777950406075
            ],
            [
              0.041135888546705246,
              -0.07961445301771164,
              -0.0455223023891449
            ],
            [
              -0.018756631761789322,
              0.049868278205394745,
              0.06987147033214569
            ],
            [
              -0.02464631199836731,
              0.004635100718587637,
              0.0646764487028122
            ],
            [
              0.042749349027872086,
              -0.02080000564455986,
              0.029696131125092506
            ],
            [
              0.04868338257074356,
              0.06161830946803093,
              -0.008886448107659817
            ],
            [
              0.01887320727109909,
              -0.05267813801765442,
              -0.08179818838834763
            ],
            [
              0.025753887370228767,
              0.009140894748270512,
              0.020197955891489983
            ],
            [
              -0.038324061781167984,
              -0.03631385788321495,
              -0.02334599383175373
            ],
            [
              0.06578687578439713,
              0.006341989617794752,
              0.03583298251032829
            ],
            [
              0.021733438596129417,
              0.003623365890234709,
              0.04017724096775055
            ],
            [
              0.04953930154442787,
              -0.02667640894651413,
              -0.07169757783412933
            ],
            [
              0.009226377122104168,
              0.03891018405556679,
              0.026309944689273834
            ],
            [
              0.05116187036037445,
              -0.043196167796850204,
              0.005200622137635946
            ],
            [
              0.023494066670536995,
              -0.039197519421577454,
              0.013239560648798943
            ],
            [
              -0.07782347500324249,
              -0.019420333206653595,
              -0.08105644583702087
            ]
          ],
          [
            [
              0.03149169683456421,
              -0.03556913137435913,
              -0.0525486059486866
            ],
            [
              0.03569050878286362,
              -0.02377094328403473,
              0.014052515849471092
            ],
            [
              -0.0036873742938041687,
              -0.016964059323072433,
              -0.03681602329015732
            ],
            [
              -0.05397924408316612,
              0.024130333214998245,
              0.05962371826171875
            ],
            [
              0.02451418712735176,
              0.032161857932806015,
              0.04143551364541054
            ],
            [
              0.0021764764096587896,
              -0.00321339163929224,
              -0.0008035350474528968
            ],
            [
              0.038172103464603424,
              0.00521501898765564,
              0.011020134203135967
            ],
            [
              0.023773381486535072,
              0.02628411166369915,
              0.04628704488277435
            ],
            [
              -0.02850238047540188,
              -0.05416852608323097,
              0.036512698978185654
            ],
            [
              0.030298002064228058,
              -0.019169827923178673,
              0.054214008152484894
            ],
            [
              0.012427382171154022,
              0.02029203437268734,
              0.019207416102290154
            ],
            [
              -0.016271257773041725,
              -0.020257357507944107,
              -0.01293150708079338
            ],
            [
              -0.011014796793460846,
              -0.03846319764852524,
              0.03144129738211632
            ],
            [
              -0.05241796374320984,
              0.040170129388570786,
              0.03998900577425957
            ],
            [
              -0.04689152538776398,
              -0.008961224928498268,
              -0.020089637488126755
            ],
            [
              -0.01776316948235035,
              0.01059635542333126,
              -0.02184349112212658
            ],
            [
              -0.04831083118915558,
              -0.01478922925889492,
              0.049391694366931915
            ],
            [
              -0.04922094941139221,
              0.052535004913806915,
              -0.008257822133600712
            ],
            [
              0.010984331369400024,
              0.012694318778812885,
              -0.0014896027278155088
            ],
            [
              0.05544104054570198,
              0.024743128567934036,
              -0.016590388491749763
            ],
            [
              0.025835780426859856,
              0.05826326832175255,
              0.01261205691844225
            ],
            [
              -0.04049757122993469,
              0.026724589988589287,
              -0.0127638541162014
            ],
            [
              -0.006005499977618456,
              -0.038099851459264755,
              0.016870465129613876
            ],
            [
              -0.023346850648522377,
              0.009188196621835232,
              -0.0396060049533844
            ],
            [
              0.03461812436580658,
              -0.03698892146348953,
              -0.02236930839717388
            ],
            [
              -0.048595983535051346,
              -0.05935459956526756,
              -0.03672322630882263
            ],
            [
              0.008852783590555191,
              0.005148536991328001,
              -0.008373115211725235
            ],
            [
              0.02472587302327156,
              -0.05650034174323082,
              0.05492241308093071
            ],
            [
              -0.006124741863459349,
              0.01876712031662464,
              -0.029629617929458618
            ],
            [
              0.05963314697146416,
              -0.0147556122392416,
              -0.0036504450254142284
            ],
            [
              0.028582362458109856,
              -0.04341157153248787,
              -0.06129965931177139
            ],
            [
              0.007673592772334814,
              -0.03480376675724983,
              0.0022907555103302
            ],
            [
              -0.016242273151874542,
              0.0435546338558197,
              0.05114297196269035
            ],
            [
              0.014260412193834782,
              -0.011911368928849697,
              -0.047263145446777344
            ],
            [
              -0.007427625358104706,
              -0.03513325750827789,
              -0.02599671110510826
            ],
            [
              -0.007616106886416674,
              -0.020046766847372055,
              0.0016367131611332297
            ],
            [
              -0.03298301622271538,
              0.06108297407627106,
              0.03049303963780403
            ],
            [
              0.006173495668917894,
              0.0066574267111718655,
              0.005796531680971384
            ],
            [
              -0.03360418602824211,
              0.049876630306243896,
              -0.01678936369717121
            ],
            [
              -0.0001612538908375427,
              0.0012081422610208392,
              0.00126264663413167
            ],
            [
              -0.007699707522988319,
              0.0008782317163422704,
              0.05149274691939354
            ],
            [
              -0.0035482279490679502,
              0.004840543027967215,
              0.0009362085838802159
            ],
            [
              0.03138793259859085,
              0.05318372696638107,
              0.0012783696874976158
            ],
            [
              -0.019637728109955788,
              -0.019986551254987717,
              0.030811836943030357
            ],
            [
              -0.032483529299497604,
              -0.021326981484889984,
              -0.07617319375276566
            ],
            [
              -0.023636750876903534,
              -0.053441449999809265,
              -0.02600228786468506
            ],
            [
              -0.027037212625145912,
              -0.03170410543680191,
              -0.026605315506458282
            ],
            [
              -0.003509758273139596,
              0.03651241585612297,
              -0.01919950358569622
            ]
          ],
          [
            [
              0.028981653973460197,
              0.024449927732348442,
              0.009071859531104565
            ],
            [
              0.10235068202018738,
              0.0431470088660717,
              0.07535567134618759
            ],
            [
              -0.030299434438347816,
              0.012530343607068062,
              -0.04635050892829895
            ],
            [
              -0.09916944801807404,
              0.014929897151887417,
              0.02326771803200245
            ],
            [
              0.037880849093198776,
              -0.02611197903752327,
              -0.03280853480100632
            ],
            [
              -0.005919723305851221,
              -0.03751701861619949,
              -0.011570332571864128
            ],
            [
              -0.056505024433135986,
              -0.08564670383930206,
              -0.04828210920095444
            ],
            [
              -0.03443508967757225,
              -0.05116835609078407,
              -0.02153318002820015
            ],
            [
              0.057620976120233536,
              -0.07535509765148163,
              0.04920003563165665
            ],
            [
              0.02214949205517769,
              -0.014658519998192787,
              -0.04307788610458374
            ],
            [
              -0.025199733674526215,
              -0.07114879786968231,
              0.010696761310100555
            ],
            [
              0.012260760180652142,
              -0.07509998232126236,
              -0.09472381323575974
            ],
            [
              0.006645405199378729,
              0.029143139719963074,
              0.055859435349702835
            ],
            [
              -0.041411422193050385,
              0.015378748066723347,
              0.07074716687202454
            ],
            [
              0.039466507732868195,
              0.0069966064766049385,
              0.04409392550587654
            ],
            [
              0.03636091202497482,
              0.04433462768793106,
              -0.003723973175510764
            ],
            [
              0.03554586321115494,
              -0.009800390340387821,
              0.012934263795614243
            ],
            [
              -0.028452865779399872,
              0.06540406495332718,
              -0.00844149012118578
            ],
            [
              -0.0940261259675026,
              0.020514633506536484,
              -0.0018205830128863454
            ],
            [
              0.01681256853044033,
              0.0794781744480133,
              -0.03740479052066803
            ],
            [
              -0.014955841936171055,
              -0.027139166370034218,
              -0.04198680445551872
            ],
            [
              0.05767698213458061,
              -0.05597969517111778,
              -0.06297679245471954
            ],
            [
              0.09587076306343079,
              -0.0019741018768399954,
              -0.004428444430232048
            ],
            [
              0.027664337307214737,
              0.04006253182888031,
              0.0360853374004364
            ],
            [
              0.049977730959653854,
              -0.011031057685613632,
              0.07928972691297531
            ],
            [
              0.010400705970823765,
              0.0774136483669281,
              0.060251761227846146
            ],
            [
              0.02776615135371685,
              0.0048539056442677975,
              0.026905594393610954
            ],
            [
              -0.020721880719065666,
              -0.06025031954050064,
              -0.03882336989045143
            ],
            [
              0.05519760400056839,
              -0.04976522549986839,
              -0.0024799155071377754
            ],
            [
              0.002896596910431981,
              -0.011210210621356964,
              -0.028110655024647713
            ],
            [
              -0.004261078778654337,
              0.06932300329208374,
              0.08474519848823547
            ],
            [
              0.020497705787420273,
              -0.03951770067214966,
              -0.02479425072669983
            ],
            [
              -0.06049606576561928,
              -0.10382191836833954,
              -0.0818311795592308
            ],
            [
              0.0007476838072761893,
              0.0678803101181984,
              -0.008550290949642658
            ],
            [
              0.04023634269833565,
              0.0006234774482436478,
              0.03086942434310913
            ],
            [
              0.035811953246593475,
              0.0650627464056015,
              -0.008556128479540348
            ],
            [
              0.004986324813216925,
              -0.0015370282344520092,
              -0.005346416495740414
            ],
            [
              0.06875129789113998,
              -0.02784072235226631,
              0.004626116715371609
            ],
            [
              -0.0007768754730932415,
              -0.05983824282884598,
              -0.015295011922717094
            ],
            [
              5.9976151533192024e-05,
              -0.027211997658014297,
              -0.0049174451269209385
            ],
            [
              0.049393218010663986,
              0.050720226019620895,
              -0.025222957134246826
            ],
            [
              0.006080324295908213,
              -0.03203871101140976,
              0.04630008712410927
            ],
            [
              -0.07705304026603699,
              -0.047028422355651855,
              0.0034065749496221542
            ],
            [
              -0.028765913099050522,
              0.08549425005912781,
              -0.04924513027071953
            ],
            [
              0.030041111633181572,
              0.06795715540647507,
              0.036709532141685486
            ],
            [
              0.054895758628845215,
              0.08930155634880066,
              0.08003601431846619
            ],
            [
              0.027268314734101295,
              0.024662084877490997,
              -0.03283896669745445
            ],
            [
              -0.06300539523363113,
              -0.09169991314411163,
              -0.07359757274389267
            ]
          ],
          [
            [
              0.009516567923128605,
              -0.019334619864821434,
              -0.021855579689145088
            ],
            [
              -0.039580125361680984,
              -0.0548463873565197,
              -0.024490846320986748
            ],
            [
              -0.06503528356552124,
              -0.02600170113146305,
              -0.030489712953567505
            ],
            [
              0.01576642505824566,
              0.060117337852716446,
              0.0014269000384956598
            ],
            [
              0.005225874949246645,
              0.04132422059774399,
              -0.06880007684230804
            ],
            [
              7.317756535485387e-05,
              -0.0001812874834286049,
              0.0019512624712660909
            ],
            [
              0.034475069493055344,
              0.03374775871634483,
              -0.0007487435941584408
            ],
            [
              0.02983371913433075,
              0.05165036395192146,
              0.06144299358129501
            ],
            [
              -0.0015758813824504614,
              0.007592305075377226,
              -0.03445187583565712
            ],
            [
              0.03533642739057541,
              -0.016058504581451416,
              0.008966010063886642
            ],
            [
              -0.025112945586442947,
              0.04659036919474602,
              -0.023426320403814316
            ],
            [
              0.05425463616847992,
              0.028371941298246384,
              -0.026150699704885483
            ],
            [
              0.010044364258646965,
              0.005527560133486986,
              -0.03725472465157509
            ],
            [
              0.012594646774232388,
              -0.0008792603039182723,
              0.005188492592424154
            ],
            [
              -0.06267473101615906,
              -0.04811301827430725,
              0.018558649346232414
            ],
            [
              0.016249116510152817,
              0.005726957693696022,
              -0.016048269346356392
            ],
            [
              0.043138083070516586,
              0.04277081787586212,
              -0.04128115996718407
            ],
            [
              0.03287013620138168,
              0.043254390358924866,
              0.04082734137773514
            ],
            [
              0.040647242218256,
              0.025936998426914215,
              0.005335560534149408
            ],
            [
              0.035248082131147385,
              -0.05715850368142128,
              -0.04072646424174309
            ],
            [
              0.04468275234103203,
              0.05096516013145447,
              0.06572913378477097
            ],
            [
              -0.009442789480090141,
              0.03361868858337402,
              -0.011889094486832619
            ],
            [
              -0.04817396029829979,
              -0.044541504234075546,
              0.029244327917695045
            ],
            [
              0.039204191416502,
              0.06923335790634155,
              0.05924602597951889
            ],
            [
              -0.016176003962755203,
              -0.021322259679436684,
              -0.053721047937870026
            ],
            [
              -0.028379013761878014,
              0.03736085444688797,
              -0.0024822235573083162
            ],
            [
              -4.8488138418179005e-05,
              -0.0020278538577258587,
              -0.003282122081145644
            ],
            [
              0.0023981924168765545,
              -0.06312839686870575,
              -0.008652089163661003
            ],
            [
              -0.016073452308773994,
              -0.04838823899626732,
              -0.046546343713998795
            ],
            [
              0.06336776912212372,
              -0.011642531491816044,
              -0.04042904078960419
            ],
            [
              -0.0493747740983963,
              0.015730194747447968,
              0.03638958930969238
            ],
            [
              0.004100169520825148,
              0.006867669057101011,
              0.0002531646459829062
            ],
            [
              -0.0007883270154707134,
              0.04074026644229889,
              -0.013634800910949707
            ],
            [
              -0.03301003947854042,
              -0.029964106157422066,
              0.022072885185480118
            ],
            [
              -0.001517826458439231,
              -0.008117949590086937,
              -0.035886041820049286
            ],
            [
              0.009906026534736156,
              0.017515886574983597,
              0.024957098066806793
            ],
            [
              0.037934865802526474,
              -0.044438436627388,
              -0.03423408791422844
            ],
            [
              -0.03145739063620567,
              -0.006989053450524807,
              0.002320674480870366
            ],
            [
              0.02277185767889023,
              0.003734647063538432,
              -0.03723454102873802
            ],
            [
              0.0021977685391902924,
              0.0013067082036286592,
              0.0008342030923813581
            ],
            [
              0.05416898801922798,
              0.005582395475357771,
              -0.03166374936699867
            ],
            [
              -0.01679813303053379,
              -0.02101321890950203,
              -0.011229054071009159
            ],
            [
              0.029723383486270905,
              0.05916016921401024,
              -0.03153834864497185
            ],
            [
              -0.027196543291211128,
              0.03450871258974075,
              -0.048031583428382874
            ],
            [
              0.03301611542701721,
              0.005975980311632156,
              -0.05006764456629753
            ],
            [
              -0.018241792917251587,
              -0.08012235164642334,
              -0.06278741359710693
            ],
            [
              -0.05120334401726723,
              0.00474089290946722,
              -0.041159048676490784
            ],
            [
              0.018784327432513237,
              0.018442079424858093,
              -0.03492586687207222
            ]
          ],
          [
            [
              -0.06472474336624146,
              -0.03802791237831116,
              0.049556635320186615
            ],
            [
              -0.05320766568183899,
              -0.07120479643344879,
              -0.04535318911075592
            ],
            [
              -0.0007269220659509301,
              0.06581239402294159,
              0.02545515075325966
            ],
            [
              -0.0028711871709674597,
              0.061881501227617264,
              -0.050905466079711914
            ],
            [
              0.031692780554294586,
              -0.044164594262838364,
              -0.05040161684155464
            ],
            [
              -0.023347007110714912,
              -0.001969020813703537,
              -0.011622424237430096
            ],
            [
              0.012976226396858692,
              0.029836192727088928,
              0.026518477126955986
            ],
            [
              0.0446038618683815,
              -0.006111806258559227,
              -0.013212538324296474
            ],
            [
              0.01693663001060486,
              -0.04858929291367531,
              -0.0023919730447232723
            ],
            [
              -0.02089485339820385,
              -0.031573615968227386,
              0.05777198448777199
            ],
            [
              0.02898736670613289,
              -0.014954425394535065,
              0.03704717755317688
            ],
            [
              0.040181342512369156,
              0.027082353830337524,
              -0.01526480820029974
            ],
            [
              0.09315463155508041,
              0.060658808797597885,
              0.036449939012527466
            ],
            [
              -0.03648829832673073,
              -0.07146947830915451,
              -0.03054695762693882
            ],
            [
              -0.07358112931251526,
              -0.04434962198138237,
              0.005626975558698177
            ],
            [
              0.007025588303804398,
              0.03673292323946953,
              -0.031352102756500244
            ],
            [
              0.01727079041302204,
              0.048265956342220306,
              0.025010179728269577
            ],
            [
              -0.02849872224032879,
              -0.016893576830625534,
              0.018323112279176712
            ],
            [
              -0.012934566475450993,
              0.07245227694511414,
              0.023770077154040337
            ],
            [
              0.0384734608232975,
              -0.012249498628079891,
              -0.06573688238859177
            ],
            [
              0.0062242187559604645,
              -0.058432046324014664,
              -0.04553365707397461
            ],
            [
              0.08120439201593399,
              0.011114934459328651,
              -0.04394780844449997
            ],
            [
              -0.060210470110177994,
              -0.02227625623345375,
              0.00997852347791195
            ],
            [
              0.004896302241832018,
              -0.01821213774383068,
              0.05592053383588791
            ],
            [
              -0.03883548453450203,
              -0.06482849270105362,
              -0.04055771976709366
            ],
            [
              0.002515860367566347,
              0.0009872298687696457,
              -0.018352793529629707
            ],
            [
              0.020844928920269012,
              -0.015447162091732025,
              0.020333752036094666
            ],
            [
              -0.03740794211626053,
              0.060627281665802,
              -0.001268825144506991
            ],
            [
              0.0685896947979927,
              -0.009643658995628357,
              0.04709664359688759
            ],
            [
              0.07909858971834183,
              0.08896127343177795,
              0.002871087286621332
            ],
            [
              -0.06791219860315323,
              -0.06965625286102295,
              -0.037765469402074814
            ],
            [
              -0.0337059423327446,
              -0.051533494144678116,
              0.011959213763475418
            ],
            [
              0.04345187917351723,
              -0.018220195546746254,
              0.019061416387557983
            ],
            [
              0.02465360052883625,
              -0.012184328399598598,
              0.005404103081673384
            ],
            [
              0.035864975303411484,
              0.009869941510260105,
              0.028168058022856712
            ],
            [
              0.016008783131837845,
              -0.056939203292131424,
              -0.05000818893313408
            ],
            [
              0.00476167444139719,
              -0.06271027773618698,
              0.049208011478185654
            ],
            [
              0.00016309139027725905,
              0.018646569922566414,
              -0.03543077036738396
            ],
            [
              0.06644736230373383,
              0.018561413511633873,
              0.009317887015640736
            ],
            [
              0.0012545286444947124,
              0.00296305981464684,
              0.0030809729360044003
            ],
            [
              -0.02902253158390522,
              -0.026735499501228333,
              0.03437276929616928
            ],
            [
              -0.009400896728038788,
              -0.0325918048620224,
              0.026069359853863716
            ],
            [
              0.06830856949090958,
              0.01467870082706213,
              0.0021190319675952196
            ],
            [
              -0.025063209235668182,
              -0.01868385449051857,
              0.011302907951176167
            ],
            [
              0.0043578678742051125,
              0.049556829035282135,
              -0.031183619052171707
            ],
            [
              -0.05735362321138382,
              0.02470136433839798,
              0.053088780492544174
            ],
            [
              -0.032418765127658844,
              -0.01738404668867588,
              0.006495526526123285
            ],
            [
              0.03295723348855972,
              0.012817323207855225,
              -0.029846029356122017
            ]
          ],
          [
            [
              -0.03895605355501175,
              0.0202923696488142,
              -0.005414542742073536
            ],
            [
              0.022968171164393425,
              -0.03234753757715225,
              -0.04725201055407524
            ],
            [
              0.04133181646466255,
              -0.029398245736956596,
              0.07723989337682724
            ],
            [
              -0.04425107315182686,
              -0.009986701421439648,
              0.022955017164349556
            ],
            [
              -0.05099482461810112,
              -0.061510827392339706,
              0.0005621234304271638
            ],
            [
              -0.0003402603615541011,
              -0.047101568430662155,
              -0.04934760928153992
            ],
            [
              0.025189926847815514,
              0.053257428109645844,
              0.04630575701594353
            ],
            [
              0.031487613916397095,
              -0.08159208297729492,
              0.024310775101184845
            ],
            [
              0.0528753288090229,
              -0.0745941698551178,
              0.0306857917457819
            ],
            [
              -0.04466909542679787,
              -0.042870745062828064,
              -0.04541264474391937
            ],
            [
              -0.03240174800157547,
              0.05187002196907997,
              0.03426487371325493
            ],
            [
              0.04942947253584862,
              0.08698508888483047,
              0.0033769789151847363
            ],
            [
              0.035390883684158325,
              0.055636029690504074,
              -0.025159263983368874
            ],
            [
              0.050095826387405396,
              0.006939433980733156,
              -0.07869906723499298
            ],
            [
              -0.05242408439517021,
              -0.03547326847910881,
              -0.06326186656951904
            ],
            [
              -0.04812184348702431,
              0.02831617370247841,
              0.013248922303318977
            ],
            [
              -0.04561598598957062,
              0.034812502562999725,
              -0.0203875545412302
            ],
            [
              -0.05870021879673004,
              0.07457717508077621,
              -0.014991680160164833
            ],
            [
              0.06092242896556854,
              0.07074412703514099,
              -0.027701614424586296
            ],
            [
              -0.04390450939536095,
              -0.06051022559404373,
              0.04610258713364601
            ],
            [
              -0.041532158851623535,
              -0.007093188352882862,
              -0.06347883492708206
            ],
            [
              -0.0240864809602499,
              0.07275302708148956,
              -0.02592628262937069
            ],
            [
              0.03824953734874725,
              -0.003598760114982724,
              -0.09432333707809448
            ],
            [
              0.06687429547309875,
              0.08259762078523636,
              -0.05083727836608887
            ],
            [
              -0.012301011011004448,
              0.05254213511943817,
              -0.0097115533426404
            ],
            [
              0.005801288411021233,
              -0.06403692066669464,
              0.054427772760391235
            ],
            [
              -0.011832952499389648,
              0.01627892628312111,
              0.017373155802488327
            ],
            [
              0.03181357681751251,
              -0.04838180914521217,
              0.014430111274123192
            ],
            [
              -0.05779678374528885,
              -0.03952738642692566,
              0.0587645061314106
            ],
            [
              0.03641669079661369,
              0.07149110734462738,
              0.04888123646378517
            ],
            [
              -0.04416642710566521,
              -0.054032180458307266,
              0.0387120246887207
            ],
            [
              -0.016787700355052948,
              -0.04010572284460068,
              -0.08611587435007095
            ],
            [
              0.0016053180443122983,
              0.01224692165851593,
              0.0399385429918766
            ],
            [
              0.00836525671184063,
              0.06648921221494675,
              0.07672074437141418
            ],
            [
              -0.05150705948472023,
              0.038979001343250275,
              -0.050563447177410126
            ],
            [
              0.028660088777542114,
              -0.08002927899360657,
              -0.008900967426598072
            ],
            [
              -0.012423946522176266,
              -0.07702329754829407,
              -0.0695897713303566
            ],
            [
              -0.07088607549667358,
              0.06096292659640312,
              0.01237800158560276
            ],
            [
              0.07436243444681168,
              0.09923557937145233,
              0.02685670368373394
            ],
            [
              -0.022970791906118393,
              -0.0019186316058039665,
              0.019246693700551987
            ],
            [
              0.041049979627132416,
              0.030871300026774406,
              -0.019268320873379707
            ],
            [
              -0.06289597600698471,
              0.012072642333805561,
              -0.05338386073708534
            ],
            [
              0.030082261189818382,
              0.026792997494339943,
              0.028408365324139595
            ],
            [
              0.014391377568244934,
              0.023559119552373886,
              0.007421106565743685
            ],
            [
              -0.04364442825317383,
              0.027816303074359894,
              0.0384824201464653
            ],
            [
              -0.02503800205886364,
              -0.04134908691048622,
              -0.07749904692173004
            ],
            [
              0.022282667458057404,
              -0.07127829641103745,
              -0.06818101555109024
            ],
            [
              0.0014789786655455828,
              0.11352359503507614,
              0.029991794377565384
            ]
          ],
          [
            [
              0.099481962621212,
              0.05604720488190651,
              0.08736029267311096
            ],
            [
              -0.019504377618432045,
              0.022004209458827972,
              0.003942825365811586
            ],
            [
              0.07971043139696121,
              0.05413595587015152,
              0.06657052040100098
            ],
            [
              0.01743932068347931,
              0.03595615550875664,
              -0.012172725982964039
            ],
            [
              0.07023102790117264,
              -0.043379321694374084,
              0.05439547449350357
            ],
            [
              -0.014053568243980408,
              -0.014494936913251877,
              0.040311090648174286
            ],
            [
              -0.08529932796955109,
              -0.05802520364522934,
              -0.06555254757404327
            ],
            [
              -0.0005033713532611728,
              -0.015582729130983353,
              -0.020100843161344528
            ],
            [
              0.06199859082698822,
              0.01184563897550106,
              0.049018263816833496
            ],
            [
              -0.060447659343481064,
              -0.10204996913671494,
              0.008037017658352852
            ],
            [
              -0.0040986668318510056,
              -0.019379878416657448,
              -0.058925896883010864
            ],
            [
              -0.0806177482008934,
              -0.03723422810435295,
              -0.050236135721206665
            ],
            [
              0.0404808409512043,
              -0.0796365812420845,
              -0.05915867164731026
            ],
            [
              -0.03560960665345192,
              0.04553717374801636,
              -0.01737687550485134
            ],
            [
              0.021942567080259323,
              0.07513408362865448,
              0.07415231317281723
            ],
            [
              -0.04607153311371803,
              -0.06155811995267868,
              0.03994341939687729
            ],
            [
              -0.07873736321926117,
              -0.008217832073569298,
              0.056070681661367416
            ],
            [
              -0.02604854665696621,
              0.009243990294635296,
              -0.05206472799181938
            ],
            [
              0.008775992318987846,
              -0.04056244716048241,
              0.02469954825937748
            ],
            [
              -0.04370651766657829,
              0.06529369205236435,
              -0.058717548847198486
            ],
            [
              0.02411128394305706,
              0.019399238750338554,
              0.04251205176115036
            ],
            [
              -0.01886649802327156,
              -0.04809322580695152,
              -0.09180377423763275
            ],
            [
              -0.006165534257888794,
              0.04875742271542549,
              0.05647676810622215
            ],
            [
              -0.011991454288363457,
              -0.03416915610432625,
              0.006178760901093483
            ],
            [
              0.08027869462966919,
              0.05053124949336052,
              0.07355409115552902
            ],
            [
              -0.02379368618130684,
              0.08026294410228729,
              0.011413725093007088
            ],
            [
              0.043442029505968094,
              -0.021500330418348312,
              -0.004871014971286058
            ],
            [
              0.0765095055103302,
              -0.02450750395655632,
              0.06386412680149078
            ],
            [
              0.03855208680033684,
              -0.030822036787867546,
              -0.0418660007417202
            ],
            [
              -0.09107622504234314,
              -0.025686658918857574,
              -0.05502767860889435
            ],
            [
              0.07492317259311676,
              0.04889190196990967,
              -0.0073707434348762035
            ],
            [
              0.06800883263349533,
              0.07635107636451721,
              -0.040235742926597595
            ],
            [
              0.01777428761124611,
              0.013369480147957802,
              -0.025994107127189636
            ],
            [
              0.010922028683125973,
              -0.057468973100185394,
              -0.020319607108831406
            ],
            [
              0.037019748240709305,
              -0.0007107685087248683,
              -0.016476431861519814
            ],
            [
              -0.019808806478977203,
              -0.033721644431352615,
              0.06956963986158371
            ],
            [
              -0.0805644616484642,
              0.038484565913677216,
              -0.04422062635421753
            ],
            [
              0.022781239822506905,
              -0.00868302397429943,
              -0.026454709470272064
            ],
            [
              0.014362894929945469,
              -0.07498640567064285,
              -0.07383476942777634
            ],
            [
              0.009710392914712429,
              0.012442984618246555,
              0.017523273825645447
            ],
            [
              0.06096610799431801,
              -0.04746941104531288,
              -0.05740987882018089
            ],
            [
              0.037593912333250046,
              0.05309648811817169,
              0.0005817485507577658
            ],
            [
              -0.049496978521347046,
              0.031225649639964104,
              -0.05198366194963455
            ],
            [
              0.030761051923036575,
              0.010503552854061127,
              0.024092428386211395
            ],
            [
              -0.024233708158135414,
              0.06836719065904617,
              -0.007727663964033127
            ],
            [
              -0.030121484771370888,
              0.06834138929843903,
              0.07823825627565384
            ],
            [
              0.044047627598047256,
              0.06127041578292847,
              -0.0312587171792984
            ],
            [
              -0.008246609941124916,
              -0.09207627922296524,
              -0.015934724360704422
            ]
          ],
          [
            [
              0.10027310252189636,
              0.005427550990134478,
              0.009652719832956791
            ],
            [
              0.0023080850951373577,
              0.05084729194641113,
              0.01802443526685238
            ],
            [
              -0.023250270634889603,
              -0.05243249237537384,
              0.03183673322200775
            ],
            [
              0.01240963488817215,
              0.04376447945833206,
              -0.044401150196790695
            ],
            [
              -0.014389813877642155,
              -0.021114010363817215,
              0.002205024939030409
            ],
            [
              -0.02153613232076168,
              0.006033266428858042,
              -0.014416374266147614
            ],
            [
              -0.06775862723588943,
              0.007784332614392042,
              0.020717214792966843
            ],
            [
              -0.007869111374020576,
              -0.014661258086562157,
              -0.053904756903648376
            ],
            [
              0.020744791254401207,
              0.05207177996635437,
              0.020812449976801872
            ],
            [
              -0.051988277584314346,
              -0.08275409787893295,
              -0.03629643842577934
            ],
            [
              0.047173090279102325,
              0.02701542153954506,
              -0.0070486548356711864
            ],
            [
              0.0020547197200357914,
              0.014847041107714176,
              -0.06110278517007828
            ],
            [
              0.03627157583832741,
              -0.07032928615808487,
              -0.06584784388542175
            ],
            [
              -0.0706179216504097,
              0.013382773846387863,
              0.055357202887535095
            ],
            [
              0.0046062166802585125,
              0.024557866156101227,
              -0.01032264344394207
            ],
            [
              -0.013880428858101368,
              -0.014855512417852879,
              -0.015702946111559868
            ],
            [
              -0.03072955831885338,
              0.055442046374082565,
              0.04427795112133026
            ],
            [
              0.015886539593338966,
              0.05352112650871277,
              0.010249746032059193
            ],
            [
              -0.049352336674928665,
              -0.07917579263448715,
              0.029975004494190216
            ],
            [
              0.01442969311028719,
              -0.02185438573360443,
              -0.047687631100416183
            ],
            [
              0.016744820401072502,
              0.04447922110557556,
              0.03782879561185837
            ],
            [
              -0.05111977085471153,
              0.034098200500011444,
              0.027803370729088783
            ],
            [
              -0.010430539958178997,
              0.04122036695480347,
              -0.007647390943020582
            ],
            [
              0.014832522720098495,
              -0.03453206643462181,
              -0.0182956475764513
            ],
            [
              -0.046122338622808456,
              0.08451060950756073,
              0.02435866929590702
            ],
            [
              0.018526367843151093,
              -0.01725807785987854,
              0.03994125872850418
            ],
            [
              -0.004119785502552986,
              0.025354016572237015,
              0.011607625521719456
            ],
            [
              0.04173298552632332,
              -0.0573333278298378,
              0.0209047831594944
            ],
            [
              -0.051416005939245224,
              0.002200369955971837,
              0.02121754363179207
            ],
            [
              -0.06619597226381302,
              0.03181516379117966,
              0.012083343230187893
            ],
            [
              -0.006014461629092693,
              -0.01692182943224907,
              -0.021304495632648468
            ],
            [
              0.04349983483552933,
              0.0333281084895134,
              0.037983305752277374
            ],
            [
              -0.04805248603224754,
              -0.023082617670297623,
              0.0026831082068383694
            ],
            [
              0.0322285071015358,
              0.08016341179609299,
              -0.0274619460105896
            ],
            [
              -0.023814739659428596,
              -0.05588878318667412,
              -0.06658829003572464
            ],
            [
              0.02593001164495945,
              0.05963673070073128,
              -0.036100856959819794
            ],
            [
              -0.05524309724569321,
              0.05586310848593712,
              -0.03661221265792847
            ],
            [
              0.0733463391661644,
              -0.015651198104023933,
              -0.03527785465121269
            ],
            [
              -0.008277212269604206,
              -0.05960001051425934,
              0.04494257643818855
            ],
            [
              0.006460164673626423,
              0.0007298150449059904,
              0.006066374480724335
            ],
            [
              -0.011236178688704967,
              -0.007777216378599405,
              0.029133956879377365
            ],
            [
              -0.025489473715424538,
              0.03061549924314022,
              -0.015268305316567421
            ],
            [
              -0.005855728406459093,
              0.03700891509652138,
              -0.07862205058336258
            ],
            [
              -0.02776304818689823,
              0.08155656605958939,
              0.037089280784130096
            ],
            [
              -0.003729801159352064,
              0.0176283810287714,
              -0.02156398445367813
            ],
            [
              0.08768371492624283,
              0.025836527347564697,
              -0.019076764583587646
            ],
            [
              -0.014162732288241386,
              0.003935157787054777,
              -0.030532220378518105
            ],
            [
              -0.06390613317489624,
              0.0038651979994028807,
              0.02733515202999115
            ]
          ],
          [
            [
              -0.026568638160824776,
              0.003983055707067251,
              -0.027408001944422722
            ],
            [
              0.026181790977716446,
              -0.04784049466252327,
              -0.01004095934331417
            ],
            [
              0.03704703599214554,
              0.016586100682616234,
              0.06799296289682388
            ],
            [
              -0.05326449126005173,
              -0.01956559158861637,
              -0.07585693150758743
            ],
            [
              0.0011443437542766333,
              0.05020871385931969,
              0.008314073085784912
            ],
            [
              -0.00025199714582413435,
              0.0015422669239342213,
              0.013020641170442104
            ],
            [
              0.011841676197946072,
              0.0026244986802339554,
              -0.0049429479986429214
            ],
            [
              0.0006513926782645285,
              0.06213373690843582,
              -0.011342868208885193
            ],
            [
              0.041106320917606354,
              -0.02993858978152275,
              0.019502626731991768
            ],
            [
              0.0225591491907835,
              0.01863424852490425,
              -0.06127927079796791
            ],
            [
              -0.0298101045191288,
              -0.03971176594495773,
              0.04746805503964424
            ],
            [
              -0.023511996492743492,
              0.05076776072382927,
              0.047544460743665695
            ],
            [
              -0.05492395907640457,
              -0.03807801753282547,
              0.0452328585088253
            ],
            [
              -0.020164579153060913,
              -0.030835352838039398,
              0.02469130977988243
            ],
            [
              -0.02400818094611168,
              -0.01917690970003605,
              -0.008854231797158718
            ],
            [
              0.025023631751537323,
              0.03512080758810043,
              -0.020664937794208527
            ],
            [
              0.04320826008915901,
              -0.03157578408718109,
              0.023493599146604538
            ],
            [
              -0.05282821133732796,
              0.0023900438100099564,
              -0.04153643548488617
            ],
            [
              0.027034197002649307,
              -0.027830038219690323,
              -0.025174260139465332
            ],
            [
              0.05916599556803703,
              0.04360286891460419,
              0.04964793100953102
            ],
            [
              -0.03238058090209961,
              0.009934969246387482,
              -0.06601041555404663
            ],
            [
              0.05589277669787407,
              0.06653657555580139,
              0.07581987231969833
            ],
            [
              0.03244302421808243,
              0.023471886292099953,
              -0.0050915139727294445
            ],
            [
              0.025360656902194023,
              0.05663720518350601,
              -0.06495721638202667
            ],
            [
              0.07549303025007248,
              0.014000621624290943,
              0.07957686483860016
            ],
            [
              0.016200538724660873,
              -0.01901760697364807,
              -0.051221199333667755
            ],
            [
              0.022168761119246483,
              0.006786853540688753,
              0.024164829403162003
            ],
            [
              -0.021458066999912262,
              0.0468825101852417,
              -0.045859843492507935
            ],
            [
              -0.05268442630767822,
              0.03021296299993992,
              3.857271804008633e-05
            ],
            [
              0.009601891040802002,
              0.07467792183160782,
              0.03834221139550209
            ],
            [
              -0.046909064054489136,
              0.00646088644862175,
              -0.013203226029872894
            ],
            [
              -0.027136309072375298,
              0.012880981899797916,
              -0.025845540687441826
            ],
            [
              0.030788227915763855,
              0.013314779847860336,
              0.060402918606996536
            ],
            [
              -0.022789331153035164,
              -0.05975208058953285,
              0.025737354531884193
            ],
            [
              -0.017531005665659904,
              -0.038806844502687454,
              -0.00947188027203083
            ],
            [
              -0.019895900040864944,
              0.0035631367936730385,
              -0.00558175565674901
            ],
            [
              -0.07848458737134933,
              -0.07739383727312088,
              -0.012840023264288902
            ],
            [
              -0.03375212475657463,
              -0.05577477440237999,
              -0.019022883847355843
            ],
            [
              0.018932050094008446,
              0.024467607960104942,
              0.042248036712408066
            ],
            [
              0.006379221100360155,
              -0.006793480832129717,
              0.005587374791502953
            ],
            [
              0.02662545070052147,
              -0.03302520141005516,
              0.04469960927963257
            ],
            [
              -0.005952258128672838,
              -0.03460437059402466,
              -0.02148475870490074
            ],
            [
              0.05240047723054886,
              -0.05755758285522461,
              -0.05897512659430504
            ],
            [
              0.007778887636959553,
              0.0402337983250618,
              0.07774555683135986
            ],
            [
              -0.008718831464648247,
              0.0671611875295639,
              -0.039817921817302704
            ],
            [
              -0.008898915722966194,
              -0.034800585359334946,
              -0.036394152790308
            ],
            [
              0.036091696470975876,
              0.03418099135160446,
              -0.05185079947113991
            ],
            [
              0.005412977188825607,
              -0.001204618252813816,
              0.019411493092775345
            ]
          ],
          [
            [
              0.046706344932317734,
              -0.08951330929994583,
              0.0007856176234781742
            ],
            [
              -0.01902611367404461,
              0.0440833754837513,
              -0.00639849528670311
            ],
            [
              -0.08694402128458023,
              0.022677510976791382,
              -0.053923942148685455
            ],
            [
              0.054480213671922684,
              -0.0017453300533816218,
              0.06210341677069664
            ],
            [
              -0.06156676262617111,
              0.06055338680744171,
              -0.0188660379499197
            ],
            [
              -0.05320325493812561,
              0.032533202320337296,
              -0.008929845876991749
            ],
            [
              0.00204130494967103,
              0.024712087586522102,
              0.0908970758318901
            ],
            [
              0.022064046934247017,
              0.012592463754117489,
              -0.059535276144742966
            ],
            [
              0.017809147015213966,
              -0.005821717903017998,
              -0.04742448031902313
            ],
            [
              -0.02904001623392105,
              0.029232412576675415,
              -0.005606955848634243
            ],
            [
              0.05762117728590965,
              0.05653300881385803,
              -0.05098505690693855
            ],
            [
              0.030496645718812943,
              -0.010924668051302433,
              0.08948835730552673
            ],
            [
              -0.03618039935827255,
              0.010353678837418556,
              0.0851050466299057
            ],
            [
              0.001304891426116228,
              -0.057341318577528,
              0.010845483280718327
            ],
            [
              -0.0692262202501297,
              -0.07851153612136841,
              -0.009380821138620377
            ],
            [
              -0.06332362443208694,
              -0.041366953402757645,
              -0.0012328090379014611
            ],
            [
              0.0402420349419117,
              0.03505847230553627,
              0.045278601348400116
            ],
            [
              0.0048888977617025375,
              0.008647475391626358,
              0.07137855142354965
            ],
            [
              0.05155647546052933,
              0.03362598270177841,
              0.04620356112718582
            ],
            [
              0.0712185874581337,
              0.07349870353937149,
              0.07823538780212402
            ],
            [
              -0.027509499341249466,
              0.04338129982352257,
              -0.06211736053228378
            ],
            [
              0.058159179985523224,
              -0.04915689304471016,
              0.0552598312497139
            ],
            [
              -0.036255721002817154,
              -0.03163853660225868,
              -0.06242857128381729
            ],
            [
              0.02668914943933487,
              -0.05186764895915985,
              -0.03747042268514633
            ],
            [
              -0.07363873720169067,
              0.03828359767794609,
              -0.03139436990022659
            ],
            [
              -0.0008240099996328354,
              -0.023968562483787537,
              0.03563806787133217
            ],
            [
              -0.06441009789705276,
              -0.05119626596570015,
              0.007613666355609894
            ],
            [
              0.04915669187903404,
              -0.008914620615541935,
              -0.04607904702425003
            ],
            [
              -0.06175156682729721,
              0.009810823947191238,
              0.055608171969652176
            ],
            [
              0.08385635912418365,
              0.004680974874645472,
              0.05458366870880127
            ],
            [
              -0.03717219457030296,
              -0.0694298967719078,
              -0.08169972151517868
            ],
            [
              -0.03104972280561924,
              0.01708780974149704,
              0.00045014856732450426
            ],
            [
              -0.023664290085434914,
              0.0004931024741381407,
              -0.003302927128970623
            ],
            [
              0.06949137151241302,
              -0.04122522845864296,
              -0.04897093027830124
            ],
            [
              -0.0513739176094532,
              0.09349598735570908,
              -0.06273522973060608
            ],
            [
              -0.032963480800390244,
              0.02608216367661953,
              -0.05416560173034668
            ],
            [
              -0.03600351884961128,
              0.025697022676467896,
              -0.04180711880326271
            ],
            [
              0.02531200461089611,
              -0.007823193445801735,
              -0.05102976784110069
            ],
            [
              -0.05399545654654503,
              -0.0413360558450222,
              -0.015589342452585697
            ],
            [
              -0.011438087560236454,
              -0.004077012650668621,
              -0.027496179565787315
            ],
            [
              -0.006290438584983349,
              0.04089685156941414,
              0.035911694169044495
            ],
            [
              0.002326072659343481,
              0.020672395825386047,
              0.021373627707362175
            ],
            [
              -0.006547404453158379,
              0.05792141333222389,
              0.07121692597866058
            ],
            [
              -0.028194278478622437,
              0.049979545176029205,
              -0.03481447324156761
            ],
            [
              0.009869382716715336,
              -0.06316506862640381,
              -0.06273987889289856
            ],
            [
              -0.09200261533260345,
              -0.06041589006781578,
              -0.00026028178399428725
            ],
            [
              0.05513736605644226,
              0.02457532100379467,
              -0.036957748234272
            ],
            [
              0.013717174530029297,
              0.01834816113114357,
              0.04590954631567001
            ]
          ],
          [
            [
              -0.06800084561109543,
              -0.020637869834899902,
              -0.004130116663873196
            ],
            [
              -0.05908835679292679,
              -0.03905891254544258,
              -0.05206155776977539
            ],
            [
              0.0514398068189621,
              -0.05242590978741646,
              -0.03616586700081825
            ],
            [
              9.996306471293792e-05,
              -0.030944718047976494,
              -0.06201881542801857
            ],
            [
              0.017822392284870148,
              -0.060297660529613495,
              0.07103420048952103
            ],
            [
              -0.05114607885479927,
              0.044771209359169006,
              -0.0576169416308403
            ],
            [
              0.0049650054425001144,
              -0.007655634079128504,
              0.04360451549291611
            ],
            [
              -0.012250973843038082,
              0.04791586473584175,
              -0.03829537332057953
            ],
            [
              -0.05066318437457085,
              -0.04996773600578308,
              -0.04608023911714554
            ],
            [
              0.02233598195016384,
              0.09451129287481308,
              0.0264658872038126
            ],
            [
              -0.018879743292927742,
              0.03656710311770439,
              0.07347707450389862
            ],
            [
              0.06290768831968307,
              0.023442288860678673,
              0.060165200382471085
            ],
            [
              0.07346286624670029,
              0.009309967048466206,
              0.015766169875860214
            ],
            [
              0.07493410259485245,
              0.050194937735795975,
              -0.058998528867959976
            ],
            [
              -0.03982258960604668,
              -0.09063918143510818,
              -0.05787183716893196
            ],
            [
              0.06566468626260757,
              -0.026744475588202477,
              -3.5115881473757327e-05
            ],
            [
              0.033258985728025436,
              0.031398069113492966,
              0.010572577826678753
            ],
            [
              0.06148825213313103,
              0.06830764561891556,
              -0.014334313571453094
            ],
            [
              0.08894983679056168,
              0.07001485675573349,
              0.077348992228508
            ],
            [
              -0.009400328621268272,
              0.002956701209768653,
              0.06174255907535553
            ],
            [
              0.06003192439675331,
              -0.06008771434426308,
              0.005402663256973028
            ],
            [
              -0.04598543047904968,
              -0.03978102654218674,
              -0.06786289066076279
            ],
            [
              -0.07839862257242203,
              -0.059830717742443085,
              0.05832963064312935
            ],
            [
              -0.01041469443589449,
              0.0001333729742327705,
              -0.050523437559604645
            ],
            [
              0.011007255874574184,
              0.0743262767791748,
              -0.005182359367609024
            ],
            [
              0.0550989992916584,
              0.03165264055132866,
              -0.0674586296081543
            ],
            [
              -0.06234423443675041,
              -0.003910357132554054,
              -0.0034727668389678
            ],
            [
              -0.027031922712922096,
              -0.06543612480163574,
              0.02081211842596531
            ],
            [
              0.01706244982779026,
              0.0699668899178505,
              0.07241149246692657
            ],
            [
              -0.002140739932656288,
              0.003974243998527527,
              -0.028080279007554054
            ],
            [
              0.05456748604774475,
              -0.03185444697737694,
              -0.03918655961751938
            ],
            [
              -0.042263127863407135,
              -0.03866593912243843,
              -0.009554953314363956
            ],
            [
              -0.01895175501704216,
              -0.030678456649184227,
              0.06854987889528275
            ],
            [
              -0.061168767511844635,
              -0.005447749514132738,
              0.06163278594613075
            ],
            [
              -0.024876486510038376,
              -0.06777626276016235,
              0.008191846311092377
            ],
            [
              0.05877812206745148,
              -0.08552032709121704,
              -0.034680526703596115
            ],
            [
              0.022856319323182106,
              -0.05298491194844246,
              -0.032456230372190475
            ],
            [
              0.04244197905063629,
              0.05508027970790863,
              0.0220553707331419
            ],
            [
              0.0452454648911953,
              0.054687563329935074,
              0.06591371446847916
            ],
            [
              -0.02664569951593876,
              -0.016701916232705116,
              -0.022199563682079315
            ],
            [
              -0.054249346256256104,
              0.013624919578433037,
              -0.07520236074924469
            ],
            [
              -0.07086682319641113,
              -0.03186623007059097,
              -0.047546226531267166
            ],
            [
              -0.024040378630161285,
              0.044405609369277954,
              0.0006811043131165206
            ],
            [
              -0.04136236757040024,
              -0.05997355282306671,
              -0.04997566342353821
            ],
            [
              -0.0658036395907402,
              0.011697441339492798,
              0.051530927419662476
            ],
            [
              -0.06120757386088371,
              -0.07540463656187057,
              0.05546100065112114
            ],
            [
              -0.05765106528997421,
              -0.06165504455566406,
              -0.06252771615982056
            ],
            [
              0.08174657821655273,
              0.05852293595671654,
              0.013871158473193645
            ]
          ],
          [
            [
              0.04539186507463455,
              0.00621457165107131,
              0.010095390491187572
            ],
            [
              0.05843080207705498,
              -0.09461202472448349,
              -0.06495412439107895
            ],
            [
              0.04036667197942734,
              -0.05116390064358711,
              -0.07296128571033478
            ],
            [
              0.00012758970842696726,
              0.028602860867977142,
              0.07099633663892746
            ],
            [
              -0.02325151301920414,
              -0.08529432117938995,
              0.04833931848406792
            ],
            [
              -0.03435428813099861,
              -0.0026836800388991833,
              -0.016997897997498512
            ],
            [
              0.034011609852313995,
              0.012644518166780472,
              0.08469633758068085
            ],
            [
              0.04202688857913017,
              0.0568685345351696,
              -0.045350149273872375
            ],
            [
              0.03371672332286835,
              -0.044203706085681915,
              -0.05763813853263855
            ],
            [
              -0.05826909467577934,
              0.059324078261852264,
              0.015612990595400333
            ],
            [
              0.04562327265739441,
              -0.049272872507572174,
              0.08046216517686844
            ],
            [
              0.018426313996315002,
              -0.03670930862426758,
              0.0983622744679451
            ],
            [
              -0.03550850600004196,
              -0.03133852407336235,
              -0.03578605130314827
            ],
            [
              -0.03073473647236824,
              -0.06428087502717972,
              -0.015921134501695633
            ],
            [
              0.07010426372289658,
              0.02352265454828739,
              -0.05531497299671173
            ],
            [
              -0.006566146854311228,
              -0.05745590850710869,
              0.06819558143615723
            ],
            [
              0.06872935593128204,
              0.064878448843956,
              -0.02954290807247162
            ],
            [
              -0.053702764213085175,
              0.047248873859643936,
              0.040015511214733124
            ],
            [
              0.004155615344643593,
              -0.01982581987977028,
              0.05809934064745903
            ],
            [
              0.07097815722227097,
              -0.03843182325363159,
              0.023645874112844467
            ],
            [
              -0.012255821377038956,
              0.06292115151882172,
              0.06147632375359535
            ],
            [
              0.028832202777266502,
              0.07452291995286942,
              0.0049957213923335075
            ],
            [
              0.0021637894678860903,
              0.011371864005923271,
              0.013650596141815186
            ],
            [
              0.06850548833608627,
              0.0645458921790123,
              0.04366656392812729
            ],
            [
              -0.05979650095105171,
              -0.03801526129245758,
              -0.011753815226256847
            ],
            [
              -0.08578114211559296,
              -0.04221430420875549,
              0.014128118753433228
            ],
            [
              -0.012215952388942242,
              -0.011441277340054512,
              0.025727858766913414
            ],
            [
              -0.053058210760354996,
              0.01311291754245758,
              0.008756009861826897
            ],
            [
              -0.05789589509367943,
              0.035793107002973557,
              0.049423083662986755
            ],
            [
              -0.010625611059367657,
              -0.006095152348279953,
              0.08715212345123291
            ],
            [
              0.010020722635090351,
              0.008929327130317688,
              0.034857552498579025
            ],
            [
              0.013412999920547009,
              0.015481295064091682,
              -0.0037909988313913345
            ],
            [
              0.041178714483976364,
              -0.023517657071352005,
              0.08994310349225998
            ],
            [
              -0.04074555262923241,
              -0.011284081265330315,
              -0.08117853850126266
            ],
            [
              -0.020002324134111404,
              0.03285502642393112,
              0.04434483125805855
            ],
            [
              0.01169617660343647,
              0.025819536298513412,
              -0.04636034369468689
            ],
            [
              -0.0278776828199625,
              0.059963345527648926,
              -0.006603897549211979
            ],
            [
              -0.028071416541934013,
              0.04152701422572136,
              -0.0028298613615334034
            ],
            [
              -0.07450012862682343,
              -0.006639979314059019,
              0.09293774515390396
            ],
            [
              -0.026755327358841896,
              0.028354831039905548,
              -0.003539714030921459
            ],
            [
              0.040290772914886475,
              0.02939515747129917,
              -0.04992583766579628
            ],
            [
              -0.045007675886154175,
              -0.01602199859917164,
              -0.059279605746269226
            ],
            [
              -0.0630483329296112,
              0.017901219427585602,
              0.02361578308045864
            ],
            [
              -0.02920706383883953,
              -0.07380649447441101,
              0.02472880110144615
            ],
            [
              -0.04552380368113518,
              -0.0341038815677166,
              0.054126910865306854
            ],
            [
              0.06412007659673691,
              0.04185553640127182,
              -0.07938246428966522
            ],
            [
              -0.07158157229423523,
              -0.0002948505280073732,
              -0.051329486072063446
            ],
            [
              0.04654654115438461,
              0.025249633938074112,
              0.032851673662662506
            ]
          ],
          [
            [
              0.05371563136577606,
              0.05372849479317665,
              -0.03686704486608505
            ],
            [
              0.052655674517154694,
              -0.021454213187098503,
              -0.03891206905245781
            ],
            [
              0.005998874548822641,
              0.057994380593299866,
              0.06674519926309586
            ],
            [
              0.01966988295316696,
              0.0042737633921206,
              -0.029551632702350616
            ],
            [
              0.04839437082409859,
              0.04795217141509056,
              0.07319056987762451
            ],
            [
              -0.005593910347670317,
              -0.0014604738680645823,
              -0.005113111808896065
            ],
            [
              -0.0015656317118555307,
              -0.005167732480913401,
              0.003848410677164793
            ],
            [
              0.018729407340288162,
              0.006010745652019978,
              0.0507318452000618
            ],
            [
              0.017221642658114433,
              -0.0059791263192892075,
              -0.01779387891292572
            ],
            [
              -0.0751398354768753,
              -0.03631822019815445,
              0.03067384846508503
            ],
            [
              0.011272273026406765,
              0.040046025067567825,
              0.008235203102231026
            ],
            [
              0.007627792656421661,
              -0.03142261132597923,
              0.017839401960372925
            ],
            [
              0.023713329806923866,
              0.00446185190230608,
              -0.049455124884843826
            ],
            [
              -0.057698123157024384,
              -0.034756697714328766,
              0.0013634174829348922
            ],
            [
              -0.021650943905115128,
              0.013175149448215961,
              -0.024659065529704094
            ],
            [
              0.00725491251796484,
              0.017676472663879395,
              -0.010567654855549335
            ],
            [
              0.00891132652759552,
              0.017105184495449066,
              0.06703273206949234
            ],
            [
              -0.01171922218054533,
              -0.046220261603593826,
              0.048855334520339966
            ],
            [
              -0.04187370091676712,
              -0.04422270134091377,
              -0.03439698368310928
            ],
            [
              -0.04390645772218704,
              -0.0001307089114561677,
              -0.020492620766162872
            ],
            [
              0.027549983933568,
              -0.05231986939907074,
              -0.0552426278591156
            ],
            [
              0.032396432012319565,
              0.047469642013311386,
              0.03457222878932953
            ],
            [
              -0.0025790329091250896,
              0.03451523184776306,
              0.01608389988541603
            ],
            [
              -0.05093969777226448,
              0.0294241551309824,
              -0.05056830495595932
            ],
            [
              0.08226417005062103,
              -0.01316153910011053,
              0.015315315686166286
            ],
            [
              -0.003069169819355011,
              -0.001453850301913917,
              -0.049335870891809464
            ],
            [
              0.01287548802793026,
              -0.0008174399845302105,
              0.00967581570148468
            ],
            [
              -0.011269734241068363,
              0.000105190985777881,
              0.06510583311319351
            ],
            [
              0.0656718984246254,
              0.023850761353969574,
              -0.009185376577079296
            ],
            [
              -0.009298215620219707,
              -0.00677457032725215,
              0.022011393681168556
            ],
            [
              -0.01912912353873253,
              0.02634538523852825,
              -0.010761548765003681
            ],
            [
              -0.01115120854228735,
              0.020008649677038193,
              0.0031875111162662506
            ],
            [
              -0.02243189327418804,
              -0.021760132163763046,
              0.007089600898325443
            ],
            [
              0.069313645362854,
              0.02792520634829998,
              -0.02444193884730339
            ],
            [
              0.011662591248750687,
              -0.05068553611636162,
              -0.04639693349599838
            ],
            [
              -0.01310041919350624,
              -0.013577798381447792,
              -0.019149385392665863
            ],
            [
              -0.048379700630903244,
              -0.06915557384490967,
              0.021726064383983612
            ],
            [
              0.042943160980939865,
              -0.02344057895243168,
              0.031816255301237106
            ],
            [
              -0.008601582609117031,
              -0.013312486931681633,
              0.042594943195581436
            ],
            [
              -0.003907615318894386,
              -0.002189622027799487,
              0.00017575905076228082
            ],
            [
              -0.013195843435823917,
              0.03589100390672684,
              -0.053880248218774796
            ],
            [
              -0.007738023065030575,
              -0.004160682670772076,
              -0.01983177289366722
            ],
            [
              -0.02569553814828396,
              0.029022157192230225,
              0.0010096094338223338
            ],
            [
              0.02898435667157173,
              0.06419570744037628,
              0.07268491387367249
            ],
            [
              0.0170346237719059,
              0.021657902747392654,
              -0.03598972409963608
            ],
            [
              0.009640451520681381,
              0.0018655963940545917,
              0.04976905509829521
            ],
            [
              0.018608039245009422,
              -0.031380027532577515,
              -0.034308645874261856
            ],
            [
              0.02417115308344364,
              -0.008508846163749695,
              -0.000458687572972849
            ]
          ],
          [
            [
              -0.021639520302414894,
              0.08745667338371277,
              0.02653999626636505
            ],
            [
              0.011752833612263203,
              0.004515252076089382,
              -0.05475799739360809
            ],
            [
              0.07318535447120667,
              0.05817626044154167,
              0.02241799235343933
            ],
            [
              -0.07739183306694031,
              0.07790511846542358,
              0.011326043866574764
            ],
            [
              -0.06939969211816788,
              -0.083132803440094,
              -0.026372233405709267
            ],
            [
              0.07916104048490524,
              0.06320753693580627,
              0.0403272844851017
            ],
            [
              -0.008676674216985703,
              -0.0030094091780483723,
              -0.09592538326978683
            ],
            [
              0.017693573608994484,
              -0.01425361167639494,
              0.050703469663858414
            ],
            [
              -0.041339438408613205,
              0.01995222270488739,
              -0.0550445131957531
            ],
            [
              -0.017214203253388405,
              0.027859875932335854,
              0.00882631540298462
            ],
            [
              -0.07074294984340668,
              0.05322461575269699,
              -0.052837081253528595
            ],
            [
              -0.05019810423254967,
              -0.013077952899038792,
              -0.04385997727513313
            ],
            [
              -0.06628619879484177,
              0.041156284511089325,
              -0.07041768729686737
            ],
            [
              0.05612041428685188,
              0.030785849317908287,
              -0.07091701775789261
            ],
            [
              0.05402946472167969,
              0.10634845495223999,
              0.08133954554796219
            ],
            [
              -0.038739629089832306,
              -0.032005637884140015,
              -0.043954502791166306
            ],
            [
              -0.03135044872760773,
              0.013473160564899445,
              0.023008236661553383
            ],
            [
              -0.05097249895334244,
              0.05496203899383545,
              -0.0338299386203289
            ],
            [
              -0.0525873564183712,
              0.04473917931318283,
              0.014660719782114029
            ],
            [
              -0.07101181894540787,
              0.005487540736794472,
              0.03467487543821335
            ],
            [
              0.054098889231681824,
              0.01404550950974226,
              0.03413280099630356
            ],
            [
              -0.09674946963787079,
              -0.0015469171339645982,
              -0.06475463509559631
            ],
            [
              0.024492593482136726,
              -0.04917892441153526,
              0.005556327290832996
            ],
            [
              -0.016917841508984566,
              -0.037044402211904526,
              0.026617782190442085
            ],
            [
              -0.04298098012804985,
              0.069766104221344,
              0.021255360916256905
            ],
            [
              -0.0073608472011983395,
              -0.07280635088682175,
              -0.05194363743066788
            ],
            [
              0.021704718470573425,
              0.06726229935884476,
              0.03833817318081856
            ],
            [
              0.024146610870957375,
              -0.07716573774814606,
              -0.04381788522005081
            ],
            [
              -0.0905042365193367,
              -0.09056301414966583,
              -0.0566723570227623
            ],
            [
              -0.07791692763566971,
              0.019441328942775726,
              -0.09170549362897873
            ],
            [
              0.0022042503114789724,
              0.018398234620690346,
              0.056551989167928696
            ],
            [
              0.06944260001182556,
              -0.012531801126897335,
              -0.061336077749729156
            ],
            [
              -0.026975015178322792,
              -0.08249441534280777,
              -0.017738457769155502
            ],
            [
              -0.031444862484931946,
              0.05321477726101875,
              0.06794781237840652
            ],
            [
              -0.001543284161016345,
              0.061470795422792435,
              -0.07475735992193222
            ],
            [
              0.0676346942782402,
              0.07960882037878036,
              -0.002546580508351326
            ],
            [
