{
  "model_info": {
    "name": "realtime_6layer",
    "version": "1.0.0",
    "architecture": "WaveNet",
    "causal": true,
    "sample_rate": 44100,
    "receptive_field": 127,
    "latency_ms": 2.88
  },
  "architecture": {
    "channels": 16,
    "num_layers": 6,
    "kernel_size": 3,
    "dilation_base": 2,
    "dilations": [
      1,
      2,
      4,
      8,
      16,
      32
    ]
  },
  "weights": {
    "input_conv": {
      "weight": [
        -0.5991126298904419,
        0.8481051921844482,
        0.48310261964797974,
        -0.6540650129318237,
        1.2052518129348755,
        1.040216326713562,
        -1.2237281799316406,
        0.02738245762884617,
        -0.27741655707359314,
        -0.5801912546157837,
        1.0664516687393188,
        -0.7551825046539307,
        0.8144419193267822,
        -1.2824972867965698,
        0.6278459429740906,
        -0.7051035165786743
      ],
      "bias": [
        -0.8614773154258728,
        0.7883117198944092,
        0.3370901346206665,
        0.7874236702919006,
        -0.6945906281471252,
        -0.6144629120826721,
        0.6386623382568359,
        -0.049547553062438965,
        -0.7987897992134094,
        -0.25776416063308716,
        0.6426257491111755,
        0.8064967393875122,
        -0.8062561750411987,
        0.18595656752586365,
        0.7991110682487488,
        -0.6034346222877502
      ]
    },
    "residual_blocks": [
      {
        "layer": 0,
        "dilation": 1,
        "conv_weight": [
          [
            [
              0.04120023921132088,
              0.12041857093572617,
              0.057692959904670715
            ],
            [
              -0.016436098143458366,
              -0.1450687050819397,
              0.04410652816295624
            ],
            [
              0.07014625519514084,
              -0.06615008413791656,
              0.004483391065150499
            ],
            [
              -0.02999715507030487,
              -0.06620963662862778,
              0.08085589855909348
            ],
            [
              -0.22735993564128876,
              -0.16551117599010468,
              -0.021055111661553383
            ],
            [
              -0.22852875292301178,
              -0.08480075001716614,
              -0.11701848357915878
            ],
            [
              -0.007825504057109356,
              0.10969052463769913,
              0.02651030384004116
            ],
            [
              -0.023730579763650894,
              -0.012593970634043217,
              0.04082505404949188
            ],
            [
              -0.051313482224941254,
              -0.09758240729570389,
              0.09343457221984863
            ],
            [
              0.06281975656747818,
              -0.061374105513095856,
              -0.017576638609170914
            ],
            [
              -0.18981193006038666,
              -0.09342075139284134,
              0.0077752405777573586
            ],
            [
              0.0210060216486454,
              0.08925039321184158,
              0.12859857082366943
            ],
            [
              -0.17444965243339539,
              -0.18273015320301056,
              -0.16872631013393402
            ],
            [
              0.2971224784851074,
              0.21386565268039703,
              0.11733277142047882
            ],
            [
              0.05374282971024513,
              0.0056932223960757256,
              0.07277598232030869
            ],
            [
              0.137677401304245,
              0.05530209839344025,
              0.09372863918542862
            ]
          ],
          [
            [
              -0.05570909008383751,
              -0.0040325927548110485,
              0.05132804811000824
            ],
            [
              0.11936642974615097,
              -0.09296757727861404,
              -0.01368444599211216
            ],
            [
              0.0456581749022007,
              -0.01005021296441555,
              0.05639517679810524
            ],
            [
              0.052012909203767776,
              0.02749212644994259,
              0.03341839462518692
            ],
            [
              0.15154299139976501,
              0.18778464198112488,
              0.19483543932437897
            ],
            [
              0.11219757795333862,
              0.017388274893164635,
              0.006551983766257763
            ],
            [
              -0.06081530451774597,
              -0.08824484795331955,
              -0.1608770787715912
            ],
            [
              -0.012923236936330795,
              -0.012201349250972271,
              -0.022512011229991913
            ],
            [
              0.017512381076812744,
              0.09297975152730942,
              0.03685937449336052
            ],
            [
              -0.08015518635511398,
              -0.08108212053775787,
              0.07801743596792221
            ],
            [
              -0.035714708268642426,
              -0.06661923974752426,
              0.10215218365192413
            ],
            [
              -0.06338446587324142,
              0.05044327303767204,
              0.03636991232633591
            ],
            [
              0.13058540225028992,
              0.008780442178249359,
              0.03727421537041664
            ],
            [
              -0.26446476578712463,
              -0.23378078639507294,
              -0.21428881585597992
            ],
            [
              -0.02544388547539711,
              0.058903153985738754,
              -0.0001613952626939863
            ],
            [
              -0.029437171295285225,
              0.05044649541378021,
              0.08000379800796509
            ]
          ],
          [
            [
              0.07117480039596558,
              0.09114886075258255,
              -0.05240195244550705
            ],
            [
              -0.11238172650337219,
              0.0382610447704792,
              -0.111977718770504
            ],
            [
              -0.06390255689620972,
              0.0006520571769215167,
              -0.11364536732435226
            ],
            [
              -0.05954207479953766,
              0.02773410454392433,
              0.07802608609199524
            ],
            [
              -0.05543239042162895,
              -0.03045593947172165,
              0.12585029006004333
            ],
            [
              0.01818646490573883,
              -0.08368779718875885,
              -0.045235611498355865
            ],
            [
              -0.15188290178775787,
              0.03651953488588333,
              -0.1540183126926422
            ],
            [
              -0.015872899442911148,
              0.03636488318443298,
              -0.03136120364069939
            ],
            [
              -0.05508222430944443,
              -0.030383899807929993,
              -0.01944911666214466
            ],
            [
              -0.06731227785348892,
              -0.06551022827625275,
              0.08036927133798599
            ],
            [
              -0.004738135263323784,
              -0.01913115754723549,
              0.04348529130220413
            ],
            [
              -0.07115150988101959,
              -0.08963440358638763,
              0.07958544045686722
            ],
            [
              0.11137530952692032,
              -0.07658325135707855,
              0.08647970110177994
            ],
            [
              -0.16501088440418243,
              -0.12054711580276489,
              -0.12818476557731628
            ],
            [
              0.1225111335515976,
              -0.06041997671127319,
              0.052617162466049194
            ],
            [
              -0.08694054186344147,
              -0.057437244802713394,
              -0.06407187879085541
            ]
          ],
          [
            [
              -0.040890078991651535,
              0.13317212462425232,
              0.007156587205827236
            ],
            [
              -0.21669664978981018,
              -0.14850986003875732,
              -0.09507036209106445
            ],
            [
              1.7624288375373e-05,
              -0.09056468307971954,
              -0.15601272881031036
            ],
            [
              0.12272323668003082,
              0.13174325227737427,
              0.033104509115219116
            ],
            [
              -0.10769984126091003,
              -0.19791722297668457,
              -0.1368798017501831
            ],
            [
              -0.17019420862197876,
              0.028532641008496284,
              0.07257954031229019
            ],
            [
              0.08715268969535828,
              -0.023695481941103935,
              0.14850834012031555
            ],
            [
              0.01851199008524418,
              0.10344032198190689,
              0.05384001135826111
            ],
            [
              0.15092480182647705,
              -0.020103828981518745,
              0.1438659131526947
            ],
            [
              0.09503372758626938,
              -0.039158910512924194,
              -0.06427087634801865
            ],
            [
              -0.18522344529628754,
              -0.16715587675571442,
              -0.09242919087409973
            ],
            [
              0.04113965108990669,
              0.036000873893499374,
              0.045529864728450775
            ],
            [
              -0.051428765058517456,
              -0.043724823743104935,
              0.07835967093706131
            ],
            [
              0.18777146935462952,
              0.2619732916355133,
              0.25551268458366394
            ],
            [
              -0.2013036608695984,
              0.014369388110935688,
              -0.1086893156170845
            ],
            [
              0.10713367164134979,
              0.2021186202764511,
              0.10024507343769073
            ]
          ],
          [
            [
              -0.055048517882823944,
              -0.0823788121342659,
              -0.10246221721172333
            ],
            [
              0.01059856079518795,
              -0.02077641151845455,
              0.0032385592348873615
            ],
            [
              0.09821400046348572,
              0.17778530716896057,
              0.09223180264234543
            ],
            [
              -0.039437420666217804,
              0.07236891984939575,
              0.15919353067874908
            ],
            [
              0.07715536653995514,
              0.03685767203569412,
              0.08278431743383408
            ],
            [
              -0.04927758127450943,
              -0.07863913476467133,
              -0.11377562582492828
            ],
            [
              -0.011681551113724709,
              0.09101585298776627,
              0.002294310834258795
            ],
            [
              0.01274830847978592,
              -0.04037231579422951,
              0.025042347609996796
            ],
            [
              -0.13112422823905945,
              -0.04060358926653862,
              -0.03694067522883415
            ],
            [
              -0.16666586697101593,
              -0.012521596625447273,
              -0.0586213544011116
            ],
            [
              0.004004566464573145,
              0.0436994843184948,
              -0.008592359721660614
            ],
            [
              -0.07489936053752899,
              -0.07244940102100372,
              -0.10299962013959885
            ],
            [
              0.050319600850343704,
              -0.0699084922671318,
              0.057756081223487854
            ],
            [
              -0.16487626731395721,
              -0.09353790432214737,
              -0.10066348314285278
            ],
            [
              0.16570182144641876,
              0.20162269473075867,
              0.154412642121315
            ],
            [
              -0.14445948600769043,
              0.03955291956663132,
              -0.06809774786233902
            ]
          ],
          [
            [
              -0.019749902188777924,
              -0.10050582885742188,
              0.017809098586440086
            ],
            [
              0.01781286485493183,
              0.08135572820901871,
              0.14334246516227722
            ],
            [
              0.18772609531879425,
              0.07386557012796402,
              0.04523802921175957
            ],
            [
              -0.10330814868211746,
              -0.09900148212909698,
              0.12944796681404114
            ],
            [
              0.06255558133125305,
              0.1298941671848297,
              0.036466922610998154
            ],
            [
              -0.03126773238182068,
              -0.06917808949947357,
              0.10921260714530945
            ],
            [
              -0.06157849356532097,
              -0.054456550627946854,
              0.05868784710764885
            ],
            [
              0.002265626098960638,
              -0.004392059054225683,
              0.004391556140035391
            ],
            [
              0.05816527456045151,
              0.04368148744106293,
              -0.03600313141942024
            ],
            [
              -0.08335325866937637,
              -0.11997230350971222,
              -0.050311945378780365
            ],
            [
              0.1148904338479042,
              0.05951781943440437,
              0.17126071453094482
            ],
            [
              0.05178631469607353,
              -0.036647140979766846,
              -0.10829756408929825
            ],
            [
              0.14079715311527252,
              0.0010367775103077292,
              -0.10052838921546936
            ],
            [
              -0.24604347348213196,
              -0.23935940861701965,
              -0.077615886926651
            ],
            [
              0.1567942351102829,
              0.1221940889954567,
              0.00814025104045868
            ],
            [
              -0.10045631229877472,
              -0.012569792568683624,
              -0.10272180289030075
            ]
          ],
          [
            [
              0.13609330356121063,
              0.17488142848014832,
              -0.01684579625725746
            ],
            [
              -0.11397605389356613,
              -0.1061214730143547,
              -0.17295077443122864
            ],
            [
              -0.14612790942192078,
              -0.18168030679225922,
              -0.10093159973621368
            ],
            [
              -0.0069250245578587055,
              0.07079750299453735,
              -0.060601282864809036
            ],
            [
              -0.1384836733341217,
              -0.19343632459640503,
              -0.15807458758354187
            ],
            [
              -0.21049800515174866,
              -0.06644123047590256,
              -0.01871543563902378
            ],
            [
              0.14579840004444122,
              0.07489621639251709,
              0.12759241461753845
            ],
            [
              0.015979843214154243,
              0.02791764959692955,
              0.006351915653795004
            ],
            [
              0.11604747921228409,
              0.1540733128786087,
              -0.0075799403712153435
            ],
            [
              0.15151351690292358,
              0.19873568415641785,
              0.008135266602039337
            ],
            [
              -0.19938954710960388,
              -0.2529292702674866,
              -0.06262481212615967
            ],
            [
              0.16664744913578033,
              0.054301466792821884,
              0.08509901165962219
            ],
            [
              -0.00678534060716629,
              -0.10527841001749039,
              -0.021530907601118088
            ],
            [
              0.40580764412879944,
              0.31720978021621704,
              0.28583019971847534
            ],
            [
              -0.2447483241558075,
              -0.02446463704109192,
              -0.06896275281906128
            ],
            [
              0.10808327794075012,
              0.14491629600524902,
              0.0655113160610199
            ]
          ],
          [
            [
              -0.08393745869398117,
              0.025016868487000465,
              -0.13782554864883423
            ],
            [
              0.0009142167982645333,
              -0.0028651447501033545,
              0.07835925370454788
            ],
            [
              0.12849292159080505,
              0.14243093132972717,
              0.0674513578414917
            ],
            [
              -0.016858860850334167,
              -0.08428116142749786,
              0.026014793664216995
            ],
            [
              0.19004933536052704,
              0.13786526024341583,
              0.04593503475189209
            ],
            [
              0.18075904250144958,
              -0.05656867474317551,
              0.011344498954713345
            ],
            [
              -0.1696380227804184,
              -0.1196548119187355,
              0.020295534282922745
            ],
            [
              -0.002442182507365942,
              -0.02388227917253971,
              -0.01137313712388277
            ],
            [
              0.024193553254008293,
              -0.10190078616142273,
              -0.10999806970357895
            ],
            [
              -0.14545518159866333,
              -0.07927905768156052,
              -0.06557886302471161
            ],
            [
              0.01094732154160738,
              -0.0230425912886858,
              0.11129344999790192
            ],
            [
              0.015492566861212254,
              0.006052898708730936,
              -0.09446830302476883
            ],
            [
              -0.01070944033563137,
              0.11349338293075562,
              -0.04114874452352524
            ],
            [
              -0.24137356877326965,
              -0.12220300734043121,
              0.013701647520065308
            ],
            [
              -0.03045371174812317,
              0.12292888760566711,
              0.028312835842370987
            ],
            [
              -0.1382998675107956,
              -0.04499524086713791,
              0.05600062385201454
            ]
          ],
          [
            [
              -0.1387205719947815,
              0.06512916833162308,
              -0.08356374502182007
            ],
            [
              0.04257083684206009,
              -0.052335724234580994,
              -0.028774306178092957
            ],
            [
              -0.02005593106150627,
              -0.02529173716902733,
              0.09568532556295395
            ],
            [
              -0.014541937038302422,
              -0.011244889348745346,
              -0.024720516055822372
            ],
            [
              0.04920826479792595,
              0.0665142834186554,
              -0.04803550988435745
            ],
            [
              0.10317796468734741,
              -0.01707790046930313,
              -0.038180410861968994
            ],
            [
              0.05800984054803848,
              -0.012550842016935349,
              0.1386551409959793
            ],
            [
              -0.028521962463855743,
              -0.007200267165899277,
              -0.014980622567236423
            ],
            [
              0.0034649784211069345,
              -0.10938233137130737,
              -0.026684323325753212
            ],
            [
              0.006184651516377926,
              -0.08542836457490921,
              0.021455993875861168
            ],
            [
              0.08870721608400345,
              0.09010972827672958,
              -0.038877785205841064
            ],
            [
              0.09041087329387665,
              0.04114758223295212,
              -0.012699957937002182
            ],
            [
              -0.07305396348237991,
              0.041148073971271515,
              -0.1579468697309494
            ],
            [
              -0.13132037222385406,
              0.029388120397925377,
              0.04585925117135048
            ],
            [
              -0.03744278848171234,
              0.09824126213788986,
              0.07378260046243668
            ],
            [
              -0.15730397403240204,
              -0.11089866608381271,
              -0.011744299903512001
            ]
          ],
          [
            [
              -0.05331145226955414,
              0.03658769279718399,
              0.03377819433808327
            ],
            [
              -0.10814724862575531,
              -0.17303921282291412,
              -0.1575656235218048
            ],
            [
              -0.09116583317518234,
              -0.011095376685261726,
              -0.05925113335251808
            ],
            [
              -0.0816960483789444,
              0.15590791404247284,
              0.027935856953263283
            ],
            [
              -0.16499733924865723,
              -0.11247266083955765,
              -0.1150113046169281
            ],
            [
              -0.2205720990896225,
              -0.15956774353981018,
              -0.06773504614830017
            ],
            [
              0.07823207974433899,
              0.21152032911777496,
              0.12640690803527832
            ],
            [
              -0.04849401116371155,
              -0.010121242143213749,
              -0.05215734243392944
            ],
            [
              -0.019695939496159554,
              0.058325864374637604,
              0.13476645946502686
            ],
            [
              0.1681070476770401,
              0.15269719064235687,
              -0.04353351145982742
            ],
            [
              -0.049161989241838455,
              -0.0008144692983478308,
              0.022787798196077347
            ],
            [
              0.06875861436128616,
              -0.04384122043848038,
              0.08774115890264511
            ],
            [
              -0.01186306681483984,
              -0.061924371868371964,
              -0.1979159265756607
            ],
            [
              0.3230040669441223,
              0.37640154361724854,
              0.226713627576828
            ],
            [
              -0.1363096833229065,
              -0.005662142299115658,
              -0.05941472947597504
            ],
            [
              -0.0007499097264371812,
              0.07276295870542526,
              0.047146979719400406
            ]
          ],
          [
            [
              0.058127112686634064,
              -0.07920171320438385,
              0.12256254255771637
            ],
            [
              0.04815879464149475,
              -0.01987127959728241,
              0.034373726695775986
            ],
            [
              0.0440744124352932,
              0.021589433774352074,
              0.1474604606628418
            ],
            [
              0.03296387568116188,
              0.055756114423274994,
              -0.07884690165519714
            ],
            [
              0.07052192836999893,
              0.13616210222244263,
              0.15155117213726044
            ],
            [
              0.11227063089609146,
              0.0856555849313736,
              0.031697195023298264
            ],
            [
              -0.08500667661428452,
              -0.07597559690475464,
              -0.09073840826749802
            ],
            [
              0.08559929579496384,
              -0.040354929864406586,
              0.015429915860295296
            ],
            [
              0.013060633093118668,
              0.056077808141708374,
              0.028041595593094826
            ],
            [
              -0.08444369584321976,
              0.031548164784908295,
              -0.10763995349407196
            ],
            [
              0.0339723601937294,
              0.1446443349123001,
              -0.006822093389928341
            ],
            [
              -0.0556572824716568,
              -0.018195118755102158,
              -0.005570097826421261
            ],
            [
              0.019290931522846222,
              0.14262068271636963,
              0.15183842182159424
            ],
            [
              -0.23847925662994385,
              -0.16930747032165527,
              -0.2567262351512909
            ],
            [
              -0.04277212917804718,
              -0.07733364403247833,
              0.11294573545455933
            ],
            [
              -0.024600792676210403,
              -0.07000377774238586,
              -0.11965236067771912
            ]
          ],
          [
            [
              -0.023041166365146637,
              0.04752913862466812,
              0.021407099440693855
            ],
            [
              -0.03369671106338501,
              -0.08066745847463608,
              -0.09807582199573517
            ],
            [
              -0.08485177904367447,
              -0.0202103890478611,
              -0.04893261566758156
            ],
            [
              -0.08134173601865768,
              -0.05820463225245476,
              0.08545347303152084
            ],
            [
              0.11287566274404526,
              0.05521014705300331,
              -0.08069181442260742
            ],
            [
              0.029598286375403404,
              0.12908796966075897,
              -0.027639850974082947
            ],
            [
              0.08184962719678879,
              0.028645537793636322,
              0.03355076536536217
            ],
            [
              -0.013994220644235611,
              0.021916022524237633,
              -0.01043028850108385
            ],
            [
              -0.020902451127767563,
              -0.08163881301879883,
              0.1110493391752243
            ],
            [
              0.03518230840563774,
              0.10052036494016647,
              0.1136605367064476
            ],
            [
              -0.05089356750249863,
              -0.0141811678186059,
              -0.15994730591773987
            ],
            [
              -0.09111547470092773,
              0.02415420487523079,
              0.05180542543530464
            ],
            [
              0.07116493582725525,
              0.07016459107398987,
              0.06841713935136795
            ],
            [
              0.06703139841556549,
              -0.020283734425902367,
              0.1215614452958107
            ],
            [
              -0.05996832251548767,
              -0.10513542592525482,
              -0.07898832857608795
            ],
            [
              0.007191621232777834,
              0.11995548754930496,
              0.041927020996809006
            ]
          ],
          [
            [
              -0.0003581048222258687,
              0.057694628834724426,
              -0.11659455299377441
            ],
            [
              -0.04062214121222496,
              0.012004476971924305,
              -0.06433483958244324
            ],
            [
              -0.026618335396051407,
              -0.04510818049311638,
              0.04782654345035553
            ],
            [
              -0.036759402602910995,
              -0.041844140738248825,
              0.08711954951286316
            ],
            [
              -0.14398838579654694,
              0.04579360410571098,
              -0.08775003254413605
            ],
            [
              0.08801061660051346,
              -0.16013053059577942,
              -0.04570731893181801
            ],
            [
              -0.08946707844734192,
              0.10154837369918823,
              -0.05042654648423195
            ],
            [
              0.01926744543015957,
              -0.11521455645561218,
              -0.07392098009586334
            ],
            [
              -0.022269414737820625,
              -0.15674209594726562,
              -0.009399077855050564
            ],
            [
              0.052584629505872726,
              -0.06650222837924957,
              -0.02709650993347168
            ],
            [
              -0.0019186995923519135,
              0.07243508100509644,
              0.09138653427362442
            ],
            [
              0.05941573902964592,
              -0.051908254623413086,
              0.0050576175563037395
            ],
            [
              -0.03824407234787941,
              -0.01267937757074833,
              0.08524350821971893
            ],
            [
              0.017413441091775894,
              -0.03943410888314247,
              -0.06316503137350082
            ],
            [
              0.05814775079488754,
              -0.01684373989701271,
              0.04192723333835602
            ],
            [
              -0.17881233990192413,
              0.02536173351109028,
              -0.11076269298791885
            ]
          ],
          [
            [
              0.05257643014192581,
              0.015679681673645973,
              0.0823172777891159
            ],
            [
              0.05982188880443573,
              -0.05392059311270714,
              -0.07852795720100403
            ],
            [
              -0.09956777095794678,
              0.0006903671892359853,
              -0.025811906903982162
            ],
            [
              0.10236576944589615,
              -0.03967129811644554,
              -0.016826122999191284
            ],
            [
              -0.039222873747348785,
              -0.03647572547197342,
              -0.09460021555423737
            ],
            [
              0.059654876589775085,
              -0.08144443482160568,
              -0.14680132269859314
            ],
            [
              -0.01417436171323061,
              0.04262722283601761,
              0.03090483322739601
            ],
            [
              0.021358270198106766,
              -0.006544818170368671,
              -0.012959775514900684
            ],
            [
              0.06755059957504272,
              0.07524700462818146,
              0.11995247006416321
            ],
            [
              0.006066672038286924,
              0.06643456965684891,
              0.08024308830499649
            ],
            [
              -0.14621704816818237,
              -0.025692906230688095,
              -0.03653559461236
            ],
            [
              0.040858104825019836,
              -0.058437053114175797,
              -0.07469376921653748
            ],
            [
              0.02201978489756584,
              0.033100057393312454,
              0.0259994063526392
            ],
            [
              0.030274992808699608,
              0.15682892501354218,
              0.08354787528514862
            ],
            [
              0.05859655886888504,
              -0.08713441342115402,
              0.04332670569419861
            ],
            [
              0.052412331104278564,
              0.0249452106654644,
              -0.03245186433196068
            ]
          ],
          [
            [
              0.003059068229049444,
              0.044379547238349915,
              -0.05498634651303291
            ],
            [
              -0.07630181312561035,
              -0.14021821320056915,
              -0.024089893326163292
            ],
            [
              -0.001962370937690139,
              -0.013760050758719444,
              -0.07802057266235352
            ],
            [
              -0.1416739523410797,
              -0.09071715176105499,
              -0.13409507274627686
            ],
            [
              0.06581766158342361,
              -0.039531901478767395,
              -0.03170522302389145
            ],
            [
              0.04239066317677498,
              -0.044953785836696625,
              0.030645597726106644
            ],
            [
              -0.061550941318273544,
              0.06197506561875343,
              -0.1272352635860443
            ],
            [
              0.01371373888105154,
              -0.016675326973199844,
              0.027138743549585342
            ],
            [
              -0.060606248676776886,
              0.08681754022836685,
              0.015180240385234356
            ],
            [
              0.11021272838115692,
              0.033489812165498734,
              0.02486756443977356
            ],
            [
              -0.10096099227666855,
              -0.05016171932220459,
              -0.13364967703819275
            ],
            [
              -0.09536426514387131,
              0.032485563308000565,
              0.05649043619632721
            ],
            [
              -0.010241644456982613,
              0.1441335529088974,
              -0.050387654453516006
            ],
            [
              -0.05668552964925766,
              -0.0315697006881237,
              -0.06316861510276794
            ],
            [
              0.057987913489341736,
              0.0794658362865448,
              -0.12313518673181534
            ],
            [
              0.005349419545382261,
              0.12873698770999908,
              0.010135027579963207
            ]
          ],
          [
            [
              0.014428464695811272,
              -0.009891691617667675,
              -0.04959108680486679
            ],
            [
              -0.10559798777103424,
              -0.12018007040023804,
              -0.1249404028058052
            ],
            [
              -0.0254274383187294,
              -0.15063606202602386,
              0.013094074092805386
            ],
            [
              0.06685100495815277,
              0.12433763593435287,
              0.1073632761836052
            ],
            [
              -0.1944449543952942,
              -0.12280287593603134,
              -0.07162880897521973
            ],
            [
              0.016122307628393173,
              -0.20166441798210144,
              -0.1332671046257019
            ],
            [
              0.10861308872699738,
              0.06649766862392426,
              0.09295060485601425
            ],
            [
              0.012461362406611443,
              0.038452934473752975,
              0.028810210525989532
            ],
            [
              0.12120186537504196,
              -0.050193749368190765,
              0.06621167063713074
            ],
            [
              0.07025177031755447,
              0.11473208665847778,
              0.060887712985277176
            ],
            [
              -0.12717927992343903,
              -0.11311762779951096,
              -0.17634181678295135
            ],
            [
              0.04770407825708389,
              -0.0026612631045281887,
              0.07110349833965302
            ],
            [
              -0.1451961249113083,
              0.018528329208493233,
              -0.14687886834144592
            ],
            [
              0.23224839568138123,
              0.27960991859436035,
              0.16573621332645416
            ],
            [
              -0.15286733210086823,
              0.04094633460044861,
              -0.02473677508533001
            ],
            [
              0.14530102908611298,
              0.0329381488263607,
              0.07036957144737244
            ]
          ]
        ],
        "conv_bias": [
          0.017286065965890884,
          0.021755972877144814,
          -0.06461311876773834,
          -0.04650988429784775,
          0.05336553603410721,
          0.005094530526548624,
          -0.010598629713058472,
          -0.05031641200184822,
          0.05975645035505295,
          -0.12192804366350174,
          0.048902854323387146,
          0.004223354160785675,
          0.1882925182580948,
          0.11528383195400238,
          -0.03387831896543503,
          0.10720265656709671
        ]
      },
      {
        "layer": 1,
        "dilation": 2,
        "conv_weight": [
          [
            [
              -0.047220923006534576,
              -0.0440041720867157,
              -0.09292581677436829
            ],
            [
              0.08081047236919403,
              -0.013414077460765839,
              -0.027955524623394012
            ],
            [
              -0.04141326621174812,
              0.07525811344385147,
              -0.02037862502038479
            ],
            [
              0.06760278344154358,
              0.057662200182676315,
              0.1690194457769394
            ],
            [
              -0.07527781277894974,
              -0.049927592277526855,
              -0.025342117995023727
            ],
            [
              -0.013244696892797947,
              0.09410210698843002,
              -0.07611788064241409
            ],
            [
              -0.13542301952838898,
              -0.06205877289175987,
              0.020858870819211006
            ],
            [
              -0.0136383892968297,
              -0.007571401074528694,
              -0.014732828363776207
            ],
            [
              -0.0031816016416996717,
              -0.025508074089884758,
              -0.07134237885475159
            ],
            [
              -0.0012178367469459772,
              0.08168196678161621,
              0.08527586609125137
            ],
            [
              -0.1374003291130066,
              -0.1551670879125595,
              -0.09980734437704086
            ],
            [
              -0.1260305941104889,
              -0.09885639697313309,
              0.07956897467374802
            ],
            [
              0.03645071014761925,
              -0.026307493448257446,
              -0.12155822664499283
            ],
            [
              -0.09540959447622299,
              0.08587728440761566,
              0.009530354291200638
            ],
            [
              0.08451361954212189,
              -0.06475598365068436,
              -0.09052620828151703
            ],
            [
              -0.04412581026554108,
              -0.08169392496347427,
              0.0911082774400711
            ]
          ],
          [
            [
              0.07795104384422302,
              -0.13964439928531647,
              0.05476325377821922
            ],
            [
              0.04609071463346481,
              0.02825179137289524,
              -0.09345624595880508
            ],
            [
              -0.017586417496204376,
              0.017566777765750885,
              0.13281331956386566
            ],
            [
              0.14232459664344788,
              0.08589743077754974,
              0.046791862696409225
            ],
            [
              -0.016769088804721832,
              0.0016371899982914329,
              0.100963294506073
            ],
            [
              1.1711058505170513e-05,
              0.08610111474990845,
              0.017057117074728012
            ],
            [
              0.15052680671215057,
              0.0669834315776825,
              -0.01959052123129368
            ],
            [
              0.0033903263974934816,
              -0.06539286673069,
              0.14244085550308228
            ],
            [
              -0.005676582455635071,
              0.007942360825836658,
              0.07069049030542374
            ],
            [
              -0.04044598713517189,
              -0.07135627418756485,
              0.02594444528222084
            ],
            [
              -0.019894005730748177,
              0.03948778286576271,
              0.12751439213752747
            ],
            [
              -0.042410898953676224,
              0.021434761583805084,
              -0.07808806002140045
            ],
            [
              -0.06169889122247696,
              0.11039627343416214,
              0.05389726534485817
            ],
            [
              0.0027196984738111496,
              -0.06997614353895187,
              -0.08926507830619812
            ],
            [
              0.0594051219522953,
              -0.07054632157087326,
              0.009538494981825352
            ],
            [
              0.1345246285200119,
              0.03396223112940788,
              -0.16075728833675385
            ]
          ],
          [
            [
              -0.03470170125365257,
              0.1302327960729599,
              0.04454551637172699
            ],
            [
              0.17276468873023987,
              -0.023186635226011276,
              -0.19935369491577148
            ],
            [
              0.1512790322303772,
              -0.018841540440917015,
              -0.21846191585063934
            ],
            [
              -0.15156488120555878,
              0.0937642827630043,
              0.11571256816387177
            ],
            [
              0.20916438102722168,
              -0.0725700706243515,
              -0.09499203413724899
            ],
            [
              0.17897498607635498,
              0.002584936562925577,
              -0.13190656900405884
            ],
            [
              -0.1684556007385254,
              0.09346099942922592,
              0.1770240068435669
            ],
            [
              0.26900216937065125,
              -0.04593557491898537,
              -0.06136069446802139
            ],
            [
              -0.02976354770362377,
              -0.04069766402244568,
              -0.037743549793958664
            ],
            [
              -0.2685435712337494,
              0.036018580198287964,
              0.3078063726425171
            ],
            [
              0.2336243838071823,
              -0.01876213774085045,
              -0.2584918737411499
            ],
            [
              0.0452713668346405,
              0.04784822091460228,
              0.029467135667800903
            ],
            [
              0.12201979011297226,
              -0.07704106718301773,
              -0.08234714716672897
            ],
            [
              -0.1190166249871254,
              0.16050374507904053,
              0.1539347767829895
            ],
            [
              -0.07327151298522949,
              0.005346813704818487,
              0.055771663784980774
            ],
            [
              -0.20934505760669708,
              0.06549283117055893,
              0.11784143000841141
            ]
          ],
          [
            [
              0.04354157671332359,
              0.12080015987157822,
              0.09008130431175232
            ],
            [
              -0.12003789842128754,
              -0.04634605348110199,
              -0.11039819568395615
            ],
            [
              -0.02407480962574482,
              -0.04770567640662193,
              0.016979526728391647
            ],
            [
              0.06311965733766556,
              0.017656616866588593,
              -0.05043056607246399
            ],
            [
              -0.09608115255832672,
              -0.08672554045915604,
              -0.050655800849199295
            ],
            [
              0.023753207176923752,
              -0.04986659437417984,
              0.06804953515529633
            ],
            [
              0.0944204330444336,
              0.03532364219427109,
              -0.050222642719745636
            ],
            [
              -0.04494093731045723,
              0.023508243262767792,
              0.11586103588342667
            ],
            [
              0.09450855106115341,
              -0.02893003076314926,
              0.14904646575450897
            ],
            [
              0.13656453788280487,
              0.13756507635116577,
              -0.05660305544734001
            ],
            [
              -0.16761451959609985,
              -0.13082891702651978,
              -0.11343596130609512
            ],
            [
              0.11222919821739197,
              0.031137676909565926,
              0.010891705751419067
            ],
            [
              -0.07119006663560867,
              0.0598360151052475,
              0.11178184300661087
            ],
            [
              -0.015382399782538414,
              0.03311433643102646,
              -0.03461288660764694
            ],
            [
              0.10494108498096466,
              -0.05127495899796486,
              0.025032809004187584
            ],
            [
              0.16136884689331055,
              0.1369067281484604,
              0.03756481036543846
            ]
          ],
          [
            [
              -0.12432298064231873,
              -0.05402076244354248,
              0.02055460214614868
            ],
            [
              0.0825488343834877,
              0.010812695138156414,
              -0.07497727125883102
            ],
            [
              0.165395125746727,
              0.04929555580019951,
              -0.083738774061203
            ],
            [
              -0.19419445097446442,
              -0.16689935326576233,
              0.05188189074397087
            ],
            [
              0.04431633651256561,
              0.021901249885559082,
              -0.2398819476366043
            ],
            [
              0.012643517926335335,
              0.10719680786132812,
              -0.039241135120391846
            ],
            [
              -0.19073760509490967,
              -0.01295769028365612,
              0.25331100821495056
            ],
            [
              0.045394353568553925,
              0.07464708387851715,
              0.0015482911840081215
            ],
            [
              0.05396191403269768,
              0.05002690106630325,
              -0.0014416069025173783
            ],
            [
              -0.32111096382141113,
              -0.14576353132724762,
              0.2465025782585144
            ],
            [
              0.15162070095539093,
              0.11036933213472366,
              -0.16336405277252197
            ],
            [
              -0.04287877306342125,
              -0.142892986536026,
              -0.036522723734378815
            ],
            [
              -0.05683083087205887,
              0.05131753161549568,
              -0.019571738317608833
            ],
            [
              -0.2224033921957016,
              -0.04131898656487465,
              0.26397705078125
            ],
            [
              0.013700194656848907,
              -0.05830979719758034,
              0.0768192708492279
            ],
            [
              -0.27395209670066833,
              -0.00637910095974803,
              0.17355598509311676
            ]
          ],
          [
            [
              0.05225450173020363,
              8.708818495506421e-05,
              -0.1973191201686859
            ],
            [
              0.028803713619709015,
              -0.008409923873841763,
              0.047367844730615616
            ],
            [
              -0.05955861881375313,
              -0.013321289792656898,
              0.16359594464302063
            ],
            [
              -0.023745743557810783,
              0.08050891757011414,
              -0.0846417099237442
            ],
            [
              0.060863520950078964,
              0.07738960534334183,
              0.05979347601532936
            ],
            [
              0.0023630554787814617,
              -0.08306749165058136,
              0.09797243028879166
            ],
            [
              0.12334733456373215,
              -0.012277531437575817,
              -0.07961557805538177
            ],
            [
              -0.18215759098529816,
              -0.12968316674232483,
              0.11335846036672592
            ],
            [
              0.011189821176230907,
              -0.00288291834294796,
              -0.04349697008728981
            ],
            [
              0.06969448924064636,
              0.01240331120789051,
              -0.05925242230296135
            ],
            [
              0.016979334875941277,
              0.1214226484298706,
              0.10809876024723053
            ],
            [
              0.13517658412456512,
              -0.048982832580804825,
              -0.11940199136734009
            ],
            [
              -0.06889405101537704,
              0.02236189879477024,
              0.07507836818695068
            ],
            [
              0.1022186353802681,
              0.0283867958933115,
              -0.1870843917131424
            ],
            [
              0.0759667456150055,
              0.048959143459796906,
              -0.04426104202866554
            ],
            [
              0.12084884941577911,
              -0.038324665278196335,
              -0.14250874519348145
            ]
          ],
          [
            [
              -0.0026211130898445845,
              0.08112481236457825,
              0.20709875226020813
            ],
            [
              0.047447994351387024,
              0.025560572743415833,
              0.014568477869033813
            ],
            [
              0.012955802492797375,
              -0.1043994277715683,
              -0.06950614601373672
            ],
            [
              -0.029469918459653854,
              0.04519503191113472,
              0.20899119973182678
            ],
            [
              -0.021278489381074905,
              -0.17894390225410461,
              -0.12411382794380188
            ],
            [
              0.08685317635536194,
              -0.014134563505649567,
              -0.03194495290517807
            ],
            [
              -0.19077759981155396,
              0.09101708978414536,
              0.01713358238339424
            ],
            [
              0.0320163369178772,
              -0.06192607805132866,
              -0.0006568256649188697
            ],
            [
              -0.155310720205307,
              -0.049223463982343674,
              -0.1594315767288208
            ],
            [
              -0.12740671634674072,
              0.07189372926950455,
              0.22474540770053864
            ],
            [
              0.037112217396497726,
              -0.2386695295572281,
              -0.12175188213586807
            ],
            [
              0.01065884344279766,
              0.012145192362368107,
              0.10305804014205933
            ],
            [
              0.02446361444890499,
              -0.052247483283281326,
              -0.060301944613456726
            ],
            [
              -0.11008379608392715,
              0.09503946453332901,
              -0.046160828322172165
            ],
            [
              0.08961960673332214,
              0.017647935077548027,
              -0.06954701244831085
            ],
            [
              -0.20000183582305908,
              0.1573294997215271,
              0.17547817528247833
            ]
          ],
          [
            [
              0.06113947555422783,
              0.004724063444882631,
              -0.03443961590528488
            ],
            [
              -0.007173557300120592,
              0.06861308217048645,
              -0.06055683270096779
            ],
            [
              0.0059287468902766705,
              0.04850874841213226,
              0.01955249533057213
            ],
            [
              -0.08087002485990524,
              -0.13575662672519684,
              -0.13648514449596405
            ],
            [
              0.0793815329670906,
              -0.004950318019837141,
              -0.06750761717557907
            ],
            [
              -0.005301035474985838,
              0.019300123676657677,
              0.09984005987644196
            ],
            [
              0.16400621831417084,
              -0.09079396724700928,
              -0.059589143842458725
            ],
            [
              -0.17796795070171356,
              -0.003100218717008829,
              -0.04753522574901581
            ],
            [
              0.08274990320205688,
              0.03743167221546173,
              0.04556469991803169
            ],
            [
              0.03192572668194771,
              -0.015318154357373714,
              0.000868855626322329
            ],
            [
              0.15829148888587952,
              0.07898315787315369,
              -0.014725765213370323
            ],
            [
              -0.0256833266466856,
              0.04633403941988945,
              0.1349581629037857
            ],
            [
              -0.03879856690764427,
              -0.03248445689678192,
              -0.07072523236274719
            ],
            [
              -0.02458680048584938,
              -0.023878328502178192,
              -0.03382658213376999
            ],
            [
              0.032346125692129135,
              0.05324406921863556,
              -0.10851467400789261
            ],
            [
              0.1342395395040512,
              -0.133773535490036,
              -0.08983522653579712
            ]
          ],
          [
            [
              -0.24521711468696594,
              -0.061289846897125244,
              0.04457421973347664
            ],
            [
              0.22500279545783997,
              -0.010074068792164326,
              -0.21588951349258423
            ],
            [
              0.14130519330501556,
              -0.09710074961185455,
              -0.2299949824810028
            ],
            [
              -0.21941709518432617,
              -0.10143206268548965,
              0.1189875453710556
            ],
            [
              0.20754024386405945,
              -0.002726834500208497,
              -0.1875838339328766
            ],
            [
              0.18993471562862396,
              -0.10682269185781479,
              -0.0823558047413826
            ],
            [
              -0.3299160897731781,
              -0.04524817317724228,
              0.2547992765903473
            ],
            [
              0.19645756483078003,
              -0.12702874839305878,
              -0.14587174355983734
            ],
            [
              -0.06074916198849678,
              -0.017992090433835983,
              -0.011958320625126362
            ],
            [
              -0.26937413215637207,
              -0.0019170116866007447,
              0.31280970573425293
            ],
            [
              0.21545292437076569,
              -0.0002474251377861947,
              -0.28646910190582275
            ],
            [
              -0.17479656636714935,
              0.029364652931690216,
              0.14838972687721252
            ],
            [
              -0.005435816943645477,
              0.07746914029121399,
              -0.04225029796361923
            ],
            [
              -0.23077461123466492,
              -0.06660429388284683,
              0.2384059578180313
            ],
            [
              0.0392829030752182,
              -0.07289279997348785,
              -0.010709604248404503
            ],
            [
              -0.11319748312234879,
              -0.12669244408607483,
              0.2572721242904663
            ]
          ],
          [
            [
              0.0995483249425888,
              -0.03481356427073479,
              -0.06155704706907272
            ],
            [
              -0.06909210234880447,
              -0.11286209523677826,
              0.0794023722410202
            ],
            [
              0.056775953620672226,
              0.0450265146791935,
              -0.06191875785589218
            ],
            [
              0.08796721696853638,
              -0.008754719980061054,
              0.01435109507292509
            ],
            [
              0.022790389135479927,
              -0.1380598098039627,
              -0.03901970386505127
            ],
            [
              -0.0900154560804367,
              0.025464577600359917,
              -0.02291046269237995
            ],
            [
              -0.03631049394607544,
              0.09852167218923569,
              -0.006517400499433279
            ],
            [
              -0.0332697257399559,
              -0.010018417611718178,
              -0.035600658506155014
            ],
            [
              0.006596772000193596,
              -0.03755033016204834,
              0.00202884990721941
            ],
            [
              -0.0029420286882668734,
              -0.03819190710783005,
              0.0767400935292244
            ],
            [
              -0.10872586071491241,
              -0.04703564569354057,
              -0.11875730752944946
            ],
            [
              0.045985471457242966,
              -0.04057774692773819,
              0.05140848830342293
            ],
            [
              -0.051868632435798645,
              -0.1269586682319641,
              -0.07769670337438583
            ],
            [
              -0.10722236335277557,
              0.0052275992929935455,
              -0.02803909406065941
            ],
            [
              0.10043943673372269,
              0.04595033824443817,
              0.0727115273475647
            ],
            [
              0.00019237265223637223,
              0.019272463396191597,
              0.10921770334243774
            ]
          ],
          [
            [
              0.014129120856523514,
              0.10373542457818985,
              -0.055915918201208115
            ],
            [
              0.03086729347705841,
              -0.07858975231647491,
              0.0383106991648674
            ],
            [
              -0.029350323602557182,
              -0.03370371460914612,
              0.025180943310260773
            ],
            [
              -0.09152533859014511,
              -0.022541485726833344,
              0.04095693305134773
            ],
            [
              0.11650250852108002,
              0.06942626088857651,
              0.04304393753409386
            ],
            [
              -0.06552247703075409,
              -0.0418614037334919,
              0.15601475536823273
            ],
            [
              -0.01995236612856388,
              -0.0231060441583395,
              -0.1206648051738739
            ],
            [
              -0.014566107653081417,
              0.08807016909122467,
              -0.046590935438871384
            ],
            [
              -0.09329715371131897,
              -0.15887905657291412,
              -0.06747759133577347
            ],
            [
              0.09943356364965439,
              0.026780990883708,
              -0.024706369265913963
            ],
            [
              0.001498803379945457,
              0.1154947429895401,
              0.0026192127261310816
            ],
            [
              -0.043902572244405746,
              0.0004909259732812643,
              0.03022448532283306
            ],
            [
              0.12881582975387573,
              0.057552892714738846,
              -0.006434177048504353
            ],
            [
              -0.08065953105688095,
              -0.12217280268669128,
              -0.00046083959750831127
            ],
            [
              0.07865588366985321,
              0.11128149926662445,
              0.01707119308412075
            ],
            [
              -0.0895443707704544,
              -0.10828731954097748,
              0.010339103639125824
            ]
          ],
          [
            [
              -0.16916072368621826,
              -0.038245391100645065,
              0.0702148973941803
            ],
            [
              0.00793687254190445,
              0.03580983728170395,
              -0.020307185128331184
            ],
            [
              0.18588599562644958,
              0.06181373819708824,
              -0.06576500087976456
            ],
            [
              -0.21609103679656982,
              0.058019038289785385,
              -0.03291097655892372
            ],
            [
              0.03620404005050659,
              -0.12446777522563934,
              -0.17644576728343964
            ],
            [
              0.20907248556613922,
              0.06817519664764404,
              -0.04102769494056702
            ],
            [
              -0.1534360647201538,
              -0.13037371635437012,
              0.23475122451782227
            ],
            [
              0.14851024746894836,
              0.10165456682443619,
              -0.1029563844203949
            ],
            [
              -0.06162530556321144,
              0.03495084121823311,
              0.04379512369632721
            ],
            [
              -0.37193164229393005,
              -0.18084575235843658,
              0.20894870162010193
            ],
            [
              0.19456057250499725,
              0.10718800872564316,
              -0.09159620851278305
            ],
            [
              -0.15401607751846313,
              -0.16509930789470673,
              0.03541043773293495
            ],
            [
              0.12191621214151382,
              -0.01838473044335842,
              -0.05909162014722824
            ],
            [
              -0.20634710788726807,
              -0.12105995416641235,
              0.0325033999979496
            ],
            [
              -0.05204293504357338,
              0.013694850727915764,
              0.018022852018475533
            ],
            [
              -0.2866515517234802,
              -0.023427559062838554,
              0.03388885408639908
            ]
          ],
          [
            [
              0.026361016556620598,
              0.07112257927656174,
              0.06767962127923965
            ],
            [
              0.09227023273706436,
              0.04789188876748085,
              0.00984007865190506
            ],
            [
              -0.033688951283693314,
              0.06973712891340256,
              0.1138528510928154
            ],
            [
              0.11399717628955841,
              0.11025729030370712,
              -0.012060095556080341
            ],
            [
              -0.05128403753042221,
              -0.073565773665905,
              0.0967487171292305
            ],
            [
              -0.1096428856253624,
              -0.05464741960167885,
              -0.1050005555152893
            ],
            [
              0.025353221222758293,
              0.003279857337474823,
              0.0184217169880867
            ],
            [
              -0.032104942947626114,
              -0.15125404298305511,
              -0.07668609172105789
            ],
            [
              0.03865678608417511,
              0.07886569947004318,
              -0.08300338685512543
            ],
            [
              0.08203146606683731,
              0.03218173608183861,
              -0.07510732114315033
            ],
            [
              0.023483889177441597,
              -0.08298919349908829,
              0.02959783561527729
            ],
            [
              -0.01205973606556654,
              -0.03312615305185318,
              0.020368678495287895
            ],
            [
              0.05565040931105614,
              -0.024391094222664833,
              0.034899644553661346
            ],
            [
              0.08108153194189072,
              0.1300733983516693,
              -0.016868703067302704
            ],
            [
              0.12287505716085434,
              0.061051975935697556,
              0.10320185869932175
            ],
            [
              0.10485853999853134,
              -0.04894532263278961,
              -0.1297750025987625
            ]
          ],
          [
            [
              -0.007743537425994873,
              -0.060342784970998764,
              0.09730257093906403
            ],
            [
              0.06291991472244263,
              -0.024469710886478424,
              0.05998356267809868
            ],
            [
              0.013197564519941807,
              -0.004981544800102711,
              -0.11424720287322998
            ],
            [
              -0.024792790412902832,
              -0.10856224596500397,
              0.09961344301700592
            ],
            [
              0.01342650968581438,
              -0.03742784261703491,
              -0.056374840438365936
            ],
            [
              -0.0010234087239950895,
              -0.06564799696207047,
              0.0564875565469265
            ],
            [
              -0.2270565778017044,
              -0.20126160979270935,
              0.08324168622493744
            ],
            [
              0.06886791437864304,
              0.029436303302645683,
              -0.06958991289138794
            ],
            [
              -0.044411204755306244,
              -0.08408074826002121,
              -0.07313049584627151
            ],
            [
              -0.15004342794418335,
              -0.06627806276082993,
              0.188167005777359
            ],
            [
              0.01203337125480175,
              0.05593631789088249,
              -0.21049253642559052
            ],
            [
              -0.0938451960682869,
              -0.1192353293299675,
              -0.03371031582355499
            ],
            [
              0.06438072770833969,
              0.008866459131240845,
              0.11165723949670792
            ],
            [
              -0.24441473186016083,
              -0.09912054240703583,
              0.0001719358842819929
            ],
            [
              0.13893139362335205,
              -0.10878229141235352,
              0.06634253263473511
            ],
            [
              -0.19629748165607452,
              -0.0368904173374176,
              -0.02511429600417614
            ]
          ],
          [
            [
              0.0335659421980381,
              -0.1282980740070343,
              0.03107873722910881
            ],
            [
              -0.08064022660255432,
              0.10297448933124542,
              -0.00017800724890548736
            ],
            [
              0.04221980646252632,
              0.11765986680984497,
              -0.0044958023354411125
            ],
            [
              0.16844670474529266,
              0.12109939008951187,
              0.07852595299482346
            ],
            [
              -0.12636588513851166,
              0.11659171432256699,
              0.17116668820381165
            ],
            [
              -0.0877508670091629,
              -0.08081518113613129,
              -0.07181987911462784
            ],
            [
              0.09046226739883423,
              0.005042379256337881,
              -0.12850691378116608
            ],
            [
              -0.17091220617294312,
              0.08195450901985168,
              0.03061976656317711
            ],
            [
              -0.0967370793223381,
              0.03942131996154785,
              0.020652953535318375
            ],
            [
              0.12940442562103271,
              0.006204673089087009,
              -0.06409823894500732
            ],
            [
              -0.1028876006603241,
              -0.009960373863577843,
              0.21624024212360382
            ],
            [
              -0.013706283643841743,
              0.07940161228179932,
              -0.1306227296590805
            ],
            [
              -0.06906385719776154,
              -0.11604107916355133,
              0.15147744119167328
            ],
            [
              -0.052521415054798126,
              0.06417127698659897,
              -0.05894012004137039
            ],
            [
              -0.11393136531114578,
              -0.03588944673538208,
              -0.13968303799629211
            ],
            [
              -0.007217871490865946,
              -0.11699565500020981,
              -0.17022918164730072
            ]
          ],
          [
            [
              -0.16149719059467316,
              -0.20523175597190857,
              -0.03324349224567413
            ],
            [
              0.015418393537402153,
              -0.015052041038870811,
              0.014251960441470146
            ],
            [
              0.0636274442076683,
              -0.03539017215371132,
              0.0232485793530941
            ],
            [
              0.02304322086274624,
              -0.11512342095375061,
              -0.06385696679353714
            ],
            [
              0.10529956221580505,
              0.13258306682109833,
              0.0415794774889946
            ],
            [
              0.0030652745626866817,
              -0.05502275750041008,
              -0.0239255391061306
            ],
            [
              -0.10194836556911469,
              -0.17683807015419006,
              -0.04571055248379707
            ],
            [
              0.14458462595939636,
              0.08927332609891891,
              -0.029237110167741776
            ],
            [
              0.0036387694999575615,
              -0.1530301719903946,
              -0.13458037376403809
            ],
            [
              -0.11914034187793732,
              0.018636852502822876,
              0.02678609825670719
            ],
            [
              -0.0007618840900249779,
              0.1120385229587555,
              0.05724048241972923
            ],
            [
              -0.1393555998802185,
              -0.02022096887230873,
              0.04554777964949608
            ],
            [
              0.006765703205019236,
              0.0108822425827384,
              0.09614960104227066
            ],
            [
              -0.16251468658447266,
              -0.06700897961854935,
              0.021875964477658272
            ],
            [
              0.04925405979156494,
              -0.04588527977466583,
              0.11931082606315613
            ],
            [
              -0.2393440455198288,
              -0.1318943202495575,
              -0.027783261612057686
            ]
          ]
        ],
        "conv_bias": [
          -0.04074419289827347,
          0.013836749829351902,
          -0.011223260313272476,
          -0.11962209641933441,
          -0.013600309379398823,
          0.0005438687512651086,
          -0.04895436018705368,
          -0.03535996749997139,
          0.06381936371326447,
          -0.06753555685281754,
          -0.02865450829267502,
          -0.033386241644620895,
          -0.039959728717803955,
          0.08169139176607132,
          -0.042906880378723145,
          0.11542296409606934
        ]
      },
      {
        "layer": 2,
        "dilation": 4,
        "conv_weight": [
          [
            [
              -0.24843427538871765,
              0.01660773530602455,
              0.13363122940063477
            ],
            [
              -0.10335145890712738,
              0.026900887489318848,
              -0.14248086512088776
            ],
            [
              0.013009541667997837,
              0.05413519963622093,
              0.17716474831104279
            ],
            [
              -0.24316178262233734,
              -0.037491392344236374,
              0.19481384754180908
            ],
            [
              0.16496360301971436,
              -0.00323064299300313,
              -0.030977439135313034
            ],
            [
              0.17216907441616058,
              -0.009369914419949055,
              -0.25654804706573486
            ],
            [
              -0.24794572591781616,
              -0.0279298797249794,
              0.2306971400976181
            ],
            [
              -0.07394647598266602,
              0.025178218260407448,
              -0.17374926805496216
            ],
            [
              0.2383030205965042,
              0.20377829670906067,
              -0.02214030548930168
            ],
            [
              -0.041790250688791275,
              -0.03329725190997124,
              0.03466317802667618
            ],
            [
              0.26041561365127563,
              -0.12239306420087814,
              -0.11350025981664658
            ],
            [
              0.23811377584934235,
              0.15706820785999298,
              -0.047392066568136215
            ],
            [
              0.13662803173065186,
              -0.11395702511072159,
              0.09911302477121353
            ],
            [
              0.0006850806530565023,
              0.16619135439395905,
              0.05653080344200134
            ],
            [
              0.07735048234462738,
              0.06407561898231506,
              -0.05173603072762489
            ],
            [
              -0.0027010722551494837,
              0.17187157273292542,
              -0.14145800471305847
            ]
          ],
          [
            [
              0.12262461334466934,
              -0.04570291191339493,
              0.017442859709262848
            ],
            [
              0.06730302423238754,
              -0.016819512471556664,
              0.020897408947348595
            ],
            [
              -0.3070318400859833,
              0.11784541606903076,
              -0.17085188627243042
            ],
            [
              0.2254461944103241,
              -0.009500128217041492,
              -0.11448590457439423
            ],
            [
              -0.22387991845607758,
              0.10038569569587708,
              0.07014945149421692
            ],
            [
              0.0853828638792038,
              -0.08813158422708511,
              0.03844905272126198
            ],
            [
              0.05533566698431969,
              -0.10072468221187592,
              -0.04047597572207451
            ],
            [
              -0.07178600132465363,
              -0.07929368317127228,
              0.023243725299835205
            ],
            [
              -0.2926926910877228,
              0.06895763427019119,
              0.00497397780418396
            ],
            [
              0.1008613184094429,
              0.016617735847830772,
              -0.21123270690441132
            ],
            [
              -0.028992673382163048,
              0.12582677602767944,
              0.16100093722343445
            ],
            [
              -0.26699721813201904,
              0.016267333179712296,
              -0.12157533317804337
            ],
            [
              0.07377292960882187,
              -0.07428102940320969,
              0.09468990564346313
            ],
            [
              -0.06562256067991257,
              0.007873861119151115,
              -0.10862171649932861
            ],
            [
              0.16458888351917267,
              -0.024581871926784515,
              0.08228851109743118
            ],
            [
              -0.1614283174276352,
              0.04891548678278923,
              -0.12220466136932373
            ]
          ],
          [
            [
              0.03757534921169281,
              -0.11439035087823868,
              0.008918856270611286
            ],
            [
              -0.03322352096438408,
              -0.041462015360593796,
              -0.10656054317951202
            ],
            [
              -0.513948380947113,
              -0.10752732306718826,
              -0.013237101025879383
            ],
            [
              0.13032279908657074,
              -0.18859030306339264,
              -0.21127718687057495
            ],
            [
              -0.359343022108078,
              0.04073341190814972,
              0.1937706023454666
            ],
            [
              0.09716281294822693,
              -0.05292282626032829,
              -0.08274269104003906
            ],
            [
              0.0020762253552675247,
              -0.27481889724731445,
              -0.13285301625728607
            ],
            [
              -0.04688636213541031,
              0.041223395615816116,
              -0.04111085832118988
            ],
            [
              -0.5179334878921509,
              0.043035924434661865,
              0.18012914061546326
            ],
            [
              0.24418796598911285,
              -0.11159893125295639,
              -0.11987166851758957
            ],
            [
              -0.20894312858581543,
              -0.01283864863216877,
              0.030448107048869133
            ],
            [
              -0.3522336483001709,
              0.016700267791748047,
              0.0213217344135046
            ],
            [
              0.030693694949150085,
              0.0076211183331906796,
              -0.12352516502141953
            ],
            [
              -0.1978808343410492,
              0.22136054933071136,
              0.1219390481710434
            ],
            [
              0.1285434067249298,
              -0.08757203817367554,
              -0.1708880513906479
            ],
            [
              -0.13473637402057648,
              0.25408872961997986,
              0.0887533649802208
            ]
          ],
          [
            [
              -0.21919794380664825,
              0.03967306762933731,
              0.1280783861875534
            ],
            [
              0.08032049238681793,
              -0.14755621552467346,
              0.008313030004501343
            ],
            [
              -0.18470507860183716,
              0.1705659031867981,
              0.16249799728393555
            ],
            [
              -0.14700934290885925,
              -0.10626167804002762,
              0.10707935690879822
            ],
            [
              0.02737399749457836,
              0.08339924365282059,
              -0.07070333510637283
            ],
            [
              0.22120626270771027,
              -0.15878166258335114,
              0.061553504317998886
            ],
            [
              -0.19180050492286682,
              0.1823592334985733,
              0.15132439136505127
            ],
            [
              0.17518796026706696,
              0.07215336710214615,
              -0.14450567960739136
            ],
            [
              -0.05245443433523178,
              0.18728190660476685,
              0.12104208022356033
            ],
            [
              -0.21139055490493774,
              0.023199010640382767,
              0.1732603907585144
            ],
            [
              -0.0017617772100493312,
              -0.1463164985179901,
              -0.16800712049007416
            ],
            [
              -0.11049458384513855,
              0.0871545821428299,
              -0.09448086470365524
            ],
            [
              0.07097843289375305,
              0.04760246351361275,
              0.11713916808366776
            ],
            [
              -0.12436353415250778,
              0.15156471729278564,
              0.07828832417726517
            ],
            [
              -0.05765802413225174,
              -0.10811369121074677,
              -0.12694509327411652
            ],
            [
              -0.18156194686889648,
              0.0706525593996048,
              -0.06312113255262375
            ]
          ],
          [
            [
              0.21330100297927856,
              -0.09161752462387085,
              -0.015212737023830414
            ],
            [
              -0.14077290892601013,
              0.07034937292337418,
              0.13000203669071198
            ],
            [
              0.09765249490737915,
              -0.3893081247806549,
              0.1078859269618988
            ],
            [
              0.45928332209587097,
              -0.17941191792488098,
              -0.1926928609609604
            ],
            [
              -0.19639453291893005,
              -0.07420716434717178,
              -0.001620510476641357
            ],
            [
              -0.07293997704982758,
              0.17004553973674774,
              -0.10536180436611176
            ],
            [
              0.3318791091442108,
              -0.30609777569770813,
              -0.14463019371032715
            ],
            [
              -0.03921455144882202,
              0.1296706646680832,
              -0.013848773203790188
            ],
            [
              -0.2611275315284729,
              -0.2649134397506714,
              0.39842599630355835
            ],
            [
              0.19793656468391418,
              -0.11598117649555206,
              -0.14033110439777374
            ],
            [
              -0.27906084060668945,
              0.23399394750595093,
              0.2177664041519165
            ],
            [
              0.014132358133792877,
              -0.1316034495830536,
              0.3148881196975708
            ],
            [
              0.018508508801460266,
              -0.013029668480157852,
              0.08800176531076431
            ],
            [
              -0.13769032061100006,
              -0.19531434774398804,
              0.261129766702652
            ],
            [
              -0.05937301367521286,
              0.18884731829166412,
              -0.10248333215713501
            ],
            [
              -0.15228118002414703,
              -0.01607113890349865,
              0.0875861719250679
            ]
          ],
          [
            [
              0.09176450222730637,
              0.030529892072081566,
              0.09280336648225784
            ],
            [
              0.04494127258658409,
              0.041068192571401596,
              -0.11672253906726837
            ],
            [
              -0.07134139537811279,
              0.08983921259641647,
              -0.014574210159480572
            ],
            [
              0.008104122243821621,
              -0.06107897311449051,
              -0.000637918128632009
            ],
            [
              -0.1207084134221077,
              0.09451258182525635,
              0.04179077222943306
            ],
            [
              -0.03393220528960228,
              0.007156411185860634,
              -0.04514645040035248
            ],
            [
              0.1380574107170105,
              0.1043911948800087,
              -0.008896907791495323
            ],
            [
              0.052977290004491806,
              0.05755307897925377,
              -0.1139395609498024
            ],
            [
              -0.1412086933851242,
              0.046177636831998825,
              0.03306307643651962
            ],
            [
              0.1048734188079834,
              0.06866001337766647,
              0.05724795535206795
            ],
            [
              -0.03630662336945534,
              0.005494007840752602,
              -0.06126229092478752
            ],
            [
              -0.028713408857584,
              0.05137699842453003,
              -0.06184392422437668
            ],
            [
              0.04133730009198189,
              0.07458662241697311,
              -0.11537610739469528
            ],
            [
              -0.06430947035551071,
              0.06336934119462967,
              0.12816740572452545
            ],
            [
              -0.14504070580005646,
              -0.13741381466388702,
              -0.03635277599096298
            ],
            [
              0.01435940247029066,
              -0.046799834817647934,
              0.1102268323302269
            ]
          ],
          [
            [
              -0.05887080356478691,
              -0.11255628615617752,
              0.2021564543247223
            ],
            [
              0.05554048717021942,
              0.12506158649921417,
              -0.13214924931526184
            ],
            [
              0.17167198657989502,
              -0.032064877450466156,
              0.02154196985065937
            ],
            [
              -0.19336166977882385,
              0.024371491745114326,
              0.13650290668010712
            ],
            [
              0.33057525753974915,
              0.02106930874288082,
              -0.009409421123564243
            ],
            [
              0.038150981068611145,
              0.03611456975340843,
              -0.11198434233665466
            ],
            [
              -0.204387828707695,
              -0.1415465772151947,
              0.06665518879890442
            ],
            [
              -0.06938067823648453,
              0.08604567497968674,
              -0.14684425294399261
            ],
            [
              0.26146766543388367,
              0.05118728429079056,
              -0.10863760858774185
            ],
            [
              -0.21372517943382263,
              0.010638744570314884,
              0.18171626329421997
            ],
            [
              0.17000946402549744,
              -0.14783640205860138,
              -0.19747555255889893
            ],
            [
              0.09420324862003326,
              0.1570987105369568,
              0.026704993098974228
            ],
            [
              0.09600993990898132,
              -0.08110415935516357,
              0.04245931655168533
            ],
            [
              0.04099658876657486,
              0.1120763048529625,
              -0.1581064909696579
            ],
            [
              -0.028374243527650833,
              0.061236366629600525,
              0.03113958239555359
            ],
            [
              0.16273686289787292,
              0.1374182403087616,
              -0.15246449410915375
            ]
          ],
          [
            [
              -0.14043071866035461,
              -0.06991386413574219,
              0.018605083227157593
            ],
            [
              0.03465333580970764,
              -0.15670976042747498,
              0.04241185262799263
            ],
            [
              -0.23675362765789032,
              0.21240216493606567,
              0.013492590747773647
            ],
            [
              -0.05211741849780083,
              -0.01895066909492016,
              -0.022736256942152977
            ],
            [
              0.04367411136627197,
              0.05637766420841217,
              -0.06442952156066895
            ],
            [
              0.09763109683990479,
              -0.007933481596410275,
              -0.08702417463064194
            ],
            [
              -0.06004258990287781,
              0.08988603204488754,
              -0.08582720905542374
            ],
            [
              0.09714417159557343,
              0.020451031625270844,
              -0.1847667098045349
            ],
            [
              -0.09902507066726685,
              0.16395676136016846,
              0.09298808872699738
            ],
            [
              0.012408754788339138,
              -0.031238436698913574,
              -0.08927560597658157
            ],
            [
              0.11828507483005524,
              0.061407510191202164,
              -0.04942585155367851
            ],
            [
              -0.1360241323709488,
              0.003708732547238469,
              -0.04681258276104927
            ],
            [
              0.032321710139513016,
              -0.1125117614865303,
              -0.0247978363186121
            ],
            [
              -0.012589925900101662,
              0.10636134445667267,
              -0.0014128572074696422
            ],
            [
              0.03615138307213783,
              -0.0792372077703476,
              0.03071165829896927
            ],
            [
              -0.0021303468383848667,
              0.004993610084056854,
              -0.10583794116973877
            ]
          ],
          [
            [
              0.009876677766442299,
              -0.20152446627616882,
              -0.07816129177808762
            ],
            [
              0.05493900179862976,
              0.10435011982917786,
              0.028886904940009117
            ],
            [
              -0.11955884844064713,
              -0.11585377156734467,
              0.08038924634456635
            ],
            [
              -0.014624589122831821,
              -0.21276910603046417,
              -0.04128477722406387
            ],
            [
              -0.17344354093074799,
              0.2690967619419098,
              0.15730485320091248
            ],
            [
              0.08395080268383026,
              0.13927319645881653,
              -0.04832764342427254
            ],
            [
              0.0648244246840477,
              -0.2918602228164673,
              0.06397674977779388
            ],
            [
              -0.016432052478194237,
              0.08246257156133652,
              0.027260221540927887
            ],
            [
              -0.29479148983955383,
              -0.04397168010473251,
              0.14404916763305664
            ],
            [
              0.21514536440372467,
              -0.07898815721273422,
              0.17722737789154053
            ],
            [
              -0.00843410287052393,
              0.08875895291566849,
              0.047791216522455215
            ],
            [
              -0.19383181631565094,
              0.08137117326259613,
              0.2308140993118286
            ],
            [
              0.05766396224498749,
              -0.10675016790628433,
              -0.12551084160804749
            ],
            [
              -0.16641458868980408,
              0.02043325826525688,
              0.14168822765350342
            ],
            [
              0.01948670856654644,
              0.02226363494992256,
              -0.037296589463949203
            ],
            [
              0.0627870187163353,
              0.044102199375629425,
              0.03564959019422531
            ]
          ],
          [
            [
              -0.03098458983004093,
              -0.07997569441795349,
              0.21194076538085938
            ],
            [
              0.003501070663332939,
              0.06547492742538452,
              -0.07588499784469604
            ],
            [
              -0.14260365068912506,
              -0.01850713975727558,
              0.03432843089103699
            ],
            [
              0.09330594539642334,
              -0.12105467170476913,
              0.1375599354505539
            ],
            [
              0.020977236330509186,
              -0.11500943452119827,
              0.05392686277627945
            ],
            [
              -0.07488436251878738,
              0.05745154619216919,
              -0.1721629947423935
            ],
            [
              0.06696853041648865,
              0.01472690049558878,
              -0.04985448718070984
            ],
            [
              0.037453316152095795,
              0.0036486072931438684,
              -0.08440331369638443
            ],
            [
              -0.11943283677101135,
              -0.010897280648350716,
              0.04004403203725815
            ],
            [
              0.03418479487299919,
              -0.17464008927345276,
              -0.09129912406206131
            ],
            [
              0.13057732582092285,
              -0.07624651491641998,
              -0.10207188874483109
            ],
            [
              -0.05038529634475708,
              0.041097212582826614,
              0.1498369723558426
            ],
            [
              0.056214310228824615,
              0.0955025926232338,
              0.08505287766456604
            ],
            [
              -0.013003010302782059,
              -0.02808871865272522,
              0.09314555674791336
            ],
            [
              0.15091195702552795,
              -0.016457287594676018,
              -0.0822456106543541
            ],
            [
              -0.17071433365345,
              0.06713894009590149,
              0.15349313616752625
            ]
          ],
          [
            [
              -0.11742524802684784,
              0.10843364894390106,
              -0.025637980550527573
            ],
            [
              0.08684170246124268,
              0.07882566750049591,
              0.038691770285367966
            ],
            [
              -0.014935968443751335,
              0.021107792854309082,
              -0.13370084762573242
            ],
            [
              -0.07359852641820908,
              -0.07552050054073334,
              -0.08456223458051682
            ],
            [
              0.17952902615070343,
              0.181181401014328,
              -0.09395196288824081
            ],
            [
              0.11957578361034393,
              -0.01754658669233322,
              0.11564157158136368
            ],
            [
              0.048885829746723175,
              0.02069557085633278,
              -0.02821679413318634
            ],
            [
              0.02389676682651043,
              0.059542056173086166,
              -0.07087402045726776
            ],
            [
              -0.03335704281926155,
              0.1090908795595169,
              -0.038456037640571594
            ],
            [
              0.06659290939569473,
              -0.017813999205827713,
              0.03786081448197365
            ],
            [
              0.13514292240142822,
              0.022901372984051704,
              -0.17152488231658936
            ],
            [
              -0.021107647567987442,
              -8.120709389913827e-05,
              -0.15235522389411926
            ],
            [
              -0.07481253892183304,
              -0.12217701971530914,
              0.11010341346263885
            ],
            [
              0.004362128674983978,
              0.08001922816038132,
              -0.18698477745056152
            ],
            [
              -0.003011651337146759,
              0.061688534915447235,
              -0.04466850683093071
            ],
            [
              0.011853093281388283,
              0.08656042069196701,
              -0.06860996037721634
            ]
          ],
          [
            [
              0.14200450479984283,
              0.00231262668967247,
              -0.028871843591332436
            ],
            [
              -0.050324518233537674,
              -0.052616264671087265,
              -0.09439988434314728
            ],
            [
              -0.11363485455513,
              -0.053348347544670105,
              0.16265828907489777
            ],
            [
              0.008562707342207432,
              -0.19354864954948425,
              0.11916907131671906
            ],
            [
              0.008591004647314548,
              -0.042140934616327286,
              0.05472660809755325
            ],
            [
              0.08117622137069702,
              0.12417905032634735,
              0.01874307356774807
            ],
            [
              0.039771728217601776,
              -0.06631623953580856,
              0.037448178976774216
            ],
            [
              -0.12583041191101074,
              0.06087030842900276,
              -0.09182823449373245
            ],
            [
              -0.2100948840379715,
              -0.02776634320616722,
              0.2602856159210205
            ],
            [
              -0.04412844404578209,
              -0.09096740186214447,
              -0.09258001297712326
            ],
            [
              0.0053434898145496845,
              0.08452456444501877,
              -0.07731324434280396
            ],
            [
              -0.2764378786087036,
              -0.015593713149428368,
              0.02682226523756981
            ],
            [
              -0.011231206357479095,
              0.011893261224031448,
              -0.10374613851308823
            ],
            [
              -0.0640195980668068,
              -0.07963016629219055,
              0.16032405197620392
            ],
            [
              0.07408049702644348,
              -0.0032045659609138966,
              -0.13573160767555237
            ],
            [
              -0.1382463127374649,
              -0.007248177658766508,
              -0.051448043435811996
            ]
          ],
          [
            [
              0.22034738957881927,
              -0.057948943227529526,
              -0.23810043931007385
            ],
            [
              -0.11186089366674423,
              -0.06439892947673798,
              0.0053701624274253845
            ],
            [
              -0.11689692735671997,
              0.08360608667135239,
              -0.34775814414024353
            ],
            [
              0.12100040167570114,
              -0.14001034200191498,
              -0.2129373550415039
            ],
            [
              -0.11874540895223618,
              0.03257047384977341,
              0.21177054941654205
            ],
            [
              -0.10462236404418945,
              -0.033923447132110596,
              0.09309624135494232
            ],
            [
              0.27025431394577026,
              0.12927447259426117,
              -0.2761828303337097
            ],
            [
              0.08931247144937515,
              -0.08244501799345016,
              0.005484880413860083
            ],
            [
              -0.17060966789722443,
