{
  "model_info": {
    "name": "realtime_6layer",
    "version": "1.0.0",
    "architecture": "WaveNet",
    "causal": true,
    "sample_rate": 44100,
    "receptive_field": 127,
    "latency_ms": 2.88
  },
  "architecture": {
    "channels": 16,
    "num_layers": 6,
    "kernel_size": 3,
    "dilation_base": 2,
    "dilations": [
      1,
      2,
      4,
      8,
      16,
      32
    ]
  },
  "weights": {
    "input_conv": {
      "weight": [
        -0.5243637561798096,
        0.7594786286354065,
        0.8821112513542175,
        -0.2935011088848114,
        1.3377035856246948,
        -0.3915286660194397,
        0.9427803754806519,
        -0.8482269644737244,
        -0.4691828787326813,
        -0.4456559121608734,
        -0.34109848737716675,
        0.801599383354187,
        -0.5276480317115784,
        -0.7775315642356873,
        -1.1926183700561523,
        0.7426849603652954
      ],
      "bias": [
        -0.5862852931022644,
        0.24607627093791962,
        -0.6069645285606384,
        -0.01205721776932478,
        0.07799243927001953,
        -0.7619805335998535,
        -0.6879246234893799,
        -0.8250634074211121,
        -0.00749850133433938,
        0.8834406733512878,
        -0.30980703234672546,
        0.3815295100212097,
        -0.9068262577056885,
        0.6114112734794617,
        0.008481714874505997,
        -0.7598329782485962
      ]
    },
    "residual_blocks": [
      {
        "layer": 0,
        "dilation": 1,
        "conv_weight": [
          [
            [
              0.03978552669286728,
              0.024301592260599136,
              -0.10679379105567932
            ],
            [
              0.06377799808979034,
              0.00887845829129219,
              0.054715026170015335
            ],
            [
              0.04789718985557556,
              0.07978232949972153,
              -0.06681128591299057
            ],
            [
              -0.02046913653612137,
              -0.00661248667165637,
              0.008527381345629692
            ],
            [
              0.0613703615963459,
              0.028159987181425095,
              0.0032200729474425316
            ],
            [
              -0.08788018673658371,
              0.027696391567587852,
              -0.09056884050369263
            ],
            [
              -0.027588600292801857,
              -0.028331782668828964,
              -0.11396700143814087
            ],
            [
              -0.08460888266563416,
              -0.0789584368467331,
              -0.11667685210704803
            ],
            [
              -0.02569878287613392,
              -0.007276677060872316,
              0.00872168317437172
            ],
            [
              0.05810454115271568,
              0.08544052392244339,
              -0.05356955900788307
            ],
            [
              -0.09216281771659851,
              0.038565244525671005,
              -0.007937434129416943
            ],
            [
              0.08928631991147995,
              0.04820233955979347,
              -0.049786072224378586
            ],
            [
              -0.10509171336889267,
              0.0696934312582016,
              -0.025021839886903763
            ],
            [
              0.02647341787815094,
              -0.07994251698255539,
              0.09518350660800934
            ],
            [
              -0.13325996696949005,
              -0.07835909724235535,
              -0.027907012030482292
            ],
            [
              -0.022932734340429306,
              0.04577990621328354,
              -0.09827572107315063
            ]
          ],
          [
            [
              0.024858105927705765,
              0.0076463483273983,
              0.08439329266548157
            ],
            [
              0.10152909904718399,
              0.16117732226848602,
              0.06508781760931015
            ],
            [
              0.2116837501525879,
              0.18076512217521667,
              0.02985912747681141
            ],
            [
              -0.08327557891607285,
              -0.051293570548295975,
              -0.00887150876224041
            ],
            [
              0.24561390280723572,
              0.21425752341747284,
              0.09861155599355698
            ],
            [
              -0.11424840986728668,
              -0.025721566751599312,
              -0.09697417169809341
            ],
            [
              0.02371569722890854,
              0.011608254164457321,
              0.02053430676460266
            ],
            [
              -0.12814921140670776,
              0.06332307308912277,
              -0.10692226886749268
            ],
            [
              -0.13057538866996765,
              -0.08074139803647995,
              0.010226963087916374
            ],
            [
              -0.04232944920659065,
              0.003254878567531705,
              -0.047519490122795105
            ],
            [
              0.05212174728512764,
              -0.08422417938709259,
              -0.060456499457359314
            ],
            [
              0.08926239609718323,
              0.09186039119958878,
              0.011616110801696777
            ],
            [
              0.01023809053003788,
              -0.11670234799385071,
              -0.027299992740154266
            ],
            [
              -0.20976367592811584,
              -0.029232995584607124,
              -0.11011707782745361
            ],
            [
              -0.32858818769454956,
              -0.19948168098926544,
              -0.021350489929318428
            ],
            [
              0.09705366939306259,
              0.09404867142438889,
              0.09497515857219696
            ]
          ],
          [
            [
              -0.024623805657029152,
              -0.12935300171375275,
              -0.10405205935239792
            ],
            [
              0.1030128225684166,
              0.037701915949583054,
              0.16277654469013214
            ],
            [
              -0.03355222940444946,
              0.08564478904008865,
              -0.027067432180047035
            ],
            [
              -0.08632250130176544,
              -0.06498002260923386,
              -0.0412614569067955
            ],
            [
              0.1578759253025055,
              0.2718794047832489,
              0.14859390258789062
            ],
            [
              0.02537257969379425,
              -0.06764529645442963,
              -0.15632091462612152
            ],
            [
              -0.016752159222960472,
              0.17261865735054016,
              0.1450953483581543
            ],
            [
              -0.17533591389656067,
              -0.15459389984607697,
              -0.12373775243759155
            ],
            [
              -0.11256866157054901,
              -0.07489544153213501,
              -0.05267118662595749
            ],
            [
              -0.0878998190164566,
              -0.06784553825855255,
              0.08134002983570099
            ],
            [
              -0.047378119081258774,
              -0.11638102680444717,
              -0.11430303752422333
            ],
            [
              0.20136448740959167,
              0.127332866191864,
              0.010971213690936565
            ],
            [
              -0.026404304429888725,
              -0.10878273844718933,
              0.06619153171777725
            ],
            [
              -0.15180860459804535,
              -0.1748204082250595,
              0.0705372616648674
            ],
            [
              -0.1830231249332428,
              -0.1352013647556305,
              -0.18102099001407623
            ],
            [
              -0.07055848091840744,
              0.037516556680202484,
              -0.05417533218860626
            ]
          ],
          [
            [
              -0.1337267905473709,
              -0.04235536605119705,
              0.002129360567778349
            ],
            [
              0.13044998049736023,
              0.03690319508314133,
              0.09978103637695312
            ],
            [
              0.16717058420181274,
              0.08761098235845566,
              0.11796596646308899
            ],
            [
              -0.08110953867435455,
              -0.040102895349264145,
              -0.04272535443305969
            ],
            [
              0.20066377520561218,
              0.14891532063484192,
              0.06640171259641647
            ],
            [
              0.036556992679834366,
              -0.09111715853214264,
              -0.06754365563392639
            ],
            [
              0.07616457343101501,
              0.036768145859241486,
              0.08428871631622314
            ],
            [
              -0.1394542008638382,
              -0.15138770639896393,
              0.016536729410290718
            ],
            [
              -0.12413313239812851,
              -0.0841183066368103,
              -0.03424246609210968
            ],
            [
              -0.07012737542390823,
              -0.09547209739685059,
              -0.051078177988529205
            ],
            [
              -0.06326205283403397,
              -0.10860750824213028,
              0.03751910477876663
            ],
            [
              0.01233035046607256,
              0.011882282793521881,
              -0.0505942665040493
            ],
            [
              0.021264947950839996,
              -0.12122391164302826,
              0.0902133584022522
            ],
            [
              -0.14164456725120544,
              -0.09775441884994507,
              0.0024444316513836384
            ],
            [
              -0.16246561706066132,
              -0.15613695979118347,
              -0.17694532871246338
            ],
            [
              -0.08260396867990494,
              0.10672956705093384,
              0.019754627719521523
            ]
          ],
          [
            [
              -0.06732827425003052,
              -0.12042884528636932,
              -0.16197475790977478
            ],
            [
              0.14627443253993988,
              -0.025340991094708443,
              0.14495554566383362
            ],
            [
              0.174146831035614,
              0.157073974609375,
              0.028730757534503937
            ],
            [
              -0.196682870388031,
              -0.12258666008710861,
              -0.02999492548406124
            ],
            [
              0.41126418113708496,
              0.194745734333992,
              -0.007033988833427429
            ],
            [
              0.010299845598638058,
              0.03878742456436157,
              -0.05182110518217087
            ],
            [
              0.11229702830314636,
              0.0003653852909337729,
              0.01842483878135681
            ],
            [
              0.053556621074676514,
              -0.13699929416179657,
              0.04821305721998215
            ],
            [
              -0.23849380016326904,
              -0.08343776315450668,
              0.008892078883945942
            ],
            [
              -0.12891709804534912,
              0.08320648223161697,
              0.0628904402256012
            ],
            [
              -0.13166756927967072,
              -0.08573828637599945,
              -0.10097237676382065
            ],
            [
              0.11248651146888733,
              0.008496765047311783,
              0.034336432814598083
            ],
            [
              -0.10844782739877701,
              0.0029585915617644787,
              -0.07829723507165909
            ],
            [
              -0.10844236612319946,
              -0.1531672477722168,
              -0.0070598796010017395
            ],
            [
              -0.37061965465545654,
              -0.27064985036849976,
              -0.05675792321562767
            ],
            [
              0.11572959274053574,
              0.16841991245746613,
              0.07331839948892593
            ]
          ],
          [
            [
              -0.10243793576955795,
              -0.07551515102386475,
              -0.07043509185314178
            ],
            [
              -0.02219303697347641,
              -0.04912352189421654,
              -0.093685582280159
            ],
            [
              -0.18047860264778137,
              -0.15346737205982208,
              -0.18549293279647827
            ],
            [
              0.051290448755025864,
              0.056630346924066544,
              0.06508176028728485
            ],
            [
              -0.1694277971982956,
              -0.1988934874534607,
              -0.2716938257217407
            ],
            [
              0.005854798015207052,
              -0.004556884523481131,
              0.0808115154504776
            ],
            [
              -0.08919771015644073,
              -0.16955071687698364,
              -0.08060329407453537
            ],
            [
              -0.027571721002459526,
              -0.032817330211400986,
              0.1038094088435173
            ],
            [
              0.08193300664424896,
              0.08949629962444305,
              0.09971028566360474
            ],
            [
              0.09069953113794327,
              -0.02503431960940361,
              0.030899733304977417
            ],
            [
              -0.03605170175433159,
              -0.06594815850257874,
              0.06689679622650146
            ],
            [
              0.0729840025305748,
              -0.08104084432125092,
              -0.008268622681498528
            ],
            [
              -0.08621622622013092,
              -0.08805777877569199,
              -0.04547405615448952
            ],
            [
              0.023937460035085678,
              0.07761960476636887,
              0.10438430309295654
            ],
            [
              0.20259560644626617,
              0.2141122817993164,
              0.27095136046409607
            ],
            [
              -0.07650750875473022,
              -0.09595843404531479,
              -0.11958794295787811
            ]
          ],
          [
            [
              -0.132997527718544,
              -0.03709748759865761,
              0.0020697182044386864
            ],
            [
              0.00557700777426362,
              0.1649097055196762,
              0.14288276433944702
            ],
            [
              0.05051182210445404,
              -0.052313607186079025,
              0.04004848748445511
            ],
            [
              -0.08376419544219971,
              -0.08603738993406296,
              -0.0827789232134819
            ],
            [
              0.32197636365890503,
              0.3211858570575714,
              0.2522315979003906
            ],
            [
              -0.11475982517004013,
              -0.029334258288145065,
              -0.10329067707061768
            ],
            [
              0.11670391261577606,
              0.03759152814745903,
              -0.024795223027467728
            ],
            [
              -0.004911683965474367,
              -0.04120936244726181,
              -0.062337830662727356
            ],
            [
              -0.10402004420757294,
              -0.10943009704351425,
              -0.10153341293334961
            ],
            [
              -0.055002689361572266,
              0.06962670385837555,
              -0.06811602413654327
            ],
            [
              -0.10799375921487808,
              -0.03824656456708908,
              -0.11215968430042267
            ],
            [
              -0.009390457533299923,
              0.08590585738420486,
              0.14265264570713043
            ],
            [
              -0.11060714721679688,
              -0.03258673846721649,
              -0.154514342546463
            ],
            [
              0.007568140979856253,
              -0.04710317403078079,
              -0.1248241439461708
            ],
            [
              -0.34664633870124817,
              -0.3594881296157837,
              -0.3573007881641388
            ],
            [
              -0.025192758068442345,
              -0.061391331255435944,
              0.1269128918647766
            ]
          ],
          [
            [
              0.06756756454706192,
              0.054772667586803436,
              0.05295418202877045
            ],
            [
              -0.016079317778348923,
              0.050282105803489685,
              0.07045142352581024
            ],
            [
              0.04763278737664223,
              -0.14692552387714386,
              -0.05919116362929344
            ],
            [
              0.006352879106998444,
              0.03337186574935913,
              0.018466081470251083
            ],
            [
              0.14632122218608856,
              0.08020118623971939,
              0.005867260508239269
            ],
            [
              -0.11941340565681458,
              0.04429991915822029,
              -0.16403788328170776
            ],
            [
              -0.0979030653834343,
              0.08326145261526108,
              0.07968169450759888
            ],
            [
              -0.0068114628084003925,
              0.06711962819099426,
              0.0701179951429367
            ],
            [
              0.033173251897096634,
              0.042876262217760086,
              0.0043579875491559505
            ],
            [
              -0.08491207659244537,
              0.12178239226341248,
              -0.09483285248279572
            ],
            [
              -0.011301945894956589,
              -0.07588056474924088,
              -0.04318089783191681
            ],
            [
              0.1560535430908203,
              0.048354603350162506,
              0.04767116531729698
            ],
            [
              -0.10332699865102768,
              -0.1447436362504959,
              -0.01091774646192789
            ],
            [
              0.023056719452142715,
              0.09984510391950607,
              0.11969339102506638
            ],
            [
              -0.032689087092876434,
              0.030663153156638145,
              0.07612775266170502
            ],
            [
              -0.055418044328689575,
              -0.14403361082077026,
              0.017669202759861946
            ]
          ],
          [
            [
              -0.008473140187561512,
              0.04310424625873566,
              -0.044568970799446106
            ],
            [
              -0.2859339714050293,
              -0.07685774564743042,
              -0.09217976778745651
            ],
            [
              -0.05912340432405472,
              -0.020210107788443565,
              0.0109120924025774
            ],
            [
              0.1975795328617096,
              0.07609563320875168,
              0.022944247350096703
            ],
            [
              -0.4632641077041626,
              -0.43722423911094666,
              -0.19204315543174744
            ],
            [
              -0.04508998245000839,
              -0.05845718830823898,
              -0.09469986706972122
            ],
            [
              -0.18259118497371674,
              -0.21223434805870056,
              0.01082675065845251
            ],
            [
              0.16883310675621033,
              0.08904822915792465,
              0.08725567162036896
            ],
            [
              0.22928571701049805,
              0.13642947375774384,
              0.0525946170091629
            ],
            [
              0.09473317861557007,
              0.13177797198295593,
              0.007933050394058228
            ],
            [
              0.14058057963848114,
              -0.01714327000081539,
              0.07872095704078674
            ],
            [
              -0.22402654588222504,
              -0.13374146819114685,
              -0.11503878980875015
            ],
            [
              -0.010770479217171669,
              0.0512426532804966,
              -0.11301843822002411
            ],
            [
              0.08826585859060287,
              0.14963501691818237,
              0.016280045732855797
            ],
            [
              0.4387489855289459,
              0.2900760769844055,
              0.2601366639137268
            ],
            [
              -0.06205296516418457,
              0.014017942361533642,
              -0.03660277649760246
            ]
          ],
          [
            [
              0.0851617380976677,
              0.11591683328151703,
              0.0241199042648077
            ],
            [
              -0.09252879023551941,
              -0.020744694396853447,
              -0.05560077726840973
            ],
            [
              -0.09812092781066895,
              -0.027241835370659828,
              -0.009452716447412968
            ],
            [
              0.051849719136953354,
              0.04934385418891907,
              0.030348140746355057
            ],
            [
              -0.2504037022590637,
              -0.11821294575929642,
              -0.20883725583553314
            ],
            [
              -0.057551342993974686,
              0.01944408379495144,
              -0.10037564486265182
            ],
            [
              -0.05751267075538635,
              0.1080552265048027,
              0.0922379344701767
            ],
            [
              0.11154378950595856,
              0.14326006174087524,
              0.04134100675582886
            ],
            [
              0.07609675079584122,
              0.06621844321489334,
              0.029583992436528206
            ],
            [
              -0.0942082554101944,
              -0.11713750660419464,
              0.10367779433727264
            ],
            [
              -0.07396065443754196,
              0.07156098634004593,
              -0.009631000459194183
            ],
            [
              -0.023375138640403748,
              0.06497165560722351,
              -0.1577189713716507
            ],
            [
              0.11773433536291122,
              0.07312516868114471,
              -0.05062839388847351
            ],
            [
              -0.0879075825214386,
              -0.05809178575873375,
              0.00811078678816557
            ],
            [
              0.21593095362186432,
              0.16932867467403412,
              0.12261908501386642
            ],
            [
              -0.0475267730653286,
              -0.10432888567447662,
              0.0876554399728775
            ]
          ],
          [
            [
              -0.1464850753545761,
              0.06865978986024857,
              0.04691522568464279
            ],
            [
              0.13446898758411407,
              0.06565618515014648,
              -0.019654713571071625
            ],
            [
              -0.10857032984495163,
              0.047482412308454514,
              0.05503850802779198
            ],
            [
              -0.04950236901640892,
              -0.020743941888213158,
              0.01533960085362196
            ],
            [
              0.22740744054317474,
              0.05220272019505501,
              0.04529394954442978
            ],
            [
              0.014942280016839504,
              0.08791586756706238,
              0.0994681641459465
            ],
            [
              -0.06963592767715454,
              0.038821104913949966,
              0.06843812763690948
            ],
            [
              -0.15153315663337708,
              -0.15672020614147186,
              -0.001327048521488905
            ],
            [
              -0.06999306380748749,
              -0.010061928071081638,
              0.01833624392747879
            ],
            [
              -0.03946629911661148,
              0.00452454574406147,
              -0.002217174507677555
            ],
            [
              -0.07695901393890381,
              0.027083680033683777,
              0.024595696479082108
            ],
            [
              0.09896750003099442,
              -0.02817225269973278,
              -0.08667659759521484
            ],
            [
              -0.16282567381858826,
              0.021887633949518204,
              -0.13908647000789642
            ],
            [
              -0.060682520270347595,
              -0.03963975980877876,
              0.08379993587732315
            ],
            [
              -0.1824776977300644,
              -0.1325376033782959,
              0.004080289509147406
            ],
            [
              0.08517365902662277,
              0.09457243978977203,
              -0.06601865589618683
            ]
          ],
          [
            [
              -0.07379980385303497,
              0.06367944180965424,
              -0.07067064195871353
            ],
            [
              0.07857754826545715,
              -0.02134990319609642,
              0.02676827646791935
            ],
            [
              -0.06635046005249023,
              0.016650794073939323,
              0.08974463492631912
            ],
            [
              -0.0315856859087944,
              -0.04073818400502205,
              -0.032125912606716156
            ],
            [
              0.05671947821974754,
              0.09689754992723465,
              0.2228161245584488
            ],
            [
              0.047073621302843094,
              0.02685670368373394,
              -0.05054464191198349
            ],
            [
              0.09025793522596359,
              0.11257290095090866,
              0.006792840547859669
            ],
            [
              -0.019707147032022476,
              0.09633665531873703,
              -0.09485921263694763
            ],
            [
              -0.05556807294487953,
              -0.06034750118851662,
              -0.05380934476852417
            ],
            [
              0.019272655248641968,
              -0.10459186136722565,
              0.028468996286392212
            ],
            [
              0.09691004455089569,
              0.04000662639737129,
              0.012437893077731133
            ],
            [
              -0.007432903628796339,
              0.0200705174356699,
              -0.07282976806163788
            ],
            [
              0.12704916298389435,
              0.029918234795331955,
              0.034022994339466095
            ],
            [
              0.06639238446950912,
              0.057867638766765594,
              0.010828094556927681
            ],
            [
              -0.07478279620409012,
              -0.15363220870494843,
              -0.1990347057580948
            ],
            [
              -0.02680600807070732,
              -0.06252419948577881,
              0.13519714772701263
            ]
          ],
          [
            [
              -0.10221235454082489,
              0.05549651384353638,
              -0.15156878530979156
            ],
            [
              0.03792421892285347,
              -0.03557555004954338,
              0.0560658797621727
            ],
            [
              0.06499461084604263,
              -0.12958887219429016,
              0.015819447115063667
            ],
            [
              0.0017582847503945231,
              -0.0009048262727446854,
              -0.01374712772667408
            ],
            [
              0.04352695122361183,
              0.09650430828332901,
              0.109280526638031
            ],
            [
              -0.10566055774688721,
              -0.01968325302004814,
              -0.004865635652095079
            ],
            [
              -0.15539319813251495,
              -0.060404159128665924,
              0.03142295032739639
            ],
            [
              0.018183598294854164,
              -0.1626599133014679,
              -0.18655510246753693
            ],
            [
              -0.0014091983903199434,
              -0.011861633509397507,
              -0.01597072184085846
            ],
            [
              0.14400745928287506,
              -0.04341059550642967,
              0.1596873700618744
            ],
            [
              -0.0735752061009407,
              -0.13361912965774536,
              0.04759747162461281
            ],
            [
              -0.019850200042128563,
              0.09318821877241135,
              -0.016788730397820473
            ],
            [
              -0.18619103729724884,
              0.033887315541505814,
              -0.16604940593242645
            ],
            [
              -0.040250033140182495,
              0.025607746094465256,
              0.05441516265273094
            ],
            [
              -0.06562718003988266,
              -0.06851368397474289,
              -0.039327409118413925
            ],
            [
              0.0036078765988349915,
              0.0849778950214386,
              -0.1444314569234848
            ]
          ],
          [
            [
              0.008511897176504135,
              -0.04201282560825348,
              0.022286424413323402
            ],
            [
              -0.02503632940351963,
              0.022342663258314133,
              -0.13465450704097748
            ],
            [
              0.024743760004639626,
              -0.04156544804573059,
              0.10368232429027557
            ],
            [
              0.00205664592795074,
              0.01683535985648632,
              0.02323790080845356
            ],
            [
              -0.11387603729963303,
              -0.08047937601804733,
              -0.044984981417655945
            ],
            [
              0.002390045439824462,
              -0.064908966422081,
              -0.06207570433616638
            ],
            [
              0.10183989256620407,
              0.008813412860035896,
              0.1314232498407364
            ],
            [
              0.07511303573846817,
              0.10759002715349197,
              0.04834991320967674
            ],
            [
              0.017245803028345108,
              0.03592836111783981,
              0.02664317563176155
            ],
            [
              -0.10394864529371262,
              -0.10173606127500534,
              0.06835775077342987
            ],
            [
              0.11177541315555573,
              -0.02002987265586853,
              0.045211028307676315
            ],
            [
              -0.022661922499537468,
              -0.090704545378685,
              -0.05675207078456879
            ],
            [
              0.0037538360338658094,
              0.1028466746211052,
              0.13248410820960999
            ],
            [
              0.09793389588594437,
              -0.06125962734222412,
              0.03557027876377106
            ],
            [
              -0.010827154852449894,
              0.021191876381635666,
              0.11829642206430435
            ],
            [
              0.05031539872288704,
              0.017753470689058304,
              0.1323380321264267
            ]
          ],
          [
            [
              -0.13809062540531158,
              0.027644559741020203,
              -0.10441404581069946
            ],
            [
              0.09377817809581757,
              0.07535389065742493,
              0.05417582020163536
            ],
            [
              0.10060403496026993,
              0.11800839751958847,
              0.09609587490558624
            ],
            [
              -0.054372888058423996,
              -0.04183421656489372,
              -0.045257795602083206
            ],
            [
              0.23323896527290344,
              0.2129715383052826,
              0.18286921083927155
            ],
            [
              -0.04760942608118057,
              -0.04902099445462227,
              -0.09015925228595734
            ],
            [
              -0.027301933616399765,
              -0.046179529279470444,
              0.12256982922554016
            ],
            [
              -0.041746869683265686,
              0.09996668994426727,
              -0.13347940146923065
            ],
            [
              -0.06622487306594849,
              -0.065273217856884,
              -0.04434959590435028
            ],
            [
              -0.08873453736305237,
              0.02368948794901371,
              -0.010389890521764755
            ],
            [
              -0.0070212604478001595,
              0.06986416131258011,
              0.026666639372706413
            ],
            [
              -0.017830153927206993,
              -0.03271206468343735,
              0.06392767280340195
            ],
            [
              0.026110684499144554,
              -0.07159856706857681,
              0.049419134855270386
            ],
            [
              0.0070916130207479,
              -0.009604107588529587,
              -0.08789994567632675
            ],
            [
              -0.2419596165418625,
              -0.22431467473506927,
              -0.05382315814495087
            ],
            [
              0.07842597365379333,
              0.09234782308340073,
              -0.03815445676445961
            ]
          ],
          [
            [
              -0.03649865463376045,
              -0.03575190529227257,
              -0.13203619420528412
            ],
            [
              -0.004874195903539658,
              0.015886997804045677,
              0.07917089760303497
            ],
            [
              -0.07356056571006775,
              -0.04092396795749664,
              0.057291507720947266
            ],
            [
              -0.043850455433130264,
              -0.04830605536699295,
              -0.04383226856589317
            ],
            [
              0.11146202683448792,
              0.24083422124385834,
              0.15763737261295319
            ],
            [
              0.04303283989429474,
              0.021919207647442818,
              -0.13338448107242584
            ],
            [
              0.15323412418365479,
              -0.04136405140161514,
              -0.07558982819318771
            ],
            [
              -0.09187966585159302,
              0.04814381152391434,
              0.05010190233588219
            ],
            [
              -0.04503506049513817,
              -0.04976074770092964,
              -0.07044017314910889
            ],
            [
              -0.08256220072507858,
              -0.06677653640508652,
              0.0211930014193058
            ],
            [
              -0.08872537314891815,
              -0.09209497272968292,
              -0.13118858635425568
            ],
            [
              0.10520797222852707,
              0.05823989585042,
              0.05719204992055893
            ],
            [
              -0.0035664255265146494,
              -0.13843196630477905,
              -0.13988424837589264
            ],
            [
              -0.04270928353071213,
              0.08120319992303848,
              0.10128095746040344
            ],
            [
              -0.1748928427696228,
              -0.21026138961315155,
              -0.2438242882490158
            ],
            [
              0.06281838566064835,
              -0.024648388847708702,
              0.07433561235666275
            ]
          ]
        ],
        "conv_bias": [
          0.026420816779136658,
          0.02130005694925785,
          -0.07128550112247467,
          0.09994658827781677,
          0.027619728818535805,
          0.04166873171925545,
          0.09498710185289383,
          0.09191619604825974,
          -0.07394881546497345,
          -0.128065288066864,
          0.06748727709054947,
          -0.08878134936094284,
          -0.029427403584122658,
          0.07273494452238083,
          0.11412832140922546,
          0.12560434639453888
        ]
      },
      {
        "layer": 1,
        "dilation": 2,
        "conv_weight": [
          [
            [
              -0.020181693136692047,
              -0.060538869351148605,
              -0.15331703424453735
            ],
            [
              0.07874388992786407,
              0.012966906651854515,
              0.11600785702466965
            ],
            [
              0.041920050978660583,
              0.14432524144649506,
              -0.13172034919261932
            ],
            [
              0.08267007023096085,
              -0.009869717992842197,
              -0.07130857557058334
            ],
            [
              0.18402716517448425,
              0.06964915990829468,
              0.04100007563829422
            ],
            [
              -0.11603637039661407,
              -0.025659281760454178,
              0.016716856509447098
            ],
            [
              0.16263602674007416,
              0.018680131062865257,
              -0.005418191198259592
            ],
            [
              0.09166068583726883,
              0.08128179609775543,
              0.021393299102783203
            ],
            [
              -0.2408791035413742,
              -0.1920795887708664,
              -0.06815113872289658
            ],
            [
              -0.15366360545158386,
              -0.029678191989660263,
              -0.006194153800606728
            ],
            [
              0.11456256359815598,
              -0.04328569769859314,
              -0.04512782394886017
            ],
            [
              0.014892036095261574,
              -0.09847100079059601,
              0.09389474987983704
            ],
            [
              -0.03838089108467102,
              0.1163533478975296,
              -0.02948886901140213
            ],
            [
              -0.023726657032966614,
              -0.020131118595600128,
              0.1507711410522461
            ],
            [
              -0.00013922553625889122,
              -0.03103325143456459,
              0.043389495462179184
            ],
            [
              0.08615907281637192,
              -0.009726581163704395,
              0.01345045305788517
            ]
          ],
          [
            [
              0.0028577831108123064,
              0.00808185525238514,
              0.031249376013875008
            ],
            [
              -0.18746791779994965,
              0.016183683648705482,
              0.05895640701055527
            ],
            [
              -0.1497924029827118,
              0.164822518825531,
              0.1833791434764862
            ],
            [
              -0.16691520810127258,
              0.0107408557087183,
              0.11590871959924698
            ],
            [
              -0.1739884316921234,
              -0.02274508774280548,
              0.14477066695690155
            ],
            [
              0.055132947862148285,
              -0.07043589651584625,
              -0.13457560539245605
            ],
            [
              -0.04275781288743019,
              0.06208411976695061,
              0.03279748186469078
            ],
            [
              -0.08004598319530487,
              -0.015159469097852707,
              -0.01862102933228016
            ],
            [
              0.09449279308319092,
              -0.01923551969230175,
              -0.1266023963689804
            ],
            [
              0.08898594975471497,
              -0.00406852038577199,
              0.0035450139548629522
            ],
            [
              -0.0019525468815118074,
              0.04852565750479698,
              0.053647730499506
            ],
            [
              0.03089124709367752,
              0.041593559086322784,
              0.012022380717098713
            ],
            [
              0.01867145299911499,
              -0.099611297249794,
              -0.013139931485056877
            ],
            [
              0.0023051812313497066,
              -0.12129686027765274,
              -0.06805166602134705
            ],
            [
              -0.03799447789788246,
              0.011775352992117405,
              0.1204041913151741
            ],
            [
              -0.1621820628643036,
              -0.014446384273469448,
              0.0038226544857025146
            ]
          ],
          [
            [
              0.03680102899670601,
              0.02806117758154869,
              -0.008738349191844463
            ],
            [
              -0.05945786461234093,
              0.055584851652383804,
              -0.06471376121044159
            ],
            [
              -0.08648260682821274,
              -0.030888838693499565,
              -0.027602355927228928
            ],
            [
              0.004057140555232763,
              -0.07202713936567307,
              0.017131248489022255
            ],
            [
              -0.015895523130893707,
              0.06787174195051193,
              0.016313467174768448
            ],
            [
              0.16719168424606323,
              -0.019867360591888428,
              -0.12155665457248688
            ],
            [
              -0.08835199475288391,
              -0.04099837318062782,
              0.04209687560796738
            ],
            [
              0.0077415634877979755,
              -0.05585756525397301,
              -0.037515345960855484
            ],
            [
              0.029294714331626892,
              0.0743841752409935,
              -0.06722071766853333
            ],
            [
              0.12168189138174057,
              0.030305929481983185,
              0.03798787668347359
            ],
            [
              -0.008750668726861477,
              -0.06119639426469803,
              0.07496271282434464
            ],
            [
              -0.018578791990876198,
              -0.0018883846933022141,
              -0.0815759226679802
            ],
            [
              -0.058458469808101654,
              0.05140924081206322,
              0.07303940504789352
            ],
            [
              0.018542954698204994,
              -0.06834755092859268,
              -0.04254956543445587
            ],
            [
              -0.008238425478339195,
              0.004853367805480957,
              0.00837107002735138
            ],
            [
              -0.023634636774659157,
              -0.12708239257335663,
              -0.04411907494068146
            ]
          ],
          [
            [
              -0.10895609110593796,
              -0.06727179139852524,
              -0.045219406485557556
            ],
            [
              -0.030116302892565727,
              -0.00735488161444664,
              0.08065318316221237
            ],
            [
              -0.10341521352529526,
              0.15581735968589783,
              0.1776161938905716
            ],
            [
              -0.16558876633644104,
              -0.025416210293769836,
              0.03231815993785858
            ],
            [
              -0.214117169380188,
              0.019797170534729958,
              -0.015533673577010632
            ],
            [
              0.0051285685040056705,
              -0.15732063353061676,
              -0.15959641337394714
            ],
            [
              0.058743808418512344,
              0.1675029695034027,
              0.13734234869480133
            ],
            [
              0.09612143039703369,
              -0.02730703167617321,
              0.07259756326675415
            ],
            [
              0.13677670061588287,
              0.09936072677373886,
              -0.012714088894426823
            ],
            [
              -0.12291589379310608,
              -0.013451606035232544,
              -0.07092653959989548
            ],
            [
              -0.015366718173027039,
              -0.09324386715888977,
              0.018570510670542717
            ],
            [
              0.04691262170672417,
              0.2056521624326706,
              0.19374582171440125
            ],
            [
              0.017490115016698837,
              -0.0732882022857666,
              -0.07680192589759827
            ],
            [
              -0.04670032113790512,
              -0.06387915462255478,
              0.00436448073014617
            ],
            [
              -0.07255750894546509,
              -0.0591677650809288,
              0.02893812395632267
            ],
            [
              0.10266780853271484,
              0.14819028973579407,
              0.09603344649076462
            ]
          ],
          [
            [
              -0.03268911689519882,
              0.07541628181934357,
              -0.045284297317266464
            ],
            [
              0.1340220719575882,
              0.008973532356321812,
              -0.0030120995361357927
            ],
            [
              0.19447267055511475,
              0.10084749758243561,
              -0.2287781536579132
            ],
            [
              0.11622216552495956,
              -0.0676964670419693,
              -0.11785054206848145
            ],
            [
              0.08898500353097916,
              -0.018528645858168602,
              -0.17324577271938324
            ],
            [
              -0.12550336122512817,
              -0.11087007820606232,
              -0.0327206589281559
            ],
            [
              0.23533205687999725,
              0.010946329683065414,
              -0.02946917712688446
            ],
            [
              -0.047955360263586044,
              -0.09981151670217514,
              0.08617822080850601
            ],
            [
              -0.19951194524765015,
              -0.08263842761516571,
              0.09848209470510483
            ],
            [
              -0.06263630837202072,
              -0.12595167756080627,
              0.07760179787874222
            ],
            [
              0.07591941207647324,
              -0.021913859993219376,
              0.014560608193278313
            ],
            [
              0.039483342319726944,
              0.06090905889868736,
              0.07759784162044525
            ],
            [
              -0.0005305759841576219,
              -0.048088494688272476,
              -0.020555583760142326
            ],
            [
              0.001383146271109581,
              -0.10738400369882584,
              0.059551358222961426
            ],
            [
              -0.030235765501856804,
              0.046798575669527054,
              -0.05491369962692261
            ],
            [
              0.1336687058210373,
              -0.008533995598554611,
              0.021019402891397476
            ]
          ],
          [
            [
              0.0505223423242569,
              0.03126023709774017,
              -0.00721091590821743
            ],
            [
              0.30499884486198425,
              -0.01549551822245121,
              -0.20144973695278168
            ],
            [
              0.3005882799625397,
              -0.08404950052499771,
              -0.3663119375705719
            ],
            [
              0.25297409296035767,
              -0.061769597232341766,
              -0.17810606956481934
            ],
            [
              0.37588855624198914,
              -0.10826683044433594,
              -0.24835827946662903
            ],
            [
              -0.0907633975148201,
              -0.005058438517153263,
              0.03936187922954559
            ],
            [
              0.22118611633777618,
              -0.036992788314819336,
              -0.2870942950248718
            ],
            [
              -0.0372321791946888,
              0.005843848921358585,
              0.07081528753042221
            ],
            [
              -0.35223156213760376,
              0.004698624834418297,
              0.24146020412445068
            ],
            [
              -0.133638396859169,
              0.08938130736351013,
              0.22638587653636932
            ],
            [
              0.14772072434425354,
              -0.0018145208014175296,
              -0.14070579409599304
            ],
            [
              0.13219361007213593,
              -0.00841865036636591,
              -0.14222632348537445
            ],
            [
              0.046860817819833755,
              0.023402642458677292,
              0.06135106459259987
            ],
            [
              -0.18116958439350128,
              0.058378346264362335,
              0.1211167573928833
            ],
            [
              0.1822383552789688,
              -0.026096615940332413,
              0.016438446938991547
            ],
            [
              0.17400895059108734,
              -0.11919447034597397,
              -0.25749659538269043
            ]
          ],
          [
            [
              0.012767181731760502,
              -0.08291400969028473,
              -0.1361360102891922
            ],
            [
              0.012282617390155792,
              -0.10792185366153717,
              0.08085355907678604
            ],
            [
              -0.20844097435474396,
              -0.06731844693422318,
              0.1721472591161728
            ],
            [
              -0.12890037894248962,
              -0.00946727767586708,
              0.13511700928211212
            ],
            [
              -0.12955327332019806,
              0.031865108758211136,
              0.35794761776924133
            ],
            [
              0.14760372042655945,
              -0.01931280829012394,
              -0.13630090653896332
            ],
            [
              -0.1951746642589569,
              -0.14501319825649261,
              0.18883708119392395
            ],
            [
              -0.00523616187274456,
              -0.05734211578965187,
              -0.179664745926857
            ],
            [
              0.007751807104796171,
              -0.04914075508713722,
              -0.2580162286758423
            ],
            [
              0.11603723466396332,
              0.027578387409448624,
              0.027096692472696304
            ],
            [
              0.01707746833562851,
              -0.1380661576986313,
              -0.008285028859972954
            ],
            [
              -0.17836664617061615,
              -0.05636347830295563,
              0.14810551702976227
            ],
            [
              -0.0493444986641407,
              0.07664837688207626,
              -0.030934076756238937
            ],
            [
              0.04334341362118721,
              -0.0758502408862114,
              -0.20931008458137512
            ],
            [
              -0.0646953284740448,
              -0.19636504352092743,
              0.0731332004070282
            ],
            [
              -0.016440272331237793,
              -0.04968717694282532,
              0.1732240915298462
            ]
          ],
          [
            [
              -0.040427934378385544,
              -0.05637112632393837,
              -0.05965343862771988
            ],
            [
              0.13628266751766205,
              -0.08413039147853851,
              0.02618095465004444
            ],
            [
              0.18433375656604767,
              0.120717354118824,
              -0.18864332139492035
            ],
            [
              0.05612039193511009,
              -0.09667941927909851,
              -0.11534304916858673
            ],
            [
              0.18190674483776093,
              0.05455590784549713,
              -0.009084277786314487
            ],
            [
              -0.10546020418405533,
              0.0795530453324318,
              -0.0732763484120369
            ],
            [
              0.13667237758636475,
              -0.07265768200159073,
              -0.15960024297237396
            ],
            [
              -0.05450545251369476,
              0.08508419990539551,
              0.04080585017800331
            ],
            [
              -0.10510942339897156,
              -0.020905543118715286,
              0.17496943473815918
            ],
            [
              0.062114641070365906,
              -0.08339447528123856,
              -0.031154148280620575
            ],
            [
              0.029560795053839684,
              0.11310702562332153,
              0.01590593531727791
            ],
            [
              0.05026669800281525,
              0.05265520140528679,
              -0.0770503431558609
            ],
            [
              -0.05479181930422783,
              -0.009355109184980392,
              -0.04682772234082222
            ],
            [
              -0.03373192250728607,
              -0.039979491382837296,
              0.031267981976270676
            ],
            [
              0.10546306520700455,
              -0.11788170784711838,
              0.0972856804728508
            ],
            [
              -0.010369749739766121,
              -0.06125786527991295,
              -0.08019232004880905
            ]
          ],
          [
            [
              -0.007639707997441292,
              -0.015839168801903725,
              -0.05335260555148125
            ],
            [
              0.09911594539880753,
              -0.10899868607521057,
              -0.046632613986730576
            ],
            [
              0.0324324406683445,
              0.017917750403285027,
              -0.02782006375491619
            ],
            [
              0.02883307822048664,
              0.04301612079143524,
              -0.0781397894024849
            ],
            [
              -0.013947766274213791,
              -0.04209045320749283,
              -0.20824861526489258
            ],
            [
              0.046361587941646576,
              0.04246266931295395,
              0.046880971640348434
            ],
            [
              0.008752714842557907,
              -0.13010141253471375,
              -0.08776936680078506
            ],
            [
              0.07648786902427673,
              0.03317578136920929,
              0.13318051397800446
            ],
            [
              -0.08124779909849167,
              -0.05654885247349739,
              0.1792374700307846
            ],
            [
              0.009174645878374577,
              -0.07674463093280792,
              -0.05145964026451111
            ],
            [
              0.00863714050501585,
              -0.139032781124115,
              -0.05411425977945328
            ],
            [
              -0.0023954841308295727,
              -0.09447415173053741,
              -0.06611844152212143
            ],
            [
              -0.02048477716743946,
              -0.01950860768556595,
              -0.07891197502613068
            ],
            [
              0.05514124035835266,
              0.0650496631860733,
              -0.016614796593785286
            ],
            [
              -0.005388081539422274,
              -0.07570941001176834,
              -0.08935819566249847
            ],
            [
              0.14040546119213104,
              -0.033448878675699234,
              0.014370998367667198
            ]
          ],
          [
            [
              -0.11399460583925247,
              -0.02157040871679783,
              -0.011071432381868362
            ],
            [
              -0.14482401311397552,
              -0.04856628179550171,
              0.09094312787055969
            ],
            [
              0.06843263655900955,
              -0.08955266326665878,
              -0.09552419185638428
            ],
            [
              -0.018238438293337822,
              -0.06619914621114731,
              0.03626472130417824
            ],
            [
              -0.20762060582637787,
              -0.12471488863229752,
              -0.12146243453025818
            ],
            [
              0.002599285915493965,
              0.10741986334323883,
              -0.03978835418820381
            ],
            [
              0.04874615743756294,
              -0.044889867305755615,
              -0.09908062219619751
            ],
            [
              -0.07303214818239212,
              -0.12149001657962799,
              0.060636647045612335
            ],
            [
              0.07867886126041412,
              -0.0030548220966011286,
              -0.06234259158372879
            ],
            [
              0.06464190781116486,
              -0.13454660773277283,
              -0.05378732830286026
            ],
            [
              -0.06837377697229385,
              -0.10690856724977493,
              -0.08098401129245758
            ],
            [
              0.004416273906826973,
              -0.05295849218964577,
              0.03233685716986656
            ],
            [
              -0.03744838759303093,
              -0.09141253679990768,
              -0.016414616256952286
            ],
            [
              -0.033351145684719086,
              -0.038848552852869034,
              0.015723612159490585
            ],
            [
              0.03456868976354599,
              0.0699029490351677,
              -0.08295967429876328
            ],
            [
              0.04026895761489868,
              -0.061245396733284,
              0.05675537511706352
            ]
          ],
          [
            [
              0.0272506196051836,
              0.010178987868130207,
              0.024354247376322746
            ],
            [
              -0.07165468484163284,
              0.11522719264030457,
              0.07202429324388504
            ],
            [
              -0.006597022991627455,
              0.0580114983022213,
              -0.04938686266541481
            ],
            [
              0.018464570865035057,
              -0.026251163333654404,
              -0.00017189147183671594
            ],
            [
              -0.07908032089471817,
              0.039794281125068665,
              0.0330793522298336
            ],
            [
              -0.13480865955352783,
              -0.08654311299324036,
              -0.005368211306631565
            ],
            [
              -0.006658031139522791,
              0.017858406528830528,
              0.060676224529743195
            ],
            [
              -0.0765267163515091,
              -0.052459679543972015,
              0.08028024435043335
            ],
            [
              0.03802924230694771,
              -0.07020697742700577,
              0.0002526268654037267
            ],
            [
              0.028547152876853943,
              -0.06275758892297745,
              -0.035328175872564316
            ],
            [
              0.06483465433120728,
              -0.09111575037240982,
              -0.06652535498142242
            ],
            [
              0.04751911386847496,
              0.0962567999958992,
              -0.08971960097551346
            ],
            [
              -0.05309423431754112,
              -0.0071358405984938145,
              -0.07309544086456299
            ],
            [
              -0.055660493671894073,
              -0.10547486692667007,
              -0.059775568544864655
            ],
            [
              0.03923187032341957,
              0.0011303456267341971,
              0.04208901897072792
            ],
            [
              0.0023493326734751463,
              -0.049180056899785995,
              0.04849108308553696
            ]
          ],
          [
            [
              -0.03672004118561745,
              -0.04794326424598694,
              0.04508090764284134
            ],
            [
              -0.21806730329990387,
              0.03325176239013672,
              0.25876814126968384
            ],
            [
              -0.2526046633720398,
              -0.01486731506884098,
              0.1718617081642151
            ],
            [
              -0.1573234498500824,
              0.16069136559963226,
              0.11160214990377426
            ],
            [
              -0.3412589728832245,
              0.019633380696177483,
              0.32913365960121155
            ],
            [
              0.03638743609189987,
              0.07303979992866516,
              0.06471386551856995
            ],
            [
              -0.1402527242898941,
              -0.056942883878946304,
              0.14421933889389038
            ],
            [
              0.08267822116613388,
              -0.08475203067064285,
              0.019989611580967903
            ],
            [
              0.34155845642089844,
              -0.11433582752943039,
              -0.23142722249031067
            ],
            [
              0.1941552609205246,
              0.04044674336910248,
              0.022062867879867554
            ],
            [
              -0.10573114454746246,
              -0.08516588062047958,
              0.11566556990146637
            ],
            [
              -0.23111827671527863,
              -0.07858431339263916,
              -0.0632643923163414
            ],
            [
              0.11340107023715973,
              -0.04664555937051773,
              -0.07726091891527176
            ],
            [
              0.02671685628592968,
              0.02844874933362007,
              -0.14462262392044067
            ],
            [
              -0.12284045666456223,
              0.09468521177768707,
              0.14326336979866028
            ],
            [
              -0.1671433299779892,
              0.03984000161290169,
              0.05786720663309097
            ]
          ],
          [
            [
              0.05320459231734276,
              0.03876291587948799,
              -0.02198035828769207
            ],
            [
              0.11728015542030334,
              -0.04710809141397476,
              -0.03268696740269661
            ],
            [
              0.286684513092041,
              0.02409616857767105,
              -0.1352270543575287
            ],
            [
              0.0032152431085705757,
              0.06647095829248428,
              -0.09927891939878464
            ],
            [
              0.26934733986854553,
              0.1388644129037857,
              -0.004464157857000828
            ],
            [
              0.03205688297748566,
              0.13433660566806793,
              -0.09155692160129547
            ],
            [
              0.2851535975933075,
              0.1876358836889267,
              -0.09851936250925064
            ],
            [
              -0.07851585000753403,
              -0.040330670773983,
              -0.0827806144952774
            ],
            [
              -0.28485170006752014,
              -0.0819689929485321,
              0.1296575665473938
            ],
            [
              -0.010969923809170723,
              0.010133299976587296,
              0.03178791329264641
            ],
            [
              0.015612122602760792,
              0.004008324351161718,
              -0.06812186539173126
            ],
            [
              0.09933961182832718,
              0.010847275145351887,
              0.12093670666217804
            ],
            [
              -0.08871614187955856,
              -0.03548155725002289,
              -0.08305338770151138
            ],
            [
              -0.09804201126098633,
              0.0036107320338487625,
              0.024578243494033813
            ],
            [
              0.04263604059815407,
              -0.10072455555200577,
              0.06427422910928726
            ],
            [
              0.12051322311162949,
              0.025861406698822975,
              -0.09012910723686218
            ]
          ],
          [
            [
              0.038520824164152145,
              0.03090866282582283,
              0.001793400733731687
            ],
            [
              0.11769776791334152,
              -0.07130143791437149,
              -0.1426045447587967
            ],
            [
              -0.0642457902431488,
              -0.11983292549848557,
              -0.0011952286586165428
            ],
            [
              0.10709179192781448,
              -0.09580264240503311,
              0.030287543311715126
            ],
            [
              0.05910889431834221,
              -0.044801171869039536,
              -0.21153713762760162
            ],
            [
              -0.013474030420184135,
              -0.028644142672419548,
              0.00892834272235632
            ],
            [
              -0.08829036355018616,
              0.06296613067388535,
              -0.11512885242700577
            ],
            [
              -0.0899222120642662,
              -0.029372839257121086,
              -0.062290702015161514
            ],
            [
              -0.04936066269874573,
              0.16358906030654907,
              0.001958246110007167
            ],
            [
              -0.0024610981345176697,
              0.09876734763383865,
              0.002319580176845193
            ],
            [
              0.07051218301057816,
              -0.07593235373497009,
              -0.007672005333006382
            ],
            [
              0.05136864259839058,
              -0.004625926725566387,
              -0.09304171800613403
            ],
            [
              0.030629873275756836,
              0.11446133255958557,
              -0.06108801066875458
            ],
            [
              -0.08179347962141037,
              -0.0850050151348114,
              -0.0337514653801918
            ],
            [
              -0.08682166039943695,
              0.051183030009269714,
              -0.04021316394209862
            ],
            [
              0.07885517179965973,
              -0.14516934752464294,
              -0.0893743559718132
            ]
          ],
          [
            [
              0.03772076964378357,
              0.006366993300616741,
              -0.050906356424093246
            ],
            [
              0.06789948791265488,
              0.09817105531692505,
              -0.027490487322211266
            ],
            [
              0.11315033584833145,
              0.10329864919185638,
              0.02949063666164875
            ],
            [
              0.15953105688095093,
              0.02009071409702301,
              -0.013875535689294338
            ],
            [
              0.1830916404724121,
              0.12689143419265747,
              -0.05857916548848152
            ],
            [
              -0.021002139896154404,
              -0.07743087410926819,
              -0.11886345595121384
            ],
            [
              0.10928383469581604,
              0.09681515395641327,
              -0.0023812917061150074
            ],
            [
              0.08838576823472977,
              0.11727861315011978,
              -0.08637502789497375
            ],
            [
              -0.3531065881252289,
              -0.1380639225244522,
              0.011873092502355576
            ],
            [
              -0.01935773715376854,
              0.058818407356739044,
              -0.044484943151474
            ],
            [
              0.038346875458955765,
              0.004853305872529745,
              -0.0027421710547059774
            ],
            [
              0.015008555725216866,
              -0.028041111305356026,
              0.08015011996030807
            ],
            [
              -0.04268546774983406,
              0.054153624922037125,
              -0.04311105236411095
            ],
            [
              -0.04366520419716835,
              -0.07380388677120209,
              0.05453692376613617
            ],
            [
              -0.009747406467795372,
              -0.11190779507160187,
              -0.016226520761847496
            ],
            [
              0.14712084829807281,
              0.072957344353199,
              0.010083789005875587
            ]
          ],
          [
            [
              -0.021356191486120224,
              -0.08668545633554459,
              -0.11455662548542023
            ],
            [
              -0.20129401981830597,
              -0.10931403189897537,
              0.23754732310771942
            ],
            [
              -0.09979946166276932,
              -0.11498437076807022,
              0.15172116458415985
            ],
            [
              -0.1271236091852188,
              -0.11596479266881943,
              0.09674360603094101
            ],
            [
              -0.22919286787509918,
              -0.08673696219921112,
              0.2903117537498474
            ],
            [
              0.018642041832208633,
              -0.0019785098265856504,
              -0.1685921549797058
            ],
            [
              -0.2184610217809677,
              -0.12289116531610489,
              0.24216628074645996
            ],
            [
              0.10274147987365723,
              -0.13302652537822723,
              -0.12118173390626907
            ],
            [
              0.26477888226509094,
              0.047108687460422516,
              -0.02453666925430298
            ],
            [
              0.028847169131040573,
              -0.062077026814222336,
              0.012448974885046482
            ],
            [
              -0.1332441121339798,
              -0.03530482202768326,
              -0.015228000469505787
            ],
            [
              0.056080564856529236,
              0.026348181068897247,
              0.16726088523864746
            ],
            [
              0.06436476111412048,
              -0.0968700721859932,
              -0.07969412207603455
            ],
            [
              0.10491488873958588,
              -0.11614757031202316,
              -0.23699793219566345
            ],
            [
              -0.060482367873191833,
              0.01127114612609148,
              0.05836320295929909
            ],
            [
              -0.21959035098552704,
              -0.03153562918305397,
              0.13809175789356232
            ]
          ]
        ],
        "conv_bias": [
          -0.12892483174800873,
          0.033257078379392624,
          -0.048781007528305054,
          0.07484059035778046,
          0.08063212037086487,
          -0.07466922700405121,
          -0.014272136613726616,
          0.0767090693116188,
          -0.0695871114730835,
          0.08364959806203842,
          -0.09430355578660965,
          -0.08797622472047806,
          0.10559702664613724,
          -0.06885625422000885,
          0.06899866461753845,
          -0.05385179445147514
        ]
      },
      {
        "layer": 2,
        "dilation": 4,
        "conv_weight": [
          [
            [
              0.07861734181642532,
              -0.018066849559545517,
              0.02626834064722061
            ],
            [
              -0.22088560461997986,
              -0.037515927106142044,
              0.009366470389068127
            ],
            [
              -0.1650431901216507,
              -0.04789433255791664,
              0.030376918613910675
            ],
            [
              -0.16520117223262787,
              0.05593212693929672,
              -0.035728029906749725
            ],
            [
              -0.20566125214099884,
              0.11187931895256042,
              0.2578531503677368
            ],
            [
              0.1789403110742569,
              -0.13126716017723083,
              -0.11122976988554001
            ],
            [
              -0.07612427324056625,
              0.1915196031332016,
              0.04707128554582596
            ],
            [
              -0.07864069193601608,
              -0.10970396548509598,
              0.00043178547639399767
            ],
            [
              0.1971634477376938,
              0.019498310983181,
              -0.16321009397506714
            ],
            [
              0.1278076469898224,
              0.020717430859804153,
              -0.1423875242471695
            ],
            [
              -0.20253697037696838,
              -0.04599389061331749,
              0.05733416602015495
            ],
            [
              -0.06938888132572174,
              0.05128224939107895,
              -0.026001621037721634
            ],
            [
              0.06962352246046066,
              0.13761064410209656,
              0.10652176290750504
            ],
            [
              0.03425096720457077,
              -0.04603666439652443,
              0.1223546490073204
            ],
            [
              0.008597183972597122,
              -0.05977059155702591,
              0.1452074497938156
            ],
            [
              -0.09856021404266357,
              0.20199328660964966,
              -0.07396263629198074
            ]
          ],
          [
            [
              -0.028119191527366638,
              -0.10984716564416885,
              -0.09764837473630905
            ],
            [
              -0.02897338569164276,
              -0.09842989593744278,
              0.03829245641827583
            ],
            [
              0.0022586898412555456,
              -0.0028148433193564415,
              -0.1019582524895668
            ],
            [
              0.0853346735239029,
              -0.10028138011693954,
              -0.04634600877761841
            ],
            [
              -0.18614497780799866,
              -0.06649650633335114,
              0.018415067344903946
            ],
            [
              -0.04156317189335823,
              0.07777713239192963,
              -0.1246999055147171
            ],
            [
              -0.12959682941436768,
              0.014156852848827839,
              -0.09363449364900589
            ],
            [
              -0.08570852130651474,
              0.08687318861484528,
              -0.032201774418354034
            ],
            [
              0.023581359535455704,
              0.11734321713447571,
              0.05952441692352295
            ],
            [
              -0.014019139111042023,
              -0.031675584614276886,
              -0.09312368929386139
            ],
            [
              0.009142044931650162,
              -0.06710642576217651,
              -0.05505982041358948
            ],
            [
              0.03288069739937782,
              -0.08800606429576874,
              0.09560903161764145
            ],
            [
              0.0321061834692955,
              -0.05774250254034996,
              -0.05189558491110802
            ],
            [
              0.06596264988183975,
              0.11042311787605286,
              -0.06591308861970901
            ],
            [
              -0.14466816186904907,
              -0.07797735184431076,
              -0.014718463644385338
            ],
            [
              0.07710758596658707,
              -0.053805284202098846,
              0.015299944207072258
            ]
          ],
          [
            [
              -0.18357022106647491,
              -0.05355406180024147,
              0.15303267538547516
            ],
            [
              0.007846798747777939,
              -0.04274297505617142,
              0.21272419393062592
            ],
            [
              -0.2847193777561188,
              -0.15786710381507874,
              0.10894317924976349
            ],
            [
              -0.067434161901474,
              0.04483223333954811,
              0.19061830639839172
            ],
            [
              -0.32078662514686584,
              0.0023494986817240715,
              0.23089483380317688
            ],
            [
              -0.0014973898651078343,
              -0.05108931288123131,
              -0.4539662003517151
            ],
            [
              -0.2124243676662445,
              0.16983069479465485,
              0.3710508942604065
            ],
            [
              0.04098104313015938,
              0.03429831564426422,
              -0.12240549921989441
            ],
            [
              0.163426473736763,
              0.07635527849197388,
              -0.3673110008239746
            ],
            [
              0.23307910561561584,
              0.01770601235330105,
              -0.01583511382341385
            ],
            [
              -0.033590372651815414,
              -0.12008640915155411,
              0.11091120541095734
            ],
            [
              0.20414625108242035,
              0.10312552005052567,
              0.29053547978401184
            ],
            [
              -0.12351611256599426,
              -0.05221808701753616,
              0.1571492850780487
            ],
            [
              0.2091187983751297,
              -0.11251591145992279,
              -0.35609927773475647
            ],
            [
              -0.2598869800567627,
              -0.07101132720708847,
              0.09478311240673065
            ],
            [
              -0.0024406833108514547,
              -0.01605469360947609,
              0.23628365993499756
            ]
          ],
          [
            [
              0.212793231010437,
              -0.15198099613189697,
              -0.0739254280924797
            ],
            [
              -0.08133069425821304,
              -0.04189606010913849,
              0.03220638260245323
            ],
            [
              0.05218581482768059,
              0.050965484231710434,
              0.04174266383051872
            ],
            [
              -0.18819625675678253,
              -0.18072909116744995,
              -0.0624697282910347
            ],
            [
              0.24919568002223969,
              0.08489204198122025,
              -0.18402475118637085
            ],
            [
              0.29199546575546265,
              0.12756317853927612,
              0.09216395765542984
            ],
            [
              0.06179831176996231,
              -0.13509634137153625,
              -0.04284275323152542
            ],
            [
              0.26276835799217224,
              0.02251753956079483,
              0.012617206200957298
            ],
            [
              -0.10267473012208939,
              0.07173792272806168,
              -0.006776495836675167
            ],
            [
              -0.08612388372421265,
              0.020251329988241196,
              0.17536072432994843
            ],
            [
              0.049956001341342926,
              -0.15809877216815948,
              -0.07060106843709946
            ],
            [
              -0.6202137470245361,
              -0.04296305403113365,
              0.056314267218112946
            ],
            [
              0.30536890029907227,
              0.011941364035010338,
              -0.05322195589542389
            ],
            [
              0.04475226625800133,
              0.03851133957505226,
              0.11633751541376114
            ],
            [
              0.28686103224754333,
              0.04519728198647499,
              -0.1497015506029129
            ],
            [
              -0.40253162384033203,
              0.06428112834692001,
              0.04922626540064812
            ]
          ],
          [
            [
              0.0435265451669693,
              0.10779233276844025,
              -0.11442800611257553
            ],
            [
              -0.144948348402977,
              0.21406273543834686,
              0.03451084345579147
            ],
            [
              0.12079450488090515,
              0.19421342015266418,
              -0.06300752609968185
            ],
            [
              -0.08720829337835312,
              0.1724155992269516,
              -0.05662504583597183
            ],
            [
              -0.14747361838817596,
              0.06556156277656555,
              0.04815350100398064
            ],
            [
              0.09140338748693466,
              -0.2679632902145386,
              -0.030976612120866776
            ],
            [
              -0.017407948151230812,
              0.18870238959789276,
              -0.14088740944862366
            ],
            [
              0.036551885306835175,
              -0.08416243642568588,
              0.09429532289505005
            ],
            [
              0.09607144445180893,
              -0.08548981696367264,
              0.08582065999507904
            ],
            [
              0.01286601833999157,
              -0.011823109351098537,
              -0.018001945689320564
            ],
            [
              0.04632999002933502,
              0.06357663124799728,
              -0.13610917329788208
            ],
            [
              0.0046524303033947945,
              0.08239088207483292,
              -0.24203303456306458
            ],
            [
              0.021322548389434814,
              -0.029512429609894753,
              0.06847884505987167
            ],
            [
              -0.06719234585762024,
              -0.2339990884065628,
              -0.06271906942129135
            ],
            [
              0.045315973460674286,
              -0.01670851930975914,
              -0.07282232493162155
            ],
            [
              -0.013266479596495628,
              0.21613557636737823,
              -0.10965561866760254
            ]
          ],
          [
            [
              -0.037404514849185944,
              0.08662425726652145,
              -0.06923718750476837
            ],
            [
              0.025136731564998627,
              -0.10341182351112366,
              -0.04285541549324989
            ],
            [
              -0.09085562080144882,
              0.03794454410672188,
              -0.15503115952014923
            ],
            [
              0.002082148566842079,
              -0.04103299230337143,
              -0.09595407545566559
            ],
            [
              -0.17657873034477234,
              0.08769387006759644,
              0.07098670303821564
            ],
            [
              -0.07621096819639206,
              -0.01523342914879322,
              -0.05440942943096161
            ],
            [
              -0.0843876376748085,
              -0.07614383846521378,
              -0.004938472528010607
            ],
            [
              -0.08011353760957718,
              -0.01610628329217434,
              0.11003834754228592
            ],
            [
              0.08938394486904144,
              -0.07301362603902817,
              0.1378858983516693
            ],
            [
              0.15372006595134735,
              -0.07254442572593689,
              -0.09754818677902222
            ],
            [
              0.13722753524780273,
              0.02067185565829277,
              0.11627264320850372
            ],
            [
              0.1054755449295044,
              -0.038540858775377274,
              0.02314910478889942
            ],
            [
              -0.18188288807868958,
              -0.03160780295729637,
              -0.09959642589092255
            ],
            [
              -0.042970214039087296,
              -0.08894623070955276,
              0.0017490488244220614
            ],
            [
              -0.13461703062057495,
              0.09166428446769714,
              -0.04143365100026131
            ],
            [
              0.1035885214805603,
              -0.06052357330918312,
              0.04160080850124359
            ]
          ],
          [
            [
              0.19636107981204987,
              -0.07938694953918457,
              -0.08117111772298813
            ],
            [
              0.036770254373550415,
              -0.09769061207771301,
              0.06625962257385254
            ],
            [
              -0.0035084239207208157,
              -0.1060938611626625,
              -0.07096942514181137
            ],
            [
              -0.09997238218784332,
              0.013199255801737309,
              0.01341921929270029
            ],
            [
              0.11036119610071182,
              -0.031529515981674194,
              0.13065718114376068
            ],
            [
              0.1176321804523468,
              0.08035078644752502,
              -0.2925872802734375
            ],
            [
              0.08058173209428787,
              -0.05577683448791504,
              0.1064457893371582
            ],
            [
              -0.06720038503408432,
              0.08989236503839493,
              0.08428218960762024
            ],
            [
              0.12104455381631851,
              0.12583376467227936,
              0.050378236919641495
            ],
            [
              -0.09679407626390457,
              0.12453866750001907,
              -0.09923148900270462
            ],
            [
              -0.07179717719554901,
              0.04178712144494057,
              0.10983211547136307
            ],
            [
              0.04337469860911369,
              -0.1704728901386261,
              0.09866809844970703
            ],
            [
              0.08095290511846542,
              0.08178283274173737,
              -0.08425887674093246
            ],
            [
              -0.03536766394972801,
              0.04021226242184639,
              0.005061755422502756
            ],
            [
              0.053387247025966644,
              0.1428932100534439,
              0.03199421614408493
            ],
            [
              -0.05870473012328148,
              -0.15691381692886353,
              -0.021685805171728134
            ]
          ],
          [
            [
              -0.1247592642903328,
              0.07378845661878586,
              0.13530239462852478
            ],
            [
              0.002880855230614543,
              0.15016204118728638,
              -0.029526641592383385
            ],
            [
              0.07161801308393478,
              0.09988660365343094,
              0.07918182760477066
            ],
            [
              -0.08888153731822968,
              0.1065952405333519,
              0.11862721294164658
            ],
            [
              -0.12390705943107605,
              -0.09602867811918259,
              0.08727865666151047
            ],
            [
              0.0030663684010505676,
              -0.14663764834403992,
              0.12474944442510605
            ],
            [
              -0.10117600113153458,
              0.16583292186260223,
              0.1255052238702774
            ],
            [
              -0.10157608985900879,
              0.008076190948486328,
              -0.029427675530314445
            ],
            [
              0.09770633280277252,
              -0.15826857089996338,
              -0.09261249750852585
            ],
            [
              -0.004641429521143436,
              -0.06761229783296585,
              -0.05833151191473007
            ],
            [
              0.07167287915945053,
              -0.03520427271723747,
              -0.07912470400333405
            ],
            [
              0.09239630401134491,
              0.0884602814912796,
              -0.0009948845254257321
            ],
            [
              -0.20233474671840668,
              0.006615751888602972,
              -0.12382793426513672
            ],
            [
              0.15350937843322754,
              0.010258196853101254,
              0.13027241826057434
            ],
            [
              -0.12178710103034973,
              -0.007908611558377743,
              0.08116864413022995
            ],
            [
              -0.03280140459537506,
              0.17999380826950073,
              -0.09517814964056015
            ]
          ],
          [
            [
              0.1068878024816513,
              -0.015948759391903877,
              -0.039843738079071045
            ],
            [
              0.15726815164089203,
              0.027147233486175537,
              0.09351346641778946
            ],
            [
              0.08749468624591827,
              0.013197619467973709,
              -0.0292157381772995
            ],
            [
              -0.03818544000387192,
              0.06027064099907875,
              -0.18014176189899445
            ],
            [
              0.14610061049461365,
              0.22126337885856628,
              0.08961402624845505
            ],
            [
              0.1502784639596939,
              -0.11293940246105194,
              0.2432502657175064
            ],
            [
              0.23573629558086395,
              0.20561251044273376,
              -0.16136734187602997
            ],
            [
              -0.10744325071573257,
              0.0010320913279429078,
              -0.03607177734375
            ],
            [
              -0.09787298738956451,
              -0.24215276539325714,
              -0.09215497225522995
            ],
            [
              -0.08770779520273209,
              -0.006434073206037283,
              0.07431776076555252
            ],
            [
              0.010542643256485462,
              0.12602725625038147,
              -0.05182813107967377
            ],
            [
              -0.1835528165102005,
              0.18666744232177734,
              -0.06605420261621475
            ],
            [
              0.1559385359287262,
              0.07248294353485107,
              0.11663457751274109
            ],
            [
              -0.038709890097379684,
              -0.1976432502269745,
              0.03965424373745918
            ],
            [
              0.22077243030071259,
              0.11639995872974396,
              0.0023399279452860355
            ],
            [
              -0.23939000070095062,
              -0.06092160567641258,
              -0.00765038700774312
            ]
          ],
          [
            [
              0.07766159623861313,
              0.11762844026088715,
              -0.014207275584340096
            ],
            [
              0.034717828035354614,
              -0.11635931581258774,
              -0.02105770632624626
            ],
            [
              -0.05848110839724541,
              -0.0416070930659771,
              -0.04334147274494171
            ],
            [
              -0.06906896829605103,
              0.097969189286232,
              -0.13055802881717682
            ],
            [
              -0.11866001784801483,
              0.06821506470441818,
              -0.09639082849025726
            ],
            [
              0.03839756175875664,
              -0.05884496867656708,
              0.13321103155612946
            ],
            [
              0.06400745362043381,
              -0.027824485674500465,
              -0.08555620163679123
            ],
            [
              -0.033179160207509995,
              -0.011203762143850327,
              0.035563062876462936
            ],
            [
              -0.1349128931760788,
              0.11642530560493469,
              0.13714800775051117
            ],
            [
              0.12239925563335419,
              0.08530034869909286,
              -0.12073854357004166
            ],
            [
              0.025889886543154716,
              0.09175407141447067,
              -0.04577742516994476
            ],
            [
              0.11747821420431137,
              0.01053185760974884,
              -0.09902122616767883
            ],
            [
              -0.058875516057014465,
              -0.14351679384708405,
              -0.12225738167762756
            ],
            [
              -0.07116632908582687,
              0.14519274234771729,
              0.08705989271402359
            ],
            [
              0.08869201689958572,
              -0.07974164187908173,
              0.06253000348806381
            ],
            [
              0.12394183874130249,
              -0.09679808467626572,
              -0.013129428960382938
            ]
          ],
          [
            [
              -0.11162107437849045,
              -0.08529064804315567,
              0.026464330032467842
            ],
            [
              0.11275360733270645,
              0.15169449150562286,
              0.16558349132537842
            ],
            [
              -0.05276217684149742,
              0.017004121094942093,
              0.10016077011823654
            ],
            [
              -0.09481124579906464,
              0.15354783833026886,
              0.16980181634426117
            ],
            [
              -0.16710114479064941,
              0.16301439702510834,
              0.15868324041366577
            ],
            [
              -0.09415549784898758,
              -0.1507299840450287,
              -0.051728107035160065
            ],
            [
              -0.1015058159828186,
              0.1893453299999237,
              0.04921906813979149
            ],
            [
              -0.20587673783302307,
              -0.06534620374441147,
              0.016396107152104378
            ],
            [
              0.17630727589130402,
              -0.050115328282117844,
              -0.11046243458986282
            ],
            [
              0.182170107960701,
              -0.09915991127490997,
              0.04478137940168381
            ],
            [
              -0.1961020976305008,
              -0.05254696309566498,
              -0.08786733448505402
            ],
            [
              0.13843658566474915,
              0.11278171837329865,
              -0.11720691621303558
            ],
            [
              -0.18875707685947418,
              -0.09609878808259964,
              -0.1003168597817421
            ],
            [
              0.009500335901975632,
              0.020657025277614594,
              0.02888527885079384
            ],
            [
              0.020802294835448265,
              -0.09932465851306915,
              0.07326870411634445
            ],
            [
              0.019125426188111305,
              0.07303805649280548,
              -0.08510369807481766
            ]
          ],
          [
            [
              0.206220805644989,
              0.07276272028684616,
              -0.06461220234632492
            ],
            [
              0.14251913130283356,
              -0.026076389476656914,
              -0.24871772527694702
            ],
            [
              0.18530461192131042,
              -0.008813619613647461,
              -0.051942408084869385
            ],
            [
              -0.039898552000522614,
              0.10365812480449677,
              -0.2586895227432251
            ],
            [
              0.09806892275810242,
              0.13985978066921234,
              -0.18161439895629883
            ],
            [
              0.061180230230093,
              0.0953761637210846,
              0.3508533537387848
            ],
            [
              0.255062460899353,
              -0.040268491953611374,
              -0.13146737217903137
            ],
            [
              0.07809696346521378,
              0.15023666620254517,
              0.077367402613163
            ],
            [
              -0.16706447303295135,
              -0.05221863090991974,
              0.310619980096817
            ],
            [
              -0.03395901620388031,
              0.07565566152334213,
              0.012707781046628952
            ],
            [
              0.058747220784425735,
              0.07542786747217178,
              -0.03215254843235016
            ],
            [
              -0.19556722044944763,
              -0.0731256753206253,
              -0.270519495010376
            ],
            [
              0.1418159157037735,
              0.11377570033073425,
              -0.11300969868898392
            ],
            [
              -0.04754761606454849,
              -0.050562988966703415,
              0.20799358189105988
            ],
            [
              0.14729243516921997,
              0.0024955347180366516,
              -0.0628502145409584
            ],
            [
              -0.02454586699604988,
              -0.1315866857767105,
              -0.13763825595378876
            ]
          ],
          [
            [
              -0.23841512203216553,
              0.12706050276756287,
              -0.09288552403450012
            ],
            [
              -0.08879894763231277,
              0.18079471588134766,
              0.057931482791900635
            ],
            [
              -0.13127470016479492,
              0.09531059861183167,
              -0.08376219868659973
            ],
            [
              -0.034708172082901,
              0.08274321258068085,
              -0.10156410187482834
            ],
            [
              -0.03755287453532219,
              0.09131215512752533,
              0.10829608142375946
            ],
            [
              -0.15603727102279663,
              -0.22365106642246246,
              0.12811097502708435
            ],
            [
              0.030706599354743958,
              0.2628496289253235,
              -0.06702841073274612
            ],
            [
              -0.06463427096605301,
              -0.06860396265983582,
              0.030933596193790436
            ],
            [
              0.07525533437728882,
              -0.2013460248708725,
