{
  "model_info": {
    "name": "flstudio_test",
    "version": "1.0.0",
    "architecture": "WaveNet",
    "causal": true,
    "sample_rate": 44100,
    "receptive_field": 127,
    "latency_ms": 2.88
  },
  "architecture": {
    "channels": 16,
    "num_layers": 6,
    "kernel_size": 3,
    "dilation_base": 2,
    "dilations": [
      1,
      2,
      4,
      8,
      16,
      32
    ]
  },
  "weights": {
    "input_conv": {
      "weight": [
        0.9438338279724121,
        1.125407099723816,
        0.2199171483516693,
        0.6680901646614075,
        1.1191596984863281,
        -0.26615625619888306,
        1.030503511428833,
        0.5192224979400635,
        -1.0160133838653564,
        0.7412313222885132,
        -0.49685338139533997,
        0.6997988820075989,
        0.7609056234359741,
        0.4894627034664154,
        0.4430639147758484,
        0.7064917087554932
      ],
      "bias": [
        0.022383766248822212,
        0.6795367002487183,
        -0.6111955046653748,
        0.005393428727984428,
        0.19849176704883575,
        -0.6126123666763306,
        0.228254497051239,
        0.6216281652450562,
        0.2280704379081726,
        -0.35891270637512207,
        -0.6092604994773865,
        0.4286373257637024,
        0.598746657371521,
        -0.333697110414505,
        0.6494730710983276,
        -0.9037743210792542
      ]
    },
    "residual_blocks": [
      {
        "layer": 0,
        "dilation": 1,
        "conv_weight": [
          [
            [
              0.0876799151301384,
              0.11546780169010162,
              0.1522756665945053
            ],
            [
              0.03186425194144249,
              0.05523647740483284,
              -0.08605649322271347
            ],
            [
              -0.00426170090213418,
              0.04801882058382034,
              0.15004503726959229
            ],
            [
              0.05956726893782616,
              0.03408786654472351,
              0.0905517041683197
            ],
            [
              0.027148772031068802,
              0.0061805760487914085,
              -0.08998142182826996
            ],
            [
              -0.09463118016719818,
              -0.09242520481348038,
              -0.004449876490980387
            ],
            [
              0.09478485584259033,
              0.01681230589747429,
              0.1461573988199234
            ],
            [
              0.1035672277212143,
              -0.004300903063267469,
              0.08364340662956238
            ],
            [
              -0.020379245281219482,
              -0.0650046318769455,
              0.024654464796185493
            ],
            [
              -0.01637696474790573,
              -0.016808299347758293,
              0.08335758745670319
            ],
            [
              0.14661677181720734,
              0.005488133989274502,
              -0.0830458551645279
            ],
            [
              -0.07794887572526932,
              0.10945203900337219,
              -0.043669845908880234
            ],
            [
              -0.10999681055545807,
              -0.0864478349685669,
              0.04415920004248619
            ],
            [
              0.038772810250520706,
              0.16301649808883667,
              0.09350641816854477
            ],
            [
              0.013692095875740051,
              0.05670527368783951,
              -0.1195131316781044
            ],
            [
              -0.05066531524062157,
              -0.052352599799633026,
              -0.10684097558259964
            ]
          ],
          [
            [
              0.20801909267902374,
              0.14110666513442993,
              0.07683739066123962
            ],
            [
              -0.055645525455474854,
              -0.10519283264875412,
              -0.04477275535464287
            ],
            [
              0.052129194140434265,
              0.05577392131090164,
              0.18250775337219238
            ],
            [
              0.16360679268836975,
              0.18398994207382202,
              0.225023090839386
            ],
            [
              0.05563154071569443,
              0.01740805245935917,
              0.17857930064201355
            ],
            [
              -0.0947958454489708,
              0.045815933495759964,
              0.09819413721561432
            ],
            [
              0.026601221412420273,
              0.06645476818084717,
              -0.03752534091472626
            ],
            [
              0.05692247673869133,
              0.11300813406705856,
              -0.031531333923339844
            ],
            [
              -0.12098623067140579,
              -0.04459599032998085,
              -0.24405021965503693
            ],
            [
              0.09110204130411148,
              0.17259396612644196,
              0.017102353274822235
            ],
            [
              0.09220807254314423,
              -0.10557302087545395,
              -0.006038017105311155
            ],
            [
              0.09911549091339111,
              -0.051521606743335724,
              -0.1046796664595604
            ],
            [
              0.06660659611225128,
              -0.04038141667842865,
              -0.01146068423986435
            ],
            [
              -0.014805627055466175,
              0.06684204936027527,
              0.22219569981098175
            ],
            [
              0.007380303926765919,
              0.061176616698503494,
              -0.10709809511899948
            ],
            [
              0.1468174308538437,
              -0.020936477929353714,
              0.09434327483177185
            ]
          ],
          [
            [
              -0.17707155644893646,
              -0.13917426764965057,
              0.02381746657192707
            ],
            [
              -0.05792934447526932,
              -0.09467407315969467,
              -0.11507506668567657
            ],
            [
              -0.11072058975696564,
              -0.08383199572563171,
              -0.14136353135108948
            ],
            [
              -0.10716903209686279,
              -0.11030212044715881,
              -0.09285207092761993
            ],
            [
              -0.1725279986858368,
              -0.16749240458011627,
              0.03775346279144287
            ],
            [
              0.011690115556120872,
              0.01190886925905943,
              -0.03828033059835434
            ],
            [
              -0.16265837848186493,
              0.08221437782049179,
              -0.1517554074525833
            ],
            [
              -0.13018569350242615,
              0.03230314329266548,
              0.07807115465402603
            ],
            [
              -0.020718736574053764,
              -0.02925238385796547,
              0.13514578342437744
            ],
            [
              -0.14775313436985016,
              -0.16203483939170837,
              -0.0347122885286808
            ],
            [
              0.12398216873407364,
              -0.10261020809412003,
              -0.032441526651382446
            ],
            [
              0.0065308259800076485,
              0.09010437875986099,
              0.0950186625123024
            ],
            [
              0.1153535395860672,
              -0.05355134233832359,
              0.07705114781856537
            ],
            [
              0.0089745307341218,
              -0.11898400634527206,
              0.07037793844938278
            ],
            [
              0.014736860059201717,
              -0.021776296198368073,
              0.13464811444282532
            ],
            [
              -0.11641954630613327,
              -0.05593216046690941,
              -0.006490311585366726
            ]
          ],
          [
            [
              -0.10805420577526093,
              -0.32218843698501587,
              -0.11201228201389313
            ],
            [
              0.01078179944306612,
              -0.0394541472196579,
              -0.17326970398426056
            ],
            [
              -0.01337869931012392,
              -0.0878867581486702,
              -0.03332598879933357
            ],
            [
              -0.23765689134597778,
              -0.23229995369911194,
              -0.18773089349269867
            ],
            [
              -0.21638663113117218,
              -0.16688930988311768,
              -0.19877250492572784
            ],
            [
              -0.12324713170528412,
              0.11661139130592346,
              0.014153064228594303
            ],
            [
              -0.07575906068086624,
              -0.023534836247563362,
              -0.17727747559547424
            ],
            [
              0.0875701904296875,
              -0.02029414102435112,
              -0.10748082399368286
            ],
            [
              0.08080895245075226,
              0.1238187626004219,
              0.06491628289222717
            ],
            [
              -0.20802228152751923,
              -0.2016444355249405,
              0.053521718829870224
            ],
            [
              0.004782448057085276,
              0.1671508401632309,
              -0.05175309628248215
            ],
            [
              -0.18310651183128357,
              -0.1899539828300476,
              -0.09324736148118973
            ],
            [
              -0.10369844734668732,
              -0.00910395011305809,
              -0.19142261147499084
            ],
            [
              -0.18057051301002502,
              -0.17784474790096283,
              -0.03145335987210274
            ],
            [
              -0.13495630025863647,
              -0.10676391422748566,
              0.09383375197649002
            ],
            [
              -0.03243538737297058,
              -0.12824229896068573,
              -0.14891472458839417
            ]
          ],
          [
            [
              0.25136178731918335,
              0.07639283686876297,
              0.04328819736838341
            ],
            [
              0.16529403626918793,
              0.05742425471544266,
              -0.06054993346333504
            ],
            [
              0.07142993062734604,
              -0.04467741772532463,
              0.10247055441141129
            ],
            [
              0.2033199965953827,
              0.2097862958908081,
              0.05273749679327011
            ],
            [
              0.07895099371671677,
              0.016677148640155792,
              0.1859230250120163
            ],
            [
              -0.10988602042198181,
              -0.13017965853214264,
              0.0374317429959774
            ],
            [
              0.10422473400831223,
              0.009752629324793816,
              -0.04244859516620636
            ],
            [
              0.12787339091300964,
              -0.08952348679304123,
              -0.027340533211827278
            ],
            [
              -0.16809241473674774,
              -0.2642502188682556,
              -0.11898863315582275
            ],
            [
              0.0025222660042345524,
              0.18132910132408142,
              0.0007887421525083482
            ],
            [
              -0.13961127400398254,
              0.052551329135894775,
              -0.15185417234897614
            ],
            [
              0.025657648220658302,
              -0.05514980107545853,
              -0.041096847504377365
            ],
            [
              0.10091455280780792,
              -0.017345119267702103,
              0.0906546339392662
            ],
            [
              0.1763426661491394,
              0.15911942720413208,
              0.1934884637594223
            ],
            [
              0.05399036407470703,
              0.030250554904341698,
              -0.08914758265018463
            ],
            [
              0.007827574387192726,
              0.14293578267097473,
              0.03847753629088402
            ]
          ],
          [
            [
              0.0927656814455986,
              0.07583801448345184,
              -0.04916457086801529
            ],
            [
              0.10391529649496078,
              -0.1071816235780716,
              -0.060966964811086655
            ],
            [
              -0.08743178099393845,
              -0.034230418503284454,
              0.042499445378780365
            ],
            [
              -0.10787959396839142,
              -0.1068214550614357,
              0.07637807726860046
            ],
            [
              -0.12307801097631454,
              0.0019418576266616583,
              0.12621818482875824
            ],
            [
              -0.08119092136621475,
              0.020452408120036125,
              0.12024860829114914
            ],
            [
              -0.14270921051502228,
              0.020455628633499146,
              -0.005848414730280638
            ],
            [
              -0.02691502869129181,
              -0.12569504976272583,
              0.07511882483959198
            ],
            [
              0.13839463889598846,
              0.08048491179943085,
              -0.07670900970697403
            ],
            [
              -0.07612978667020798,
              -0.1124889999628067,
              0.011718559078872204
            ],
            [
              -0.13361871242523193,
              0.03250421583652496,
              -0.0335705392062664
            ],
            [
              -0.002105217892676592,
              0.11434833705425262,
              -0.0979362204670906
            ],
            [
              -0.03029068000614643,
              0.1396157592535019,
              0.05054403096437454
            ],
            [
              -0.14015714824199677,
              0.06835459172725677,
              0.03958852216601372
            ],
            [
              0.03567921370267868,
              0.07446383684873581,
              -5.52444726054091e-05
            ],
            [
              0.11813506484031677,
              -0.016646577045321465,
              0.035885170102119446
            ]
          ],
          [
            [
              0.2237834930419922,
              0.13408084213733673,
              0.17996352910995483
            ],
            [
              -0.05702728405594826,
              0.1258494108915329,
              0.06646185368299484
            ],
            [
              -0.026544291526079178,
              -0.03471726179122925,
              0.010254889726638794
            ],
            [
              0.27933236956596375,
              0.11179057508707047,
              0.10406643897294998
            ],
            [
              0.25482484698295593,
              0.02081271819770336,
              -0.017951151356101036
            ],
            [
              0.016440920531749725,
              -0.0769473984837532,
              0.05736401304602623
            ],
            [
              0.07905043661594391,
              0.07331862300634384,
              0.059024129062891006
            ],
            [
              -0.07793151587247849,
              -0.02820204570889473,
              -0.09541389346122742
            ],
            [
              -0.19450747966766357,
              -0.07125287503004074,
              -0.1475314348936081
            ],
            [
              0.17151369154453278,
              0.0590469129383564,
              -0.05977560952305794
            ],
            [
              0.09295481443405151,
              0.029974782839417458,
              -0.05720952898263931
            ],
            [
              0.15256085991859436,
              -0.05288311466574669,
              -0.08266958594322205
            ],
            [
              -0.05795871466398239,
              0.010176792740821838,
              -0.003503362415358424
            ],
            [
              -0.02465634234249592,
              -0.07395844161510468,
              0.1481228917837143
            ],
            [
              -0.0234263613820076,
              0.010845773853361607,
              -0.0887213796377182
            ],
            [
              0.01795492134988308,
              0.02286529541015625,
              -0.04599935933947563
            ]
          ],
          [
            [
              0.04633873328566551,
              0.06510204821825027,
              0.0036196005530655384
            ],
            [
              0.08825177699327469,
              0.09659826755523682,
              -0.07172800600528717
            ],
            [
              -0.10056567937135696,
              -0.012405048124492168,
              -0.035552553832530975
            ],
            [
              0.0008004276896826923,
              -0.05528060346841812,
              -0.08405725657939911
            ],
            [
              0.021286992356181145,
              -0.09422313421964645,
              0.0267315823584795
            ],
            [
              -0.0340910330414772,
              0.09556913375854492,
              -0.09243642538785934
            ],
            [
              -0.10432475805282593,
              0.0406867191195488,
              0.044883403927087784
            ],
            [
              -0.06094525754451752,
              -0.06846477091312408,
              -0.027300439774990082
            ],
            [
              -0.15249527990818024,
              -0.16031260788440704,
              -0.15343059599399567
            ],
            [
              0.10746701806783676,
              0.03000371903181076,
              -0.04196304827928543
            ],
            [
              0.10559256374835968,
              -0.09137064963579178,
              -0.03559461981058121
            ],
            [
              -0.012434088625013828,
              -0.029251648113131523,
              -0.04652297869324684
            ],
            [
              0.06393122673034668,
              -0.06122663617134094,
              -0.007912848144769669
            ],
            [
              -0.022712109610438347,
              0.0908162072300911,
              -0.04906821623444557
            ],
            [
              -0.0551859587430954,
              -0.11301304399967194,
              -0.05796700716018677
            ],
            [
              0.15144652128219604,
              0.0743711069226265,
              0.08343269675970078
            ]
          ],
          [
            [
              -0.17249536514282227,
              -0.36714521050453186,
              -0.1462942361831665
            ],
            [
              0.059130579233169556,
              -0.0620809905230999,
              -0.16117189824581146
            ],
            [
              -0.03994610905647278,
              -0.04841940104961395,
              -0.09103825688362122
            ],
            [
              -0.33558738231658936,
              -0.3042009770870209,
              -0.21232949197292328
            ],
            [
              -0.11977196484804153,
              -0.2140551656484604,
              -0.18458963930606842
            ],
            [
              0.06590470671653748,
              -0.037851348519325256,
              0.06309253722429276
            ],
            [
              -0.037875279784202576,
              -0.23957879841327667,
              -0.20243646204471588
            ],
            [
              -0.11220278590917587,
              0.047550495713949203,
              -0.13771137595176697
            ],
            [
              0.10015085339546204,
              0.09129171818494797,
              0.017575377598404884
            ],
            [
              -0.20418965816497803,
              -0.18389537930488586,
              -0.0552096925675869
            ],
            [
              -0.050504423677921295,
              -0.04930610582232475,
              -0.11122473329305649
            ],
            [
              0.06510335206985474,
              0.07852279394865036,
              0.02497522346675396
            ],
            [
              -0.05075240507721901,
              0.09306760132312775,
              -0.09167980402708054
            ],
            [
              -4.891205026069656e-05,
              -0.1054159551858902,
              -0.13326992094516754
            ],
            [
              -0.04010093957185745,
              -0.11880555748939514,
              -0.08119092881679535
            ],
            [
              0.007621653378009796,
              0.060570813715457916,
              0.08059905469417572
            ]
          ],
          [
            [
              0.07282999902963638,
              0.039135877043008804,
              -0.07420776039361954
            ],
            [
              -0.01666419766843319,
              0.11068367213010788,
              0.03546791151165962
            ],
            [
              -0.12153118848800659,
              0.07010597735643387,
              0.08239732682704926
            ],
            [
              0.02110186405479908,
              0.08111146837472916,
              -0.05592215806245804
            ],
            [
              0.034853495657444,
              -0.09073891490697861,
              0.033862777054309845
            ],
            [
              -0.13703954219818115,
              -0.056135643273591995,
              -0.04616750031709671
            ],
            [
              0.016868162900209427,
              -0.06893103569746017,
              -0.01000882126390934
            ],
            [
              0.002813904546201229,
              0.07371560484170914,
              0.0040747979655861855
            ],
            [
              0.02266041748225689,
              0.040967728942632675,
              -0.011261939071118832
            ],
            [
              0.04529911279678345,
              0.009586709551513195,
              -0.0033391129691153765
            ],
            [
              0.0790700688958168,
              0.03351220861077309,
              0.012650989927351475
            ],
            [
              -0.08436011523008347,
              0.011584579013288021,
              0.08796489238739014
            ],
            [
              -0.08226146548986435,
              -0.02661396749317646,
              0.060950204730033875
            ],
            [
              0.04152819886803627,
              0.09285611659288406,
              -0.006067701615393162
            ],
            [
              0.1459280550479889,
              0.07060077786445618,
              -0.0701722800731659
            ],
            [
              -0.062177058309316635,
              -0.05777161940932274,
              -0.07735180854797363
            ]
          ],
          [
            [
              -0.04623660072684288,
              -0.14670901000499725,
              -0.04897705093026161
            ],
            [
              0.12844453752040863,
              -0.020393917337059975,
              -0.024816036224365234
            ],
            [
              -0.06742843240499496,
              -0.012659966014325619,
              -0.023246144875884056
            ],
            [
              -0.09002961218357086,
              -0.1917986422777176,
              -0.040123350918293
            ],
            [
              0.01271070260554552,
              0.019524896517395973,
              -0.04682232066988945
            ],
            [
              -0.024602020159363747,
              -0.15150652825832367,
              0.03126809373497963
            ],
            [
              -0.13075490295886993,
              0.02470085769891739,
              -0.013627923093736172
            ],
            [
              -0.039069764316082,
              0.07500626146793365,
              0.09349905699491501
            ],
            [
              0.14741146564483643,
              -0.04956408217549324,
              0.13452143967151642
            ],
            [
              -0.02954087033867836,
              -0.07267526537179947,
              -0.11166003346443176
            ],
            [
              0.11018413305282593,
              0.08483819663524628,
              -0.06021701917052269
            ],
            [
              -0.03169992193579674,
              0.05737922713160515,
              0.07506295293569565
            ],
            [
              -0.0555313304066658,
              -0.1166170984506607,
              -0.13642799854278564
            ],
            [
              -0.1789650321006775,
              -0.10645924508571625,
              -0.0999421551823616
            ],
            [
              0.023210102692246437,
              0.08951551467180252,
              0.054684724658727646
            ],
            [
              -0.09365195780992508,
              0.04774796590209007,
              0.06164230406284332
            ]
          ],
          [
            [
              -0.1881524622440338,
              -0.1023382619023323,
              0.01856505312025547
            ],
            [
              0.05640571191906929,
              0.05595453828573227,
              0.0644797682762146
            ],
            [
              -0.04550029709935188,
              0.011779896914958954,
              -0.10108312964439392
            ],
            [
              -0.20088322460651398,
              -0.126020610332489,
              0.10292432457208633
            ],
            [
              -0.18053659796714783,
              -0.16087964177131653,
              -0.078180231153965
            ],
            [
              -0.018214620649814606,
              -0.0015612153802067041,
              -0.09005305171012878
            ],
            [
              -0.12889127433300018,
              -0.1686888486146927,
              0.08740133792161942
            ],
            [
              -0.10783615708351135,
              -0.017319519072771072,
              -0.13278353214263916
            ],
            [
              0.12051775306463242,
              -0.06222676858305931,
              -0.019302086904644966
            ],
            [
              -0.1754678338766098,
              -0.06541048735380173,
              0.08930174261331558
            ],
            [
              0.15364113450050354,
              0.14279678463935852,
              0.010156398639082909
            ],
            [
              -0.058151986449956894,
              -0.0379331111907959,
              -0.10680448263883591
            ],
            [
              -0.04477372020483017,
              -0.1459512561559677,
              -0.15865975618362427
            ],
            [
              -0.1389535814523697,
              0.04888831079006195,
              0.04783274978399277
            ],
            [
              -0.08727288246154785,
              -0.07171604037284851,
              -0.01174926944077015
            ],
            [
              -0.11202702671289444,
              -0.05878133699297905,
              -0.11958462744951248
            ]
          ],
          [
            [
              -0.03409305214881897,
              -0.0750221535563469,
              -0.0574466809630394
            ],
            [
              0.08429280668497086,
              -0.0568666085600853,
              -0.09080721437931061
            ],
            [
              -0.004282081965357065,
              0.03458160161972046,
              0.016518356278538704
            ],
            [
              0.07880688458681107,
              0.09463920444250107,
              0.14807085692882538
            ],
            [
              -0.07360652834177017,
              -0.0021153774578124285,
              -0.0564994215965271
            ],
            [
              -0.07011005282402039,
              0.08106669038534164,
              0.03654469549655914
            ],
            [
              -0.012416635639965534,
              0.11561085283756256,
              -0.07046224176883698
            ],
            [
              0.03655312955379486,
              -0.14275020360946655,
              0.007231641560792923
            ],
            [
              -0.03535720705986023,
              -0.07232913374900818,
              -0.02820380963385105
            ],
            [
              -0.0849888026714325,
              -0.025899212807416916,
              0.1654912680387497
            ],
            [
              -0.02672942355275154,
              -0.06521013379096985,
              0.17064730823040009
            ],
            [
              0.07537856698036194,
              -0.035127945244312286,
              -0.0073067806661129
            ],
            [
              -0.10912215709686279,
              -0.07353325933218002,
              -0.001368848723359406
            ],
            [
              -0.012186413630843163,
              0.09817240387201309,
              -0.03445029631257057
            ],
            [
              -0.0024407501332461834,
              -0.0821177139878273,
              -0.15827471017837524
            ],
            [
              -0.0685414969921112,
              0.025169868022203445,
              0.01744777336716652
            ]
          ],
          [
            [
              -0.11061986535787582,
              -0.10064071416854858,
              -0.027603229507803917
            ],
            [
              -0.011612054891884327,
              -0.08154205977916718,
              -0.04154219478368759
            ],
            [
              0.04496067389845848,
              -0.16257713735103607,
              0.08164595067501068
            ],
            [
              -0.1726013571023941,
              -0.11516071856021881,
              -0.03229333832859993
            ],
            [
              -0.13295041024684906,
              -0.1880486011505127,
              -0.1541864275932312
            ],
            [
              -0.10250725597143173,
              0.004954917822033167,
              0.06556659936904907
            ],
            [
              0.036354657262563705,
              -0.1728154718875885,
              -0.15095657110214233
            ],
            [
              -0.08515167236328125,
              0.07030824571847916,
              -0.09016454219818115
            ],
            [
              0.06341490149497986,
              0.21422117948532104,
              0.21050255000591278
            ],
            [
              -0.13409924507141113,
              -0.16505751013755798,
              0.013296836987137794
            ],
            [
              0.041694916784763336,
              -0.11052996665239334,
              -0.13160698115825653
            ],
            [
              -0.1073000431060791,
              0.05683151260018349,
              0.085720494389534
            ],
            [
              -0.09873513132333755,
              0.01285538263618946,
              -0.04955816641449928
            ],
            [
              0.07974030077457428,
              -0.04277276620268822,
              -0.0753641277551651
            ],
            [
              -0.026115484535694122,
              -0.023882336914539337,
              0.1391630470752716
            ],
            [
              -0.11149923503398895,
              0.021652741357684135,
              -0.13551178574562073
            ]
          ],
          [
            [
              -0.20563937723636627,
              -0.1556621640920639,
              -0.03207877650856972
            ],
            [
              0.07143919169902802,
              0.0021427911706268787,
              0.09552489221096039
            ],
            [
              0.03205876052379608,
              0.026671873405575752,
              0.06819575279951096
            ],
            [
              -0.19203302264213562,
              -0.17942409217357635,
              0.06278149038553238
            ],
            [
              -0.08682695776224136,
              -0.12595047056674957,
              -0.13398265838623047
            ],
            [
              -0.11200183629989624,
              0.049784351140260696,
              -0.09994594007730484
            ],
            [
              -0.1936483234167099,
              -0.06529392302036285,
              0.01568101905286312
            ],
            [
              -0.12074465304613113,
              -0.10215912759304047,
              -0.14469550549983978
            ],
            [
              0.11038108170032501,
              0.07725771516561508,
              0.044665925204753876
            ],
            [
              -0.165366530418396,
              -0.06426157057285309,
              0.02264699898660183
            ],
            [
              0.13835856318473816,
              0.04149608686566353,
              -0.07769398391246796
            ],
            [
              -0.09314737468957901,
              -0.14550305902957916,
              0.05564119294285774
            ],
            [
              -0.08214107900857925,
              -0.05649946257472038,
              0.01174866035580635
            ],
            [
              -0.12817879021167755,
              -0.05422547832131386,
              0.033996958285570145
            ],
            [
              -0.013378354720771313,
              0.013062603771686554,
              -0.141288161277771
            ],
            [
              -0.1297188550233841,
              -0.09666291624307632,
              0.05907052755355835
            ]
          ],
          [
            [
              0.10088764131069183,
              0.038169439882040024,
              0.047817446291446686
            ],
            [
              -0.027727961540222168,
              0.15474867820739746,
              0.07829447090625763
            ],
            [
              0.10648512095212936,
              0.1300954818725586,
              -0.09294166415929794
            ],
            [
              0.03705589845776558,
              -0.019533291459083557,
              0.0156788919121027
            ],
            [
              0.06570746749639511,
              0.1746186465024948,
              -0.02060694433748722
            ],
            [
              -0.01896364986896515,
              -0.15168242156505585,
              -0.08013103157281876
            ],
            [
              0.1420796513557434,
              0.06826173514127731,
              0.1127300038933754
            ],
            [
              -0.060468386858701706,
              0.07997259497642517,
              -0.023826371878385544
            ],
            [
              -0.009911703877151012,
              -0.03916500508785248,
              -0.04718011990189552
            ],
            [
              0.1164274513721466,
              -0.08456635475158691,
              0.05410033464431763
            ],
            [
              -0.08031119406223297,
              -0.16304120421409607,
              0.09422528743743896
            ],
            [
              0.0035162444692105055,
              0.1510341763496399,
              0.12826842069625854
            ],
            [
              -0.03671898692846298,
              0.141817107796669,
              0.07710736989974976
            ],
            [
              0.0053973570466041565,
              0.009250185452401638,
              0.035548362880945206
            ],
            [
              0.031170295551419258,
              -0.06332853436470032,
              -0.04161611199378967
            ],
            [
              0.13104432821273804,
              -0.04504741355776787,
              -0.0036907659377902746
            ]
          ]
        ],
        "conv_bias": [
          -0.012898995541036129,
          -0.08387023210525513,
          0.05700144171714783,
          0.12525953352451324,
          -0.14172618091106415,
          0.08210109919309616,
          -0.013017001561820507,
          -0.026211759075522423,
          -0.10359832644462585,
          0.031114257872104645,
          0.06194033473730087,
          -0.0012600779300555587,
          0.06611751019954681,
          0.055477075278759,
          0.015890873968601227,
          0.07377897948026657
        ]
      },
      {
        "layer": 1,
        "dilation": 2,
        "conv_weight": [
          [
            [
              0.08465152233839035,
              -0.1388109177350998,
              -0.16349586844444275
            ],
            [
              0.010674295015633106,
              -0.02434629015624523,
              -0.09194715321063995
            ],
            [
              0.05307138338685036,
              -0.1223551332950592,
              0.11305015534162521
            ],
            [
              -0.02045576646924019,
              -0.04319725185632706,
              -0.03949593007564545
            ],
            [
              0.12445514649152756,
              -0.03984013944864273,
              0.062253065407276154
            ],
            [
              -0.10363177955150604,
              0.13676565885543823,
              0.09307081252336502
            ],
            [
              -0.037523042410612106,
              -0.0919312983751297,
              0.11024393141269684
            ],
            [
              0.060758076608181,
              0.03423674777150154,
              -0.08035743236541748
            ],
            [
              0.04718288406729698,
              -0.1003018468618393,
              0.13718649744987488
            ],
            [
              -0.08161267638206482,
              0.09429695457220078,
              -0.11836409568786621
            ],
            [
              0.13953936100006104,
              -0.09573908895254135,
              0.10493791103363037
            ],
            [
              -0.019609084352850914,
              0.03897695243358612,
              0.017681563273072243
            ],
            [
              -0.07184737175703049,
              -0.04501810297369957,
              -0.08057484775781631
            ],
            [
              0.0052472734823822975,
              -0.04622660204768181,
              -0.05653331056237221
            ],
            [
              0.03453808277845383,
              0.012340846471488476,
              0.10434147715568542
            ],
            [
              0.12520159780979156,
              -0.019915785640478134,
              0.00765240890905261
            ]
          ],
          [
            [
              -0.20192310214042664,
              -0.02912287600338459,
              0.10537803173065186
            ],
            [
              -0.17405587434768677,
              0.013336023315787315,
              0.13067477941513062
            ],
            [
              0.09729810059070587,
              0.05336393788456917,
              0.07591178268194199
            ],
            [
              0.2516465485095978,
              0.01366307120770216,
              0.026738718152046204
            ],
            [
              -0.222831130027771,
              0.054461490362882614,
              0.15194880962371826
            ],
            [
              0.0057855150662362576,
              0.06710555404424667,
              -0.03139844536781311
            ],
            [
              -0.17722734808921814,
              -0.1203714981675148,
              0.09726667404174805
            ],
            [
              -0.05320629104971886,
              -0.10460005700588226,
              0.11806602776050568
            ],
            [
              0.02926367148756981,
              0.11501900851726532,
              0.023737048730254173
            ],
            [
              0.02918859012424946,
              0.021937930956482887,
              0.07279177010059357
            ],
            [
              0.1502039134502411,
              0.05582860857248306,
              -0.060752179473638535
            ],
            [
              0.10850875824689865,
              0.16097645461559296,
              -0.07673013210296631
            ],
            [
              0.06741764396429062,
              -0.04838952422142029,
              -0.011027046479284763
            ],
            [
              0.1800721436738968,
              0.20468954741954803,
              -0.0600341260433197
            ],
            [
              0.14672711491584778,
              0.10207553952932358,
              -0.035794682800769806
            ],
            [
              -0.006846430245786905,
              -0.13938170671463013,
              0.13561850786209106
            ]
          ],
          [
            [
              0.056600119918584824,
              -0.017265167087316513,
              0.011000207625329494
            ],
            [
              0.10311459749937057,
              -0.12259206920862198,
              0.1202150508761406
            ],
            [
              0.025752343237400055,
              -0.0834108516573906,
              0.12603245675563812
            ],
            [
              0.2024434357881546,
              0.11672601848840714,
              0.160207599401474
            ],
            [
              -0.15361185371875763,
              0.00855245627462864,
              -0.030960824340581894
            ],
            [
              -0.06037820875644684,
              0.0970005989074707,
              0.11249753087759018
            ],
            [
              0.02953331358730793,
              -0.026215367019176483,
              0.06045415252447128
            ],
            [
              -0.14626899361610413,
              -0.014485030435025692,
              0.009061489254236221
            ],
            [
              0.09916679561138153,
              0.17676696181297302,
              0.12963435053825378
            ],
            [
              0.09818773716688156,
              0.05761508643627167,
              0.01382023561745882
            ],
            [
              0.15578019618988037,
              0.12128283083438873,
              0.1310863196849823
            ],
            [
              0.09917576611042023,
              -0.044869229197502136,
              0.013158696703612804
            ],
            [
              0.035700757056474686,
              -0.01825331151485443,
              -0.015413652174174786
            ],
            [
              -0.05397893488407135,
              0.06321252137422562,
              -0.032597124576568604
            ],
            [
              0.09425874799489975,
              0.02693328633904457,
              0.0667085126042366
            ],
            [
              0.033982641994953156,
              -0.08918170630931854,
              -0.034865353256464005
            ]
          ],
          [
            [
              -0.06868132203817368,
              -0.14959010481834412,
              -0.025057034566998482
            ],
            [
              -0.025439731776714325,
              -0.13701499998569489,
              -0.19035515189170837
            ],
            [
              -0.0270477794110775,
              -0.0693495124578476,
              0.03816448524594307
            ],
            [
              0.0773448497056961,
              0.1651870757341385,
              0.1960008293390274
            ],
            [
              -0.045686278492212296,
              -0.1582033634185791,
              -0.14325852692127228
            ],
            [
              -0.0404607355594635,
              -0.12232062965631485,
              -0.061946019530296326
            ],
            [
              -0.028409386053681374,
              -0.04614350199699402,
              -0.20272399485111237
            ],
            [
              0.05841481313109398,
              -0.04531342163681984,
              -0.11524561047554016
            ],
            [
              0.19548165798187256,
              0.06659059971570969,
              0.08120937645435333
            ],
            [
              0.006542930845171213,
              0.02792976051568985,
              -0.024916164577007294
            ],
            [
              0.07869723439216614,
              0.11626313626766205,
              0.027127478271722794
            ],
            [
              0.14353902637958527,
              -0.049791187047958374,
              -0.05468019098043442
            ],
            [
              0.0825258269906044,
              0.06098509952425957,
              -0.14861108362674713
            ],
            [
              -0.08549437671899796,
              -0.033631615340709686,
              0.12394879758358002
            ],
            [
              0.06333722174167633,
              0.025829175487160683,
              0.16011326014995575
            ],
            [
              -0.00881072785705328,
              -0.06610757112503052,
              0.03298411890864372
            ]
          ],
          [
            [
              -0.025968166068196297,
              0.056521255522966385,
              0.09681148827075958
            ],
            [
              0.08975495398044586,
              0.03616321459412575,
              -0.07833434641361237
            ],
            [
              -0.06688493490219116,
              0.07245435565710068,
              -0.14176222681999207
            ],
            [
              -0.27705997228622437,
              -0.04772135615348816,
              -0.059533730149269104
            ],
            [
              0.14947985112667084,
              0.08288929611444473,
              -0.020435569807887077
            ],
            [
              -0.10820964723825455,
              -0.010799692012369633,
              -0.031154392287135124
            ],
            [
              0.043186742812395096,
              -0.03578036278486252,
              0.02897205390036106
            ],
            [
              -0.06455184519290924,
              0.09016025811433792,
              0.11264678835868835
            ],
            [
              -0.13266010582447052,
              -0.018290100619196892,
              0.15957479178905487
            ],
            [
              0.1210419237613678,
              -0.06599565595388412,
              -0.08773250132799149
            ],
            [
              -0.15607395768165588,
              -0.0006380138220265508,
              0.07263250648975372
            ],
            [
              -0.09021655470132828,
              -0.14118263125419617,
              -0.04802166670560837
            ],
            [
              0.1032954677939415,
              0.12327329069375992,
              -0.006067253183573484
            ],
            [
              0.009118015877902508,
              -0.1018558070063591,
              -0.10561590641736984
            ],
            [
              -0.09331794828176498,
              -0.03552332893013954,
              0.05661427974700928
            ],
            [
              0.08117176592350006,
              0.1223650872707367,
              0.08545779436826706
            ]
          ],
          [
            [
              0.07802277058362961,
              -0.007255491800606251,
              -0.07865656912326813
            ],
            [
              0.09604956954717636,
              -0.0018356067594140768,
              -0.13198164105415344
            ],
            [
              0.0296651441603899,
              -0.05335276946425438,
              0.06215665861964226
            ],
            [
              0.16356448829174042,
              -0.07685781270265579,
              -0.0017294411081820726
            ],
            [
              -0.08024715632200241,
              0.09272719919681549,
              -0.144256129860878
            ],
            [
              -0.08732248842716217,
              -0.13945522904396057,
              0.04415392130613327
            ],
            [
              -0.06978163123130798,
              -0.07394760847091675,
              0.03803345188498497
            ],
            [
              -0.11832892149686813,
              0.10447510331869125,
              -0.08697742223739624
            ],
            [
              0.07842624932527542,
              0.012387215159833431,
              -0.07786738872528076
            ],
            [
              -0.06710387021303177,
              0.12114952504634857,
              -0.12225320935249329
            ],
            [
              -0.016068309545516968,
              -0.004600500222295523,
              -0.07389608770608902
            ],
            [
              -0.021811844781041145,
              0.09312595427036285,
              0.06201041862368584
            ],
            [
              -0.031183404847979546,
              0.1340828835964203,
              0.14425630867481232
            ],
            [
              -0.10160276293754578,
              -0.10816685855388641,
              -0.009116198867559433
            ],
            [
              -0.06442383676767349,
              -0.06888645887374878,
              0.027292514219880104
            ],
            [
              0.09478002041578293,
              0.03994954004883766,
              0.07779958844184875
            ]
          ],
          [
            [
              0.006220132578164339,
              -0.027137119323015213,
              -0.06460972875356674
            ],
            [
              0.034368932247161865,
              0.08392469584941864,
              -0.028082534670829773
            ],
            [
              -0.08393463492393494,
              -0.1563478261232376,
              -0.03059975989162922
            ],
            [
              -0.08226632326841354,
              0.011399625800549984,
              -0.08386197686195374
            ],
            [
              0.1747349202632904,
              -0.03098699264228344,
              -0.03451758250594139
            ],
            [
              -0.04873219504952431,
              -0.008381005376577377,
              0.07868488878011703
            ],
            [
              0.18885411322116852,
              -0.008358116261661053,
              -0.08799935132265091
            ],
            [
              0.10886140167713165,
              0.1534854620695114,
              -0.005248446017503738
            ],
            [
              -0.2243087887763977,
              -0.1533406674861908,
              -0.017114192247390747
            ],
            [
              0.02581561543047428,
              0.06163689121603966,
              0.008551332168281078
            ],
            [
              -0.11657826602458954,
              0.01714477688074112,
              -0.09028453379869461
            ],
            [
              -0.21575836837291718,
              -0.13455353677272797,
              0.08563811331987381
            ],
            [
              0.04255036264657974,
              0.10566287487745285,
              0.06132826209068298
            ],
            [
              0.013561727479100227,
              -0.1816977709531784,
              -0.09345506876707077
            ],
            [
              0.017666291445493698,
              -0.17098721861839294,
              -0.02580622211098671
            ],
            [
              0.1447976529598236,
              0.07468413561582565,
              -0.08046718686819077
            ]
          ],
          [
            [
              -0.10630491375923157,
              -0.06282850354909897,
              0.1252264529466629
            ],
            [
              -0.07209932059049606,
              -0.07341232150793076,
              0.04119940102100372
            ],
            [
              0.11473249644041061,
              0.0485694594681263,
              0.02847924642264843
            ],
            [
              -0.04612983763217926,
              -0.11023411154747009,
              -0.12711520493030548
            ],
            [
              0.03211388364434242,
              -0.027818065136671066,
              -0.07096944004297256
            ],
            [
              0.11881835013628006,
              0.010165602900087833,
              -0.022495582699775696
            ],
            [
              -0.08892086148262024,
              -0.030281806364655495,
              0.010182502679526806
            ],
            [
              0.07086137682199478,
              -0.13034501671791077,
              0.09331756085157394
            ],
            [
              0.08975248038768768,
              -0.09984808415174484,
              0.04825667291879654
            ],
            [
              0.024586211889982224,
              -0.1017242968082428,
              -0.047042202204465866
            ],
            [
              -0.09194808453321457,
              -0.03352249413728714,
              0.044224075973033905
            ],
            [
              0.09352732449769974,
              -0.030623700469732285,
              -0.1068403422832489
            ],
            [
              -0.09886715561151505,
              0.01802321895956993,
              0.005567339714616537
            ],
            [
              -0.026669206097722054,
              -0.07248006016016006,
              -0.010198726318776608
            ],
            [
              0.09363383054733276,
              0.11722047626972198,
              -0.09787612408399582
            ],
            [
              -0.10914532840251923,
              -0.0016097455518320203,
              0.11794218420982361
            ]
          ],
          [
            [
              0.07065562158823013,
              -0.17825908958911896,
              -0.044987961649894714
            ],
            [
              0.13424305617809296,
              0.07477886229753494,
              -0.047902777791023254
            ],
            [
              -0.11842365562915802,
              0.08906810730695724,
              0.012500419281423092
            ],
            [
              -0.1458774209022522,
              0.04368972033262253,
              0.2021210640668869
            ],
            [
              0.08747389912605286,
              -0.09805101156234741,
              -0.42675912380218506
            ],
            [
              -0.09682238847017288,
              -0.022341081872582436,
              -0.06529966741800308
            ],
            [
              0.1807466745376587,
              -0.02478759177029133,
              -0.2889742851257324
            ],
            [
              0.0030612279660999775,
              -0.12456172704696655,
              -0.07111120969057083
            ],
            [
              -0.08792854845523834,
              0.08686678111553192,
              0.358181893825531
            ],
            [
              -0.04569082334637642,
              -0.07782730460166931,
              -0.19505535066127777
            ],
            [
              0.045420993119478226,
              0.1110200583934784,
              0.03896874189376831
            ],
            [
              -0.20152679085731506,
              0.07980386167764664,
              0.07480360567569733
            ],
            [
              -0.11128538101911545,
              -0.0464046373963356,
              -0.17207536101341248
            ],
            [
              -0.2270674854516983,
              0.010448120534420013,
              0.19352127611637115
            ],
            [
              -0.11019007116556168,
              -0.05136380344629288,
              0.00493869511410594
            ],
            [
              -0.02178025245666504,
              -0.03514159470796585,
              0.005171651486307383
            ]
          ],
          [
            [
              0.015906229615211487,
              0.08709357678890228,
              -0.0700082927942276
            ],
            [
              -0.03162878006696701,
              0.06410548090934753,
              -0.061557263135910034
            ],
            [
              0.005709478165954351,
              0.02210819348692894,
              0.04693939536809921
            ],
            [
              -0.05060628801584244,
              0.0016520493663847446,
              0.08241784572601318
            ],
            [
              0.07392561435699463,
              0.07933889329433441,
              -0.02475232258439064
            ],
            [
              -0.008255732245743275,
              0.09133157134056091,
              -0.005203722044825554
            ],
            [
              0.11374419927597046,
              -0.017061280086636543,
              0.044578853994607925
            ],
            [
              -0.049716029316186905,
              0.0489543154835701,
              -0.09535729885101318
            ],
            [
              -0.010970433242619038,
              -0.08779064565896988,
              0.051831141114234924
            ],
            [
              0.039538830518722534,
              0.016948768869042397,
              -0.02529982663691044
            ],
            [
              -0.10867518931627274,
              0.030419092625379562,
              -0.07724542915821075
            ],
            [
              -0.19545677304267883,
              -0.07641656696796417,
              0.10568156838417053
            ],
            [
              0.13825564086437225,
              0.06774784624576569,
              0.0011778842890635133
            ],
            [
              -0.012459631077945232,
              -0.12219799309968948,
              0.0335741862654686
            ],
            [
              -0.11310461163520813,
              -0.13704288005828857,
              0.04680958390235901
            ],
            [
              0.08595321327447891,
              0.014445614069700241,
              0.02405184879899025
            ]
          ],
          [
            [
              -0.11240515857934952,
              -0.03571276366710663,
              0.006614712066948414
            ],
            [
              0.014941790141165257,
              -0.05990657955408096,
              0.09633395075798035
            ],
            [
              -0.05206741765141487,
              -0.11534253507852554,
              0.08010886609554291
            ],
            [
              -0.1031738743185997,
              0.14840136468410492,
              0.047554243355989456
            ],
            [
              -0.016523871570825577,
              0.019162559881806374,
              -0.030857395380735397
            ],
            [
              -0.14172516763210297,
              0.11760789155960083,
              -0.07697645574808121
            ],
            [
              0.0474565289914608,
              -0.1479243040084839,
              0.00479517038911581
            ],
            [
              0.01638827659189701,
              -0.07470826804637909,
              -0.0066626230254769325
            ],
            [
              0.07904303073883057,
              -0.09064286947250366,
              0.1431732028722763
            ],
            [
              -0.07275790721178055,
              0.03820390626788139,
              0.01129110250622034
            ],
            [
              -0.0797276645898819,
              0.038156863301992416,
              0.12022870033979416
            ],
            [
              -0.07509251683950424,
              0.14796219766139984,
              0.1506388932466507
            ],
            [
              -0.053474631160497665,
              -0.061047930270433426,
              0.03876323997974396
            ],
            [
              0.022312501445412636,
              -0.08045132458209991,
              0.013443936593830585
            ],
            [
              -0.12443403899669647,
              0.14205783605575562,
              -0.030248096212744713
            ],
            [
              0.09369506686925888,
              -0.06403648108243942,
              -0.15284615755081177
            ]
          ],
          [
            [
              0.01805047318339348,
              0.048389822244644165,
              -0.02953159809112549
            ],
            [
              -0.1766040176153183,
              -0.05816170945763588,
              0.012947222217917442
            ],
            [
              0.10444904118776321,
              0.0395447202026844,
              -0.10525137931108475
            ],
            [
              0.27912288904190063,
              0.2620517611503601,
              -0.004123897757381201
            ],
            [
              -0.22959712147712708,
              -0.11789292842149734,
              0.10205531120300293
            ],
            [
              -0.03794952481985092,
              0.013143207877874374,
              -0.08511614054441452
            ],
            [
              -0.20526231825351715,
              -0.0876961499452591,
              0.1650162935256958
            ],
            [
              0.09387928247451782,
              -0.027745364233851433,
              0.027962576597929
            ],
            [
              0.18625478446483612,
              0.06146351248025894,
              0.026807185262441635
            ],
            [
              0.02613409049808979,
              -0.06062036752700806,
              0.15317793190479279
            ],
            [
              0.026752106845378876,
              0.06536930054426193,
              0.10383141785860062
            ],
            [
              0.09554529935121536,
              -0.006912261713296175,
              0.04805702343583107
            ],
            [
              -0.0732962116599083,
              0.04498885199427605,
              -0.1041458323597908
            ],
            [
              0.024763181805610657,
              4.045847526867874e-05,
              -0.05976129695773125
            ],
            [
              0.10199709981679916,
              0.09437449276447296,
              -0.004277853295207024
            ],
            [
              -0.09062684327363968,
              -0.009226049296557903,
              0.05546683445572853
            ]
          ],
          [
            [
              -0.2629743218421936,
              -0.15191790461540222,
              0.04485927149653435
            ],
            [
              -0.1715729832649231,
              -0.10897855460643768,
              0.1089295968413353
            ],
            [
              0.014028560370206833,
              -0.025494428351521492,
              0.19239386916160583
            ],
            [
              0.3092183470726013,
              0.25410524010658264,
              0.04340915009379387
            ],
            [
              -0.07564901560544968,
              -0.04198363423347473,
              0.030816353857517242
            ],
            [
              0.16394048929214478,
              -0.029169637709856033,
              0.16420035064220428
            ],
            [
              -0.03774247691035271,
              -0.16401173174381256,
              0.09472298622131348
            ],
            [
              -0.0020058993250131607,
              -0.14983579516410828,
              -0.1512756645679474
            ],
            [
              0.17452459037303925,
              0.11507009714841843,
              -0.07545267045497894
            ],
            [
              -0.01589713618159294,
              0.015187421813607216,
              0.03226044028997421
            ],
            [
              0.028395038098096848,
              -0.06384079158306122,
              0.05654891952872276
            ],
            [
              0.05200429633259773,
              0.05891207978129387,
              0.014550628140568733
            ],
            [
              0.015907814726233482,
              -0.04864499345421791,
              0.03312904015183449
            ],
            [
              0.20599307119846344,
              0.18592235445976257,
              -0.05483342334628105
            ],
            [
              0.13086006045341492,
              0.053270671516656876,
              -0.03384260833263397
            ],
            [
              -0.03652539104223251,
              -0.12964099645614624,
              -0.007095683831721544
            ]
          ],
          [
            [
              0.0888449177145958,
              0.04598865658044815,
              -0.15137481689453125
            ],
            [
              -0.036250922828912735,
              0.11312627047300339,
              -0.0320068895816803
            ],
            [
              -0.13446614146232605,
              0.06989574432373047,
              0.04105396568775177
            ],
            [
              -0.021795710548758507,
              0.12692609429359436,
              0.10487835854291916
            ],
            [
              -0.050931770354509354,
              -0.16044461727142334,
              -0.08231811225414276
            ],
            [
              0.04536709561944008,
              -0.07069329172372818,
              -0.08246873319149017
            ],
            [
              -0.11478417366743088,
              0.028507309034466743,
              -0.04381651058793068
            ],
            [
              -0.07358603924512863,
              -0.12887519598007202,
              -0.12163935601711273
            ],
            [
              -0.09936756640672684,
              -0.07463212311267853,
              0.1501450389623642
            ],
            [
              0.056286152452230453,
              0.05379948019981384,
              -0.047246042639017105
            ],
            [
              -0.1315019577741623,
              0.02544083446264267,
              0.04072454571723938
            ],
            [
              0.04105670377612114,
              0.056544575840234756,
              0.001095486804842949
            ],
            [
              0.004441084340214729,
              0.07937224954366684,
              -0.04802675172686577
            ],
            [
              -0.12906591594219208,
              0.007135100197046995,
              -0.012429513968527317
            ],
            [
              -0.052073631435632706,
              -0.01590660959482193,
              -0.06314573436975479
            ],
            [
              0.009853214956820011,
              0.013796217739582062,
              -0.14673756062984467
            ]
          ],
          [
            [
              -0.019773852080106735,
              -0.1328495442867279,
              0.11192537844181061
            ],
            [
              0.10474373400211334,
              -0.12411389499902725,
              -0.09873402118682861
            ],
            [
              0.14577707648277283,
              -0.04893927276134491,
              -0.008312649093568325
            ],
            [
              -0.06764362007379532,
              -0.03757927939295769,
              0.1287345141172409
            ],
            [
              0.03775393217802048,
              -0.12516571581363678,
              0.019386978819966316
            ],
            [
              0.03873804956674576,
              0.08802185207605362,
              -0.11265608668327332
            ],
            [
              -0.08495727181434631,
              -0.11897361278533936,
              -0.0538996122777462
            ],
            [
              0.060697704553604126,
              0.019077587872743607,
              -0.13918817043304443
            ],
            [
              0.14069417119026184,
              -0.06933096051216125,
              0.09930984675884247
            ],
            [
              -0.015009150840342045,
              -0.0592711940407753,
              0.03184102103114128
            ],
            [
              0.05795145779848099,
              0.01506131887435913,
              -0.05521053820848465
            ],
            [
              -0.0770820900797844,
              -0.018893547356128693,
              -0.11011122912168503
            ],
            [
              0.10340911895036697,
              0.0420105941593647,
              0.00753695797175169
            ],
            [
              0.07485947757959366,
              -0.03088686428964138,
              0.013081211596727371
            ],
            [
              -0.07521125674247742,
              -0.08972778171300888,
              -0.021256111562252045
            ],
            [
              0.06610894203186035,
              0.10885254293680191,
              0.04694964736700058
            ]
          ],
          [
            [
              -0.07214603573083878,
              0.052576903253793716,
              -0.05863798037171364
            ],
            [
              0.017736636102199554,
              0.06329943239688873,
              0.08184322714805603
            ],
            [
              0.030479000881314278,
              0.12202935665845871,
              0.02270478568971157
            ],
            [
              0.1672857254743576,
              0.07172399759292603,
              0.061403051018714905
            ],
            [
              -0.1180243045091629,
              -0.16474752128124237,
              0.12409260869026184
            ],
            [
              -0.043053656816482544,
              0.052164025604724884,
              0.037606678903102875
            ],
            [
              0.043434027582407,
              -0.16011807322502136,
              0.09109573066234589
            ],
            [
              0.07579614222049713,
              -0.04989679157733917,
              -0.010971108451485634
            ],
            [
              0.06902085989713669,
              0.008193657733500004,
              -0.06257054209709167
            ],
            [
              -0.03447302058339119,
              -0.023380905389785767,
              0.09033602476119995
            ],
            [
              -0.09584859013557434,
              0.13136033713817596,
              -0.12375880777835846
            ],
            [
              -0.0809069350361824,
              0.06669783592224121,
              0.1217769980430603
            ],
            [
              0.08039521425962448,
              -0.031887415796518326,
              0.016072900965809822
            ],
            [
              0.14747054874897003,
              0.03239425644278526,
              0.002106504514813423
            ],
            [
              -0.02986600063741207,
              0.0008087283349595964,
              0.05310361832380295
            ],
            [
              0.018010346218943596,
              -0.1523164063692093,
              -0.04046185314655304
            ]
          ]
        ],
        "conv_bias": [
          0.07263030111789703,
          0.1182904914021492,
          -0.01913854293525219,
          -0.019689127802848816,
          -0.10009551048278809,
          0.10683079063892365,
          -0.022581342607736588,
          -0.03753012418746948,
          0.07968923449516296,
          -0.0025592355523258448,
          0.15124811232089996,
          -0.06743929535150528,
          -0.06577829271554947,
          -0.0992249920964241,
          -0.10378599911928177,
          0.06971576809883118
        ]
      },
      {
        "layer": 2,
        "dilation": 4,
        "conv_weight": [
          [
            [
              -0.015539984218776226,
              -0.03220294788479805,
              -0.12033819407224655
            ],
            [
              -0.1057935506105423,
              0.048211634159088135,
              0.060387711971998215
            ],
            [
              0.12498600780963898,
              0.0021519772708415985,
              0.033762551844120026
            ],
            [
              -0.028403960168361664,
              0.06666244566440582,
              -0.06829649955034256
            ],
            [
              0.06143033504486084,
              -0.12620937824249268,
              0.1738649159669876
            ],
            [
              -0.025777431204915047,
              0.11861395090818405,
              -0.06696164608001709
            ],
            [
              -0.0697719007730484,
              0.0623626634478569,
              0.09928852319717407
            ],
            [
              -0.1995736062526703,
              0.0923757553100586,
              0.1293073147535324
            ],
            [
              0.22502188384532928,
              0.14181295037269592,
              -0.11758750677108765
            ],
            [
              -0.09114973247051239,
              -0.07901202142238617,
              -0.08549948036670685
            ],
            [
              0.14204949140548706,
              -0.006089132744818926,
              -0.09167993813753128
            ],
            [
              -0.14186979830265045,
              0.016042476519942284,
              -0.034458667039871216
            ],
            [
              -0.1219722107052803,
              -0.10638748109340668,
              -0.07611604034900665
            ],
            [
              0.07980696856975555,
              0.007881891913712025,
              -0.0675424188375473
            ],
            [
              0.007884443737566471,
              0.056363120675086975,
              -0.029807981103658676
            ],
            [
              -0.03515971079468727,
              0.044914476573467255,
              0.03550004959106445
            ]
          ],
          [
            [
              0.028424382209777832,
              -0.003564540995284915,
              0.022223588079214096
            ],
            [
              -0.13583017885684967,
              0.037800226360559464,
              -0.10480080544948578
            ],
            [
              -0.1694379597902298,
              -0.07700703293085098,
              0.15905643999576569
            ],
            [
              -0.18659181892871857,
              0.1060423031449318,
              0.05979163944721222
            ],
            [
              0.2371397167444229,
              -0.018590424209833145,
              -0.06569615751504898
            ],
            [
              -0.08281005918979645,
              0.059923022985458374,
              0.06046970561146736
            ],
            [
              0.2972472906112671,
              -0.0921793058514595,
              -0.06663554161787033
            ],
            [
              0.0650947242975235,
              -0.1253497451543808,
              -0.03194041922688484
            ],
            [
              -0.13962529599666595,
              0.0736316442489624,
              0.17873911559581757
            ],
            [
              -0.004037142731249332,
              -0.0786474347114563,
              0.02159537374973297
            ],
            [
              -0.1323060244321823,
              0.028349488973617554,
              0.00019510123820509762
            ],
            [
              -0.08513758331537247,
              -0.11190342903137207,
              0.17556482553482056
            ],
            [
              -0.22197239100933075,
              0.07678250968456268,
              -0.05199733376502991
            ],
            [
              -0.049608003348112106,
              -0.056587934494018555,
              0.1542985886335373
            ],
            [
              -0.0964706763625145,
              -0.0420495979487896,
              -0.03596077114343643
            ],
            [
              -0.10433275252580643,
              0.028006860986351967,
              0.1426631361246109
            ]
          ],
          [
            [
              0.04593387991189957,
              0.0633595734834671,
              0.03291040286421776
            ],
            [
              -0.17989355325698853,
              -0.11634264141321182,
              -0.051180269569158554
            ],
            [
              0.11120659112930298,
              0.14341862499713898,
              -0.05499427393078804
            ],
            [
              0.02571030519902706,
              0.03692128509283066,
              -0.06209960952401161
            ],
            [
              0.10886678844690323,
              -0.07766067236661911,
              0.0002992826921399683
            ],
            [
              -0.11261672526597977,
              -0.017373135313391685,
              -0.06447270512580872
            ],
            [
              0.03591626510024071,
              0.011715722270309925,
              -0.15380163490772247
            ],
            [
              0.10611206293106079,
              0.08731663972139359,
              -0.12979361414909363
            ],
            [
              0.08455974608659744,
              0.05980909615755081,
              -0.13904502987861633
            ],
            [
              -0.07455939799547195,
              0.09034793078899384,
              -0.08803463727235794
            ],
            [
              0.11896208673715591,
              0.05773215368390083,
              0.019728608429431915
            ],
            [
              0.09617884457111359,
              0.13903242349624634,
              0.05265707150101662
            ],
            [
              -0.02072814479470253,
              0.08845718950033188,
              0.0883481428027153
            ],
            [
              -0.016798971220850945,
              -0.017109977081418037,
              -0.007628080900758505
            ],
            [
              -0.06596527248620987,
              -0.07682403177022934,
              -0.06459721177816391
            ],
            [
              -0.1452176719903946,
              0.02364812046289444,
              -0.09381171315908432
            ]
          ],
          [
            [
              0.09594234079122543,
              0.1538100689649582,
              0.09684373438358307
            ],
            [
              0.02517589181661606,
              -0.022105354815721512,
              -0.002057446399703622
            ],
            [
              -0.0019427426159381866,
              0.017216449603438377,
              0.26080912351608276
            ],
            [
              -0.1346050500869751,
              0.029325734823942184,
              0.2382713258266449
            ],
            [
              0.23924177885055542,
              0.09187527000904083,
              -0.1549132615327835
            ],
            [
              0.09780899435281754,
              -0.07577712088823318,
              -0.120123952627182
            ],
            [
              0.06788241118192673,
              -0.0934537872672081,
              -0.09020531922578812
            ],
            [
              0.08315104991197586,
              -0.09999740123748779,
              -0.10004003345966339
            ],
            [
              -0.008263502269983292,
              -0.06845194101333618,
              0.18035303056240082
            ],
            [
              0.17881029844284058,
              0.07483186572790146,
              -0.049522269517183304
            ],
            [
              -0.06080665811896324,
              0.009746930561959743,
              0.16640475392341614
            ],
            [
              -0.09159533679485321,
              -0.09230195730924606,
              0.17777274549007416
            ],
            [
              -0.10760017484426498,
              -0.00611548637971282,
              0.11230738461017609
            ],
            [
              -0.09322665631771088,
              0.0561300590634346,
              0.13194158673286438
            ],
            [
              -0.13721804320812225,
              0.021646661683917046,
              0.032660339027643204
            ],
            [
              -0.11022379249334335,
              -0.17424577474594116,
              -0.13821598887443542
            ]
          ],
          [
            [
              -0.0023509711027145386,
              0.09132830053567886,
              0.08869121968746185
            ],
            [
              0.08978301286697388,
              0.14417240023612976,
              -0.10706111043691635
            ],
            [
              0.033941470086574554,
              -0.18580931425094604,
              0.01669502444565296
            ],
            [
              -0.06965935975313187,
              -0.028979863971471786,
              -0.05831177160143852
            ],
            [
              -0.1129506528377533,
              0.0770496055483818,
              0.13651414215564728
            ],
            [
              0.030078284442424774,
              -0.020011233165860176,
              -0.14179329574108124
            ],
            [
              -0.16626550257205963,
              0.011290429159998894,
              0.06818128377199173
            ],
            [
              0.07312910258769989,
              0.05297645553946495,
              0.11077940464019775
            ],
            [
              -0.11588218063116074,
              -0.17024663090705872,
              0.05185893550515175
            ],
            [
              -0.12889999151229858,
              -0.01123074721544981,
              -0.06225383281707764
            ],
            [
              0.18417561054229736,
              0.006550515070557594,
              0.11810480058193207
            ],
            [
              -0.04035750404000282,
              -0.11880558729171753,
              0.11018762737512589
            ],
            [
              -0.049190543591976166,
              -0.060344427824020386,
              -0.08539515733718872
            ],
            [
              0.02304740622639656,
              0.08205617219209671,
              0.013357331976294518
            ],
            [
              0.14088328182697296,
              0.05700744315981865,
              0.010837390087544918
            ],
            [
              0.05840858072042465,
              0.14091746509075165,
              -0.03793460875749588
            ]
          ],
          [
            [
              -0.0023585266899317503,
              -0.10442797839641571,
              0.003154292469844222
            ],
            [
              0.0429939404129982,
              0.08949945867061615,
              -0.055186279118061066
            ],
            [
              -0.13595837354660034,
              0.00041734628030098975,
              -0.08069456368684769
            ],
            [
              -0.023284902796149254,
              0.11606871336698532,
              -0.011978079564869404
            ],
            [
              -0.07375852018594742,
              0.09379398077726364,
              -0.026336893439292908
            ],
            [
              0.028547070920467377,
              -0.03832324594259262,
              0.03237699717283249
            ],
            [
              0.05463087186217308,
              -0.11490694433450699,
              0.0076882545836269855
            ],
            [
              -0.12857751548290253,
              0.01549230981618166,
              -0.07102102786302567
            ],
            [
              -0.17987634241580963,
              -0.11708800494670868,
              0.04038600996136665
            ],
            [
              0.09964199364185333,
              0.15175996720790863,
              0.03972337394952774
            ],
            [
              0.07711121439933777,
              0.10817238688468933,
              -0.009547064080834389
            ],
            [
              -0.1635991483926773,
              0.1040184423327446,
              0.04185042530298233
            ],
            [
              -0.12575852870941162,
              0.01578875444829464,
              0.06726575642824173
            ],
            [
              -0.1490638107061386,
              -0.03894977271556854,
              -0.06410165876150131
            ],
            [
              0.05185595527291298,
              -0.042056500911712646,
              0.09621302038431168
            ],
            [
              -0.029131926596164703,
              0.01857496239244938,
              -0.025822777301073074
            ]
          ],
          [
            [
              -0.15264403820037842,
              0.025058595463633537,
              -0.04148101434111595
            ],
            [
              0.15481987595558167,
              -0.11767704784870148,
              -0.14717619121074677
            ],
            [
              0.0663711428642273,
              -0.03814726322889328,
              -0.11070786416530609
            ],
            [
              0.12306477874517441,
              -0.017313208431005478,
              0.03508917987346649
            ],
            [
              -0.2421802580356598,
              -0.021327847614884377,
              -0.06819881498813629
            ],
            [
              0.1205885261297226,
              0.20224089920520782,
              0.04559103399515152
            ],
            [
              -0.2000551074743271,
              -0.07201752066612244,
              0.037028517574071884
            ],
            [
              -0.11577611416578293,
              -0.004602170083671808,
              -0.07253818213939667
            ],
            [
              0.1347968876361847,
              0.02439405955374241,
              0.11650533229112625
            ],
            [
              -0.06871669739484787,
              0.0911935418844223,
              0.1716836541891098
            ],
            [
              -0.023038769140839577,
              0.03899511322379112,
              -0.09623727202415466
            ],
            [
              0.19431684911251068,
              0.05688011646270752,
              0.012223975732922554
            ],
            [
              0.0820942297577858,
              0.03268209099769592,
              -0.07547014206647873
            ],
            [
              0.02948903664946556,
              -0.05731560289859772,
              -0.04396174103021622
            ],
            [
              0.0552385188639164,
              -0.03342054411768913,
              -0.009577003307640553
            ],
            [
              0.09799616783857346,
              0.15762250125408173,
              -0.08237852156162262
            ]
          ],
          [
            [
              -0.11248590052127838,
              -0.11182261258363724,
              0.06885024905204773
            ],
            [
              -0.1886095404624939,
              0.0884631797671318,
              -0.07743921130895615
            ],
            [
              0.11664961278438568,
              0.15662625432014465,
              -0.05642199516296387
            ],
            [
              -0.06009000912308693,
              -0.0848054513335228,
              -0.024685364216566086
            ],
            [
              -0.002591511467471719,
              -0.06611108034849167,
              -0.042133837938308716
            ],
            [
              -0.114411860704422,
              0.076909638941288,
              0.04473365470767021
            ],
            [
              0.019826704636216164,
              0.005298659671097994,
              0.10357356071472168
            ],
            [
              -0.04789453372359276,
              0.08421270549297333,
              -0.006151520647108555
            ],
            [
              0.16983264684677124,
              -0.1632418930530548,
              -0.06950920075178146
            ],
            [
              -0.08913273364305496,
              -0.13849642872810364,
              0.12074889242649078
            ],
            [
              0.043979208916425705,
              -0.05762876570224762,
              0.05063311383128166
            ],
            [
              0.09547800570726395,
              0.1015838012099266,
              -0.005956154316663742
            ],
            [
              -0.01632653921842575,
              0.1431511789560318,
              -0.14595524966716766
            ],
            [
              -0.05700990930199623,
              0.13626553118228912,
              -0.07268796116113663
            ],
            [
              0.04038151353597641,
              -0.07170829176902771,
              -0.11660467088222504
            ],
            [
              -0.07825817167758942,
              0.126094251871109,
              0.1075901910662651
            ]
          ],
          [
            [
              -0.04849164932966232,
              -0.020139945670962334,
              -0.02443220280110836
            ],
            [
              0.10659052431583405,
              0.0762689933180809,
              -0.05910307168960571
            ],
            [
              0.0795588344335556,
              -0.12238342314958572,
              -0.143214613199234
            ],
            [
              -0.03226108103990555,
              -0.2436496466398239,
              -0.008488679304718971
            ],
            [
              0.1946139633655548,
              0.19139055907726288,
              -0.003354680724442005
            ],
            [
              -0.11484961956739426,
              0.02765519544482231,
              -0.13842156529426575
            ],
            [
              -0.043264374136924744,
              0.18768911063671112,
              0.06641227006912231
            ],
            [
              0.1024678573012352,
              -0.12694692611694336,
              -0.11329185217618942
            ],
            [
              -0.2378096878528595,
              -0.13474972546100616,
              -0.10357966274023056
            ],
            [
              0.04247323423624039,
              -0.01848870888352394,
              0.13595043122768402
            ],
            [
              -0.0016650512116029859,
              -0.1505049467086792,
              0.060207001864910126
            ],
            [
              0.06193186342716217,
              0.011458314955234528,
              -0.04670518636703491
            ],
            [
              -0.16354900598526,
              -0.07568583637475967,
              -0.19023928046226501
            ],
            [
              0.06119116395711899,
              0.027476781979203224,
              -0.1155361533164978
            ],
            [
              0.019874542951583862,
              -0.08378466963768005,
              0.1392645239830017
            ],
            [
              -0.11141999065876007,
              0.13872502744197845,
              -0.009891567751765251
            ]
          ],
          [
            [
              -0.08767618983983994,
              -0.05760917440056801,
              0.09033103287220001
            ],
            [
              -0.02482871524989605,
              0.01779135875403881,
              0.1890905797481537
            ],
            [
              0.05276014655828476,
              -0.08853404968976974,
              0.04205116629600525
            ],
            [
              0.1185537800192833,
              0.019019529223442078,
              -0.11943977326154709
            ],
            [
              0.03530043363571167,
              0.09268095344305038,
              0.029835745692253113
            ],
            [
              -0.09304215013980865,
              0.06784932315349579,
              -0.002279624342918396
            ],
            [
              -0.14758357405662537,
              -0.016199836507439613,
              0.05738262087106705
            ],
            [
              0.11835402995347977,
              0.08958268165588379,
              0.0842522382736206
            ],
            [
              0.15423768758773804,
              0.040640927851200104,
              0.06001679226756096
            ],
            [
              -0.11466658860445023,
              -0.16543078422546387,
              -0.014163946732878685
            ],
            [
              0.07547855377197266,
              -0.04585776478052139,
              -0.01769060641527176
            ],
            [
              0.17807915806770325,
              -0.08630519360303879,
              0.021715357899665833
            ],
            [
              0.0866830125451088,
              0.0946071669459343,
              0.12455420941114426
            ],
            [
              0.08576683700084686,
              0.13588550686836243,
              0.022518685087561607
            ],
            [
              -0.08265295624732971,
              0.05798240378499031,
              -0.08590438216924667
            ],
            [
              -0.0541197843849659,
              0.036313824355602264,
              0.15115387737751007
            ]
          ],
          [
            [
              0.009301519021391869,
              0.010006432421505451,
              0.10694316774606705
            ],
            [
              0.17760105431079865,
              0.05014639347791672,
              0.10020557790994644
            ],
            [
              -0.013145641423761845,
              -0.03779438138008118,
              -0.01684783212840557
            ],
            [
              0.057671062648296356,
              0.09758446365594864,
              0.1115606278181076
            ],
            [
              -0.12978564202785492,
              0.014522449113428593,
              -0.0527486726641655
            ],
            [
              -0.04714474081993103,
              0.04535688832402229,
              -0.11939528584480286
            ],
            [
              -0.12898677587509155,
              0.03001101128757,
              0.03844040259718895
            ],
            [
              -0.07402703911066055,
              0.016097446903586388,
              0.027563011273741722
            ],
            [
              0.0625619888305664,
              -0.1410171240568161,
              0.05088440701365471
            ],
            [
              -0.1762394905090332,
              -0.03221721202135086,
              0.03991897404193878
            ],
            [
              -0.11755676567554474,
              -0.05750223621726036,
              0.0196918286383152
            ],
            [
              0.0707898959517479,
              -0.11569082736968994,
              0.1566971242427826
            ],
            [
              0.12408246099948883,
              0.011661296710371971,
              -0.14334125816822052
            ],
            [
              0.06165163591504097,
              0.06650231033563614,
              0.01966497115790844
            ],
            [
              -0.08008483052253723,
              -0.09513674676418304,
              0.09643292427062988
            ],
            [
              -0.10111632943153381,
              0.09893637895584106,
              -0.12408918887376785
            ]
          ],
          [
            [
              -0.04366907849907875,
              0.017892060801386833,
              -0.04760587215423584
            ],
            [
              -0.1969287246465683,
              -0.2196437269449234,
              0.20531803369522095
            ],
            [
              -0.3388373851776123,
              0.14293314516544342,
              0.10497778654098511
            ],
            [
              -0.2665084898471832,
              0.22777202725410461,
              0.09066776186227798
            ],
            [
              0.3033796548843384,
              -0.1593322604894638,
              -0.24453270435333252
            ],
            [
              -0.11203855276107788,
              0.03252875804901123,
              -0.027379337698221207
            ],
            [
              0.2510831356048584,
              -0.16436384618282318,
              -0.227900430560112
            ],
            [
              0.058452799916267395,
              -0.03850744292140007,
              0.03322644904255867
            ],
            [
              -0.23399175703525543,
              0.3828694522380829,
              0.018929582089185715
            ],
            [
              0.2630877196788788,
              0.02485748380422592,
              -0.2724725604057312
            ],
            [
              -0.12704305350780487,
              0.1554638147354126,
              0.21263591945171356
            ],
            [
              -0.4051561951637268,
              0.0022830094676464796,
              0.24093827605247498
            ],
            [
              -0.20806379616260529,
              -0.15016615390777588,
              0.2517717480659485
            ],
            [
              -0.06599736958742142,
              0.1261986941099167,
              0.006993576884269714
            ],
            [
              -0.2307559698820114,
              0.12359946221113205,
              -0.08309397101402283
            ],
            [
              -0.047149065881967545,
              -0.19196723401546478,
              -0.08969655632972717
            ]
          ],
          [
            [
              0.02521779201924801,
              0.0885370746254921,
              0.0026730275712907314
            ],
            [
              0.27079129219055176,
              -0.09144092351198196,
              0.13514851033687592
            ],
            [
              0.20109985768795013,
              -0.07536067068576813,
              -0.023571407422423363
            ],
            [
              0.15795080363750458,
              -0.03000270202755928,
              -0.1309809684753418
            ],
            [
              -0.18792134523391724,
              0.08241569250822067,
              -0.1266430765390396
            ],
            [
              -0.09559255093336105,
              -0.0860925242304802,
              -0.11293704807758331
            ],
            [
              -0.13424105942249298,
              0.0297696515917778,
              0.13143965601921082
            ],
            [
              0.08500462025403976,
              -0.12871886789798737,
              0.03095259517431259
            ],
            [
              0.04031383991241455,
              0.04501570016145706,
              -0.03112657181918621
            ],
            [
              -0.16802944242954254,
