{
  "model_info": {
    "name": "flstudio_cpu_optimized6",
    "version": "1.0.0",
    "architecture": "WaveNet",
    "causal": true,
    "sample_rate": 44100,
    "receptive_field": 2047,
    "latency_ms": 46.42
  },
  "architecture": {
    "channels": 18,
    "num_layers": 10,
    "kernel_size": 3,
    "dilation_base": 2,
    "dilations": [
      1,
      2,
      4,
      8,
      16,
      32,
      64,
      128,
      256,
      512
    ]
  },
  "weights": {
    "input_conv": {
      "weight": [
        -1.2399253845214844,
        0.9293871521949768,
        0.14962266385555267,
        -1.017488956451416,
        0.13149283826351166,
        0.7006875276565552,
        -0.11309811472892761,
        -0.9613229036331177,
        -0.1885516345500946,
        -0.1977354735136032,
        -1.3081550598144531,
        -1.0969531536102295,
        -0.8062779903411865,
        0.9206106066703796,
        0.42153826355934143,
        0.39593011140823364,
        -0.5877183079719543,
        1.0808498859405518
      ],
      "bias": [
        0.270428329706192,
        0.359945684671402,
        0.4981890320777893,
        -0.33763256669044495,
        -0.18475571274757385,
        -0.6261991262435913,
        -0.48424094915390015,
        -0.4343191385269165,
        -0.04950796440243721,
        -0.638800859451294,
        -0.1699339598417282,
        0.30016809701919556,
        0.3723699152469635,
        -0.15961599349975586,
        0.4277474284172058,
        -0.24751979112625122,
        0.3036508560180664,
        0.280771940946579
      ]
    },
    "residual_blocks": [
      {
        "layer": 0,
        "dilation": 1,
        "conv_weight": [
          [
            [
              0.0480252280831337,
              0.1048986166715622,
              -0.0180637389421463
            ],
            [
              0.010072875767946243,
              0.02128925919532776,
              -0.09632338583469391
            ],
            [
              0.08597962558269501,
              0.10978244245052338,
              -0.04729211702942848
            ],
            [
              0.14614149928092957,
              0.08327813446521759,
              0.1428985297679901
            ],
            [
              0.11802108585834503,
              0.1012539491057396,
              0.06061595678329468
            ],
            [
              -0.06142599135637283,
              0.08746598660945892,
              0.11196939647197723
            ],
            [
              0.060192082077264786,
              0.04849034920334816,
              0.04016873612999916
            ],
            [
              0.13208669424057007,
              0.03488636389374733,
              0.15927666425704956
            ],
            [
              0.07895150035619736,
              -0.04869810491800308,
              0.09463818371295929
            ],
            [
              0.12185849249362946,
              0.08101844042539597,
              -0.09388943761587143
            ],
            [
              0.18331226706504822,
              0.17116662859916687,
              0.09948042780160904
            ],
            [
              0.07927669584751129,
              0.19414149224758148,
              0.13480009138584137
            ],
            [
              0.0037361232098191977,
              0.12066057324409485,
              0.04609161242842674
            ],
            [
              -0.02712925896048546,
              -0.08615239709615707,
              -0.05957375466823578
            ],
            [
              -0.07533178478479385,
              -0.11470754444599152,
              -0.08724819123744965
            ],
            [
              -0.0244942307472229,
              -0.010118492878973484,
              -0.07225842773914337
            ],
            [
              -0.06399708241224289,
              0.14507421851158142,
              -0.003839963348582387
            ],
            [
              -0.01939685270190239,
              0.02703925594687462,
              -0.05723685398697853
            ]
          ],
          [
            [
              -0.1578437238931656,
              -0.1105436384677887,
              -0.05717010796070099
            ],
            [
              0.0933745875954628,
              0.010859775356948376,
              -0.04351760819554329
            ],
            [
              -0.03819555789232254,
              0.021085793152451515,
              0.07500462234020233
            ],
            [
              -0.11087331175804138,
              -0.10242091864347458,
              -0.022445520386099815
            ],
            [
              -0.059816956520080566,
              0.05855019390583038,
              0.020686596632003784
            ],
            [
              0.1519152969121933,
              -0.00756355794146657,
              0.007280569523572922
            ],
            [
              0.09526337683200836,
              0.006309265736490488,
              0.01210090797394514
            ],
            [
              -0.023253578692674637,
              -0.04296843707561493,
              -0.020403239876031876
            ],
            [
              0.013833416625857353,
              -0.006854939740151167,
              0.05209965631365776
            ],
            [
              0.014458268880844116,
              -0.0795273706316948,
              0.07854621112346649
            ],
            [
              -0.06526516377925873,
              -0.11481171101331711,
              -0.005673316307365894
            ],
            [
              -0.07056429237127304,
              -0.07815410941839218,
              -0.11634384095668793
            ],
            [
              0.02083064615726471,
              -0.1269763857126236,
              -0.021663930267095566
            ],
            [
              0.15673890709877014,
              0.06403199583292007,
              0.05156406760215759
            ],
            [
              0.01781504601240158,
              -0.025622013956308365,
              -0.022478418424725533
            ],
            [
              0.06281479448080063,
              0.03142056614160538,
              -0.03617480769753456
            ],
            [
              -0.058823633939027786,
              -0.12992258369922638,
              -0.10955015569925308
            ],
            [
              0.12157899141311646,
              0.017102422192692757,
              -0.0022109749261289835
            ]
          ],
          [
            [
              -0.06978946924209595,
              -0.09544431418180466,
              -0.2074110060930252
            ],
            [
              0.09591598063707352,
              0.12593518197536469,
              0.05172688886523247
            ],
            [
              -0.05340658873319626,
              -0.10736709088087082,
              -0.03730490058660507
            ],
            [
              -0.08783461153507233,
              -0.12162558734416962,
              -0.05441555753350258
            ],
            [
              0.06921397894620895,
              0.04189926013350487,
              0.031604599207639694
            ],
            [
              -0.01499092299491167,
              0.10292728245258331,
              0.16756945848464966
            ],
            [
              -0.014556851238012314,
              0.0059667411260306835,
              -0.08346825838088989
            ],
            [
              0.02818126045167446,
              0.01926002837717533,
              0.06654835492372513
            ],
            [
              -0.002590217860415578,
              0.016170106828212738,
              0.07792089879512787
            ],
            [
              0.035109177231788635,
              -0.05391378328204155,
              -0.013937443494796753
            ],
            [
              -0.01408678013831377,
              -0.04336386173963547,
              -0.04868270084261894
            ],
            [
              -0.02566087245941162,
              -0.13330170512199402,
              -0.1395699679851532
            ],
            [
              -0.05805647745728493,
              -0.13636989891529083,
              -0.08785873651504517
            ],
            [
              0.20184287428855896,
              0.03563159331679344,
              0.17624710500240326
            ],
            [
              -0.0036837521474808455,
              0.09249947965145111,
              -0.11369632184505463
            ],
            [
              0.014656051062047482,
              0.16993626952171326,
              0.00823401752859354
            ],
            [
              -0.054511722177267075,
              -0.15359574556350708,
              0.000893816351890564
            ],
            [
              -0.0008746840176172554,
              0.14989504218101501,
              -0.05178546905517578
            ]
          ],
          [
            [
              0.09793547540903091,
              0.23428581655025482,
              0.100334532558918
            ],
            [
              -0.060793984681367874,
              -0.10491874068975449,
              -0.16624382138252258
            ],
            [
              0.10896308720111847,
              -0.11861810833215714,
              0.06732187420129776
            ],
            [
              0.05046567693352699,
              -0.03503313288092613,
              0.03891662880778313
            ],
            [
              -0.07259196043014526,
              -0.0044837347231805325,
              0.07868660241365433
            ],
            [
              -0.1290915608406067,
              -0.01448850892484188,
              -0.010728172957897186
            ],
            [
              -0.08904892951250076,
              -0.0329720675945282,
              -0.05274314805865288
            ],
            [
              -0.009757251478731632,
              0.07611828297376633,
              -0.004538031294941902
            ],
            [
              -0.04698628559708595,
              -0.048701174557209015,
              -0.03310588374733925
            ],
            [
              -0.11393113434314728,
              -0.044696565717458725,
              -0.027560237795114517
            ],
            [
              0.11743102222681046,
              0.25271889567375183,
              0.256307989358902
            ],
            [
              0.09801827371120453,
              0.12471324950456619,
              0.2091033160686493
            ],
            [
              0.15859392285346985,
              0.032688334584236145,
              0.1301908940076828
            ],
            [
              -0.039430782198905945,
              -0.23434403538703918,
              -0.10838587582111359
            ],
            [
              0.04311942681670189,
              -0.09652108699083328,
              -0.12889020144939423
            ],
            [
              -0.04427541792392731,
              -0.021306678652763367,
              -0.12305215001106262
            ],
            [
              0.12889710068702698,
              0.021275756880640984,
              0.13508836925029755
            ],
            [
              -0.18681640923023224,
              -0.06187665835022926,
              -0.1802121251821518
            ]
          ],
          [
            [
              -0.0655532106757164,
              -0.08926539123058319,
              -0.010846678167581558
            ],
            [
              0.08085468411445618,
              0.07838123291730881,
              0.09090233594179153
            ],
            [
              0.008212190121412277,
              0.06580366939306259,
              -0.03150518238544464
            ],
            [
              0.01933448016643524,
              -0.07534865289926529,
              -0.017593899741768837
            ],
            [
              -0.017194410786032677,
              0.037417199462652206,
              0.0408359095454216
            ],
            [
              0.05175274983048439,
              0.029453899711370468,
              0.031480301171541214
            ],
            [
              -0.05102350935339928,
              -0.0185239315032959,
              0.04472938925027847
            ],
            [
              0.02394229732453823,
              -0.11815287917852402,
              0.008220454677939415
            ],
            [
              0.013744998723268509,
              -0.035782910883426666,
              -0.05800219252705574
            ],
            [
              0.08214040100574493,
              0.0027244859375059605,
              -0.11464083939790726
            ],
            [
              -0.09540694206953049,
              -0.0654831975698471,
              -0.11351807415485382
            ],
            [
              0.03381538391113281,
              0.014422653242945671,
              -0.032683294266462326
            ],
            [
              -0.06586206704378128,
              -0.0714903250336647,
              -0.003102872520685196
            ],
            [
              -0.001094742096029222,
              0.046149540692567825,
              -0.006706909742206335
            ],
            [
              0.013663561083376408,
              -0.03154222294688225,
              0.10731122642755508
            ],
            [
              0.04837408289313316,
              0.03785470128059387,
              -0.021931013092398643
            ],
            [
              0.014338687062263489,
              -0.04506058618426323,
              -0.05990040674805641
            ],
            [
              0.03772848844528198,
              0.07526399940252304,
              0.012566416524350643
            ]
          ],
          [
            [
              -0.15108142793178558,
              -0.08720194548368454,
              -0.1220753863453865
            ],
            [
              0.2028065323829651,
              0.07590769231319427,
              0.18277165293693542
            ],
            [
              0.008924725465476513,
              0.011378583498299122,
              -0.014958422631025314
            ],
            [
              -0.04272913560271263,
              -0.08713123947381973,
              -0.0645156055688858
            ],
            [
              -0.13218092918395996,
              0.03671970218420029,
              0.05216699838638306
            ],
            [
              -0.055544354021549225,
              -0.014118405058979988,
              -0.08691234886646271
            ],
            [
              -0.17146214842796326,
              0.04582657665014267,
              0.02592530846595764
            ],
            [
              -0.1750192940235138,
              -0.15634296834468842,
              0.008494633249938488
            ],
            [
              -0.039672642946243286,
              -0.023793330416083336,
              -0.0799165591597557
            ],
            [
              -0.009376440197229385,
              -0.0990111380815506,
              -0.03742074593901634
            ],
            [
              -0.06496962904930115,
              -0.21375629305839539,
              -0.23489588499069214
            ],
            [
              -0.021118035539984703,
              -0.14164724946022034,
              -0.09715711325407028
            ],
            [
              -0.00791820976883173,
              -0.09938245266675949,
              -0.059959426522254944
            ],
            [
              0.12335295975208282,
              0.1344338208436966,
              0.07866071909666061
            ],
            [
              -0.04618095979094505,
              -0.022711792960762978,
              0.06822539865970612
            ],
            [
              0.01512062642723322,
              -0.048837874084711075,
              -0.09304431825876236
            ],
            [
              0.042469147592782974,
              0.03359821066260338,
              -0.011419069953262806
            ],
            [
              0.02203136309981346,
              0.07711562514305115,
              0.1814335286617279
            ]
          ],
          [
            [
              0.09056293219327927,
              0.08092201501131058,
              -0.03597445785999298
            ],
            [
              0.053420115262269974,
              -0.016122713685035706,
              -0.009234633296728134
            ],
            [
              0.030468067154288292,
              0.0723293125629425,
              -0.0972851812839508
            ],
            [
              -0.030276229605078697,
              -0.010022765025496483,
              0.048240598291158676
            ],
            [
              -0.10767319798469543,
              -0.053727127611637115,
              -0.02687656506896019
            ],
            [
              -0.08774713426828384,
              -0.07668512314558029,
              0.026518376544117928
            ],
            [
              -0.060986630618572235,
              0.018166154623031616,
              -0.015153897926211357
            ],
            [
              -0.02775738574564457,
              0.049088478088378906,
              0.011134501546621323
            ],
            [
              -0.043148621916770935,
              -0.011372827924787998,
              0.0209511611610651
            ],
            [
              -0.20032626390457153,
              -0.09052065014839172,
              0.051972586661577225
            ],
            [
              -0.023782843723893166,
              0.013586449436843395,
              0.052477601915597916
            ],
            [
              0.09479065984487534,
              0.025885222479701042,
              -0.03319187089800835
            ],
            [
              0.1182691678404808,
              0.045152366161346436,
              0.05843913182616234
            ],
            [
              -0.1022917777299881,
              -0.03853224217891693,
              -0.006529169622808695
            ],
            [
              0.1723337471485138,
              0.05113944411277771,
              -0.02747315727174282
            ],
            [
              -0.10339078307151794,
              0.010845434851944447,
              0.03813980892300606
            ],
            [
              0.14097876846790314,
              0.024786723777651787,
              -0.009830628521740437
            ],
            [
              0.081621915102005,
              0.009219905361533165,
              -0.002213630359619856
            ]
          ],
          [
            [
              0.20060425996780396,
              0.07589717209339142,
              0.19279873371124268
            ],
            [
              -0.004779955837875605,
              -0.12423675507307053,
              -0.07322996854782104
            ],
            [
              -0.03926263004541397,
              0.003039489733055234,
              0.009656382724642754
            ],
            [
              -0.0390537790954113,
              0.15559448301792145,
              -0.07298039644956589
            ],
            [
              -0.06953172385692596,
              0.06474035978317261,
              0.03803570196032524
            ],
            [
              -0.16966794431209564,
              -0.17728132009506226,
              -0.11731095612049103
            ],
            [
              -0.034289609640836716,
              -0.035524215549230576,
              0.07531632483005524
            ],
            [
              -0.004553682636469603,
              0.14267894625663757,
              0.0565875843167305
            ],
            [
              -0.023154450580477715,
              -0.018182894214987755,
              -0.005772693548351526
            ],
            [
              0.013426070101559162,
              -0.14060106873512268,
              -0.023442186415195465
            ],
            [
              0.14218439161777496,
              0.03493628650903702,
              0.03790994733572006
            ],
            [
              0.07621167600154877,
              0.09590467065572739,
              0.07331418246030807
            ],
            [
              0.08006034791469574,
              0.15555691719055176,
              0.02850235439836979
            ],
            [
              -0.01931264065206051,
              -0.1233004704117775,
              -0.17445845901966095
            ],
            [
              -0.0013522800290957093,
              -0.06343750655651093,
              -0.11548714339733124
            ],
            [
              -0.16510805487632751,
              -0.14055435359477997,
              -0.05384938791394234
            ],
            [
              0.11854584515094757,
              -0.022275425493717194,
              0.08003098517656326
            ],
            [
              -0.0013898378238081932,
              -0.1639876514673233,
              -0.10295812785625458
            ]
          ],
          [
            [
              0.01198648102581501,
              0.11469420790672302,
              0.1717967689037323
            ],
            [
              0.006318111438304186,
              -0.012536780908703804,
              -0.07647797465324402
            ],
            [
              -0.028998004272580147,
              -0.024593940004706383,
              -0.06451571732759476
            ],
            [
              0.04975069314241409,
              0.06455255299806595,
              0.16450878977775574
            ],
            [
              0.028613625094294548,
              -0.05371242016553879,
              -0.0686929002404213
            ],
            [
              0.03478945046663284,
              -0.027294868603348732,
              -0.14574480056762695
            ],
            [
              -0.03655669838190079,
              0.048157960176467896,
              0.005372895859181881
            ],
            [
              -0.034968938678503036,
              0.08653080463409424,
              0.1274014413356781
            ],
            [
              -0.0017265942879021168,
              -0.004664849489927292,
              0.02030053734779358
            ],
            [
              -0.03203732892870903,
              -0.04176408797502518,
              0.008348475210368633
            ],
            [
              0.024448910728096962,
              0.08141107857227325,
              0.19121688604354858
            ],
            [
              -0.020313261076807976,
              0.05619814246892929,
              0.18123018741607666
            ],
            [
              -0.0031262864358723164,
              0.050180256366729736,
              0.1252751350402832
            ],
            [
              -0.0061437347903847694,
              -0.08687704801559448,
              -0.16184602677822113
            ],
            [
              -0.01602293737232685,
              -0.07123120874166489,
              -0.05534651130437851
            ],
            [
              0.013519221916794777,
              -0.00253274361602962,
              -0.055315978825092316
            ],
            [
              -0.009851524606347084,
              0.014463209547102451,
              0.03327889367938042
            ],
            [
              -0.00333282514475286,
              -0.065165214240551,
              -0.16208477318286896
            ]
          ],
          [
            [
              0.06317583471536636,
              0.010862061753869057,
              0.0512988306581974
            ],
            [
              0.003532473696395755,
              -0.050453316420316696,
              0.023649338632822037
            ],
            [
              0.05008791759610176,
              -0.05033339932560921,
              0.0431448295712471
            ],
            [
              -0.010633504018187523,
              0.025693237781524658,
              0.05136973038315773
            ],
            [
              -0.05737622454762459,
              0.014405149966478348,
              -0.052483681589365005
            ],
            [
              -0.16416993737220764,
              0.007094160187989473,
              -0.03541775420308113
            ],
            [
              -0.04122244566679001,
              -0.09598326683044434,
              0.04956638813018799
            ],
            [
              -0.052962303161621094,
              0.03330039232969284,
              -0.017296060919761658
            ],
            [
              -0.002425166079774499,
              -0.01079580932855606,
              -0.02272622101008892
            ],
            [
              -0.022451918572187424,
              0.03134908154606819,
              0.059117186814546585
            ],
            [
              -0.0041846027597785,
              0.010600012727081776,
              0.00386863318271935
            ],
            [
              0.11239834129810333,
              0.0076446630991995335,
              0.09977845847606659
            ],
            [
              0.058414287865161896,
              0.05306221917271614,
              0.06992579251527786
            ],
            [
              -0.04133179411292076,
              -0.018248654901981354,
              -0.052401117980480194
            ],
            [
              0.02352437935769558,
              0.08511808514595032,
              0.05097339302301407
            ],
            [
              -0.10202653706073761,
              0.011126819998025894,
              -0.019252097234129906
            ],
            [
              0.10892345011234283,
              0.09114669263362885,
              -0.008251756429672241
            ],
            [
              0.02629353292286396,
              -0.0406281054019928,
              0.008188338950276375
            ]
          ],
          [
            [
              0.05038134381175041,
              0.1120438501238823,
              0.2562546730041504
            ],
            [
              -0.0014754472067579627,
              -0.10975019633769989,
              -0.03821966424584389
            ],
            [
              0.0442170612514019,
              0.04398738592863083,
              0.01520964689552784
            ],
            [
              -0.031331662088632584,
              0.07548421621322632,
              0.16567343473434448
            ],
            [
              -0.003820620011538267,
              0.04635201394557953,
              -0.11610060930252075
            ],
            [
              0.09247671812772751,
              -0.132121279835701,
              -0.15403401851654053
            ],
            [
              0.007566503714770079,
              -0.06885845959186554,
              0.062102679163217545
            ],
            [
              0.11847449839115143,
              0.10438999533653259,
              0.003647126257419586
            ],
            [
              0.04794665053486824,
              0.039084114134311676,
              0.0577431283891201
            ],
            [
              -0.037408314645290375,
              0.024908864870667458,
              0.0366152822971344
            ],
            [
              0.014275354333221912,
              0.09468992054462433,
              0.28345197439193726
            ],
            [
              0.1408882737159729,
              0.2077205777168274,
              0.22315539419651031
            ],
            [
              0.04106450453400612,
              0.17962516844272614,
              0.10825510323047638
            ],
            [
              -0.13212239742279053,
              -0.1709534376859665,
              -0.11107476055622101
            ],
            [
              -0.12783995270729065,
              0.015734659507870674,
              -0.09200792014598846
            ],
            [
              0.07560359686613083,
              -0.11724774539470673,
              -0.029352402314543724
            ],
            [
              0.07267673313617706,
              -0.022299207746982574,
              -0.029542259871959686
            ],
            [
              -0.14014525711536407,
              -0.1691296249628067,
              -0.08572504669427872
            ]
          ],
          [
            [
              0.10813382267951965,
              0.04711432382464409,
              0.09547650068998337
            ],
            [
              -0.11113334447145462,
              -0.05502207204699516,
              -0.09041202068328857
            ],
            [
              -0.012867501936852932,
              -0.10714481770992279,
              0.0402517095208168
            ],
            [
              0.08614929765462875,
              0.030651895329356194,
              0.09365755319595337
            ],
            [
              -0.030007369816303253,
              -0.0520872063934803,
              -0.04261862859129906
            ],
            [
              -0.05859585106372833,
              -0.04362855851650238,
              0.06787212938070297
            ],
            [
              0.07598953694105148,
              -0.07370645552873611,
              0.029663505032658577
            ],
            [
              0.13298293948173523,
              0.13434460759162903,
              0.16441906988620758
            ],
            [
              0.0019072066061198711,
              0.05192587524652481,
              0.04641100764274597
            ],
            [
              0.006573587190359831,
              0.058416079729795456,
              0.09844553470611572
            ],
            [
              0.06509009748697281,
              0.10142405331134796,
              0.13779781758785248
            ],
            [
              0.1089787483215332,
              0.014972750097513199,
              -0.023694058880209923
            ],
            [
              0.08247623592615128,
              0.011775241233408451,
              -0.031436607241630554
            ],
            [
              -0.03308840095996857,
              -0.03257410228252411,
              -0.02261238731443882
            ],
            [
              -0.01556086540222168,
              0.008086024783551693,
              0.02937605232000351
            ],
            [
              0.01885119080543518,
              -0.02078893966972828,
              0.053314730525016785
            ],
            [
              0.05469440296292305,
              0.09512624144554138,
              0.06866678595542908
            ],
            [
              -0.07006021589040756,
              -0.10246168076992035,
              -0.0751410499215126
            ]
          ],
          [
            [
              -0.03960100933909416,
              0.04634818807244301,
              0.11201951652765274
            ],
            [
              -0.19368976354599,
              -0.005339363589882851,
              0.0661647692322731
            ],
            [
              -0.19028790295124054,
              -0.05477867275476456,
              0.11347414553165436
            ],
            [
              0.1023063138127327,
              0.1363385021686554,
              0.09725197404623032
            ],
            [
              0.10093406587839127,
              0.028326736763119698,
              0.06653454154729843
            ],
            [
              0.08257397264242172,
              -0.1141582801938057,
              0.01066215243190527
            ],
            [
              0.046490248292684555,
              -0.06078749895095825,
              0.02146920934319496
            ],
            [
              0.18963491916656494,
              0.1429632604122162,
              -0.062786765396595
            ],
            [
              0.08122418820858002,
              0.015784533694386482,
              -0.04910869151353836
            ],
            [
              0.18972620368003845,
              0.00706122349947691,
              0.0268127229064703
            ],
            [
              0.1434813141822815,
              0.04574132710695267,
              0.05011933669447899
            ],
            [
              -0.06713796406984329,
              0.07417573779821396,
              0.05866659805178642
            ],
            [
              -0.12008058279752731,
              -0.028643116354942322,
              0.04902346432209015
            ],
            [
              -0.07196977734565735,
              -0.03432893380522728,
              -0.04622448608279228
            ],
            [
              -0.06609991937875748,
              -0.09327775239944458,
              0.014098696410655975
            ],
            [
              0.11533986777067184,
              0.03520604223012924,
              -0.08632497489452362
            ],
            [
              -0.006880707573145628,
              -0.01962883770465851,
              0.0941760390996933
            ],
            [
              -0.1450517475605011,
              0.009561360813677311,
              -0.04795163869857788
            ]
          ],
          [
            [
              -0.16424225270748138,
              -0.09746433794498444,
              -0.14724469184875488
            ],
            [
              -0.004367943853139877,
              0.18084704875946045,
              -0.03973323479294777
            ],
            [
              0.04400121420621872,
              0.08025503158569336,
              0.05593612790107727
            ],
            [
              -0.020379124209284782,
              -0.02098175883293152,
              -0.09976882487535477
            ],
            [
              0.06922810524702072,
              -0.017441730946302414,
              -0.02590412087738514
            ],
            [
              0.1321578025817871,
              0.1683543473482132,
              0.12783174216747284
            ],
            [
              -0.09815844893455505,
              -0.012295176275074482,
              -0.03523334488272667
            ],
            [
              -0.14496250450611115,
              -0.1825672835111618,
              -0.171017125248909
            ],
            [
              0.006467476021498442,
              0.05548568442463875,
              0.021249225363135338
            ],
            [
              -0.08956854790449142,
              0.02580493688583374,
              -0.09981460124254227
            ],
            [
              -0.18465380370616913,
              -0.11411377042531967,
              -0.1293054074048996
            ],
            [
              -0.18904830515384674,
              -0.14139650762081146,
              -0.11094486713409424
            ],
            [
              0.0664864107966423,
              0.03560636565089226,
              -0.14159999787807465
            ],
            [
              0.05332036688923836,
              0.19817253947257996,
              0.18737605214118958
            ],
            [
              0.01771918497979641,
              -0.01200462132692337,
              0.11189591884613037
            ],
            [
              -0.06094452366232872,
              -0.06819808483123779,
              -0.056899771094322205
            ],
            [
              0.05374864488840103,
              -0.04020029678940773,
              -0.1074572280049324
            ],
            [
              0.19803936779499054,
              0.2072151005268097,
              0.06237955391407013
            ]
          ],
          [
            [
              -0.19780182838439941,
              -0.05037076398730278,
              -0.045701853930950165
            ],
            [
              0.024034202098846436,
              0.03426510840654373,
              0.012393267825245857
            ],
            [
              -0.026665374636650085,
              -0.002712078159675002,
              0.11217337101697922
            ],
            [
              0.11067301779985428,
              -0.08420249074697495,
              -0.08776571601629257
            ],
            [
              0.12242672592401505,
              -0.02961335889995098,
              -0.0355733260512352
            ],
            [
              0.14855991303920746,
              0.07897012680768967,
              0.05461303889751434
            ],
            [
              0.14847145974636078,
              -0.038703903555870056,
              0.019125426188111305
            ],
            [
              0.005690877791494131,
              -0.08128894120454788,
              0.02480997145175934
            ],
            [
              0.02791765332221985,
              -0.020138606429100037,
              -0.0096037108451128
            ],
            [
              0.02672557905316353,
              -0.052645083516836166,
              -0.1209559440612793
            ],
            [
              0.041369158774614334,
              -0.07752636075019836,
              -0.09006645530462265
            ],
            [
              -0.14393013715744019,
              -0.07783253490924835,
              0.047347135841846466
            ],
            [
              -0.18035084009170532,
              -0.060982611030340195,
              -0.04805402830243111
            ],
            [
              0.09256929904222488,
              0.05624636635184288,
              -0.00508135324344039
            ],
            [
              -0.1468702256679535,
              0.02130976878106594,
              -0.030173707753419876
            ],
            [
              0.12058743834495544,
              0.06906254589557648,
              0.01078412402421236
            ],
            [
              -0.16675682365894318,
              -0.10295312106609344,
              0.06334661692380905
            ],
            [
              -0.08347204327583313,
              -0.0022761730942875147,
              0.010803896002471447
            ]
          ],
          [
            [
              -0.11553892493247986,
              -0.1310442090034485,
              -0.025422532111406326
            ],
            [
              0.1410069316625595,
              0.11254581063985825,
              0.04060900956392288
            ],
            [
              0.1028924211859703,
              0.05377966910600662,
              0.08355039358139038
            ],
            [
              0.009405861608684063,
              0.003858220065012574,
              -0.07591596990823746
            ],
            [
              0.09297574311494827,
              0.06745342910289764,
              -0.05198134854435921
            ],
            [
              -0.04543915018439293,
              -0.027927344664931297,
              -0.034904032945632935
            ],
            [
              0.09347402304410934,
              -0.10979698598384857,
              -0.04232651740312576
            ],
            [
              0.016674555838108063,
              -0.0330473966896534,
              0.05611344799399376
            ],
            [
              -0.03195199742913246,
              -0.07658595591783524,
              0.05261194705963135
            ],
            [
              0.05571366101503372,
              0.07968496531248093,
              -0.10956777632236481
            ],
            [
              -0.047556594014167786,
              -0.12560319900512695,
              -0.10703465342521667
            ],
            [
              -0.1674974262714386,
              -0.1030026227235794,
              -0.003343856893479824
            ],
            [
              -0.07392306625843048,
              -0.014080315828323364,
              0.024995964020490646
            ],
            [
              0.035474713891744614,
              0.04945014417171478,
              -0.013383372686803341
            ],
            [
              -0.022737354040145874,
              0.0795690268278122,
              0.03092149645090103
            ],
            [
              -0.012857054360210896,
              0.10651803761720657,
              0.03881803900003433
            ],
            [
              -0.023577289655804634,
              -0.0998787209391594,
              -0.013749757781624794
            ],
            [
              0.10578114539384842,
              0.09556454420089722,
              0.16215911507606506
            ]
          ],
          [
            [
              0.1835317313671112,
              0.08521034568548203,
              0.12850148975849152
            ],
            [
              -0.13138599693775177,
              -0.17156939208507538,
              -0.17624236643314362
            ],
            [
              0.040935713797807693,
              0.0902557373046875,
              0.04742874577641487
            ],
            [
              0.042722683399915695,
              0.10283694416284561,
              -0.005015783943235874
            ],
            [
              0.04277300089597702,
              -0.1080380529165268,
              -0.06309867650270462
            ],
            [
              -0.11424701660871506,
              0.024109620600938797,
              0.046632591634988785
            ],
            [
              0.09514164179563522,
              0.06012789160013199,
              -0.0399569496512413
            ],
            [
              0.21771426498889923,
              0.08694712817668915,
              0.02404077909886837
            ],
            [
              -0.03723039850592613,
              0.10130118578672409,
              -0.05716072767972946
            ],
            [
              0.036082182079553604,
              0.08020681887865067,
              0.14695605635643005
            ],
            [
              0.2550431489944458,
              0.21800972521305084,
              0.2504754960536957
            ],
            [
              0.15277579426765442,
              0.18412984907627106,
              -0.025286631658673286
            ],
            [
              -0.0439840666949749,
              0.13503794372081757,
              0.04029599949717522
            ],
            [
              -0.09481395781040192,
              -0.18156419694423676,
              -0.04497464373707771
            ],
            [
              -0.012493385933339596,
              0.0015006008325144649,
              -0.009240960702300072
            ],
            [
              -0.12020139396190643,
              0.02212735265493393,
              -0.029090512543916702
            ],
            [
              0.0728919506072998,
              -0.015844572335481644,
              -0.03733658418059349
            ],
            [
              -0.14554853737354279,
              -0.1437903642654419,
              -0.09264346212148666
            ]
          ],
          [
            [
              -0.051745206117630005,
              -0.08178699016571045,
              -0.14394308626651764
            ],
            [
              0.09404391795396805,
              -0.016561567783355713,
              0.06324262917041779
            ],
            [
              -0.07988515496253967,
              0.024595113471150398,
              0.0012016858672723174
            ],
            [
              -0.039153724908828735,
              -0.09079331904649734,
              -0.04815298318862915
            ],
            [
              0.07556293904781342,
              0.0408935509622097,
              -0.00044162527774460614
            ],
            [
              0.03861599788069725,
              0.038237228989601135,
              0.13080042600631714
            ],
            [
              0.09578055143356323,
              -0.02220079116523266,
              0.007853188551962376
            ],
            [
              -0.018476717174053192,
              0.005193026270717382,
              -0.02128756046295166
            ],
            [
              -0.03519326448440552,
              -0.028637567535042763,
              -0.004338111262768507
            ],
            [
              0.05385797470808029,
              -0.04076208919286728,
              -0.0462694875895977
            ],
            [
              -0.0673808678984642,
              -0.11399802565574646,
              -0.1619085818529129
            ],
            [
              -0.11075370013713837,
              -0.01621093787252903,
              -0.17764897644519806
            ],
            [
              -0.041596148163080215,
              -0.07198663055896759,
              -0.034777622669935226
            ],
            [
              0.03923337534070015,
              0.03904350847005844,
              0.13342228531837463
            ],
            [
              0.03537120670080185,
              0.054355438798666,
              0.08984523266553879
            ],
            [
              -0.039237458258867264,
              0.006635889410972595,
              0.11706838756799698
            ],
            [
              0.02786869741976261,
              0.03090403974056244,
              0.018788589164614677
            ],
            [
              0.04693350940942764,
              0.011401474475860596,
              -0.005042504519224167
            ]
          ]
        ],
        "conv_bias": [
          0.08785630762577057,
          -0.05382693558931351,
          0.01587659865617752,
          -0.08270495384931564,
          -0.0014060799730941653,
          0.13868199288845062,
          -0.058987051248550415,
          -0.08770246803760529,
          0.020670967176556587,
          0.10659030824899673,
          0.03129791468381882,
          -0.06965937465429306,
          0.09031635522842407,
          -0.10858595371246338,
          0.034131936728954315,
          0.051273755729198456,
          0.056260619312524796,
          -0.055708907544612885
        ]
      },
      {
        "layer": 1,
        "dilation": 2,
        "conv_weight": [
          [
            [
              -0.014770283363759518,
              0.016301380470395088,
              -0.04435722529888153
            ],
            [
              0.05328027158975601,
              0.024454781785607338,
              0.018185708671808243
            ],
            [
              -0.01242886669933796,
              -0.03548469394445419,
              -0.01037011668086052
            ],
            [
              0.027041200548410416,
              0.020736828446388245,
              0.01587756723165512
            ],
            [
              0.03787226602435112,
              0.02358841709792614,
              0.021568896248936653
            ],
            [
              0.010869779624044895,
              -0.00871380977332592,
              0.04294075444340706
            ],
            [
              0.005099387373775244,
              0.020527062937617302,
              -0.04246032238006592
            ],
            [
              -0.04166925698518753,
              0.022923702374100685,
              -0.0076964180916547775
            ],
            [
              0.006686913315206766,
              -0.001431392040103674,
              -0.037265654653310776
            ],
            [
              0.06669167429208755,
              -0.002698679454624653,
              -0.035377342253923416
            ],
            [
              -0.046352680772542953,
              0.02050083875656128,
              -0.1062253937125206
            ],
            [
              0.008235418237745762,
              0.06880395859479904,
              -0.055579256266355515
            ],
            [
              -0.029723087325692177,
              0.029804706573486328,
              -0.08107176423072815
            ],
            [
              -0.0318683423101902,
              -0.015090187080204487,
              0.1189461424946785
            ],
            [
              0.03449050709605217,
              0.03170179948210716,
              0.04835177958011627
            ],
            [
              0.023450661450624466,
              -0.005157534033060074,
              0.026266667991876602
            ],
            [
              0.03459136188030243,
              0.007840911857783794,
              0.011499120853841305
            ],
            [
              0.034339915961027145,
              0.010596741922199726,
              0.08898210525512695
            ]
          ],
          [
            [
              -0.03208795562386513,
              -0.046451449394226074,
              0.044302091002464294
            ],
            [
              -0.08983753621578217,
              0.04893916845321655,
              -0.039782993495464325
            ],
            [
              0.00955432839691639,
              0.06011137738823891,
              0.0077986991964280605
            ],
            [
              -0.035465437918901443,
              -0.10144835710525513,
              0.09944024682044983
            ],
            [
              0.0523432157933712,
              0.02601661905646324,
              0.055017855018377304
            ],
            [
              -0.010401196777820587,
              0.057186003774404526,
              -0.003194470889866352
            ],
            [
              0.01279052346944809,
              -0.0004286889161448926,
              0.02819642797112465
            ],
            [
              0.02099435031414032,
              -0.02739892154932022,
              0.11673703044652939
            ],
            [
              -0.020634206011891365,
              -0.0648774728178978,
              0.04711407795548439
            ],
            [
              0.033321697264909744,
              0.017502058297395706,
              0.058993641287088394
            ],
            [
              -0.06728959083557129,
              -0.10102815926074982,
              0.03720025718212128
            ],
            [
              0.04092191532254219,
              0.050451166927814484,
              0.08744550496339798
            ],
            [
              -0.015527966432273388,
              -0.02958218939602375,
              0.019763469696044922
            ],
            [
              0.0034787028562277555,
              0.0733417347073555,
              -0.0707973912358284
            ],
            [
              -0.01618029549717903,
              0.03772471100091934,
              -0.05218952149152756
            ],
            [
              0.0054153501987457275,
              0.044661521911621094,
              -0.03850577771663666
            ],
            [
              -0.008924109861254692,
              -0.1001024842262268,
              0.02636009268462658
            ],
            [
              -0.0002041822881437838,
              0.047601502388715744,
              -0.10243867337703705
            ]
          ],
          [
            [
              0.04020785912871361,
              -0.014727375470101833,
              0.035616885870695114
            ],
            [
              -0.049948662519454956,
              0.062194205820560455,
              0.04046063870191574
            ],
            [
              -0.014805914834141731,
              0.01684616692364216,
              -0.003780775936320424
            ],
            [
              -0.04569796472787857,
              -0.21192987263202667,
              -0.09090438485145569
            ],
            [
              0.03864240273833275,
              0.11281689256429672,
              -0.03399813547730446
            ],
            [
              -0.010767519474029541,
              0.05907006561756134,
              -0.014162175357341766
            ],
            [
              -0.04979243502020836,
              -0.08524832874536514,
              -0.028064953163266182
            ],
            [
              0.0840190052986145,
              -0.14256906509399414,
              -0.009283876046538353
            ],
            [
              0.0399470217525959,
              -0.029908854514360428,
              0.02282649651169777
            ],
            [
              0.12019406259059906,
              0.07169691473245621,
              -0.07106338441371918
            ],
            [
              -0.04922911524772644,
              -0.07314608246088028,
              0.05608375743031502
            ],
            [
              0.11514799296855927,
              0.021785443648695946,
              -0.01895945705473423
            ],
            [
              0.08605460077524185,
              0.13728119432926178,
              0.1227322593331337
            ],
            [
              0.060387808829545975,
              0.08245271444320679,
              -0.01755501888692379
            ],
            [
              0.016490330919623375,
              0.12735964357852936,
              0.071947380900383
            ],
            [
              -0.010467634536325932,
              0.0486583411693573,
              0.014875234104692936
            ],
            [
              0.030985593795776367,
              -0.05647498369216919,
              -0.04654870182275772
            ],
            [
              -0.009552712552249432,
              0.08996270596981049,
              0.008859812282025814
            ]
          ],
          [
            [
              -0.10700323432683945,
              0.06306388974189758,
              0.17648746073246002
            ],
            [
              0.0070241279900074005,
              -0.015992363914847374,
              -0.055162135511636734
            ],
            [
              0.0664968341588974,
              -0.03520453721284866,
              -0.05082109197974205
            ],
            [
              -0.1774897575378418,
              0.06622713804244995,
              0.11117938905954361
            ],
            [
              -0.008100072853267193,
              0.032504353672266006,
              -0.10490349680185318
            ],
            [
              -0.01450502872467041,
              -0.03742232546210289,
              -0.14494185149669647
            ],
            [
              0.011277466081082821,
              0.09588692337274551,
              0.04408706724643707
            ],
            [
              -0.15019044280052185,
              0.10142017155885696,
              0.07009771466255188
            ],
            [
              -0.11458113044500351,
              0.034054938703775406,
              0.039243388921022415
            ],
            [
              -0.062020447105169296,
              0.037675339728593826,
              0.007043978199362755
            ],
            [
              -0.1125473901629448,
              0.016201931983232498,
              0.14690250158309937
            ],
            [
              -0.049990613013505936,
              -0.05222724378108978,
              0.08191019296646118
            ],
            [
              -0.10873188823461533,
              -0.026082970201969147,
              0.08320996165275574
            ],
            [
              0.061906442046165466,
              -0.028713520616292953,
              -0.1691436618566513
            ],
            [
              0.045462027192115784,
              -0.07441975176334381,
              -0.09280179440975189
            ],
            [
              0.10897520929574966,
              -0.03724684938788414,
              -0.10629966109991074
            ],
            [
              -0.05413799360394478,
              -0.02068237215280533,
              0.0801963061094284
            ],
            [
              0.10787606984376907,
              0.011830979026854038,
              0.008850525133311749
            ]
          ],
          [
            [
              -0.04221878945827484,
              -0.003975657746195793,
              0.07150911539793015
            ],
            [
              -0.009268034249544144,
              -0.008083168417215347,
              -0.02678784728050232
            ],
            [
              0.049485452473163605,
              -0.013656813651323318,
              -0.03666936606168747
            ],
            [
              0.022485218942165375,
              0.06832326948642731,
              0.06828328222036362
            ],
            [
              -0.0013393005356192589,
              -0.020679235458374023,
              -0.025338416919112206
            ],
            [
              0.03901652619242668,
              -0.01416710577905178,
              -0.0677112266421318
            ],
            [
              0.05988876149058342,
              0.06355664879083633,
              -0.009397605434060097
            ],
            [
              -0.027643714100122452,
              0.07845830172300339,
              0.060397714376449585
            ],
            [
              -0.047702524811029434,
              0.005489840172231197,
              0.03881903365254402
            ],
            [
              0.0680006816983223,
              0.09757135808467865,
              0.019115343689918518
            ],
            [
              -0.06237952411174774,
              0.0016154104378074408,
              0.08538409322500229
            ],
            [
              -0.029928669333457947,
              -0.002580301370471716,
              0.018262824043631554
            ],
            [
              -0.12257981300354004,
              -0.08183355629444122,
              0.05845508724451065
            ],
            [
              0.04581809043884277,
              0.027677597478032112,
              -0.04899466037750244
            ],
            [
              -0.06615699827671051,
              -0.09483528137207031,
              -0.02233910746872425
            ],
            [
              0.007585546933114529,
              -0.012272142805159092,
              -0.030811995267868042
            ],
            [
              -0.043661780655384064,
              0.004122587852180004,
              0.07142186164855957
            ],
            [
              0.006720609497278929,
              -0.014775046147406101,
              -0.03519821912050247
            ]
          ],
          [
            [
              0.10312486439943314,
              -0.10275418311357498,
              -0.11728009581565857
            ],
            [
              -0.06051008403301239,
              0.09372054785490036,
              0.08050580322742462
            ],
            [
              -0.084138885140419,
              0.025849811732769012,
              0.06659305095672607
            ],
            [
              0.10828341543674469,
              -0.1160702332854271,
              -0.2091006636619568
            ],
            [
              -0.09929244965314865,
              0.01197353471070528,
              0.05772789195179939
            ],
            [
              -0.08890920877456665,
              0.07458366453647614,
              -0.02988346852362156
            ],
            [
              0.012104492634534836,
              0.06322559714317322,
              -0.08219992369413376
            ],
            [
              -0.021214386448264122,
              0.003041363088414073,
              -0.143429696559906
            ],
            [
              0.06875865161418915,
              -0.01642736978828907,
              -0.07115087658166885
            ],
            [
              0.05217578634619713,
              -0.09465737640857697,
              -0.07014589756727219
            ],
            [
              0.1388215720653534,
              -0.1325969249010086,
              -0.09251319617033005
            ],
            [
              -0.010097899474203587,
              -0.021626591682434082,
              -0.030814053490757942
            ],
            [
              0.14909768104553223,
              -0.03808028995990753,
              -0.07492867112159729
            ],
            [
              -0.04863705486059189,
              0.07344933599233627,
              0.17540661990642548
            ],
            [
              -0.07166615128517151,
              -0.03487808257341385,
              0.07523421943187714
            ],
            [
              -0.06872756779193878,
              0.03670232370495796,
              0.08443200588226318
            ],
            [
              0.10331211984157562,
              -0.07381971180438995,
              -0.13177946209907532
            ],
            [
              -0.06830623000860214,
              0.040170881897211075,
              0.09316019713878632
            ]
          ],
          [
            [
              0.06654462218284607,
              0.013990345411002636,
              -0.1093127653002739
            ],
            [
              -0.009996742010116577,
              -0.057009145617485046,
              0.11018291860818863
            ],
            [
              -0.05275166034698486,
              -0.07997595518827438,
              0.01972578652203083
            ],
            [
              0.13533534109592438,
              0.11984095722436905,
              -0.11776937544345856
            ],
            [
              -0.03450603410601616,
              0.006925562396645546,
              0.0573941208422184
            ],
            [
              -0.09030462056398392,
              -0.013983871787786484,
              0.02164609171450138
            ],
            [
              0.028538260608911514,
              0.08438176661729813,
              -0.05552210286259651
            ],
            [
              0.13129469752311707,
              0.09230882674455643,
              -0.05420612171292305
            ],
            [
              0.00883071031421423,
              -0.01101447269320488,
              -0.07702488452196121
            ],
            [
              -0.06588344275951385,
              0.07453766465187073,
              -0.07096550613641739
            ],
            [
              0.11746743321418762,
              0.08892307430505753,
              -0.12407827377319336
            ],
            [
              -0.035330481827259064,
              0.012242491357028484,
              -0.08314970880746841
            ],
            [
              -0.0023777747992426157,
              -0.12472415715456009,
              -0.08195709437131882
            ],
            [
              -0.10059190541505814,
              -0.052934449166059494,
              0.08707240968942642
            ],
            [
              -0.06839106976985931,
              -0.11103774607181549,
              0.04345109313726425
            ],
            [
              -0.05413956940174103,
              -0.017470430582761765,
              0.05436620116233826
            ],
            [
              0.10171549022197723,
              -0.022941239178180695,
              -0.13701139390468597
            ],
            [
              -0.041213035583496094,
              -0.004943339619785547,
              0.10452080518007278
            ]
          ],
          [
            [
              0.06943793594837189,
              0.05731603503227234,
              0.01642734929919243
            ],
            [
              -0.010266479104757309,
              -0.07288987189531326,
              0.013850950635969639
            ],
            [
              0.05579763650894165,
              -0.09030435234308243,
              -0.00494052330031991
            ],
            [
              0.10247974842786789,
              0.23059259355068207,
              -0.0793892964720726
            ],
            [
              -0.005029353313148022,
              -0.01910964958369732,
              0.05172345042228699
            ],
            [
              -0.03254708647727966,
              -0.11266961693763733,
              0.04769914597272873
            ],
            [
              0.04183705896139145,
              0.01925099827349186,
              -0.10159120708703995
            ],
            [
              0.002729987259954214,
              0.008883760310709476,
              -0.06368501484394073
            ],
            [
              -0.0034163999371230602,
              0.04668045416474342,
              -0.06828942149877548
            ],
            [
              -0.03661569207906723,
              -0.03569048270583153,
              -0.08454417437314987
            ],
            [
              0.026767535135149956,
              0.11574461311101913,
              -0.14137428998947144
            ],
            [
              -0.042007990181446075,
              0.14175309240818024,
              -0.06831105053424835
            ],
            [
              -0.04076538234949112,
              -0.010046882554888725,
              -0.03500053286552429
            ],
            [
              0.0034434860572218895,
              -0.10362885892391205,
              0.06282240897417068
            ],
            [
              0.020969098433852196,
              -0.05504171550273895,
              0.07406406849622726
            ],
            [
              0.026074286550283432,
              -0.04565005749464035,
              0.09371458739042282
            ],
            [
              0.09299197047948837,
              0.12065863609313965,
              -0.0754883885383606
            ],
            [
              -0.014588779769837856,
              -0.027518337592482567,
              0.11680089682340622
            ]
          ],
          [
            [
              -0.1344965547323227,
              -0.08253441005945206,
              0.13214412331581116
            ],
            [
              0.07536453753709793,
              0.06453289091587067,
              -0.009210200980305672
            ],
            [
              0.04308485984802246,
              0.08867010474205017,
              -0.055342379957437515
            ],
            [
              -0.11552494764328003,
              -0.15418130159378052,
              0.04797625169157982
            ],
            [
              0.046239111572504044,
              0.022406479343771935,
              -0.08339359611272812
            ],
            [
              0.09643004834651947,
              0.04735603556036949,
              -0.0744457021355629
            ],
            [
              0.006208951584994793,
              -0.020617414265871048,
              -0.05430316925048828
            ],
            [
              -0.09400315582752228,
              -0.11260680854320526,
              0.046983808279037476
            ],
            [
              -0.16735059022903442,
              -0.14316043257713318,
              0.03484644740819931
            ],
            [
              0.010957968421280384,
              -0.01195557601749897,
              -0.011759184300899506
            ],
            [
              -0.10935327410697937,
              -0.10050360858440399,
              0.14870303869247437
            ],
            [
              -0.07056071609258652,
              -0.10386491566896439,
              0.10706816613674164
            ],
            [
              -0.1143270954489708,
              -0.058834001421928406,
              0.17951922118663788
            ],
            [
              0.17559698224067688,
              0.15345677733421326,
              -0.1663055419921875
            ],
            [
              -0.010141347534954548,
              0.04959909990429878,
              0.003495574463158846
            ],
            [
              0.03934642672538757,
              0.04153548553586006,
              -0.09748943895101547
            ],
            [
              -0.12118633836507797,
              -0.04662671685218811,
              0.08306985348463058
            ],
            [
              0.11739750951528549,
              0.10602954030036926,
              -0.0930836871266365
            ]
          ],
          [
            [
              -0.004720133729279041,
              0.013718190602958202,
              -0.010209723375737667
            ],
            [
              0.020022880285978317,
              0.04945315793156624,
              -0.022162359207868576
            ],
            [
              0.075108602643013,
              -0.004104296676814556,
              0.019191324710845947
            ],
            [
              -0.06972254812717438,
              0.053952813148498535,
              0.022220145910978317
            ],
            [
              0.006553648505359888,
              -0.04573541134595871,
              -0.033791664987802505
            ],
            [
              -0.0033462783321738243,
              -0.09318558126688004,
              -0.013077910989522934
            ],
            [
              0.01778658665716648,
              0.04188011959195137,
              0.03256528824567795
            ],
            [
              -0.042529672384262085,
              0.043783288449048996,
              -0.04768720269203186
            ],
            [
              -0.01201893575489521,
              0.019421299919486046,
              0.006427289918065071
            ],
            [
              -0.05441543087363243,
              -0.09879150241613388,
              0.02278723381459713
            ],
            [
              -0.026521043851971626,
              -0.00461397273465991,
              -0.0031146667897701263
            ],
            [
              -0.08958320319652557,
              -0.003728752490133047,
              0.02813982591032982
            ],
            [
              -0.024895114824175835,
              -0.020601239055395126,
              -0.0233929380774498
            ],
            [
              0.020751096308231354,
              -0.07829637080430984,
              -0.045304760336875916
            ],
            [
              0.02479466050863266,
              -0.0555865652859211,
              -0.013765813782811165
            ],
            [
              0.047176193445920944,
              -0.0440402552485466,
              -0.017111007124185562
            ],
            [
              -0.08330438286066055,
              0.0989099070429802,
              0.028603140264749527
            ],
            [
              0.055693987756967545,
              -0.014167767949402332,
              0.006300733424723148
            ]
          ],
          [
            [
              -0.3204231262207031,
              0.010077322833240032,
              0.3663303554058075
            ],
            [
              0.20135173201560974,
              -0.03667443245649338,
              -0.23804445564746857
            ],
            [
              0.23450930416584015,
              -0.0323370024561882,
              -0.17360277473926544
            ],
            [
              -0.461469441652298,
              0.11035838723182678,
              0.5942549109458923
            ],
            [
              0.07858920097351074,
              0.0005943392752669752,
              -0.14158158004283905
            ],
            [
              0.1315135359764099,
              0.06649070978164673,
              -0.14399631321430206
            ],
            [
              -0.0019884344656020403,
              0.15922872722148895,
              0.21760597825050354
            ],
            [
              -0.33495596051216125,
              0.01264070626348257,
              0.3628956079483032
            ],
            [
              -0.2592822015285492,
              0.03739231452345848,
              0.3239780366420746
            ],
            [
              -0.10471062362194061,
              0.04521512612700462,
              0.15193507075309753
            ],
            [
              -0.3436315059661865,
              0.04291773587465286,
              0.42858731746673584
            ],
            [
              -0.31166505813598633,
              -0.09973403066396713,
              0.2616347670555115
            ],
            [
              -0.401911199092865,
              -0.20043961703777313,
              0.11273748427629471
            ],
            [
              0.36496615409851074,
              0.06582804024219513,
              -0.42615431547164917
            ],
            [
              0.1353481262922287,
              -0.1696637123823166,
              -0.39103713631629944
            ],
            [
              0.21571823954582214,
              -0.018281498923897743,
              -0.30622953176498413
            ],
            [
              -0.30417370796203613,
              -0.06635857373476028,
              0.3368947207927704
            ],
            [
              0.2501218914985657,
              -0.10404133051633835,
              -0.32978910207748413
            ]
          ],
          [
            [
              -0.04766032472252846,
              0.036224376410245895,
              0.07182110100984573
            ],
            [
              0.09766166657209396,
              0.04492448642849922,
              0.012293500825762749
            ],
            [
              0.10651230067014694,
              -0.020409543067216873,
              -0.01867516152560711
            ],
            [
              -0.06991755217313766,
              0.03524598479270935,
              0.1129324734210968
            ],
            [
              0.02169041708111763,
              0.010044701397418976,
              0.0032175190281122923
            ],
            [
              0.0941142588853836,
              0.015313580632209778,
              0.009125283919274807
            ],
            [
              0.020108537748456,
              0.05822615697979927,
              -0.017269030213356018
            ],
            [
              -0.042563967406749725,
              0.05052405223250389,
              0.05521097034215927
            ],
            [
              -0.07446973025798798,
              -0.027207951992750168,
              -0.009914192371070385
            ],
            [
              -0.11953619122505188,
              0.05084126070141792,
              0.055107083171606064
            ],
            [
              -0.14929598569869995,
              -0.013269712217152119,
              0.008737391792237759
            ],
            [
              -0.10450708121061325,
              -0.026133310049772263,
              0.03198305144906044
            ],
            [
              -0.13790258765220642,
              -0.08210843801498413,
              -0.019156301394104958
            ],
            [
              0.10527283698320389,
              0.019096247851848602,
              -0.022144677117466927
            ],
            [
              0.019231904298067093,
              -0.09410883486270905,
              -0.036107439547777176
            ],
            [
              0.016348253935575485,
              -0.049374885857105255,
              -0.06645309180021286
            ],
            [
              -0.020222315564751625,
              0.07219769805669785,
              0.07515386492013931
            ],
            [
              0.08480037748813629,
              0.019845889881253242,
              0.01855584606528282
            ]
          ],
          [
            [
              0.045005086809396744,
              0.12650614976882935,
              0.008504285477101803
            ],
            [
              -0.06572961807250977,
              -0.01688169501721859,
              0.01729896478354931
            ],
            [
              -0.05256330594420433,
              0.0020581677090376616,
              -0.04252679646015167
            ],
            [
              0.13761185109615326,
              -0.020518803969025612,
              -0.03349706903100014
            ],
            [
              0.045132752507925034,
              -0.013691364787518978,
              0.05069906264543533
            ],
            [
              0.002310004783794284,
              -0.11375328153371811,
              -0.009053203277289867
            ],
            [
              -0.07500146329402924,
              -0.20070591568946838,
              -0.08468534052371979
            ],
            [
              0.09263047575950623,
              -0.05860151723027229,
              0.010675298050045967
            ],
            [
              0.05080172047019005,
              0.05037958174943924,
              -0.03537755832076073
            ],
            [
              -0.009172512218356133,
              0.04190416261553764,
              0.044392962008714676
            ],
            [
              0.004421610850840807,
              0.04234941303730011,
              -0.0073929158970713615
            ],
            [
              0.07194314152002335,
              0.10020807385444641,
              -0.01894950680434704
            ],
            [
              0.05020301789045334,
              0.29174283146858215,
              0.030526721850037575
            ],
            [
              -0.07085297256708145,
              -0.11292146146297455,
              0.06306935101747513
            ],
            [
              0.01401898730546236,
              0.18654130399227142,
              0.11143090575933456
            ],
            [
              0.007465677801519632,
              -0.001246853731572628,
              0.06598230451345444
            ],
            [
              0.04593530297279358,
              0.07748354971408844,
              0.04017443209886551
            ],
            [
              -0.013754419051110744,
              -0.03683071956038475,
              0.05514535307884216
            ]
          ],
          [
            [
              0.053394630551338196,
              -0.1449679434299469,
              -0.06509841978549957
            ],
            [
              0.04112924262881279,
              0.054843731224536896,
              -0.04395788535475731
            ],
            [
              0.01231246069073677,
              0.02777772955596447,
              -0.01825367659330368
            ],
            [
              0.09000169485807419,
              -0.10467171669006348,
              -0.06780444085597992
            ],
            [
              -0.08808854967355728,
              -0.004068358335644007,
              0.07211435586214066
            ],
            [
              0.027584681287407875,
              0.05351933836936951,
              0.07918747514486313
            ],
            [
              0.033018242567777634,
              0.13947470486164093,
              0.011587077751755714
            ],
            [
              -0.04717463254928589,
              -0.050279006361961365,
              -0.09701435267925262
            ],
            [
              0.02683788165450096,
              -0.04664519429206848,
              0.020841576159000397
            ],
            [
              -0.005676674656569958,
              0.011624196544289589,
              0.040096115320920944
            ],
            [
              0.11884017288684845,
              -0.09034261852502823,
              0.0027192046400159597
            ],
            [
              -0.05391983315348625,
              -0.09004664421081543,
              0.027707699686288834
            ],
            [
              -0.011306445114314556,
              -0.2575463056564331,
              -0.08864089101552963
            ],
            [
              -0.13955384492874146,
              0.20202991366386414,
              0.14923757314682007
            ],
            [
              -0.025991417467594147,
              -0.0634826123714447,
              0.0008663959451951087
            ],
            [
              -0.04757554456591606,
              0.027038194239139557,
              -0.015723567456007004
            ],
            [
              0.12695534527301788,
              -0.02101946249604225,
              -0.0806221067905426
            ],
            [
              0.003858620999380946,
              0.02272498793900013,
              0.003269805805757642
            ]
          ],
          [
            [
              -0.1825295239686966,
              -0.02064814791083336,
              0.21977247297763824
            ],
            [
              0.04663163423538208,
              0.1549960821866989,
              -0.04877585545182228
            ],
            [
              0.0845441147685051,
              0.12066108733415604,
              -0.10797582566738129
            ],
            [
              -0.17949779331684113,
              -0.2714236378669739,
              0.29902130365371704
            ],
            [
              0.06840452551841736,
              0.029842741787433624,
              -0.11443671584129333
            ],
            [
              0.048340532928705215,
              0.057100724428892136,
              -0.09071558713912964
            ],
            [
              -0.07644817978143692,
              -0.23071755468845367,
              0.0609489269554615
            ],
            [
              -0.08140115439891815,
              -0.19041995704174042,
              0.21511761844158173
            ],
            [
              -0.0916040912270546,
              -0.08067953586578369,
              0.19565214216709137
            ],
            [
              -0.08594643324613571,
              -0.15136945247650146,
              -0.03235697001218796
            ],
            [
              -0.22746463119983673,
              -0.11750789731740952,
              0.34149324893951416
            ],
            [
              -0.07187043130397797,
              -0.14705228805541992,
              0.09636947512626648
            ],
            [
              -0.10359326004981995,
              0.19063274562358856,
              0.0949072316288948
            ],
            [
              0.18109863996505737,
              0.08598820865154266,
              -0.29751479625701904
            ],
            [
              0.008708161301910877,
              0.22726725041866302,
              -0.19388526678085327
            ],
            [
              0.11523192375898361,
              0.09674658626317978,
              -0.12430388480424881
            ],
            [
              -0.17944875359535217,
              -0.022214112803339958,
              0.15222446620464325
            ],
            [
              0.08173153549432755,
              0.10846725851297379,
              -0.18027029931545258
            ]
          ],
          [
            [
              -0.058968622237443924,
              -0.017570560798048973,
              0.08089928328990936
            ],
            [
              -0.003070313250645995,
              0.0748911127448082,
              -0.027804503217339516
            ],
            [
              0.005630936939269304,
              0.07276281714439392,
              -0.03738429769873619
            ],
            [
              -0.0720403864979744,
              -0.13127748668193817,
              0.009442334063351154
            ],
            [
              0.03581094741821289,
              0.020193418487906456,
              0.0358504094183445
            ],
            [
              0.06896953284740448,
              -0.031048282980918884,
              -0.04651937633752823
            ],
            [
              -0.05066265910863876,
              -0.09518628567457199,
              -0.008892840705811977
            ],
            [
              -0.07044553756713867,
              -0.040667206048965454,
              0.03690814599394798
            ],
            [
              -0.10004764795303345,
              -0.08604709804058075,
              -0.01770893484354019
            ],
            [
              -0.07973739504814148,
              -0.05497812479734421,
              0.050231147557497025
            ],
            [
              -0.11223148554563522,
              -0.04417836666107178,
              0.10369688272476196
            ],
            [
              -0.03267692029476166,
              0.04194179177284241,
              0.05220775678753853
            ],
            [
              -0.01329806074500084,
              0.06790701299905777,
              0.07953830808401108
            ],
            [
              0.09663069993257523,
              0.04714271426200867,
              -0.0711294412612915
            ],
            [
              0.02500174380838871,
              0.10717707872390747,
              -0.020273258909583092
            ],
            [
              -0.01615576073527336,
              -0.02523009665310383,
              -0.09602901339530945
            ],
            [
              -0.08457957953214645,
              -0.03591703623533249,
              0.01976846344769001
            ],
            [
              0.034632958471775055,
              0.05713020637631416,
              0.003839068813249469
            ]
          ],
          [
            [
              -0.03682480752468109,
              0.11637862026691437,
              0.046137142926454544
            ],
            [
              0.06394844502210617,
              -0.09927378594875336,
              -0.033738914877176285
            ],
            [
              0.0035152181517332792,
              -0.07997678965330124,
              -0.01915377750992775
            ],
            [
              -0.029370054602622986,
              0.12529346346855164,
              0.1783798784017563
            ],
            [
              0.07827626913785934,
              -0.08271774649620056,
              -0.0779971107840538
            ],
            [
              0.059116821736097336,
              -0.14025968313217163,
              -0.002604809356853366
            ],
            [
              -0.04652302339673042,
              -0.051417697221040726,
              0.05062729865312576
            ],
            [
              -0.03357057273387909,
              0.02060331404209137,
              0.1332305669784546
            ],
            [
              -0.038228511810302734,
              0.020783454179763794,
              0.0001339441805612296
            ],
            [
              -0.06447487324476242,
              0.04262913763523102,
              0.01975117065012455
            ],
            [
              -0.08701669424772263,
              0.1895517110824585,
              0.10254401713609695
            ],
            [
              -0.07427258789539337,
              0.0367441400885582,
              -0.007245908956974745
            ],
            [
              -0.06959362328052521,
              0.11459216475486755,
              0.10875152051448822
            ],
            [
              0.05153653770685196,
              -0.05598277598619461,
              -0.08428990840911865
            ],
            [
              0.032402001321315765,
              -0.0056795463897287846,
              -0.0602886788547039
            ],
            [
              0.10352475196123123,
              -0.02154536359012127,
              -0.06573335081338882
            ],
            [
              -0.1688450574874878,
              0.0040494585409760475,
              0.10853937268257141
            ],
            [
              0.06163373216986656,
              -0.07551119476556778,
              0.015244415029883385
            ]
          ],
          [
            [
              0.05779034271836281,
              -0.003902994329109788,
              -0.12160679697990417
            ],
            [
              -0.10913334041833878,
              -0.06959903240203857,
              0.005857812240719795
            ],
            [
              -0.09073036164045334,
              0.012213029898703098,
              -0.00047442008508369327
            ],
            [
              0.08208568394184113,
              -0.03888757526874542,
              0.04634135961532593
            ],
            [
              -0.06961674243211746,
              -0.039768096059560776,
              0.04822075366973877
            ],
            [
              -0.0911005511879921,
              0.06448525935411453,
              -0.007367915939539671
            ],
            [
              -0.04212997853755951,
              0.058726463466882706,
              0.039648059755563736
            ],
            [
              -0.010252135805785656,
              -0.06793483346700668,
              -0.007430842146277428
            ],
            [
              0.09465097635984421,
              -0.021445870399475098,
              -0.01743609830737114
            ],
            [
              -0.068656787276268,
              -0.007592637091875076,
              0.08844562619924545
            ],
            [
              0.08102672547101974,
              -0.017012547701597214,
              -0.01410861685872078
            ],
            [
              0.05126235634088516,
              0.030534446239471436,
              0.01882440410554409
            ],
            [
              0.11750275641679764,
              -0.017098231241106987,
              -0.12135917693376541
            ],
            [
              -0.11992662400007248,
              0.005359943490475416,
              0.11133047193288803
            ],
            [
              0.019562166184186935,
              -0.01365030650049448,
              -0.02285202406346798
            ],
            [
              -0.06324485689401627,
              -0.0047821481712162495,
              0.04634251445531845
            ],
            [
              0.11436477303504944,
              -0.05433639511466026,
              0.0031514912843704224
            ],
            [
              -0.0993056669831276,
              -0.04993916302919388,
              -0.05064530670642853
            ]
          ]
        ],
        "conv_bias": [
          0.05783172324299812,
          0.04280823841691017,
          -0.054408494383096695,
          0.04024185240268707,
          0.06154673174023628,
          -0.11343713104724884,
          -0.04358452185988426,
          0.032616596668958664,
          -0.0006405080202966928,
          0.11000688374042511,
          -0.0849575623869896,
          0.05852029100060463,
          0.09549281746149063,
          -0.04395377263426781,
          -0.06126537173986435,
          0.03402794525027275,
          -0.003380468348041177,
          -0.016285428777337074
        ]
      },
      {
        "layer": 2,
        "dilation": 4,
        "conv_weight": [
          [
            [
              -0.07879970222711563,
              -0.03636093810200691,
              0.014090261422097683
            ],
            [
              0.1405223309993744,
              -0.005544776096940041,
              -0.04256094619631767
            ],
            [
              -0.025265228003263474,
              -0.06486783921718597,
              -0.09147549420595169
            ],
            [
              -0.017932262271642685,
              0.14610326290130615,
              0.06990400701761246
            ],
            [
              0.0014758782926946878,
              0.007491652388125658,
              0.05480778589844704
            ],
            [
              0.14749877154827118,
              -0.03408728167414665,
              -0.1463225930929184
            ],
            [
              -0.047057196497917175,
              -0.05821635574102402,
              0.03879154846072197
            ],
            [
              -0.11106845736503601,
              0.018638860434293747,
              0.13532382249832153
            ],
            [
              0.06379301846027374,
              0.08471690118312836,
              0.003755086800083518
            ],
            [
              0.011074867099523544,
              0.004627264570444822,
              0.02029767632484436
            ],
            [
              0.2335367649793625,
              0.26667580008506775,
              0.10113395750522614
            ],
            [
              -0.05376717075705528,
              0.12020417302846909,
              0.021750545129179955
            ],
            [
              -0.2480114996433258,
              -0.07711353152990341,
              0.06480488926172256
            ],
            [
              0.25037580728530884,
              -0.02439291961491108,
              -0.09851175546646118
            ],
            [
              0.10299842059612274,
              0.014503026381134987,
              -0.051237739622592926
            ],
            [
              0.10513909161090851,
              0.06297236680984497,
              -0.048015277832746506
            ],
            [
              -0.09842861443758011,
              0.10214471817016602,
              0.13875901699066162
            ],
            [
              0.024424243718385696,
              -0.018766306340694427,
              0.02134695276618004
            ]
          ],
          [
            [
              0.051751162856817245,
              0.03344966843724251,
              -0.03060697205364704
            ],
            [
              -0.1256234049797058,
              -0.0322619266808033,
              -0.036383479833602905
            ],
            [
              -0.034885965287685394,
              0.07530074566602707,
              -0.01542086061090231
            ],
            [
              0.0742696225643158,
              -0.13306494057178497,
              -0.038644563406705856
            ],
            [
              0.03617728501558304,
              0.012919929809868336,
              0.014596623368561268
            ],
            [
              -0.02095368504524231,
              0.15053394436836243,
              0.008870670571923256
            ],
            [
              0.02819262072443962,
              0.027130546048283577,
              -0.11661359667778015
            ],
            [
              0.07517967373132706,
              0.016704820096492767,
              -0.06966976076364517
            ],
            [
              0.1053825244307518,
              -0.11545752733945847,
              0.16080047190189362
            ],
            [
              0.015353954397141933,
              0.0408763587474823,
              0.011982982978224754
            ],
            [
              0.04725697636604309,
              -0.3870854377746582,
              0.26519131660461426
            ],
            [
              0.031662680208683014,
              -0.06754228472709656,
              0.007644230034202337
            ],
            [
              0.15075832605361938,
              -0.07930978387594223,
              0.023015683516860008
            ],
            [
              -0.13232895731925964,
              0.14499850571155548,
              0.0016152546741068363
            ],
            [
              0.02956605702638626,
              -0.15688669681549072,
              0.20894530415534973
            ],
            [
              -0.08332237601280212,
              -0.06233998015522957,
              0.053205765783786774
            ],
            [
              0.1686558574438095,
              -0.06156225875020027,
              -0.013699167408049107
            ],
            [
              -0.11025072634220123,
              0.0750611200928688,
              -0.06194324046373367
            ]
          ],
          [
            [
              0.022793682292103767,
              -0.021568330004811287,
              -0.04300607368350029
            ],
            [
              -0.019925212487578392,
              0.017023485153913498,
              0.01719537004828453
            ],
            [
              -0.13252046704292297,
              -0.12812764942646027,
              -0.01662297546863556
            ],
            [
              0.09254039078950882,
              0.09011371433734894,
              -0.053973741829395294
            ],
            [
              -0.07619956880807877,
              0.07611589878797531,
              0.02517508901655674
            ],
            [
              -0.11566431075334549,
              -0.02108958549797535,
              0.008304161950945854
            ],
            [
              0.156010702252388,
              0.06362488120794296,
              -0.07683677226305008
            ],
            [
              0.12545248866081238,
              0.010587952099740505,
              -0.06701342761516571
            ],
            [
              -0.029145102947950363,
              0.04314994812011719,
              0.13051573932170868
            ],
            [
              0.1122966781258583,
              0.07779160887002945,
              0.004565611016005278
            ],
            [
              0.14348822832107544,
              0.08515716344118118,
              0.16323183476924896
            ],
            [
              -0.0072195702232420444,
              0.08622677624225616,
              0.08863304555416107
            ],
            [
              -0.08712557703256607,
              -0.26558101177215576,
              -0.010170428082346916
            ],
            [
              -0.015090422704815865,
              0.09459159523248672,
              0.09206061065196991
            ],
            [
              -0.02308124117553234,
              -0.16742585599422455,
              0.09727875143289566
            ],
            [
              0.046411026269197464,
              -0.07546897232532501,
              0.03678649663925171
            ],
            [
              0.10510439425706863,
              -0.048140931874513626,
              0.005220661871135235
            ],
            [
              0.0037139758933335543,
              -0.03778140991926193,
              -0.07169000059366226
            ]
          ],
          [
            [
              -0.06835512816905975,
              0.03335671126842499,
              0.0944652259349823
            ],
            [
              0.05556482821702957,
              -0.040933798998594284,
              -0.07969176769256592
            ],
            [
              0.11744669824838638,
              0.11138073354959488,
              -0.06399337947368622
            ],
            [
              -0.07316084951162338,
              -0.1729707270860672,
              0.08432924002408981
            ],
            [
              0.013076634146273136,
              -0.08766534179449081,
              -0.027100944891572
            ],
            [
              0.0628996416926384,
              0.0272291861474514,
              -0.03742720186710358
            ],
            [
              -0.11719176918268204,
              0.04259452223777771,
              -0.03511255234479904
            ],
            [
              -0.05734376609325409,
              0.0821055993437767,
              0.025317084044218063
            ],
            [
